tree
version=v3
num_class=1
num_tree_per_iteration=1
label_index=0
max_feature_idx=22
objective=regression
feature_names=f_0 f_1 f_2 f_3 f_4 f_5 f_6 f_7 f_8 f_9 f_10 f_11 f_12 f_13 f_14 f_15 f_16 f_17 f_18 f_19 f_20 f_21 f_22
feature_infos=[3.5138360446667107e-07:0.0066553821535006137] [2.5600331918768856e-06:0.0039732576088439284] [9.2225614268401974e-06:0.0029579505118275174] [0.53000000000000003:6.5599999999999996] [-33.000000000000007:46] [2.4100000000000001:21.82] [-101.00000000000016:144.99999999999994] [-0.15710919088766695:0.17837578087457961] [-81:74] [-46:33.999999999999986] [-51.000000000000021:33.999999999999986] [-33.000000000000007:27.999999999999979] [-41:192.00000000000003] [-36.000000000000007:32.999999999999986] [-0.52000000000000002:2.9100000000000001] [-0.94999999999999996:3.8500000000000001] [-52:73.999999999999972] [-28.000000000000004:24.000000000000004] [-0.29572649572649579:0.64215246636771273] [-0.02958455728073861:0.047292143401983289] [-0.054746473503621829:0.033993115318416534] [-0.039377561323276189:0.045346674363414774] [-0.019984292877423981:0.018327052533256172]
tree_sizes=1841 1869 1868 1873 1900 1867 1880 1884 1884 1877 1891 1874 1888 1887 1879 1923 1923 1918 1935 1944

Tree=0
num_leaves=20
num_cat=0
split_feature=2 15 1 1 15 19 3 21 18 21 13 3 12 3 4 6 22 3 19
split_gain=9.08107 5.46231 3.53422 1.83988 1.3433 1.72142 1.34935 1.44681 1.51724 1.33361 1.21212 0.998049 0.709081 0.759278 0.9 0.69983 0.761051 0.561704 0.546122
threshold=0.00021454633883369949 2.9150000000000005 0.00038902402540016425 8.4653776542144366e-05 0.095000000000000015 0.0012414170029082518 2.0250000000000004 0.0036235632251163667 -0.00068627271132282164 -0.0019185301438402467 0.99999999999998956 3.1250000000000004 -5.0000000000000009 2.3550000000000004 -1.0000000180025095e-35 6.9999999999999627 -0.00088227951229263846 1.155 0.005161950464387167
decision_type=2 2 2 2 2 2 2 2 2 2 2 2 2 2 2 2 2 2 2
left_child=3 4 10 -1 5 -2 -6 12 -9 -4 -3 15 -8 14 -14 -5 -17 -18 -19
right_child=1 2 9 11 6 -7 7 8 -10 -11 -12 -13 13 -15 -16 16 17 18 -20
leaf_value=0.048537625316977133 0.068455757889315405 0.064534189188819507 0.085962761016529193 0.050282732945290773 0.049867522248964888 0.050248474637013062 0.060830485416128954 0.056200855700265749 0.072867522677373273 0.069534189281951764 0.047867522211711984 0.060367522444542632 0.065367522537674888 0.049772284151952846 0.050367522258278112 0.06286752249110876 0.060367522444542632 0.050004274388264235 0.058284189072404194
leaf_weight=1940 34 24 21 973 175 21 27 36 22 30 20 28 20 105 20 20 20 117 24
leaf_count=1940 34 24 21 973 175 21 27 36 22 30 20 28 20 105 20 20 20 117 24
internal_value=0.0503869 0.0564261 0.0673412 0.0494851 0.0541719 0.0615039 0.0531762 0.0556936 0.0625227 0.0762989 0.0569584 0.0510401 0.0533908 0.0520055 0.0578675 0.0508138 0.0536686 0.0525259 0.0514136
internal_weight=0 555 95 3122 460 55 405 230 58 51 44 1182 172 145 40 1154 181 161 141
internal_count=3677 555 95 3122 460 55 405 230 58 51 44 1182 172 145 40 1154 181 161 141
is_linear=0
shrinkage=1


Tree=1
num_leaves=20
num_cat=0
split_feature=2 2 3 1 18 21 14 5 14 9 2 3 1 2 3 3 19 1 5
split_gain=8.20533 2.46525 3.61389 1.77595 1.60427 1.41635 1.78118 1.02463 2.08895 2.52196 0.792995 0.713368 0.680996 1.42339 0.723334 1.38993 1.31774 0.87906 0.723186
threshold=0.00022948028557848781 0.0011109579304333353 6.0750000000000002 8.4653776542144366e-05 0.033957259396426694 0.001636455837307649 1.6950000000000001 6.5250000000000012 1.2350000000000001 1.5000000000000349 0.00033986550337901535 3.1250000000000004 0.0005691685285342925 0.00053789099948906786 2.5850000000000004 1.8650000000000004 -0.0048321490010424508 0.00031067803756707407 7.7550000000000008
decision_type=2 2 2 2 2 2 2 2 2 2 2 2 2 2 2 2 2 2 2
left_child=3 4 -3 -1 12 10 -7 -5 9 -9 -6 -10 13 14 15 16 -2 18 -17
right_child=1 2 -4 7 5 6 -8 8 11 -11 -12 -13 -14 -15 -16 17 -18 -19 -20
leaf_value=-0.0017567782403574775 0.012281981091946365 0.030958130534576335 0.0018969678040593862 -0.0004181232406594551 0.012068238680561385 0.0076314488813901951 0.027570998021179724 0.0049465856910364267 0.00011429768230847805 0.024986901842057707 0.001619291580889536 0.0079451655794400729 -0.0012203916961300201 0.014250905520748348 -0.00173583642890056 0.011572988251490253 -0.0019666807639390923 0.01482604661335548 -0.00090221845759795279
leaf_weight=1940 20 23 20 776 30 24 21 73 319 20 46 32 69 32 60 21 86 39 26
leaf_count=1940 20 23 20 776 30 24 21 73 319 20 46 32 69 32 60 21 86 39 26
internal_value=0 0.005978 0.0174413 -0.000816794 0.00493808 0.00990645 0.0169366 0.000677936 0.00259357 0.00925633 0.00574388 0.000828223 0.00323504 0.00431752 0.00305613 0.00455362 0.000721746 0.00927664 0.00467181
internal_weight=0 517 43 3160 474 121 45 1220 444 93 76 351 353 284 252 192 106 86 47
internal_count=3677 517 43 3160 474 121 45 1220 444 93 76 351 353 284 252 192 106 86 47
is_linear=0
shrinkage=0.05


Tree=2
num_leaves=20
num_cat=0
split_feature=2 15 13 1 2 15 3 5 0 7 1 5 7 5 14 9 5 3 6
split_gain=7.40531 5.43057 3.10635 1.60279 1.47798 1.31725 1.35759 1.11498 1.09371 1.02644 1.78432 1.95193 0.95037 0.924727 1.88527 2.27607 0.647276 0.643814 0.58204
threshold=0.00022948028557848781 2.8750000000000004 -1.0000000180025095e-35 8.4653776542144366e-05 0.00036358178136183789 0.095000000000000015 2.1950000000000007 7.7550000000000008 0.00039292612916385034 -0.0055534806917958415 0.00050838497951248996 9.2950000000000017 0.028590904163035228 6.5250000000000012 1.2350000000000001 1.5000000000000349 7.6250000000000009 3.1250000000000004 2.0000000000000244
decision_type=2 2 2 2 2 2 2 2 2 2 2 2 2 2 2 2 2 2 2
left_child=3 5 4 -1 -3 7 -7 -2 -4 10 11 -8 -11 18 15 16 -15 -16 -5
right_child=1 2 8 13 -6 6 9 -9 -10 12 -12 -13 -14 14 17 -17 -18 -19 -20
leaf_value=-0.0016689392428883574 0.018481350041925908 0.036190509104302958 -0.00050271030160642805 -0.0013496291120296228 0.017645917731252583 -0.0008943576972151911 0.0066855662000867046 0.0039537858217954637 0.01583486464805901 -0.0003083652145760034 0.0011640401204695574 0.027180863411298824 0.0098005569990604162 0.00934337980642512 0.00010858266074268797 0.023737556207925083 -7.3870255922277777e-05 0.0075479070423170929 0.0015716030177744954
leaf_weight=1940 25 21 21 523 22 172 26 28 20 93 37 21 31 37 319 20 36 32 253
leaf_count=1940 25 21 21 523 22 172 26 28 20 93 37 21 31 37 319 20 36 32 253
internal_value=0 0.0056791 0.0173137 -0.000775954 0.0267026 0.00342204 0.00239211 0.0108064 0.00746684 0.00510977 0.00937729 0.015843 0.00221887 0.000644039 0.00246389 0.00879351 0.00469926 0.000786812 -0.000397217
internal_weight=0 517 84 3160 43 433 380 53 41 208 84 47 124 1220 444 93 73 351 776
internal_count=3677 517 84 3160 43 433 380 53 41 208 84 47 124 1220 444 93 73 351 776
is_linear=0
shrinkage=0.05


Tree=3
num_leaves=20
num_cat=0
split_feature=1 15 1 1 2 3 5 6 15 21 3 3 1 5 10 3 8 13 14
split_gain=6.70021 3.41994 2.88839 1.77462 1.86492 1.72294 1.17606 1.17883 1.72053 1.16051 1.11843 1.3647 0.767008 0.765926 1.75378 0.698588 0.616788 1.4407 0.609859
threshold=0.00027566130516974247 2.9150000000000005 0.00038902402540016425 0.000431001232881904 0.00044812312785765044 1.5450000000000002 7.4250000000000007 5.9999999999999174 2.0850000000000004 -0.0019185301438402467 3.8800000000000003 5.5750000000000011 9.4936300278312307e-05 2.5950000000000002 -1.0000000180025095e-35 1.7850000000000004 1.0000000000000122 -1.2499999999999953 2.3250000000000006
decision_type=2 2 2 2 2 2 2 2 2 2 2 2 2 2 2 2 2 2 2
left_child=5 3 -3 4 6 13 -2 8 -8 -4 -5 -12 -7 14 -1 18 -17 -18 -14
right_child=1 2 9 10 -6 12 7 -9 -10 -11 11 -13 15 -15 -16 16 17 -19 -20
leaf_value=0.015020754358366781 -0.0015015141735243243 0.0021460633510007308 0.031638201787358239 -0.0028899011348246361 0.019710475447829126 -0.00049429335631430156 0.018922436482420094 -0.00090122013352811337 0.0024148259863809307 0.016312901216248673 0.016376537047326566 0.00044538114765068379 0.0033628019330979781 -0.0015740226082677066 -0.0023066415451467037 9.583971013051761e-05 0.014852415151894095 -0.00037644102079112358 0.010691294928683955
leaf_weight=23 43 26 21 102 27 464 38 24 27 30 20 41 172 2150 40 329 25 41 34
leaf_count=23 43 26 21 102 27 464 38 24 27 30 20 41 172 2150 40 329 25 41 34
internal_value=0 0.00624273 0.0157089 0.00397908 0.00773737 -0.000619578 0.00528832 0.0085688 0.0120654 0.0226233 0.000313015 0.00566871 0.00103283 -0.00141479 0.00401923 0.00221184 0.000980779 0.00539207 0.00457236
internal_weight=0 399 77 322 159 3278 132 89 65 51 163 61 1065 2213 63 601 395 66 206
internal_count=3677 399 77 322 159 3278 132 89 65 51 163 61 1065 2213 63 601 395 66 206
is_linear=0
shrinkage=0.05


Tree=4
num_leaves=20
num_cat=0
split_feature=2 15 1 3 1 15 19 4 13 3 7 7 21 20 6 0 21 20 16
split_gain=6.09142 3.82815 2.46471 1.86538 1.25838 1.03588 1.48407 0.961491 0.947779 0.747167 0.711376 0.945968 0.633595 0.597091 0.583443 0.732808 0.540846 0.68908 0.505994
threshold=0.00021454633883369949 2.8750000000000004 0.00041659036141107858 2.0850000000000004 8.4653776542144366e-05 0.095000000000000015 0.0012414170029082518 1.2500000000000291 4.999999999999992 3.1250000000000004 -0.0055534806917958415 -0.0086654296459570661 -0.0029894753260061853 -0.00040663025995479879 6.9999999999999627 7.797942580290706e-05 -0.0013199256995922724 0.0008247098867957271 -1.0000000000000118
decision_type=2 2 2 2 2 2 2 2 2 2 2 2 2 2 2 2 2 2 2
left_child=4 5 3 -3 -1 6 -2 -4 10 14 11 18 13 -12 -6 -16 -17 -18 -7
right_child=1 2 7 -5 9 8 -8 -9 -10 -11 12 -13 -14 -15 15 16 17 -19 -20
leaf_value=-0.0015227868446369762 0.01590027801473351 0.017220928155533648 0.030568000655621291 -0.0017054520547389986 -0.00013391580930379777 0.0054472903173197716 -0.0010052555817223732 0.015985909777765091 0.0097524122108478811 0.0086171741597354419 -0.0029806758537888529 0.014077707687392832 -0.0025235521458629251 0.0065832835324901211 0.009233969903072797 -0.0019862349624886659 0.0014039947265951798 0.012166739078238606 -0.00069837070380647981
leaf_weight=1940 34 23 20 30 973 68 21 26 37 28 25 20 138 47 37 66 58 20 66
leaf_count=1940 34 23 20 30 973 68 21 26 37 28 25 20 138 47 37 66 58 20 66
internal_value=0 0.00494554 0.0138577 0.00650788 -0.000739236 0.00301066 0.00944544 0.0223259 0.00212809 0.000546796 0.00135309 0.00393427 -0.000539775 0.00326246 0.000350981 0.00295763 0.00134497 0.00416367 0.00242032
internal_weight=0 555 99 53 3122 456 55 46 401 1182 364 154 210 72 1154 181 144 78 134
internal_count=3677 555 99 53 3122 456 55 46 401 1182 364 154 210 72 1154 181 144 78 134
is_linear=0
shrinkage=0.05


Tree=5
num_leaves=20
num_cat=0
split_feature=3 1 3 1 14 1 12 4 1 8 2 14 5 16 4 6 14 11 14
split_gain=4.41653 1.67044 1.61978 1.25293 1.32489 0.572903 0.867215 0.778659 0.774597 0.960329 0.746312 0.523728 1.4825 1.4588 0.936077 0.790727 0.508207 0.506433 0.607845
threshold=4.4350000000000014 8.4653776542144366e-05 5.9650000000000007 0.00092014798587458418 1.925 0.00027566130516974247 -1.9999999999999682 -1.0000000000000118 0.00015639894608797034 -6.0000000000000018 0.00067078586548043279 1.2350000000000001 6.7250000000000005 0.75000000000000633 1.9999999999999853 6.9999999999999627 -0.12499999999999999 -1.5000000000000344 1.7950000000000002
decision_type=2 2 2 2 2 2 2 2 2 2 2 2 2 2 2 2 2 2 2
left_child=1 16 3 4 -2 8 7 -7 9 -3 17 12 14 -14 15 -11 -1 -9 -19
right_child=2 5 -4 -5 -6 6 -8 10 -10 11 -12 -13 13 -15 -16 -17 -18 18 -20
leaf_value=0.0028929211449489666 0.018256568404225012 0.0097441758669447164 0.00045894968012968705 0.024228609649633821 0.0018097313120961191 0.011030518361884687 -0.0017673917161300781 -0.00083168324740494001 -0.0012441069004361077 -0.0005633374566136692 0.011688921575180511 -0.00026682135574091441 0.00332496444384257 0.020758176902309064 0.0097863241231867255 0.0087300614342093463 -0.001538079177002878 0.0021459128591232004 0.01178008041090586
leaf_weight=67 24 32 30 22 25 36 80 85 495 271 22 435 30 20 28 25 1894 64 22
leaf_count=67 24 32 30 22 25 36 80 85 495 271 22 435 30 20 28 25 1894 64 22
internal_value=0 -0.000401053 0.0102 0.0143159 0.00986532 0.000773921 0.00271414 0.00427975 0.000325172 0.00124883 0.00302054 0.000912793 0.0022848 0.0102982 0.00104816 0.000221578 -0.00138669 0.0019053 0.00461047
internal_weight=0 3606 101 71 49 1645 309 229 1336 841 193 809 374 50 324 296 1961 171 86
internal_count=3707 3606 101 71 49 1645 309 229 1336 841 193 809 374 50 324 296 1961 171 86
is_linear=0
shrinkage=0.05


Tree=6
num_leaves=20
num_cat=0
split_feature=3 1 3 1 15 1 12 1 14 6 19 5 1 8 14 5 16 4 5
split_gain=3.98592 1.50757 1.46185 1.13077 1.39775 0.517045 0.782662 0.722515 1.27128 1.05086 1.40219 1.05168 0.699074 0.866697 0.472665 1.33796 1.31657 0.845883 0.686863
threshold=4.4350000000000014 8.4653776542144366e-05 5.9650000000000007 0.00092014798587458418 2.6125000000000003 0.00027566130516974247 -1.9999999999999682 0.00041659036141107858 1.9150000000000003 6.0000000000000284 0.0015400324872644202 7.4250000000000007 0.00015639894608797034 -6.0000000000000018 1.2350000000000001 6.7250000000000005 0.75000000000000633 1.0000000180025095e-35 4.7650000000000006
decision_type=2 2 2 2 2 2 2 2 2 2 2 2 2 2 2 2 2 2 2
left_child=1 -1 3 4 -2 12 7 9 -9 10 11 -7 13 -3 15 17 -17 -15 -19
right_child=2 5 -4 -5 -6 6 -8 8 -10 -11 -12 -13 -14 14 -16 16 -18 18 -20
leaf_value=-0.0013173541365678612 0.018350667425471805 0.009256966982502491 0.00043600218991438544 0.023017179000784052 0.0014294430470237365 0.005729496041312814 -0.001679022111929953 -0.0027603760982553168 0.0085435493113963229 0.00028525382825514168 0.00041151738911867144 0.020259935984557328 -0.0011819015544923869 -0.00055213027912730413 -0.00025348025834423369 0.0031587162800133226 0.019720268510282041 0.0083538522333677489 -0.0010705030555355139
leaf_weight=1961 23 32 30 22 26 20 80 72 38 41 25 33 495 237 435 30 20 58 29
leaf_count=1961 23 32 30 22 26 20 80 72 38 41 25 33 495 237 435 30 20 58 29
internal_value=0 -0.000381 0.00968999 0.0136001 0.00937206 0.000735225 0.00257844 0.00406576 0.00114462 0.00676598 0.0101725 0.0147768 0.000308914 0.00118639 0.000867153 0.00217056 0.00978334 0.000995753 0.0052124
internal_weight=0 3606 101 71 49 1645 309 229 110 119 78 53 1336 841 809 374 50 324 87
internal_count=3707 3606 101 71 49 1645 309 229 110 119 78 53 1336 841 809 374 50 324 87
is_linear=0
shrinkage=0.05


Tree=7
num_leaves=20
num_cat=0
split_feature=3 1 3 10 12 3 14 3 4 14 3 2 15 14 2 10 3 9 3
split_gain=3.59729 1.36058 1.31932 1.07053 0.678213 0.493703 0.776768 0.633356 0.581357 0.537376 0.500624 0.654459 1.69327 0.925309 3.04356 0.884579 0.630352 0.594524 0.78731
threshold=4.4350000000000014 8.4653776542144366e-05 5.9650000000000007 3.9999999999999707 -2.249999999999996 1.5450000000000002 0.25500000000000006 2.5050000000000003 1.9999999999999853 -0.22499999999999998 1.5750000000000004 0.00021233812900653472 2.9250000000000003 1.2350000000000001 0.00014011816530469721 -1.0000000180025095e-35 1.7550000000000001 -8.9999999999999627 1.9950000000000003
decision_type=2 2 2 2 2 2 2 2 2 2 2 2 2 2 2 2 2 2 2
left_child=1 -1 3 4 -2 6 8 9 -3 -7 -11 13 17 14 -12 -14 -15 -13 -19
right_child=2 5 -4 -5 -6 7 -8 -9 -10 10 11 12 15 16 -16 -17 -18 18 -20
leaf_value=-0.0012514864764670704 0.011310705932026561 0.00081794608681314245 0.00041420205806692444 0.0048429214395582683 0.023590298976911152 -0.002743117982205355 -0.0016920963266348265 -0.0012355214836341994 0.0074922819798057157 0.0097341382633084842 0.01656979924171335 -0.0038280963082797828 0.0062230100482702257 0.002744552297359806 -0.0031357630220956584 0.02109394555911422 -0.0018187309434346114 8.0000887485756278e-05 0.0065996180128569566
leaf_weight=1961 22 276 30 26 23 53 415 175 37 23 36 32 20 118 43 20 211 87 99
leaf_count=1961 22 276 30 26 23 53 415 175 37 23 36 32 20 118 43 20 211 87 99
internal_value=0 -0.00036195 0.00920549 0.0129201 0.0175869 0.000698464 -0.000273698 0.00147026 0.00160693 0.00210841 0.00248161 0.00223114 0.00420218 0.000984755 0.00584399 0.0136585 -0.000182052 0.00246708 0.00355012
internal_weight=0 3606 101 71 45 1645 728 917 313 742 689 666 258 408 79 40 329 218 186
internal_count=3707 3606 101 71 45 1645 728 917 313 742 689 666 258 408 79 40 329 218 186
is_linear=0
shrinkage=0.05


Tree=8
num_leaves=20
num_cat=0
split_feature=3 1 3 1 15 14 3 17 3 14 3 9 16 4 22 14 1 5 0
split_gain=3.24656 1.22793 1.19068 1.02114 1.24374 0.458657 0.460913 0.591828 0.445567 0.701033 0.571604 0.548016 0.679639 0.776758 0.550135 0.484982 0.457841 1.19108 1.71488
threshold=4.4350000000000014 8.4653776542144366e-05 5.9650000000000007 0.00092014798587458418 2.6125000000000003 -0.12499999999999999 1.675 -1.0000000180025095e-35 1.5450000000000002 0.25500000000000006 2.5050000000000003 3.0000000000000142 1.0000000000000007 0.99999999999999545 -3.6243483724995855e-05 -0.22499999999999998 0.00029160087980803414 8.8850000000000033 0.00040928595257693927
decision_type=2 2 2 2 2 2 2 2 2 2 2 2 2 2 2 2 2 2 2
left_child=1 5 3 4 -2 6 7 -1 9 11 15 12 14 -14 -3 -10 -17 -18 -19
right_child=2 8 -4 -5 -6 -7 -8 -9 10 -11 -12 -13 13 -15 -16 16 17 18 -20
leaf_value=0.00020201322622597219 0.016725768974941709 0.0076369982013212781 0.00039349196478724482 0.021223023415289144 0.00076395193687998344 -0.0013327331872265531 -0.0021709453314542773 0.012365765618160367 -0.0026059620820407599 -0.0016074915086648552 -0.0011737453777875221 -0.0018999354300253532 0.0030743434663034149 0.015174455452887786 -2.7008296049141385e-05 0.0016486841801462418 0.0015355306390959483 0.021875920466014318 0.0038026445358991623
leaf_weight=20 23 28 30 22 26 1894 27 20 53 415 175 85 36 21 143 529 104 21 35
leaf_count=20 23 28 30 22 26 1894 27 20 53 415 175 85 36 21 143 529 104 21 35
internal_value=0 -0.000343852 0.00874521 0.0122741 0.00825623 -0.00118891 0.00287672 0.00628389 0.000663541 -0.000260013 0.00139674 0.00152658 0.00280401 0.00753228 0.00122792 0.00200299 0.00235753 0.00470114 0.0105801
internal_weight=0 3606 101 71 49 1961 67 40 1645 728 917 313 228 57 171 742 689 160 56
internal_count=3707 3606 101 71 49 1961 67 40 1645 728 917 313 228 57 171 742 689 160 56
is_linear=0
shrinkage=0.05


Tree=9
num_leaves=20
num_cat=0
split_feature=3 1 3 10 16 14 6 6 5 15 1 21 3 2 3 7 14 20 8
split_gain=2.93002 1.1082 1.07459 0.954637 0.775152 0.418159 0.414142 0.660795 0.670675 0.681202 1.13401 0.567522 0.540979 0.704747 1.6137 0.397027 0.729912 0.552296 0.862088
threshold=4.4350000000000014 8.4653776542144366e-05 5.9650000000000007 3.9999999999999707 -4.2499999999999973 -0.26499999999999996 19.999999999999975 16.500000000000007 6.6550000000000011 2.3150000000000008 0.00010257529705095438 -0.005724526369687565 2.2650000000000001 0.00025615468592144375 1.885 -0.0033448394130954902 1.7750000000000001 0.0017864620474680184 -0.99999999999999878
decision_type=2 2 2 2 2 2 2 2 2 2 2 2 2 2 2 2 2 2 2
left_child=1 5 3 4 -2 -1 7 8 -3 10 -10 -12 13 -11 -15 16 17 18 -13
right_child=2 6 -4 -5 -6 -7 -8 -9 9 12 11 15 -14 14 -16 -17 -18 -19 -20
leaf_value=0.005169303371356084 0.0090519698957602195 -0.000280396031456537 0.00037381740286946297 0.0040329522739809293 0.022205863799899819 -0.0012141010740853711 -0.0035956379624881916 0.0075734110921621333 0.014485835131596438 0.00024179334144050978 0.0086700326151081496 -0.00021479883541663486 -0.0025208857915965856 -0.0030869198963046074 0.014182442444707117 0.00033500764495248249 0.012918747290968896 -0.004081613632539908 0.013186759017407896
leaf_weight=26 21 882 30 26 24 1935 56 35 22 196 35 30 113 24 31 157 20 24 20
leaf_count=26 21 882 30 26 24 1935 56 35 22 196 35 30 113 24 31 157 20 24 20
internal_value=0 -0.00032666 0.00830795 0.0116604 0.0160674 -0.00112947 0.000630364 0.000779298 0.000626277 0.00181629 0.00354689 0.00270544 0.000351926 0.00164526 0.00664672 0.00187372 0.0044437 0.00215314 0.00514582
internal_weight=0 3606 101 71 45 1961 1645 1589 1554 672 308 286 364 251 55 251 94 74 50
internal_count=3707 3606 101 71 45 1961 1645 1589 1554 672 308 286 364 251 55 251 94 74 50
is_linear=0
shrinkage=0.05


Tree=10
num_leaves=20
num_cat=0
split_feature=2 15 3 2 21 13 15 7 18 3 3 9 19 12 14 14 2 18 21
split_gain=3.82207 2.89174 1.92972 2.14575 0.958679 1.40292 1.70576 0.935112 0.962277 0.899723 0.658105 0.663059 1.25748 0.613747 0.543191 1.1671 1.33659 1.53932 0.510847
threshold=0.00021454633883369949 2.8750000000000004 1.9650000000000001 0.00072509667545322032 0.00097136827871158193 4.999999999999992 0.16500000000000004 -0.0052008558794232598 0.0071252905203818004 3.1250000000000004 1.5550000000000004 -8.9999999999999893 0.002087862054706902 -0.50000000000002254 1.2350000000000001 -0.18499999999999997 0.00014958479746790502 -0.0097560975609755612 -0.0021482538447079032
decision_type=2 2 2 2 2 2 2 2 2 2 2 2 2 2 2 2 2 2 2
left_child=9 4 -3 13 18 6 -6 8 -8 10 -1 12 -12 -4 15 -13 17 -17 -2
right_child=1 2 3 -5 5 -7 7 -9 -10 -11 11 14 -14 -15 -16 16 -18 -19 -20
leaf_value=-0.0010903882526421915 0.0022780236788094046 0.025155429116317202 0.0086584273539483548 0.019161749897258624 0.01458428094296583 0.01706441720439629 -0.0011613868531726655 -0.0026750978936130806 0.013642402114751546 0.0083755681557314745 -0.0024761512713587803 -0.0023542593706112644 0.013433450729482705 -0.0026492697559297087 -0.0004305108664639756 0.020977756915533025 -0.0016032185624627509 0.0045890836829417629 -0.0019937586355007302
leaf_weight=2206 172 21 20 28 28 22 21 72 23 28 23 65 27 30 678 23 34 38 118
leaf_count=2206 172 21 20 28 28 22 21 72 23 28 23 65 27 30 678 23 34 38 118
internal_value=0 0.00395603 0.0117019 0.00807974 0.00227437 0.00530455 0.00350791 0.000834302 0.00657696 -0.000546982 -0.000627729 0.000521625 0.00611503 0.00187381 0.000187889 0.00280836 0.00634068 0.0107684 0.00053985
internal_weight=0 555 99 78 456 166 144 116 44 3122 3094 888 50 50 838 160 95 61 290
internal_count=3677 555 99 78 456 166 144 116 44 3122 3094 888 50 50 838 160 95 61 290
is_linear=0
shrinkage=0.05


Tree=11
num_leaves=20
num_cat=0
split_feature=2 15 13 0 15 12 5 5 15 21 10 12 5 11 1 3 3 3 18
split_gain=3.46441 3.14467 2.30344 1.44498 0.940083 1.0451 1.01008 0.886688 0.900592 2.12989 1.62147 0.623087 0.617651 1.27839 0.520749 1.22591 0.416036 1.19508 0.33842
threshold=0.00022948028557848781 2.8550000000000004 -1.0000000000000118 0.00056286372351235792 0.095000000000000015 6.4999999999999956 7.7550000000000008 7.3350000000000009 2.0750000000000006 -0.0021482538447079032 -1.0000000180025095e-35 -6.0000000000000018 2.5750000000000006 0.74999999999998412 0.000166153715865929 1.7750000000000001 1.635 1.6650000000000003 0.067338369567023007
decision_type=2 2 2 2 2 2 2 2 2 2 2 2 2 2 2 2 2 2 2
left_child=7 4 -3 -4 6 11 -2 12 9 10 -9 -6 13 -1 -10 -16 -14 -18 -13
right_child=1 2 3 -5 5 -7 -8 8 14 -11 -12 18 16 -15 15 -17 17 -19 -20
leaf_value=0.014352811548113825 0.01553650803923607 0.021381742416666107 -0.0021012476624122688 0.015075660709823881 0.0080974815626442438 0.011041284267604352 0.0018474798418049302 0.005607559848576785 -0.0017953516017300206 0.00036137692350894212 0.024203247607871892 -0.0005282829983949156 -0.0011921345920632117 -0.0018036322725936771 0.013434557847146478 -0.00020176400390586684 0.0086919824205912086 -0.00030996715555694414 0.0049086031983456308
leaf_weight=20 25 39 28 21 25 25 28 27 151 84 20 295 2206 30 21 70 39 492 31
leaf_count=20 25 39 28 21 25 25 28 27 151 84 20 295 2206 30 21 70 39 492 31
internal_value=0 0.00388119 0.012405 0.00526028 0.00213271 0.00126275 0.00830457 -0.000489775 0.00177675 0.00508263 0.0135206 0.000566269 -0.000793117 0.00465895 -1.27928e-05 0.00294508 -0.000892717 0.000351193 -1.12785e-05
internal_weight=0 517 88 49 429 376 53 3160 373 131 47 351 2787 50 242 91 2737 531 326
internal_count=3677 517 88 49 429 376 53 3160 373 131 47 351 2787 50 242 91 2737 531 326
is_linear=0
shrinkage=0.0495


Tree=12
num_leaves=20
num_cat=0
split_feature=2 15 3 2 1 2 3 3 3 1 4 14 14 2 15 7 3 3 1
split_gain=3.12992 2.8439 2.04964 2.14108 1.01445 1.28723 0.802666 0.618449 0.98095 1.1197 0.912021 0.591606 1.39848 1.29407 1.21385 0.582958 0.524256 0.51167 0.599375
threshold=0.00022948028557848781 2.8750000000000004 2.0750000000000006 0.00072509667545322032 0.00044428057153355255 0.00053789099948906786 1.5550000000000004 2.0150000000000001 2.5850000000000004 0.00029888057667890782 1.9999999999999964 1.2350000000000001 -0.18499999999999997 0.00014958479746790502 0.14500000000000005 -0.0027576340206179046 3.1250000000000004 1.7850000000000004 0.00017439684792101235
decision_type=2 2 2 2 2 2 2 2 2 2 2 2 2 2 2 2 2 2 2
left_child=6 4 -3 -4 5 7 -1 10 9 -9 -2 12 -8 14 -14 -16 17 18 -13
right_child=1 2 3 -5 -6 -7 11 8 -10 -11 -12 16 13 -15 15 -17 -18 -19 -20
leaf_value=-0.00097256144690619254 -0.00086605099829946994 0.024007612882065585 -0.0015965989137045108 0.016959148514893437 -0.0012234014277101412 0.014388550744163991 -0.0022096728358324616 0.0034602902996706724 -0.00047200767862996677 0.016010281798406956 0.010152417141715331 0.00077428534259558861 0.0014311470168908791 0.00016647891125793374 0.020900389822684228 0.0095720915137901905 0.0062886731901881281 -0.001212931170608675 0.0088359272196935484
leaf_weight=2211 128 24 32 28 149 25 68 38 41 31 21 287 21 43 24 20 32 430 24
leaf_count=2211 128 24 32 28 149 25 68 38 41 31 21 287 21 43 24 20 32 430 24
internal_value=0 0.00365218 0.0119041 0.00706275 0.00205134 0.00376943 -0.000460876 0.00274442 0.00553143 0.00909869 0.000686887 0.00073126 0.00329549 0.0067617 0.0111247 0.0157512 0.000147425 -0.000117784 0.00139641
internal_weight=0 517 84 60 433 284 3160 259 110 69 149 949 176 108 65 44 773 741 311
internal_count=3677 517 84 60 433 284 3160 259 110 69 149 949 176 108 65 44 773 741 311
is_linear=0
shrinkage=0.049005


Tree=13
num_leaves=20
num_cat=0
split_feature=2 15 13 0 21 13 15 5 15 21 6 7 18 5 9 8 20 1 1
split_gain=2.83067 2.57961 1.9887 1.20967 0.905851 1.35496 1.45872 0.74453 0.794994 1.88804 1.04841 0.734589 0.832845 0.561245 1.06911 0.492395 0.772254 0.807866 0.445043
threshold=0.00022948028557848781 2.8550000000000004 -1.0000000000000118 0.00056286372351235792 0.00097136827871158193 4.999999999999992 0.16500000000000004 7.3350000000000009 2.0750000000000006 -0.0021482538447079032 3.0000000000000031 -0.0062415097867752891 0.011845309420758567 2.5750000000000006 0.50000000000005607 4.0000000000000027 0.0038421404072150893 0.000431001232881904 0.000166153715865929
decision_type=2 2 2 2 2 2 2 2 2 2 2 2 2 2 2 2 2 2 2
left_child=7 4 -3 -4 15 6 -6 13 9 10 -9 12 -8 14 -1 16 -2 -18 -10
right_child=1 2 3 -5 5 -7 11 8 18 -11 -12 -13 -14 -15 -16 -17 17 -19 -20
leaf_value=0.012724023536313404 -0.0023367949207882088 0.019179923245094918 -0.0021031169182850347 0.013300379209658183 0.012910661502680103 0.016299442777726429 -0.0013255108464848902 0.019229536995854394 -0.0016613393019453526 0.00028921378545243559 0.0047080965502599255 -0.0026335288615106202 0.01267544164502467 -0.00079939353396120427 -0.0016494868887349193 0.0055740163840734486 0.008479084840059747 -0.0021708561131084337 0.0026337783896991126
leaf_weight=21 170 39 28 21 28 21 20 25 151 84 22 67 20 2737 29 35 38 30 91
leaf_count=21 170 39 28 21 28 21 20 25 151 84 22 67 20 2737 29 35 38 30 91
internal_value=0 0.00343848 0.011005 0.00449838 0.00188637 0.00483551 0.00305223 -0.000433908 0.00160167 0.00464588 0.0124323 0.00047245 0.00567497 -0.00070634 0.00438739 0.000201154 -0.000588973 0.00378058 -4.62331e-05
internal_weight=0 517 88 49 429 156 135 3160 373 131 47 107 40 2787 50 273 238 68 242
internal_count=3677 517 88 49 429 156 135 3160 373 131 47 107 40 2787 50 273 238 68 242
is_linear=0
shrinkage=0.048515


Tree=14
num_leaves=20
num_cat=0
split_feature=2 15 3 2 1 15 19 3 7 3 3 3 5 9 14 14 2 15 7
split_gain=2.56267 2.33671 1.80551 1.81103 0.885515 1.1409 1.28458 0.911841 1.00471 0.704355 0.621929 0.86728 0.563735 1.12865 0.507745 1.22054 1.16158 1.10938 0.519657
threshold=0.00022948028557848781 2.8750000000000004 2.0750000000000006 0.00072509667545322032 0.000431001232881904 0.095000000000000015 0.00042525082312261381 2.1950000000000007 -0.0055534806917958415 1.5550000000000004 3.8800000000000003 5.5750000000000011 2.5950000000000002 0.50000000000005607 1.2350000000000001 -0.18499999999999997 0.00014958479746790502 0.14500000000000005 -0.0027576340206179046
decision_type=2 2 2 2 2 2 2 2 2 2 2 2 2 2 2 2 2 2 2
left_child=9 4 -3 -4 5 6 -2 -7 -9 12 -6 -12 13 -1 15 -11 17 -17 -19
right_child=1 2 3 -5 10 7 -8 8 -10 14 11 -13 -14 -15 -16 16 -18 18 -20
leaf_value=0.011525428428603225 0.019179719124490666 0.02170383441556108 -0.0016889242409549789 0.015037191336095133 -0.0032730360577993365 -0.00058119686029235067 0.0021714949293086773 0.01147737602379861 0.0017738678879869671 -0.0020266033562754602 0.011057447889116112 -0.0011422311756802636 -0.0010098591573180563 -0.001614670056437196 0.00015568219251303666 0.0011565741475344045 6.3663598480868518e-05 0.019338958318947049 0.0088562147116805854
leaf_weight=25 21 24 32 28 102 125 20 40 64 68 20 41 2148 38 773 21 43 24 20
leaf_count=25 21 24 32 28 102 125 20 40 64 68 20 41 2148 38 773 21 43 24 20
internal_value=0 0.00323894 0.0105701 0.0061166 0.00181673 0.00350436 0.010883 0.00218329 0.00550599 -0.000408728 -0.000978725 0.00285766 -0.000878516 0.00359965 0.000685794 0.00301407 0.00618782 0.0102392 0.0145741
internal_weight=0 517 84 60 433 270 41 229 104 3160 163 61 2211 63 949 176 108 65 44
internal_count=3677 517 84 60 433 270 41 229 104 3160 163 61 2211 63 949 176 108 65 44
is_linear=0
shrinkage=0.0480298


Tree=15
num_leaves=20
num_cat=0
split_feature=3 3 14 0 2 3 6 6 7 2 20 20 0 1 14 20 22 5 0
split_gain=1.63187 0.970649 0.858936 0.861678 0.675608 0.53733 0.424617 0.517739 0.388524 0.805159 0.490786 1.37888 0.51328 1.50354 0.661425 0.421857 0.587259 0.44329 0.369845
threshold=4.4350000000000014 5.2700000000000005 1.8225000000000005 0.0010988899644920446 5.8319409107235937e-05 0.56500000000000006 19.999999999999975 16.500000000000007 -0.0057759571285092006 0.00062599042765729888 -0.0041538593936574766 -0.0029170538102358252 0.00026904721226787614 0.00025990434788019686 -0.105 0.001706693014411065 -0.00026330995859685785 7.5250000000000012 5.1707414060151744e-05
decision_type=2 2 2 2 2 2 2 2 2 2 2 2 2 2 2 2 2 2 2
left_child=4 -2 -3 -4 -1 -6 7 8 10 -10 18 -12 13 14 -13 16 -16 -18 -7
right_child=1 2 3 -5 5 6 -8 -9 9 -11 11 12 -14 -15 15 -17 17 -19 -20
leaf_value=-0.0010984365809692885 0.014955867036817691 0.010372479472746537 -0.0053557789453070612 0.0068771870378816439 0.0070368551359194283 0.0030798054955517525 -0.0038895709343936538 0.0058445885980131177 -0.0004691390757688488 0.0076776869277175317 0.011334084298162881 0.0090809812768016876 -0.0022883259311962398 0.012085107021869513 0.0083585146974091348 -0.00085592394551247742 -0.00035170289790594541 0.0056882218240846914 -0.0021939291630171161
leaf_weight=1377 21 27 30 23 26 38 57 37 1343 28 32 22 82 30 30 208 116 36 144
leaf_count=1377 21 27 30 23 26 38 57 37 1343 28 32 22 82 30 30 208 116 36 144
internal_value=0 0.00585774 0.00346949 -4.71333e-05 -0.000270364 0.000241191 0.000160988 0.000268575 0.00017075 -0.000302756 0.00105039 0.00175195 0.00116678 0.00180777 0.00105943 0.000606927 0.00227876 0.00107881 -0.00109282
internal_weight=0 101 80 53 3606 2229 2203 2146 2109 1371 738 556 524 442 412 390 182 152 182
internal_count=3707 101 80 53 3606 2229 2203 2146 2109 1371 738 556 524 442 412 390 182 152 182
is_linear=0
shrinkage=0.0475495


Tree=16
num_leaves=20
num_cat=0
split_feature=3 3 10 2 12 3 6 6 1 12 5 3 22 0 15 6 18 0 2
split_gain=1.48037 0.948367 0.894358 0.612886 0.540575 0.487445 0.385197 0.469673 0.366588 0.296585 0.417496 0.68688 0.481352 0.923996 0.732088 0.765204 0.839452 0.952564 0.574333
threshold=4.4350000000000014 5.9650000000000007 3.9999999999999707 5.8319409107235937e-05 -2.249999999999996 0.56500000000000006 19.999999999999975 16.500000000000007 0.00092014798587458418 -1.9999999999999682 3.2450000000000006 0.89500000000000013 -3.6239105620117222e-05 0.00013632089715384418 3.0750000000000006 7.9999999999999858 -0.031371367409364685 4.2869861592937071e-05 0.00021233812900653472
decision_type=2 2 2 2 2 2 2 2 2 2 2 2 2 2 2 2 2 2 2
left_child=3 2 4 -1 -2 -5 7 8 9 10 -7 -12 13 14 15 16 -13 -18 -14
right_child=1 -3 -4 5 -6 6 -8 -9 -10 -11 11 12 18 -15 -16 -17 17 -19 -20
leaf_value=-0.0010357443921774334 0.0072290735315525632 -0.0014939962918675039 0.0015378425680368896 0.0066352335246164171 0.017550505934677284 -0.0012542773647202213 -0.0036675775156857814 0.0055110145369459467 0.0060715179527215989 -0.00064328601579954805 0.007500758653768814 0.0021526490803567507 -0.00057398109071247854 -0.00073554310553159102 -0.0020041141329142417 -0.00049742328345550525 0.0060165255898928047 0.019496245730863632 0.0021223631584046092
leaf_weight=1377 22 30 26 26 23 240 57 37 23 763 34 21 601 91 22 20 21 26 247
leaf_count=1377 22 30 26 26 23 240 57 37 23 763 34 21 601 91 22 20 21 26 247
internal_value=0 0.00552342 0.00848852 -0.000254933 0.0125045 0.000227425 0.0001518 0.000253247 0.000161005 9.58364e-05 0.000522103 0.00091576 0.000702329 0.00277354 0.00567651 0.00759667 0.00997728 0.0134734 0.000211393
internal_weight=0 101 71 3606 45 2229 2203 2146 2109 2086 1323 1083 1049 201 110 88 68 47 848
internal_count=3707 101 71 3606 45 2229 2203 2146 2109 2086 1323 1083 1049 201 110 88 68 47 848
is_linear=0
shrinkage=0.047074


Tree=17
num_leaves=20
num_cat=0
split_feature=0 3 7 20 2 3 6 6 7 7 4 11 6 15 6 9 19 21 2
split_gain=1.37404 0.67889 0.886266 0.594821 0.526717 0.447325 0.344614 0.432335 0.382045 0.465074 0.501305 1.16018 1.34887 0.386894 0.532705 0.799575 0.660952 0.42566 0.364509
threshold=0.0018581489659376591 4.4350000000000014 -0.037583892213287222 0.0062764032296394054 5.8319409107235937e-05 0.56500000000000006 19.999999999999975 16.500000000000007 -0.0057759571285092006 -0.024144710737915961 -1.0000000000000118 -3.2499999999999747 -7.4999999999999281 1.1050000000000002 2.9999999999999587 -4.2499999999999973 0.00073434691478668779 0.0057354073805011571 0.00067078586548043279
decision_type=2 2 2 2 2 2 2 2 2 2 2 2 2 2 2 2 2 2 2
left_child=1 4 -3 -4 -1 -6 7 8 9 -7 11 -11 -13 14 16 -16 -12 -15 -10
right_child=-2 2 3 -5 5 6 -8 -9 18 10 13 12 -14 17 15 -17 -18 -19 -20
leaf_value=-0.00097711786556972397 0.010796755475895859 0.0122933168647388 -0.0022354998422026732 0.0074929374195587409 0.0062596575895185738 -0.00065136043362755565 -0.0034981856829168255 0.0051990731211418676 -0.0004451145136262215 -0.0030102558987663906 -0.00087822912920974328 0.0014412767859086277 0.018163731662535747 -0.00048198892477598846 0.0018647450688444001 0.013989560495074316 0.007688121280107995 0.0054968557094387614 0.005349284298962264
leaf_weight=1377 25 21 39 21 26 252 56 37 1344 22 79 20 22 239 27 21 26 29 24
leaf_count=1377 25 21 39 21 26 252 56 37 1344 22 79 20 22 239 27 21 26 29 24
internal_value=0 -0.000165911 0.00405342 0.00116945 -0.00026082 0.00018268 0.000110796 0.000205148 0.000117369 0.000972744 0.00181661 0.00565941 0.0102007 0.00123243 0.00310222 0.00716935 0.00124296 0.000164976 -0.000343458
internal_weight=0 3682 81 60 3601 2224 2198 2142 2105 737 485 64 42 421 153 48 105 268 1368
internal_count=3707 3682 81 60 3601 2224 2198 2142 2105 737 485 64 42 421 153 48 105 268 1368
is_linear=0
shrinkage=0.0466033


Tree=18
num_leaves=20
num_cat=0
split_feature=0 5 1 2 13 2 0 0 2 22 1 11 8 16 19 18 9 22 1
split_gain=1.24896 0.703163 1.20663 0.485035 0.423835 0.431145 0.319631 0.313291 0.326584 0.626948 0.311622 0.67698 1.303 1.27347 0.801579 0.50219 0.817865 0.423996 0.373778
threshold=0.0018581489659376591 15.805000000000001 0.0005691685285342925 5.8319409107235937e-05 -1.5000000000000011 6.1265107268246698e-05 0.00085506830252801973 0.00022275713761717134 0.0001193849547118912 -0.0010699928160124992 0.00027566130516974247 -1.5000000000000344 2.0000000000000244 10.000000000000004 -0.0010436861834579589 0.018429896640944413 -4.9999999999999973 -1.0000000180025095e-35 0.00015639894608797034
decision_type=2 2 2 2 2 2 2 2 2 2 2 2 2 2 2 2 2 2 2
left_child=1 3 -3 -1 5 -5 -4 8 -6 -10 18 15 13 14 -13 -12 17 -17 -7
right_child=-2 2 6 4 7 10 -8 -9 9 -11 11 12 -14 -15 -16 16 -18 -19 -20
leaf_value=-0.00092226518600211564 0.010190655819740461 0.013392413498074495 -0.0039769022784026482 0.006336977243307472 -0.00090802177200178873 0.00077139269154780793 0.0041728315570415987 -0.0024923174688902664 0.0069134980723171043 0.00017971930004275738 -0.0042396997111606603 0.015249532249125132 -0.0032668665487033933 -0.0026814951491203705 0.005038142021047352 0.0034555875972800206 0.0089116678577143057 -0.0054797240624354301 -0.0010726866657077517
leaf_weight=1377 25 22 21 28 463 810 20 158 35 185 45 36 33 20 30 20 24 26 329
leaf_count=1377 25 22 21 28 463 810 20 158 35 185 45 36 33 20 30 20 24 26 329
internal_value=0 -0.000156597 0.00467579 -0.00024072 0.000177874 0.00066936 -1.42236e-06 -0.00064088 -0.000212582 0.001251 0.000553778 0.00208728 0.00452681 0.00751741 0.010608 -0.000437109 0.00200741 -0.00159481 0.000238731
internal_weight=0 3682 63 3619 2242 1401 41 841 683 220 1373 234 119 86 66 115 70 46 1139
internal_count=3707 3682 63 3619 2242 1401 41 841 683 220 1373 234 119 86 66 115 70 46 1139
is_linear=0
shrinkage=0.0461372


Tree=19
num_leaves=20
num_cat=0
split_feature=0 5 1 2 3 17 13 5 3 2 2 15 10 1 1 19 6 22 1
split_gain=1.13637 0.639776 1.09785 0.441311 0.400993 0.327027 0.381728 0.434553 0.524507 0.515886 0.388522 1.3662 0.786442 0.499406 0.911145 0.706627 0.702455 0.415199 0.674548
threshold=0.0018581489659376591 15.805000000000001 0.0005691685285342925 5.8319409107235937e-05 0.56500000000000006 -7.0000000000000027 -1.5000000000000011 3.2450000000000006 0.89500000000000013 6.2684374616155925e-05 0.00021233812900653472 2.8750000000000004 -2.9999999999999911 0.00040460440659399087 0.00027566130516974247 0.0014444236953918834 6.4999999999999512 -3.6239105620117222e-05 0.00014801593967104205
decision_type=2 2 2 2 2 2 2 2 2 2 2 2 2 2 2 2 2 2 2
left_child=1 3 -3 -1 -5 -6 7 -7 -9 -10 17 13 -13 14 -12 16 -16 18 -11
right_child=-2 2 -4 4 5 6 -8 8 9 10 11 12 -14 -15 15 -17 -18 -19 -20
leaf_value=-0.00087091729633074469 0.0096232822044838937 0.012646779263369363 -1.3432019557466567e-06 0.0058074034160562719 -0.0031157420708765979 -0.0010542843568847363 -0.00057251982459509897 0.0065731268589293438 0.0076535884426924957 0.0044224382352673029 -0.00040267884639313988 0.0036607999413571105 0.016316538689324634 -0.0018971532832526611 0.012729100601145632 -0.00060105327447739149 0.0021622311660906991 -0.00041984517424525171 -0.0027568676208719767
leaf_weight=1377 25 22 41 26 64 246 827 35 23 97 114 21 20 90 35 24 21 561 38
leaf_count=1377 25 22 41 26 64 246 827 35 23 97 114 21 20 90 35 24 21 561 38
internal_value=0 -0.000147879 0.00441546 -0.000227318 0.000167971 0.000101804 0.000197493 0.000678097 0.00107306 0.000888672 0.000736279 0.00204018 0.00983433 0.000914968 0.00221956 0.00595625 0.00876652 0.000127417 0.0024016
internal_weight=0 3682 63 3619 2242 2216 2152 1325 1079 1044 1021 325 41 284 194 80 56 696 135
internal_count=3707 3682 63 3619 2242 2216 2152 1325 1079 1044 1021 325 41 284 194 80 56 696 135
is_linear=0
shrinkage=0.0456759


end of trees

feature_importances:
f_3=64
f_1=44
f_2=37
f_15=28
f_14=26
f_5=25
f_6=19
f_0=15
f_7=14
f_21=13
f_13=10
f_19=10
f_4=9
f_9=9
f_12=9
f_18=8
f_20=8
f_10=7
f_22=7
f_8=6
f_16=6
f_11=4
f_17=2

parameters:
[boosting: gbdt]
[objective: regression]
[metric: binary_logloss]
[tree_learner: serial]
[device_type: cpu]
[data: ]
[valid: ]
[num_iterations: 10]
[learning_rate: 0.0456759]
[num_leaves: 20]
[num_threads: 0]
[deterministic: 0]
[force_col_wise: 0]
[force_row_wise: 0]
[histogram_pool_size: -1]
[max_depth: -1]
[min_data_in_leaf: 20]
[min_sum_hessian_in_leaf: 0.001]
[bagging_fraction: 0.7]
[pos_bagging_fraction: 1]
[neg_bagging_fraction: 1]
[bagging_freq: 5]
[bagging_seed: 3]
[feature_fraction: 0.9]
[feature_fraction_bynode: 1]
[feature_fraction_seed: 2]
[extra_trees: 0]
[extra_seed: 6]
[early_stopping_round: 0]
[first_metric_only: 0]
[max_delta_step: 0]
[lambda_l1: 0]
[lambda_l2: 0]
[linear_lambda: 0]
[min_gain_to_split: 0]
[drop_rate: 0.1]
[max_drop: 50]
[skip_drop: 0.5]
[xgboost_dart_mode: 0]
[uniform_drop: 0]
[drop_seed: 4]
[top_rate: 0.2]
[other_rate: 0.1]
[min_data_per_group: 100]
[max_cat_threshold: 32]
[cat_l2: 10]
[cat_smooth: 10]
[max_cat_to_onehot: 4]
[top_k: 20]
[monotone_constraints: ]
[monotone_constraints_method: basic]
[monotone_penalty: 0]
[feature_contri: ]
[forcedsplits_filename: ]
[refit_decay_rate: 0.9]
[cegb_tradeoff: 1]
[cegb_penalty_split: 0]
[cegb_penalty_feature_lazy: ]
[cegb_penalty_feature_coupled: ]
[path_smooth: 0]
[interaction_constraints: ]
[verbosity: 0]
[saved_feature_importance_type: 0]
[linear_tree: 0]
[max_bin: 255]
[max_bin_by_feature: ]
[min_data_in_bin: 3]
[bin_construct_sample_cnt: 200000]
[data_random_seed: 1]
[is_enable_sparse: 1]
[enable_bundle: 1]
[use_missing: 1]
[zero_as_missing: 0]
[feature_pre_filter: 1]
[pre_partition: 0]
[two_round: 0]
[header: 0]
[label_column: ]
[weight_column: ]
[group_column: ]
[ignore_column: ]
[categorical_feature: ]
[forcedbins_filename: ]
[precise_float_parser: 0]
[objective_seed: 5]
[num_class: 1]
[is_unbalance: 0]
[scale_pos_weight: 1]
[sigmoid: 1]
[boost_from_average: 1]
[reg_sqrt: 0]
[alpha: 0.9]
[fair_c: 1]
[poisson_max_delta_step: 0.7]
[tweedie_variance_power: 1.5]
[lambdarank_truncation_level: 30]
[lambdarank_norm: 1]
[label_gain: ]
[eval_at: ]
[multi_error_top_k: 1]
[auc_mu_weights: ]
[num_machines: 1]
[local_listen_port: 12400]
[time_out: 120]
[machine_list_filename: ]
[machines: ]
[gpu_platform_id: -1]
[gpu_device_id: -1]
[gpu_use_dp: 0]
[num_gpu: 1]

end of parameters

pandas_categorical:[]
