tree
version=v3
num_class=1
num_tree_per_iteration=1
label_index=0
max_feature_idx=22
objective=regression
feature_names=f_0 f_1 f_2 f_3 f_4 f_5 f_6 f_7 f_8 f_9 f_10 f_11 f_12 f_13 f_14 f_15 f_16 f_17 f_18 f_19 f_20 f_21 f_22
feature_infos=[3.5138360446667107e-07:0.0066553821535006137] [2.5600331918768856e-06:0.0039732576088439284] [9.2225614268401974e-06:0.0029579505118275174] [0.53000000000000003:6.5599999999999996] [-33.000000000000007:46] [2.4100000000000001:21.82] [-101.00000000000016:144.99999999999994] [-0.15710919088766695:0.17837578087457961] [-81:74] [-46:33.999999999999986] [-51.000000000000021:33.999999999999986] [-33.000000000000007:27.999999999999979] [-41:96.000000000000014] [-36.000000000000007:32.999999999999986] [-0.52000000000000002:2.9100000000000001] [-0.94999999999999996:3.8500000000000001] [-52:73.999999999999972] [-28.000000000000004:24.000000000000004] [-0.29572649572649579:0.64215246636771273] [-0.02958455728073861:0.047292143401983289] [-0.054746473503621829:0.033993115318416534] [-0.039377561323276189:0.045346674363414774] [-0.019984292877423981:0.018327052533256172]
tree_sizes=1812 1867 1882 1864 1822 1831 1868 1840 1880 1857 1875 1880 1888 1881 1869 1874 1866 1873 1871 1908 1861 1889

Tree=0
num_leaves=20
num_cat=0
split_feature=3 14 1 3 0 18 15 2 1 3 15 2 15 6 8 2 22 20 14
split_gain=12.2158 3.25663 7.91278 6.70717 3.36967 3.02033 2.64493 2.19342 1.72714 1.79204 3.11222 2.9533 2.22238 1.75263 1.69618 1.5572 1.53886 1.63996 1.25939
threshold=1.4750000000000003 1.2350000000000001 0.00017790295829568948 1.7250000000000003 0.00028712304409886385 -0.039785839557968709 3.2750000000000004 0.00014011816530469721 3.7095801029033478e-05 1.885 2.5950000000000002 0.00014272775835659257 3.5950000000000002 -3.0000000000000688 1.5000000000000009 0.00050104812056764173 -8.4562509827523766e-05 -0.0014849916199171085 0.27250000000000008
decision_type=2 2 2 2 2 2 2 2 2 2 2 2 2 2 2 2 2 2 2
left_child=18 2 3 5 8 -2 14 -5 -3 10 -10 12 16 -13 -6 -11 17 -12 -1
right_child=1 4 -4 7 6 -7 -8 -9 9 15 11 13 -14 -15 -16 -17 -18 -19 -20
leaf_value=0.099089039975694571 0.12526912241625382 0.095922716531552363 0.097961429498187008 0.13401912261183155 0.10300392854842221 0.10424348092065308 0.11901912227655542 0.11595877738056518 0.099524440989751523 0.098452145689526732 0.1202691223044951 0.10526912196921898 0.11918216575846061 0.1234742505812635 0.11449989140631198 0.11276912213685704 0.099669121844049219 0.10216567362398943 0.096498000421402622
leaf_weight=733 20 153 130 40 181 117 40 29 235 377 22 20 23 39 39 20 125 29 1302
leaf_count=733 20 153 130 40 181 117 40 29 235 377 22 20 23 39 39 20 125 29 1302
internal_value=0.100283 0.103231 0.10762 0.113716 0.1021 0.107313 0.107192 0.126429 0.10083 0.101674 0.103687 0.107478 0.104566 0.117303 0.105042 0.0991734 0.102655 0.109975 0.0974313
internal_weight=0 1639 336 206 1303 137 260 69 1043 890 493 258 199 59 220 397 176 51 2035
internal_count=3674 1639 336 206 1303 137 260 69 1043 890 493 258 199 59 220 397 176 51 2035
is_linear=0
shrinkage=1


Tree=1
num_leaves=20
num_cat=0
split_feature=3 14 1 3 1 3 3 18 3 8 2 3 1 1 1 2 2 16 3
split_gain=11.0248 2.93911 7.14129 6.05322 3.09397 4.10674 4.05218 2.72584 2.62954 3.15875 1.97956 1.26076 2.55732 2.87297 1.21172 1.2384 2.17737 1.17688 1.16149
threshold=1.4750000000000003 1.2350000000000001 0.00017790295829568948 1.7250000000000003 0.0001718158101154786 1.8250000000000004 1.7250000000000003 -0.039785839557968709 3.4700000000000002 1.5000000000000009 0.00014011816530469721 2.3750000000000004 0.00031067803756707407 0.00050838497951248996 3.7095801029033478e-05 4.5374289594357388e-05 3.9901665013997445e-05 9.0000000000000195 2.1950000000000007
decision_type=2 2 2 2 2 2 2 2 2 2 2 2 2 2 2 2 2 2 2
left_child=-1 2 3 7 14 6 -6 -2 11 17 -5 12 -7 18 -3 16 -16 -10 -14
right_child=1 4 -4 10 5 8 -8 -9 9 -11 -12 -13 13 -15 15 -17 -18 -19 -20
leaf_value=-0.0027094019627248922 0.023736544251441956 -0.0041425410219851659 -0.0022057635967548078 0.032049043346196418 0.0058427060540351605 -0.0017214780619132866 0.031466961003564019 0.0037621851914968248 0.0013410521342473872 0.023676793842480101 0.014891716786499682 -0.0034255874413652585 0.0093789252607772763 -0.0052521303109824662 -0.001127267095285493 6.2076447667270312e-05 0.01668356991140172 0.01384819784703163 0.024778181582689286
leaf_weight=2035 20 153 130 40 36 103 27 117 68 29 29 119 24 20 37 604 32 26 25
leaf_count=2035 20 153 130 40 36 103 27 117 68 29 29 119 24 20 37 604 32 26 25
internal_value=0 0.00280061 0.00697018 0.0127608 0.00172542 0.00493159 0.0168245 0.00667815 0.00312179 0.00925099 0.024838 0.000531096 0.00326857 0.0107175 -0.000126089 0.000787013 0.00713283 0.00480048 0.0172357
internal_weight=0 1639 336 206 1303 477 63 137 414 123 69 291 172 69 826 673 69 94 49
internal_count=3674 1639 336 206 1303 477 63 137 414 123 69 291 172 69 826 673 69 94 49
is_linear=0
shrinkage=0.05


Tree=2
num_leaves=20
num_cat=0
split_feature=3 14 1 3 1 3 15 18 3 8 3 3 1 1 14 15 1 15 8
split_gain=9.94984 2.65255 6.44501 5.46303 2.7923 3.70633 6.00261 2.46007 2.38513 2.74035 1.85522 1.23818 2.30799 2.59286 1.1366 1.40868 1.09358 1.75816 1.08142
threshold=1.4750000000000003 1.2350000000000001 0.00017790295829568948 1.7250000000000003 0.0001718158101154786 1.8250000000000004 2.8550000000000004 -0.039785839557968709 3.3150000000000004 3.9999999999999871 1.7950000000000002 2.3750000000000004 0.00031067803756707407 0.00050838497951248996 0.27250000000000008 0.97500000000000009 3.7095801029033478e-05 3.6350000000000002 -1.0000000000000118
decision_type=2 2 2 2 2 2 2 2 2 2 2 2 2 2 2 2 2 2 2
left_child=14 2 3 7 16 6 -6 -2 11 -10 -5 12 -7 -14 15 -1 -3 18 -18
right_child=1 4 -4 10 5 8 -8 -9 9 -11 -12 -13 13 -15 -16 -17 17 -19 -20
leaf_value=-0.0017608779103748661 0.022549717128276827 -0.0039354141460719453 -0.0020954755521737614 0.034139737716087928 0.0034649285144711796 -0.0016354041662320351 0.035011232197284699 0.0035740759128179305 0.0054903157365818822 0.025639193020761016 0.017220867823722754 -0.0036142326074472646 0.016373904277475513 -0.0049895237945020198 -0.0034605514521377245 0.0053076003925709783 0.0055365351675187848 0.014649466679177501 -0.00051186797291356346
leaf_weight=654 20 153 130 26 38 103 25 117 108 20 43 114 49 20 1302 79 85 22 566
leaf_count=654 20 153 130 26 38 103 25 117 108 20 43 114 49 20 1302 79 85 22 566
internal_value=0 0.00266058 0.00662167 0.0121228 0.00163914 0.00468501 0.0159833 0.00634424 0.0029657 0.00863858 0.0235961 0.000426789 0.00310514 0.0101816 -0.00257393 -0.000999064 -0.000119784 0.000747662 0.000277862
internal_weight=0 1639 336 206 1303 477 63 137 414 128 69 286 172 69 2035 733 826 673 651
internal_count=3674 1639 336 206 1303 477 63 137 414 128 69 286 172 69 2035 733 826 673 651
is_linear=0
shrinkage=0.05


Tree=3
num_leaves=20
num_cat=0
split_feature=3 14 1 3 0 15 18 2 6 8 1 3 15 2 15 6 2 14 2
split_gain=8.97973 2.39392 5.81662 4.93039 2.54631 2.27124 2.22022 1.7334 1.52696 1.35805 1.2605 1.5062 2.65941 2.42996 1.98021 1.68892 1.26202 1.23545 3.30796
threshold=1.4750000000000003 1.2350000000000001 0.00017790295829568948 1.7250000000000003 0.00028712304409886385 3.2750000000000004 -0.039785839557968709 0.00019300813723322895 4.9999999999999165 1.5000000000000009 3.7095801029033478e-05 1.885 2.5950000000000002 0.00013274109257684782 3.5950000000000002 -1.0000000180025095e-35 0.00050104812056764173 1.4750000000000003 6.1911019279344435e-05
decision_type=2 2 2 2 2 2 2 2 2 2 2 2 2 2 2 2 2 2 2
left_child=-1 2 3 6 10 9 -2 8 -5 -6 -3 12 17 14 -14 -15 -13 18 -12
right_child=1 4 -4 7 5 -7 -8 -9 -10 -11 11 16 13 15 -16 -17 -18 -19 -20
leaf_value=-0.002445235252746493 0.021422230303287507 -0.0037386432095290788 -0.001990701802648031 0.035123251085834847 0.0021680044761514137 0.016943816607818008 0.003395372247084593 0.010011837594211101 0.017287435843831019 0.01245451766328934 0.020873070916249639 -0.0017671538373598688 0.0016879618347409261 0.0056367334350943569 0.017342448428921079 0.021416722515072581 0.011121637504547836 -0.0042577335851327067 -0.0011653674849205547
leaf_weight=2035 20 153 130 28 181 40 117 20 21 39 21 377 166 30 23 39 20 124 90
leaf_count=2035 20 153 130 28 181 40 117 20 21 39 21 377 166 30 23 39 20 124 90
internal_value=0 0.00252755 0.00629058 0.0115166 0.00155719 0.00598418 0.00602703 0.0224163 0.0274793 0.00399152 0.000453622 0.00117432 0.00302013 0.00652493 0.00359301 0.0145559 -0.00111784 -0.000827692 0.00300407
internal_weight=0 1639 336 206 1303 260 137 69 49 220 1043 890 493 258 189 69 397 235 111
internal_count=3674 1639 336 206 1303 260 137 69 49 220 1043 890 493 258 189 69 397 235 111
is_linear=0
shrinkage=0.05


Tree=4
num_leaves=20
num_cat=0
split_feature=3 14 2 3 3 8 15 3 2 15 0 0 3 15 14 22 20 15 16
split_gain=8.10421 2.16052 5.28771 5.31246 2.32992 2.54519 1.71367 1.96099 3.42406 2.67234 1.632 1.62073 1.59026 3.23709 1.47386 1.05589 1.73271 1.21355 1.04487
threshold=1.4750000000000003 1.2350000000000001 0.00014958479746790502 1.7250000000000003 3.4700000000000002 1.5000000000000009 2.5950000000000002 1.885 0.00014574380346415658 2.8550000000000004 0.00018939825982612781 8.0753400840293552e-05 1.675 1.5650000000000002 1.925 -8.4562509827523766e-05 -0.0014849916199171085 3.1150000000000007 9.0000000000000195
decision_type=2 2 2 2 2 2 2 2 2 2 2 2 2 2 2 2 2 2 2
left_child=-1 2 3 12 6 18 -3 8 10 -10 15 -4 13 -2 -11 16 17 -8 -6
right_child=1 4 11 -5 5 -7 7 -9 9 14 -12 -13 -14 -15 -16 -17 -18 -19 -20
leaf_value=-0.0023229734925438793 0.022928588366245523 -0.0010141787143243897 0.010984962699668747 0.027561169186996859 0.00077346440075951473 0.02097723509730964 0.021309579197656026 -0.0012464048293156502 0.0030336788971908391 0.011914584590565592 0.016193440090864899 -0.0021402611289502815 0.00060464172571335199 0.00058855381944487178 0.029724026242127791 -0.0008504435925160424 -0.0007690911201086451 0.0042920529469847686 0.012558293829743678
leaf_weight=2035 34 620 28 43 68 29 22 195 32 21 20 147 53 31 26 177 47 20 26
leaf_count=2035 34 620 28 43 68 29 22 195 32 21 20 147 53 31 26 177 47 20 26
internal_value=0 0.00240117 0.00597605 0.0125155 0.00147933 0.00802806 0.000796707 0.00280162 0.00496426 0.0141786 0.00241904 -4.02253e-05 0.00703274 0.0122741 0.0217666 0.00138337 0.00582589 0.013206 0.0040331
internal_weight=0 1639 336 161 1303 123 1180 560 365 79 286 175 118 65 47 266 89 42 94
internal_count=3674 1639 336 161 1303 123 1180 560 365 79 286 175 118 65 47 266 89 42 94
is_linear=0
shrinkage=0.05


Tree=5
num_leaves=20
num_cat=0
split_feature=5 13 14 5 1 5 0 5 3 14 3 5 17 3 4 14 3 3 13
split_gain=8.71978 2.8452 1.80769 1.73902 1.88263 1.93071 2.5193 1.82536 2.1833 2.19324 1.66473 1.51381 1.48252 1.55985 2.42739 1.47798 1.41422 1.39447 1.38811
threshold=5.495000000000001 -8.4999999999999947 2.0850000000000004 6.9350000000000014 0.00048392163639903368 8.9500000000000011 0.00043359314916635751 7.8750000000000009 1.885 1.7650000000000003 1.6250000000000002 5.9750000000000005 1.999999999999998 1.7250000000000003 0.99999999999999545 1.4425000000000001 2.1950000000000007 0.56500000000000006 -0.99999999999998967
decision_type=2 2 2 2 2 2 2 2 2 2 2 2 2 2 2 2 2 2 2
left_child=17 -2 3 11 5 7 16 8 12 -10 -9 15 13 -5 -15 -3 -7 -1 -17
right_child=1 2 -4 4 -6 6 -8 10 9 -11 -12 -13 -14 14 -16 18 -18 -19 -20
leaf_value=0.0095998348891735072 0.018878626161151463 0.0019527436390410374 -0.0001925991402603771 0.0084640800472228755 -0.00088887646643802376 0.0027892603777175725 0.027904022061689335 0.0096545574814081193 -0.0026667209342122081 0.012288860031045401 -0.001481612269399744 -0.0011617292115330244 0.0054939583705907527 0.03432895887805068 0.010816807902994611 0.022179761361330749 0.016934028640389443 -0.0022768749837399848 0.005486223282236042
leaf_weight=25 27 137 439 31 99 43 22 45 66 39 132 263 44 23 21 20 30 2166 33
leaf_count=25 27 137 439 31 99 43 22 45 66 39 132 263 44 23 21 20 30 2166 33
internal_value=0 0.00279302 0.00250095 0.00362926 0.00540644 0.00666297 0.0130721 0.0051446 0.00814331 0.00288821 0.00134962 0.00129499 0.0127802 0.0170547 0.0231073 0.00469561 0.00860218 -0.00214136 0.0117857
internal_weight=0 1514 1487 1048 595 496 95 401 224 105 177 453 119 75 44 190 73 2191 53
internal_count=3705 1514 1487 1048 595 496 95 401 224 105 177 453 119 75 44 190 73 2191 53
is_linear=0
shrinkage=0.05


Tree=6
num_leaves=20
num_cat=0
split_feature=5 13 14 5 2 8 2 3 15 21 3 3 19 6 3 1 5 15 5
split_gain=7.8696 2.5678 1.63144 1.56946 1.74558 1.47223 1.65279 1.25851 1.17592 1.16668 1.25829 1.78278 1.83605 1.47076 1.62018 2.99613 2.52373 2.78248 2.87463
threshold=5.495000000000001 -8.4999999999999947 2.0850000000000004 6.9350000000000014 0.00072509667545322032 -1.0000000000000002 6.5441810051175306e-05 0.56500000000000006 3.6350000000000002 0.010592290482419721 2.4450000000000007 3.1250000000000004 -0.0023007596360454237 9.0000000000000551 2.0250000000000004 0.00027131984432433566 7.8750000000000009 1.6950000000000001 7.1850000000000014
decision_type=2 2 2 2 2 2 2 2 2 2 2 2 2 2 2 2 2 2 2
left_child=7 -2 3 5 9 6 -3 -1 -4 10 13 -12 -13 14 16 -16 17 -5 -19
right_child=1 2 8 4 -6 -7 -8 -9 -10 -11 11 12 -14 -15 15 -17 -18 18 -20
leaf_value=0.0091198432147502895 0.017934694513678552 0.019052267111837867 -0.00092073838166855835 0.024740925920195878 -0.0049517219606786973 -0.00050997743778156512 0.0033451192189478183 -0.0021630312031477223 0.0088938274053913177 0.017719806581735612 -0.0022954764879412125 3.0713071199980647e-05 0.020962679535150529 -0.00063458061777055264 0.0024842326600964253 0.024758759596281585 0.0025517175482078036 0.017958224607365472 -0.0012423438612710347
leaf_weight=25 27 20 406 32 40 330 103 2166 33 20 99 22 20 56 26 36 165 35 44
leaf_count=25 27 20 406 32 40 330 103 2166 33 20 99 22 20 56 26 36 165 35 44
internal_value=0 0.00265337 0.0023759 0.0034478 0.00513612 0.00123024 0.00589913 -0.00203429 -0.000182969 0.00586317 0.00541993 0.0013665 0.00999832 0.00687052 0.00811397 0.0154178 0.00647325 0.0123026 0.00726424
internal_weight=0 1514 1487 1048 595 453 123 2191 439 555 535 141 42 394 338 62 276 111 79
internal_count=3705 1514 1487 1048 595 453 123 2191 439 555 535 141 42 394 338 62 276 111 79
is_linear=0
shrinkage=0.05


Tree=7
num_leaves=20
num_cat=0
split_feature=5 13 14 5 1 5 1 20 5 14 14 6 3 5 5 15 15 15 15
split_gain=7.10231 2.31744 1.47238 1.41644 1.61706 1.6735 2.20535 1.67008 1.66678 2.09358 3.05207 2.05012 1.59855 1.47474 1.36201 1.38453 2.13791 1.73833 1.15718
threshold=5.495000000000001 -8.4999999999999947 2.0850000000000004 6.9350000000000014 0.00048392163639903368 8.9500000000000011 0.0002844075817097918 0.0017039254386095328 7.7550000000000008 1.7650000000000003 1.3750000000000002 0.99999999999988998 1.5350000000000004 9.8150000000000031 5.9750000000000005 1.655 0.16500000000000004 2.1350000000000002 -0.29499999999999993
decision_type=2 2 2 2 2 2 2 2 2 2 2 2 2 2 2 2 2 2 2
left_child=-1 -2 3 14 5 7 -7 8 9 10 11 -5 -10 -8 15 16 -3 -17 -16
right_child=1 2 -4 4 -6 6 13 -9 12 -11 -12 -13 -14 -15 18 17 -18 -19 -20
leaf_value=-0.0019325756507410083 0.017037960086707715 0.01268396181139079 -0.00017382075462770355 0.025566674785121632 -0.00095511074319030304 0.0049347923812912966 0.028959292869852937 0.0004338607317049231 0.015705715082585812 0.019171382988594016 -0.0038293502293527126 0.0039588030605089098 0.0002077709883451462 0.010632773063012533 0.0088518253026100314 0.017562838323000405 -0.0019748854201914064 -0.00082217708230018609 -0.0022600774036303853
leaf_weight=2191 27 33 439 23 99 51 23 149 20 49 40 21 99 21 26 36 101 20 237
leaf_count=2191 27 33 439 23 99 51 23 149 20 49 40 21 99 21 26 36 101 20 237
internal_value=0 0.0025207 0.00225711 0.00327541 0.00487931 0.00604385 0.0120108 0.00463023 0.00711141 0.0109578 0.0061666 0.0152538 0.00281247 0.0202125 0.00116873 0.00439435 0.00163513 0.0109968 -0.00116156
internal_weight=0 1514 1487 1048 595 496 95 401 252 133 84 44 119 44 453 190 134 56 263
internal_count=3705 1514 1487 1048 595 496 95 401 252 133 84 44 119 44 453 190 134 56 263
is_linear=0
shrinkage=0.05


Tree=8
num_leaves=20
num_cat=0
split_feature=5 13 14 5 2 8 2 3 15 2 21 3 3 19 1 1 3 5 15
split_gain=6.40984 2.09149 1.32882 1.27834 1.49471 1.308 1.44186 1.1358 1.07734 2.94436 1.06945 1.00669 1.58836 1.67308 1.2657 1.42219 5.59941 1.56513 2.3491
threshold=5.495000000000001 -8.4999999999999947 2.0850000000000004 6.9350000000000014 0.00072509667545322032 -1.0000000000000002 6.5441810051175306e-05 0.56500000000000006 3.3250000000000006 0.00022948028557848781 0.010592290482419721 2.4450000000000007 3.1250000000000004 -0.0023007596360454237 0.00048392163639903368 0.0003279741401299276 1.8750000000000002 8.0350000000000019 0.27500000000000008
decision_type=2 2 2 2 2 2 2 2 2 2 2 2 2 2 2 2 2 2 2
left_child=7 -2 3 5 10 6 -3 -1 -4 -10 11 14 -13 -14 15 17 -17 18 -5
right_child=1 2 8 4 -6 -7 -8 -9 9 -11 -12 12 13 -15 -16 16 -18 -19 -20
leaf_value=0.0087604795694351204 0.016186062136182077 0.017796292249113322 -0.0019950022133932988 0.021526938602328301 -0.0046994957793504008 -0.0005299938944253055 0.0031255871817035584 -0.0019582509096722194 0.00045958868881214912 0.020595417969993184 0.016659928672015666 -0.0021983832760591698 -0.00010922595181248405 0.019872193355113268 -0.0049458716064691545 -0.0054117073728279638 0.026961388296502478 0.0017336883380279673 0.0061188500083930106
leaf_weight=25 27 20 284 30 40 330 103 2166 134 21 20 99 22 20 24 22 34 143 141
leaf_count=25 27 20 284 30 40 330 103 2166 134 21 20 99 22 20 24 22 34 143 141
internal_value=0 0.00239467 0.00214425 0.00311164 0.00463535 0.00111029 0.00551107 -0.00183595 -0.00016513 0.00318767 0.00530813 0.00488376 0.00125816 0.00940574 0.00618125 0.00690301 0.0142434 0.0055939 0.00882202
internal_weight=0 1514 1487 1048 595 453 123 2191 439 155 555 535 141 42 394 370 56 314 171
internal_count=3705 1514 1487 1048 595 453 123 2191 439 155 555 535 141 42 394 370 56 314 171
is_linear=0
shrinkage=0.05


Tree=9
num_leaves=20
num_cat=0
split_feature=5 13 14 5 2 5 15 15 15 5 0 15 22 14 18 3 14 3 5
split_gain=5.78488 1.88757 1.19926 1.1537 1.34898 1.22547 1.22683 1.91997 1.5568 1.08209 1.74322 1.02612 1.20209 1.31788 1.00371 1.22567 2.23727 2.15976 1.29455
threshold=5.495000000000001 -8.4999999999999947 2.0850000000000004 6.9350000000000014 0.00072509667545322032 5.9750000000000005 1.655 0.16500000000000004 2.1350000000000002 2.5750000000000006 5.7426364446798134e-05 -0.29499999999999993 -0.0003754100582574193 1.4150000000000003 0.091452110950539192 3.1250000000000004 1.8650000000000004 2.4450000000000007 8.0350000000000019
decision_type=2 2 2 2 2 2 2 2 2 2 2 2 2 2 2 2 2 2 2
left_child=9 -2 3 5 14 6 7 -3 -8 10 -1 -7 13 -13 15 17 -17 18 -5
right_child=1 2 -4 4 -6 11 8 -9 -10 -11 -12 12 -14 -15 -16 16 -18 -19 -20
leaf_value=0.014169027642519386 0.015376759016955342 0.011987643101901721 -0.00015687317776245517 0.0094679033203471097 -0.0044645208492875106 0.0082736724701065294 0.016543245615644585 -0.0019039561732275652 -0.00085533885285258302 -0.0019156866649461684 -0.0043510742175082362 0.012488647478704269 -0.0039375927923393497 -0.0045833814516663554 -0.00369930358663682 0.023461352378129963 0.0013238412283715748 -0.0019832372863559013 0.0036588350367365466
leaf_weight=27 27 33 439 186 40 26 36 101 20 2140 24 26 191 20 31 25 21 94 198
leaf_count=27 27 33 439 186 40 26 36 101 20 2140 24 26 191 20 31 25 21 94 198
internal_value=0 0.00227493 0.00203704 0.00295605 0.00440358 0.00105478 0.00411444 0.00151711 0.0103295 -0.00174415 0.00545369 -0.00115562 -0.00219005 0.00506603 0.00504272 0.0055599 0.0133551 0.00480974 0.0064726
internal_weight=0 1514 1487 1048 595 453 190 134 56 2191 51 263 237 46 555 524 46 478 384
internal_count=3705 1514 1487 1048 595 453 190 134 56 2191 51 263 237 46 555 524 46 478 384
is_linear=0
shrinkage=0.05


Tree=10
num_leaves=20
num_cat=0
split_feature=3 1 3 3 15 15 22 3 8 1 4 1 3 14 15 0 9 18 15
split_gain=4.64795 1.59734 1.54892 2.65493 2.9109 3.13161 1.72417 1.76594 1.97456 1.39377 1.27597 1.53912 1.06159 0.998488 1.25271 0.942423 0.92754 1.07947 1.04651
threshold=1.4750000000000003 3.7095801029033478e-05 1.7950000000000002 1.7250000000000003 2.8550000000000004 0.23500000000000001 -0.0024641875462623748 3.4700000000000002 1.5000000000000009 4.3943498281889886e-05 1.9999999999999964 0.00011695885084202242 1.7450000000000003 0.27250000000000008 0.97500000000000009 9.759449586109085e-05 -1.5000000000000011 0.07718622651278885 0.12500000000000003
decision_type=2 2 2 2 2 2 2 2 2 2 2 2 2 2 2 2 2 2 2
left_child=13 -2 3 9 5 -5 -4 -8 -9 -3 16 -12 -7 14 -1 -16 17 -11 -18
right_child=1 2 6 4 -6 12 7 8 -10 10 11 -13 -14 -15 15 -17 18 -19 -20
leaf_value=-0.0010074020314973064 -0.0029496780567386614 0.014303500344976783 0.015063204598568736 0.022980729916266034 0.022635364511774649 0.0094877865314483643 -0.00041447558223092675 0.0026332879795673047 0.01775990237614938 -0.0039417566543863726 0.0011037766829960875 0.016053137657317248 -0.0031740503195597201 -0.0025960978077647322 0.012105931443246929 0.0010327978869495184 0.012217777222394944 0.0082823437594232111 0.0016527976872039445
leaf_weight=654 159 24 21 21 36 25 699 94 28 129 36 33 49 1302 33 46 26 21 238
leaf_count=654 159 24 21 21 36 25 699 94 28 129 36 33 49 1302 33 46 26 21 238
internal_value=0 0.00181257 0.00232419 0.00418241 0.0105277 0.0059396 0.00091617 0.000554309 0.00610497 0.00254289 0.00195851 0.00825347 0.0011036 -0.00176509 -0.000288999 0.00565828 0.000909349 -0.00223038 0.00269329
internal_weight=0 1639 1480 638 131 95 842 821 122 507 483 69 74 2035 733 79 414 150 264
internal_count=3674 1639 1480 638 131 95 842 821 122 507 483 69 74 2035 733 79 414 150 264
is_linear=0
shrinkage=0.05


Tree=11
num_leaves=20
num_cat=0
split_feature=3 11 14 1 3 18 15 18 0 15 3 15 0 1 10 20 15 14 2
split_gain=4.19477 1.48235 1.2826 4.08206 2.8235 1.90417 1.39496 1.24175 1.07533 1.24284 1.79569 2.87176 2.07995 1.56991 1.35341 1.13415 1.08101 1.27039 1.19317
threshold=1.4750000000000003 -10.00000000000003 1.2350000000000001 0.00017790295829568948 1.7250000000000003 -0.039785839557968709 1.9950000000000003 -0.0059957448369464808 6.4548764899799118e-05 2.8750000000000004 2.0050000000000003 3.0550000000000002 0.00085506830252801973 0.00018386050219471148 -4.2499999999999973 0.0063526358384143897 3.3850000000000002 2.7350000000000008 0.00014272775835659257
decision_type=2 2 2 2 2 2 2 2 2 2 2 2 2 2 2 2 2 2 2
left_child=-1 -2 3 4 5 -3 -4 -6 -8 15 11 13 14 -11 -12 -10 18 -18 -13
right_child=1 2 6 -5 7 -7 8 -9 9 10 12 16 -14 -15 -16 -17 17 -19 -20
leaf_value=-0.0016600661516189576 0.0091502957008779053 0.018562555726245048 -0.002537192070664003 -0.0027650368980830535 0.025094471298158168 0.002024556906412131 -0.00095036614861264326 0.011284905604445018 -0.00028053657273378446 0.010184566296637059 0.0086562816282468192 -0.0054967950394279085 0.015003407271578909 0.029106107157788105 -0.005501035552042035 0.0071011557966470726 0.016096055207191966 0.0019174137152731419 0.0084272230558097364
leaf_weight=2035 63 20 261 128 27 116 298 39 340 22 21 38 20 21 78 60 32 30 25
leaf_count=2035 63 20 261 128 27 116 298 39 340 22 21 38 20 21 78 60 32 30 25
internal_value=0 0.00170472 0.00140708 0.00415102 0.00853347 0.00445662 0.000680359 0.0169343 0.00153293 0.00261011 0.00509567 0.008391 0.000443439 0.0194253 -0.00249797 0.000826717 0.00459519 0.00923542 2.8609e-05
internal_weight=0 1639 1576 330 202 136 1246 66 985 687 287 168 119 43 99 400 125 62 63
internal_count=3674 1639 1576 330 202 136 1246 66 985 687 287 168 119 43 99 400 125 62 63
is_linear=0
shrinkage=0.0495


Tree=12
num_leaves=20
num_cat=0
split_feature=3 1 3 3 14 15 22 3 8 1 4 1 14 15 17 15 1 1 1
split_gain=3.78977 1.3543 1.38612 2.26277 2.58938 2.59173 1.5309 1.54139 1.75013 1.26677 1.12892 1.35917 0.901135 1.13057 0.869841 1.1375 3.01731 1.05562 1.99559
threshold=1.4750000000000003 3.7095801029033478e-05 1.7950000000000002 1.7250000000000003 2.2850000000000006 0.23500000000000001 -0.0024641875462623748 3.4700000000000002 1.5000000000000009 4.3943498281889886e-05 1.9999999999999964 0.00011695885084202242 0.27250000000000008 0.97500000000000009 2.1666666666666727 1.0850000000000002 0.00018651527051394509 0.0003279741401299276 0.00050838497951248996
decision_type=2 2 2 2 2 2 2 2 2 2 2 2 2 2 2 2 2 2 2
left_child=12 -2 3 9 5 -5 -4 14 -9 -3 -11 -12 13 -1 15 16 -8 -17 -19
right_child=1 2 6 4 -6 -7 7 8 -10 10 11 -13 -14 -15 -16 17 -18 18 -20
leaf_value=-0.00085663524756566915 -0.0026936199388807674 0.013294116181726568 0.013825674981804831 0.02068976199813187 0.021167357598843382 0.0012404362461127733 0.022397919858925044 0.0023053665908988803 0.016263034564985762 0.0007920095631771761 0.0009774746237788351 0.014746173275895415 -0.0023358620736284464 0.0053497515678731129 -0.003163075007459543 -0.0012040592742410879 -0.0021751827469579875 0.011665001299403607 -0.0048199190501483349
leaf_weight=654 159 24 21 21 34 76 20 94 28 414 36 33 1302 79 203 372 30 45 29
leaf_count=654 159 24 21 21 34 76 20 94 28 414 36 33 1302 79 203 372 30 45 29
internal_value=0 0.00160413 0.00206585 0.00378873 0.00953014 0.00545112 0.000760386 0.000426194 0.00550877 0.00230525 0.00175922 0.0075625 -0.00156211 -0.000187734 -0.000460893 0.000645041 0.00765406 -0.000140723 0.00520469
internal_weight=0 1639 1480 638 131 97 842 821 122 507 483 69 2035 733 699 496 50 446 74
internal_count=3674 1639 1480 638 131 97 842 821 122 507 483 69 2035 733 699 496 50 446 74
is_linear=0
shrinkage=0.049005


Tree=13
num_leaves=20
num_cat=0
split_feature=3 1 3 3 15 15 22 3 14 20 15 1 4 1 3 18 9 12 14
split_gain=3.42743 1.22482 1.2536 2.04643 2.44036 2.43581 1.38453 1.39402 1.71949 1.62685 1.35933 1.14565 1.02098 1.22922 0.938717 0.83616 0.993449 1.01836 0.814979
threshold=1.4750000000000003 3.7095801029033478e-05 1.7950000000000002 1.7250000000000003 2.8550000000000004 0.23500000000000001 -0.0024641875462623748 3.4700000000000002 1.8750000000000002 -0.00016695391479221164 3.3150000000000004 4.3943498281889886e-05 1.9999999999999964 0.00011695885084202242 1.7450000000000003 0.10208127718682604 -1.5000000000000011 2.5000000000000138 0.27250000000000008
decision_type=2 2 2 2 2 2 2 2 2 2 2 2 2 2 2 2 2 2 2
left_child=18 -2 3 11 5 -5 -4 -8 9 -9 -10 -3 15 -14 -7 16 -13 -18 -1
right_child=1 2 6 4 -6 14 7 8 10 -11 -12 12 13 -15 -16 -17 17 -19 -20
leaf_value=-0.0001767490185895744 -0.0025360029646245867 0.012516211346963794 0.013016666015224426 0.01947910160608483 0.019729152204133942 0.008407793495068476 -0.00043392349928207219 0.00364891597712405 -0.0023840134577534314 0.023217035109904388 0.012161656473736055 -0.0031510528757228103 0.00092027783776307479 0.013883301999807357 -0.003145102490804557 0.0093461905307473097 0.0033440856382716661 -0.0050085934880987814 -0.0021991792641529871
leaf_weight=733 159 24 21 21 36 25 699 20 62 20 20 136 36 33 49 25 212 41 1302
leaf_count=733 159 24 21 21 36 25 699 20 62 20 20 136 36 33 49 25 212 41 1302
internal_value=0 0.00151027 0.00194497 0.00356704 0.00897248 0.00489627 0.000715892 0.000401256 0.00518642 0.013433 0.00116371 0.00217036 0.00165628 0.00711999 0.000757903 0.000745665 0.000192932 0.00199049 -0.00147071
internal_weight=0 1639 1480 638 131 95 842 821 122 40 82 507 483 69 74 414 389 253 2035
internal_count=3674 1639 1480 638 131 95 842 821 122 40 82 507 483 69 74 414 389 253 2035
is_linear=0
shrinkage=0.048515


Tree=14
num_leaves=20
num_cat=0
split_feature=3 9 14 2 3 20 15 3 3 2 2 1 18 2 20 5 0 3 14
split_gain=3.10434 1.1426 1.05329 3.65897 3.12263 1.38092 1.15682 1.45821 1.18743 2.22279 1.50372 1.27818 1.28015 1.23636 1.20032 1.0628 1.70557 0.848475 0.767358
threshold=1.4850000000000001 -14.000000000000034 1.2350000000000001 0.00015136415005260825 1.7250000000000003 0.0013200657361528425 2.5950000000000002 3.1250000000000004 1.885 0.00013274109257684782 0.00021924166309897068 0.0003279741401299276 0.0070732773451489548 0.00017290198797944545 0.00092267965753312098 7.2150000000000007 0.00016195106464668454 1.675 0.27250000000000008
decision_type=2 2 2 2 2 2 2 2 2 2 2 2 2 2 2 2 2 2 2
left_child=18 -2 3 4 5 17 7 -4 9 15 13 -10 14 -11 -13 16 -8 -3 -1
right_child=1 2 6 -5 -6 -7 8 -9 11 10 -12 12 -14 -15 -16 -17 -18 -19 -20
leaf_value=-0.00011998883184750725 0.010894628299778279 0.0060881397067349772 -0.0014014046110440756 -0.0012377450468796026 0.019515169438223921 0.012658430686052404 0.001720411445527403 0.0081874087587614219 -0.0027036608845554099 0.0087565257151880436 0.00058885288305405659 0.0012752809469790437 -0.0024735208161069432 0.022126843702491603 0.014892279244411015 -0.0050266184879446145 0.016448029372898888 -0.0040615684867376795 -0.0020548455496144642
leaf_weight=734 29 38 591 166 46 34 195 39 177 39 26 28 41 27 32 45 20 38 1329
leaf_count=734 29 38 591 166 46 34 195 39 177 39 26 28 41 27 32 45 20 38 1329
internal_value=0 0.0014472 0.00127401 0.00372555 0.00900701 0.00461269 0.000647508 -0.000807811 0.00210283 0.00395592 0.0103722 -0.000243531 0.00406779 0.0142262 0.00853768 0.00168555 0.00309042 0.00101329 -0.00136644
internal_weight=0 1611 1582 322 156 110 1260 630 630 352 92 278 101 66 60 260 215 76 2063
internal_count=3674 1611 1582 322 156 110 1260 630 630 352 92 278 101 66 60 260 215 76 2063
is_linear=0
shrinkage=0.0480298


Tree=15
num_leaves=20
num_cat=0
split_feature=5 13 3 14 15 2 2 5 15 3 1 4 3 15 2 5 2 15 19
split_gain=3.52794 1.44576 0.995818 0.941477 0.966839 2.16483 0.8276 1.47536 1.39699 2.2397 1.90974 1.04474 1.0264 1.9016 1.22157 1.09082 1.1302 3.08406 0.797302
threshold=5.495000000000001 -8.4999999999999947 0.56500000000000006 2.0850000000000004 3.3250000000000006 0.00022948028557848781 0.00079495537080474571 8.9500000000000011 2.7750000000000004 2.0150000000000001 0.00044428057153355255 -0.99999999999998412 1.675 0.095000000000000015 5.3802354996777435e-05 7.3750000000000009 0.00011609724877024905 1.6950000000000001 -0.0014110931338891517
decision_type=2 2 2 2 2 2 2 2 2 2 2 2 2 2 2 2 2 2 2
left_child=2 -2 -1 6 -5 -6 7 12 9 -9 11 -11 13 -3 -15 18 17 -17 -16
right_child=1 3 -4 4 5 -7 -8 8 -10 10 -12 -13 -14 14 15 16 -18 -19 -20
leaf_value=0.0081698052846035409 0.012623390361517701 0.015788848293901234 -0.0013747972997308834 -0.0019762130387414819 0.00046827104107428251 0.016887818783569177 -0.0050018910427210217 -0.0043170421458754507 0.018659699104886358 0.024091499673935066 0.0015193872405722801 0.0097530488333167596 0.00074164606460600088 0.014091294039556942 0.0043786584722194221 0.023876224721700163 -0.00096930689233257184 -0.0007710752020158219 -0.0033875405419713147
leaf_weight=25 27 29 2166 284 134 21 34 39 20 20 38 27 612 20 45 22 29 24 89
leaf_count=25 27 29 2166 284 134 21 34 39 20 20 38 27 612 20 45 22 29 24 89
internal_value=0 0.00171892 -0.00126589 0.00152092 -0.000327681 0.00269285 0.00229529 0.00253997 0.00699811 0.00511721 0.00944587 0.0158545 0.00180207 0.00431749 0.00286478 0.00179048 0.00638215 0.0110168 -0.000779489
internal_weight=0 1514 2191 1487 439 155 1048 1014 144 124 85 47 870 258 229 209 75 46 134
internal_count=3705 1514 2191 1487 439 155 1048 1014 144 124 85 47 870 258 229 209 75 46 134
is_linear=0
shrinkage=0.0475495


Tree=16
num_leaves=20
num_cat=0
split_feature=5 13 5 0 14 11 15 3 3 5 1 1 3 15 5 5 15 20 14
split_gain=3.20041 1.32423 0.935783 1.55409 0.890029 1.05835 1.04369 0.766961 1.8759 0.988375 1.70729 2.5835 1.06553 1.73915 1.2161 1.85812 1.39856 1.8445 1.53237
threshold=5.495000000000001 -8.9999999999999947 2.5750000000000006 5.7426364446798134e-05 2.0850000000000004 -9.5000000000000178 3.6350000000000002 5.5500000000000007 3.1250000000000004 8.9500000000000011 0.00048392163639903368 0.0002844075817097918 1.675 0.065000000000000016 7.8750000000000009 6.9350000000000014 0.27500000000000008 0.0015335536383132011 1.7550000000000001
decision_type=2 2 2 2 2 2 2 2 2 2 2 2 2 2 2 2 2 2 2
left_child=2 -2 3 -1 7 -6 -7 8 9 12 11 -11 13 -3 15 -14 -17 18 -18
right_child=1 4 -4 -5 5 6 -8 -9 -10 10 -12 -13 14 -15 -16 16 17 -19 -20
leaf_value=0.012855673516724309 0.013085788309735931 0.0164251309407458 -0.0013438254905402324 -0.003607650394005887 0.0095148300504552738 -0.0015298185232286493 0.0073152524830595858 -0.004112377050961743 0.012858778987181099 0.0028208551633681599 -0.0043654067057462042 0.020088583061435933 -0.0010253457182844623 0.0028619523478858721 -0.0037199151436011239 0.014086321232358645 0.0013265692107486348 -0.0041114096377845777 0.01171444551544641
leaf_weight=27 22 23 2140 24 23 388 32 41 37 48 25 32 275 235 123 31 65 53 61
leaf_count=27 22 23 2140 24 23 388 32 41 37 48 25 32 275 235 123 31 65 53 61
internal_value=0 0.00162081 -0.00119364 0.00510823 0.00145176 -0.000317473 -0.000855908 0.00219892 0.00245563 0.00205921 0.00637239 0.00972795 0.00153625 0.00407107 0.000460625 0.00152084 0.00485514 0.00325644 0.00635562
internal_weight=0 1514 2191 51 1492 443 420 1049 1008 971 105 80 866 258 608 485 210 179 126
internal_count=3705 1514 2191 51 1492 443 420 1049 1008 971 105 80 866 258 608 485 210 179 126
is_linear=0
shrinkage=0.047074


Tree=17
num_leaves=20
num_cat=0
split_feature=3 14 13 15 3 19 17 6 14 3 2 0 3 18 3 3 15 2 3
split_gain=2.19914 1.11693 1.08974 1.12216 0.861847 0.697775 0.827157 0.604497 0.586513 0.781025 0.990288 0.942421 0.770067 0.776082 0.858967 0.966815 0.917742 2.6976 1.1925
threshold=1.635 -0.12499999999999999 -8.4999999999999947 3.6450000000000005 0.56500000000000006 0.014126686130834233 6.4999999999999956 0.99999999999988998 2.0850000000000004 1.885 0.00013091683169166383 0.00017559798635582183 1.6650000000000003 0.091452110950539192 1.7350000000000001 1.7650000000000003 2.9150000000000005 0.00017290198797944545 1.9950000000000003
decision_type=2 2 2 2 2 2 2 2 2 2 2 2 2 2 2 2 2 2 2
left_child=1 7 -2 5 -3 6 8 -1 12 10 -10 -12 -4 14 -14 -16 18 -18 -17
right_child=2 4 3 -5 -6 -7 -8 -9 9 -11 11 -13 13 -15 15 16 17 -19 -20
leaf_value=0.0088753072678152758 0.010637781624259655 0.0075778648430727315 0.0092169781018709342 0.012287905200969325 -0.0011208952021960011 0.0084286429703185756 -0.0034155824158979683 0.00050673692851918237 -0.00070918088971010248 -0.0023610323048632456 0.01420563173222285 0.0012767441426272241 -0.0011828196604562881 -0.0042831975846486818 0.01104855813643171 -0.00162231937735382 -0.0037525289118005051 0.018054683960188174 0.0033844059564033364
leaf_weight=38 28 25 31 20 2352 28 86 37 85 181 24 25 139 44 30 150 22 28 332
leaf_count=38 28 25 31 20 2352 28 86 37 85 181 24 25 139 44 30 150 22 28 332
internal_value=0 -0.000852728 0.00154722 0.00133943 -0.00102941 0.00115772 0.000984747 0.00474681 0.00133161 -0.00036436 0.00233264 0.00760926 0.00202005 0.00172058 0.00209743 0.00290873 0.00244972 0.00845951 0.0018263
internal_weight=0 2452 1253 1225 2377 1205 1177 75 1091 315 134 49 776 745 701 562 532 50 482
internal_count=3705 2452 1253 1225 2377 1205 1177 75 1091 315 134 49 776 745 701 562 532 50 482
is_linear=0
shrinkage=0.0466033


Tree=18
num_leaves=20
num_cat=0
split_feature=5 13 5 5 0 14 5 2 8 2 20 5 1 6 5 15 7 5 14
split_gain=2.705 1.10615 0.842341 0.819886 1.3999 0.786576 0.874186 1.1862 1.13506 1.29309 0.88207 1.41002 1.08346 1.02687 1.62444 1.37649 1.54123 2.0636 1.37785
threshold=5.495000000000001 -8.9999999999999947 5.5450000000000008 2.5750000000000006 5.7426364446798134e-05 2.0850000000000004 6.9350000000000014 0.00072509667545322032 -1.9999999999999682 9.0651917924436585e-05 0.0017820937761698909 9.0750000000000011 0.000431001232881904 1.0000000000001121 7.1850000000000014 2.1425000000000005 0.0023388668783272952 7.9050000000000011 1.9650000000000001
decision_type=2 2 2 2 2 2 2 2 2 2 2 2 2 2 2 2 2 2 2
left_child=3 -2 -3 4 -1 6 8 10 9 -4 13 -12 -13 14 -8 16 -16 -18 -17
right_child=1 2 5 -5 -6 -7 7 -9 -10 -11 11 12 -14 -15 15 18 17 -19 -20
leaf_value=0.011913007049584574 0.011730841402350329 0.008714259163503912 0.015214477769914027 -0.0012128534552681726 -0.0034013078162092813 -0.00050207638355245624 0.018065689370266699 -0.004686670332173409 -0.00095674645213883545 0.0019122943599102686 -0.0010346019473779287 0.012850276771738788 -0.00019431346367080799 0.0023500660859863726 0.017435731837917016 -0.0032913616111021437 0.014141173181117322 -0.0054029354134450917 0.010157251576099849
leaf_weight=27 22 32 20 2140 24 433 26 40 341 70 157 33 23 164 33 50 23 23 24
leaf_count=27 22 32 20 2140 24 433 26 40 341 70 157 33 23 164 33 50 23 23 24
internal_value=0 0.0014609 0.00130947 -0.00107507 0.00470627 0.00114717 0.00184253 0.0029872 0.000259628 0.00486834 0.00353928 0.00120731 0.00749268 0.00498741 0.00740376 0.00559193 0.00982732 0.00436912 0.00107035
internal_weight=0 1514 1492 2191 51 1460 1027 596 431 90 556 213 56 343 179 153 79 46 74
internal_count=3705 1514 1492 2191 51 1460 1027 596 431 90 556 213 56 343 179 153 79 46 74
is_linear=0
shrinkage=0.0461372


Tree=19
num_leaves=20
num_cat=0
split_feature=5 13 3 5 15 14 19 21 7 18 6 2 21 21 21 19 3 11 1
split_gain=2.46116 1.00643 0.785813 0.766408 0.75723 1.29616 0.906538 1.11069 0.900643 1.07787 0.90743 0.979075 0.841485 0.680329 1.22539 1.46599 0.658388 0.60642 0.558073
threshold=5.495000000000001 -8.9999999999999947 0.56500000000000006 5.5450000000000008 0.23500000000000001 0.35500000000000004 0.014126686130834233 0.011585827834808994 -0.009277810601140633 -1.0000000180025095e-35 3.0000000000000031 0.0002467173134389538 0.007748264707133413 -0.0030883837305009094 -0.001853548538254812 -0.0021844042726121833 1.8450000000000004 -9.5000000000000178 4.2619178034684759e-05
decision_type=2 2 2 2 2 2 2 2 2 2 2 2 2 2 2 2 2 2 2
left_child=2 -2 -1 -3 5 8 7 12 9 -5 11 -10 13 17 15 16 -15 -6 -16
right_child=1 3 -4 4 6 -7 -8 -9 10 -11 -12 -13 -14 14 18 -17 -18 -19 -20
leaf_value=0.0070364230501910362 0.011077716712124949 0.0082290851857806709 -0.0011081501644344769 0.014304155558328395 0.0066659988147426703 0.014066566454756849 0.009157522516016885 0.010074159507080951 -0.0013638658346263718 -5.3263765669936478e-05 -0.005482167674123563 0.010838070532756545 -0.0049268028018125635 0.0068099533497471059 -0.0037850867947202224 0.00086305128146046603 0.018389591103901322 -0.001522174635627676 0.0010780823993544006
leaf_weight=25 22 32 2166 24 20 23 26 25 34 20 39 23 60 20 53 46 21 334 692
leaf_count=25 22 32 2166 24 20 23 26 25 34 20 39 23 60 20 53 46 21 334 692
internal_value=0 0.00137957 -0.00101522 0.00123657 0.0010833 0.00401758 0.000714541 0.000541828 0.00236667 0.00777806 -0.000113545 0.00355972 0.00035057 0.000617553 0.00133113 0.0064607 0.012741 -0.00105957 0.000732112
internal_weight=0 1514 2191 1492 1460 163 1297 1271 140 44 96 57 1246 1186 832 87 41 354 745
internal_count=3705 1514 2191 1492 1460 163 1297 1271 140 44 96 57 1246 1186 832 87 41 354 745
is_linear=0
shrinkage=0.0456759


Tree=20
num_leaves=20
num_cat=0
split_feature=1 15 2 3 9 20 3 14 3 2 14 4 8 3 3 15 3 6 1
split_gain=2.07021 1.05122 4.05786 1.01283 1.10514 0.975979 0.915984 1.793 1.41719 1.26417 0.896962 1.10984 0.860327 1.46622 0.867255 0.832281 1.35967 1.18989 0.830031
threshold=5.7030305000440317e-05 0.16500000000000004 7.4566716193312911e-05 1.5250000000000001 -14.000000000000034 -0.01156810210564274 1.7750000000000001 2.2850000000000006 1.635 0.00010400410385998518 0.075000000000000025 0.99999999999998435 3.9999999999999374 3.1250000000000004 2.3550000000000004 -0.13499999999999998 1.2550000000000001 0.99999999999988998 9.5297907956866653e-05
decision_type=2 2 2 2 2 2 2 2 2 2 2 2 2 2 2 2 2 2 2
left_child=-1 2 -2 10 -5 -6 7 -7 -9 -10 11 -3 18 14 -14 -4 -17 -18 -8
right_child=1 3 15 4 5 6 12 8 9 -11 -12 -13 13 -15 -16 16 17 -19 -20
leaf_value=-0.0015835547593958451 0.02161135212357702 -0.00027327127754688262 -0.0024645330553705047 0.01170674588244695 -0.0055474011525511744 0.0017556948035955429 0.0045220693845427441 0.0020709007233381273 0.0087696562162958656 0.025490210317075254 -0.0011883681742030951 0.012405491487256119 0.0082835857841101566 0.016934887603634881 -0.0053280736356973654 -0.0029463617503643035 0.017970186425372958 0.0027982757027660097 -0.0006780193025109156
leaf_weight=1452 29 45 77 26 50 250 89 30 26 20 840 28 22 21 25 35 24 28 557
leaf_count=1452 29 45 77 26 50 250 89 30 26 20 840 28 22 21 25 35 24 28 557
internal_value=0 0.000844127 0.00437033 0.000508712 0.00151913 0.00127612 0.00160418 0.0038002 0.0105256 0.0160395 -0.000726367 0.00458982 0.000601509 0.00595102 0.00104334 0.00132161 0.00467257 0.0098007 3.84016e-05
internal_weight=0 2222 193 2029 1116 1090 1040 326 76 46 913 73 714 68 47 164 87 52 646
internal_count=3674 2222 193 2029 1116 1090 1040 326 76 46 913 73 714 68 47 164 87 52 646
is_linear=0
shrinkage=0.05


Tree=21
num_leaves=20
num_cat=0
split_feature=1 22 5 0 3 3 5 3 5 19 3 3 7 8 2 17 5 5 0
split_gain=1.86837 0.955656 0.842116 0.774926 0.662862 2.00216 3.65747 0.847112 1.91531 0.605987 0.564235 0.950387 1.19921 1.00384 1.79184 0.852535 0.777467 0.776619 0.745791
threshold=5.7030305000440317e-05 -0.0018138734089684359 2.5750000000000006 0.00014037591193023392 0.74500000000000011 0.89500000000000013 3.2950000000000004 1.0150000000000003 3.9250000000000003 0.012352744944858609 1.4750000000000003 1.885 -0.011206203393646639 1.5000000000000009 0.0003959031665177832 2.499999999999996 8.1750000000000025 5.495000000000001 0.00015159446113921214
decision_type=2 2 2 2 2 2 2 2 2 2 2 2 2 2 2 2 2 2 2
left_child=2 3 -1 -2 -3 6 -6 -7 -9 -4 -10 12 15 -13 -15 16 17 -12 -19
right_child=1 4 9 -5 5 7 -8 8 10 -11 11 13 -14 14 -16 -17 -18 18 -20
leaf_value=0.0084355419856451813 0.012915149889886381 -0.0017728836286680502 -0.001778815290113981 0.0013562600224696357 -0.0033078724429720925 -0.0032372766915034126 0.025864611041139476 0.016376473577693104 -0.00069859156319420246 0.0065840401009402486 0.0015386999301288439 -0.00094287289396941085 0.0013820967076646957 1.2822005459490946e-05 0.01451728378813113 -0.00090060206677983797 0.00044874531616057668 0.015484298196705907 0.0062273765500220988
leaf_weight=21 29 253 1409 29 21 127 22 20 454 22 23 515 477 68 31 34 28 55 36
leaf_count=21 29 253 1409 29 21 127 22 20 454 22 23 515 477 68 31 34 28 55 36
internal_value=0 0.00080192 -0.00150438 0.0071357 0.000632161 0.000950568 0.0116176 0.000705021 0.000992598 -0.00165025 0.00081382 0.00135576 0.00268364 -5.64688e-05 0.00455462 0.00621112 0.00791392 0.00974747 0.0118222
internal_weight=0 2222 1452 58 2164 1911 43 1868 1741 1431 1721 1267 653 614 99 176 142 114 91
internal_count=3674 2222 1452 58 2164 1911 43 1868 1741 1431 1721 1267 653 614 99 176 142 114 91
is_linear=0
shrinkage=0.05


end of trees

feature_importances:
f_3=88
f_15=53
f_5=46
f_1=43
f_14=39
f_2=35
f_0=15
f_8=13
f_18=12
f_13=11
f_20=10
f_6=9
f_19=7
f_22=7
f_4=6
f_21=6
f_9=4
f_17=4
f_7=3
f_11=3
f_16=2
f_10=1
f_12=1

parameters:
[boosting: gbdt]
[objective: regression]
[metric: binary_logloss]
[tree_learner: serial]
[device_type: cpu]
[data: ]
[valid: ]
[num_iterations: 10]
[learning_rate: 0.05]
[num_leaves: 20]
[num_threads: 0]
[deterministic: 0]
[force_col_wise: 0]
[force_row_wise: 0]
[histogram_pool_size: -1]
[max_depth: -1]
[min_data_in_leaf: 20]
[min_sum_hessian_in_leaf: 0.001]
[bagging_fraction: 0.7]
[pos_bagging_fraction: 1]
[neg_bagging_fraction: 1]
[bagging_freq: 5]
[bagging_seed: 3]
[feature_fraction: 0.9]
[feature_fraction_bynode: 1]
[feature_fraction_seed: 2]
[extra_trees: 0]
[extra_seed: 6]
[early_stopping_round: 0]
[first_metric_only: 0]
[max_delta_step: 0]
[lambda_l1: 0]
[lambda_l2: 0]
[linear_lambda: 0]
[min_gain_to_split: 0]
[drop_rate: 0.1]
[max_drop: 50]
[skip_drop: 0.5]
[xgboost_dart_mode: 0]
[uniform_drop: 0]
[drop_seed: 4]
[top_rate: 0.2]
[other_rate: 0.1]
[min_data_per_group: 100]
[max_cat_threshold: 32]
[cat_l2: 10]
[cat_smooth: 10]
[max_cat_to_onehot: 4]
[top_k: 20]
[monotone_constraints: ]
[monotone_constraints_method: basic]
[monotone_penalty: 0]
[feature_contri: ]
[forcedsplits_filename: ]
[refit_decay_rate: 0.9]
[cegb_tradeoff: 1]
[cegb_penalty_split: 0]
[cegb_penalty_feature_lazy: ]
[cegb_penalty_feature_coupled: ]
[path_smooth: 0]
[interaction_constraints: ]
[verbosity: 0]
[saved_feature_importance_type: 0]
[linear_tree: 0]
[max_bin: 255]
[max_bin_by_feature: ]
[min_data_in_bin: 3]
[bin_construct_sample_cnt: 200000]
[data_random_seed: 1]
[is_enable_sparse: 1]
[enable_bundle: 1]
[use_missing: 1]
[zero_as_missing: 0]
[feature_pre_filter: 1]
[pre_partition: 0]
[two_round: 0]
[header: 0]
[label_column: ]
[weight_column: ]
[group_column: ]
[ignore_column: ]
[categorical_feature: ]
[forcedbins_filename: ]
[precise_float_parser: 0]
[objective_seed: 5]
[num_class: 1]
[is_unbalance: 0]
[scale_pos_weight: 1]
[sigmoid: 1]
[boost_from_average: 1]
[reg_sqrt: 0]
[alpha: 0.9]
[fair_c: 1]
[poisson_max_delta_step: 0.7]
[tweedie_variance_power: 1.5]
[lambdarank_truncation_level: 30]
[lambdarank_norm: 1]
[label_gain: ]
[eval_at: ]
[multi_error_top_k: 1]
[auc_mu_weights: ]
[num_machines: 1]
[local_listen_port: 12400]
[time_out: 120]
[machine_list_filename: ]
[machines: ]
[gpu_platform_id: -1]
[gpu_device_id: -1]
[gpu_use_dp: 0]
[num_gpu: 1]

end of parameters

pandas_categorical:[]
