tree
version=v3
num_class=1
num_tree_per_iteration=1
label_index=0
max_feature_idx=22
objective=regression
feature_names=f_0 f_1 f_2 f_3 f_4 f_5 f_6 f_7 f_8 f_9 f_10 f_11 f_12 f_13 f_14 f_15 f_16 f_17 f_18 f_19 f_20 f_21 f_22
feature_infos=[3.5138360446667107e-07:0.0066553821535006137] [2.5600331918768856e-06:0.0039732576088439284] [9.2225614268401974e-06:0.0029579505118275174] [0.53000000000000003:6.5599999999999996] [-33.000000000000007:46] [2.4100000000000001:21.82] [-101.00000000000016:144.99999999999994] [-0.15710919088766695:0.17837578087457961] [-81:74] [-46:33.999999999999986] [-51.000000000000021:33.999999999999986] [-33.000000000000007:27.999999999999979] [-41:192.00000000000003] [-36.000000000000007:32.999999999999986] [-0.52000000000000002:2.9100000000000001] [-0.94999999999999996:3.8500000000000001] [-52:73.999999999999972] [-28.000000000000004:24.000000000000004] [-0.29572649572649579:0.64215246636771273] [-0.02958455728073861:0.047292143401983289] [-0.054746473503621829:0.033993115318416534] [-0.039377561323276189:0.045346674363414774] [-0.019984292877423981:0.018327052533256172]
tree_sizes=1498 1537 1525 1538 1522 1538 1556 1533 1541 1556 1539 1545 1528 1546 1557 1538 1549 1562 1543 1563 1525 1517 1542

Tree=0
num_leaves=16
num_cat=0
split_feature=1 15 1 4 3 1 2 3 3 1 3 6 19 14 2
split_gain=9.33884 4.73174 3.91153 2.59008 2.3865 2.09357 1.69231 1.45436 1.69203 1.11401 1.07833 1.76846 1.04053 0.747089 1.98497
threshold=0.00027566130516974247 2.8950000000000005 0.00041659036141107858 0.99999999999999545 1.5450000000000002 0.00038902402540016425 0.0003959031665177832 3.8800000000000003 5.6100000000000003 8.4653776542144366e-05 1.7750000000000001 5.9999999999999174 -0.00059336959684619373 1.2350000000000001 0.00014958479746790502
decision_type=2 2 2 2 2 2 2 2 2 2 2 2 2 2 2
left_child=4 5 -3 -4 -1 6 10 -7 -9 -6 -2 12 -12 14 -11
right_child=1 2 3 -5 9 7 -8 8 -10 13 11 -13 -14 -15 -16
leaf_value=0.048746085289380674 0.050306546647386256 0.054811966785506788 0.09036752300333617 0.067564492275566337 0.049494420289737669 0.048860899713658791 0.070944445718476246 0.06683303980635158 0.051276613184302162 0.061120534506761345 0.072005453695798749 0.049790599170609011 0.057391331912916288 0.051713676129506031 0.050752137650057517
leaf_weight=2561 41 36 20 33 461 151 26 29 44 83 29 26 21 572 104
leaf_count=2561 41 36 20 33 461 151 26 29 44 83 29 26 21 572 104
internal_value=0.0503869 0.0571877 0.0675304 0.0761694 0.0496131 0.0546795 0.059406 0.0516622 0.0574566 0.0514331 0.0568419 0.0603675 0.0658675 0.0526106 0.0553542
internal_weight=0 456 89 53 3781 367 143 224 73 1220 117 76 50 759 187
internal_count=4237 456 89 53 3781 367 143 224 73 1220 117 76 50 759 187
is_linear=0
shrinkage=1


Tree=1
num_leaves=16
num_cat=0
split_feature=2 2 3 1 21 18 7 16 0 5 3 5 21 3 17
split_gain=8.43562 3.07638 4.28141 1.81519 1.14955 1.76374 1.0222 1.79004 1.35212 0.947104 1.31504 1.49276 1.84895 1.13262 0.823879
threshold=0.00021454633883369949 0.0011109579304333353 5.9750000000000005 8.4653776542144366e-05 0.00097136827871158193 -0.010599676988975458 0.0016554961897963241 -0.99999999999998412 0.00040928595257693927 6.9350000000000014 1.8050000000000004 8.2350000000000012 -0.0020981708536345063 3.1250000000000004 -1.0000000180025095e-35
decision_type=2 2 2 2 2 2 2 2 2 2 2 2 2 2 2
left_child=3 4 -3 -1 -2 -6 7 -7 -8 -5 11 12 -11 -12 -14
right_child=1 2 -4 9 5 6 8 -9 -10 10 13 -13 14 -15 -16
leaf_value=-0.0017766695604856668 0.0025135838166928629 0.034414524789012614 0.004312712630188024 -0.00030286478552827027 0.0018523106464382374 0.022181554717060768 0.0015433635950709383 0.0067311789588751017 0.017017156714573503 0.019120506523177028 -0.0011216756878512921 -0.0025512045494427808 -0.0011599230608253768 0.0094451378645568074 0.0087673169446357523
leaf_weight=2245 355 21 27 956 99 38 48 37 20 32 202 38 33 29 57
leaf_count=2245 355 21 27 956 99 38 48 37 20 32 202 38 33 29 57
internal_value=0 0.00530423 0.0174823 -0.00090603 0.00432509 0.00698246 0.0105341 0.0145594 0.00609448 0.000545035 0.00261816 0.00610231 0.00879767 0.000204894 0.00512733
internal_weight=0 645 48 3592 597 242 143 75 68 1347 391 160 122 231 90
internal_count=4237 645 48 3592 597 242 143 75 68 1347 391 160 122 231 90
is_linear=0
shrinkage=0.05


Tree=2
num_leaves=16
num_cat=0
split_feature=1 15 1 3 1 21 2 5 3 3 14 1 22 9 15
split_gain=7.68766 4.06635 3.37404 2.02291 1.89995 1.88115 1.48915 1.4207 1.28259 1.51301 1.15573 1.14021 1.29858 1.57419 1.06189
threshold=0.00027566130516974247 2.8950000000000005 0.00038902402540016425 1.5050000000000001 0.00038902402540016425 -0.005282641437713397 0.0003959031665177832 7.4850000000000012 3.8800000000000003 5.6100000000000003 1.2350000000000001 0.00017683512872316339 -0.00035819341034870606 4.7499999999999885 2.0050000000000003
decision_type=2 2 2 2 2 2 2 2 2 2 2 2 2 2 2
left_child=3 4 -3 -1 6 -4 7 -2 -6 -10 11 12 -5 -14 -9
right_child=1 2 5 10 8 -7 -8 14 9 -11 -12 -13 13 -15 -16
leaf_value=-0.0015690583988057834 -0.00066353233220676588 0.0021055846226712069 0.035167513526976106 0.016661798208951951 -0.0016600408424802173 0.016306702787868489 0.01917137258614485 0.016651272699236868 0.015278683692730707 0.00056818681769073016 8.3664686607769125e-05 -0.0019082999841443132 0.0022740480445680162 0.015079446602612734 0.00424446520559928
leaf_weight=2421 48 30 20 23 151 39 26 35 29 44 1071 70 168 28 34
leaf_count=2421 48 30 20 23 151 39 26 35 29 44 1071 70 168 28 34
internal_value=0 0.00617019 0.0157582 -0.000702243 0.00384504 0.0227002 0.00834764 0.00594237 0.000970607 0.00641208 0.000840816 0.00364673 0.00542231 0.00410339 0.0105378
internal_weight=0 456 89 3781 367 59 143 117 224 73 1360 289 219 196 69
internal_count=4237 456 89 3781 367 59 143 117 224 73 1360 289 219 196 69
is_linear=0
shrinkage=0.05


Tree=3
num_leaves=16
num_cat=0
split_feature=2 15 13 1 2 2 21 13 15 0 3 7 16 21 8
split_gain=6.96932 4.74843 2.90687 1.57481 1.30856 3.53454 1.03369 1.80439 1.55694 1.00932 0.830427 0.772791 0.903481 0.65377 0.723399
threshold=0.00021454633883369949 2.8750000000000004 0.75000000000000633 8.4653776542144366e-05 0.00031965087587533205 0.00072509667545322032 0.00097136827871158193 4.999999999999992 0.095000000000000015 0.00039292612916385034 3.1250000000000004 -0.0055534806917958415 -1.2499999999999953 -0.0021482538447079032 4.0000000000000027
decision_type=2 2 2 2 2 2 2 2 2 2 2 2 2 2 2
left_child=3 6 4 -1 -3 -6 13 8 -8 -4 -5 12 -10 14 -2
right_child=1 2 9 10 5 -7 7 -9 11 -11 -12 -13 -14 -15 -16
leaf_value=-0.0016347301208760531 0.0017450779303908349 0.027146245478926335 -0.0028783201798796656 0.00034364064553348358 -0.0010585097130388023 0.028667507227510214 0.014844622076661498 0.018196370825171473 0.012938664205096387 0.01219142407178879 0.0088972208764532528 -0.0011699885405092078 0.00033129341279466946 -0.0016234665316765878 0.010854307949543
leaf_weight=2245 170 34 25 1318 20 20 27 25 27 20 29 88 30 134 25
leaf_count=2245 170 34 25 1318 20 20 27 25 27 20 29 88 30 134 25
internal_value=0 0.00482099 0.0138405 -0.000823784 0.0199345 0.0138045 0.00278045 0.00564486 0.00382051 0.00381934 0.000527793 0.00176775 0.00630321 0.00106528 0.00291293
internal_weight=0 645 119 3592 74 40 526 197 172 45 1347 145 57 329 195
internal_count=4237 645 119 3592 74 40 526 197 172 45 1347 145 57 329 195
is_linear=0
shrinkage=0.05


Tree=4
num_leaves=16
num_cat=0
split_feature=1 15 1 1 6 1 4 19 3 3 10 3 22 20 1
split_gain=6.3588 3.39147 2.61356 2.25351 2.05408 1.75036 1.631 1.2346 1.10353 1.31957 1.05246 0.819029 0.742981 1.44077 1.26115
threshold=0.00029888057667890782 2.8950000000000005 0.00038902402540016425 0.00038902402540016425 5.9999999999999174 8.4653776542144366e-05 0.99999999999999545 0.001673873655110625 3.8800000000000003 5.6100000000000003 -1.0000000180025095e-35 1.5450000000000002 -0.00088227951229263846 -0.000372013357928691 0.00014945198490091789
decision_type=2 2 2 2 2 2 2 2 2 2 2 2 2 2 2
left_child=5 3 -3 4 7 -1 -4 10 -5 -10 -2 -7 13 14 -13
right_child=1 2 6 8 -6 11 -8 -9 9 -11 -12 12 -14 -15 -16
leaf_value=-0.0014943668001766118 0.027715364079922439 0.0021136972853647812 0.03144460337405855 -0.0016691234369842424 -0.0015724161382893037 -0.00047490062788898939 0.01425319795270224 0.0056060729824282509 0.014098767602238164 0.00036081686531278223 0.012582371728839699 0.021827809968963267 0.0013206024006050668 -0.0011936990092649606 0.0042841426318600065
leaf_weight=2258 20 28 22 151 29 774 37 27 29 44 27 20 717 33 21
leaf_count=2258 20 28 22 151 29 774 37 27 29 44 27 20 717 33 21
internal_value=0 0.00591988 0.0146935 0.00358562 0.00970675 -0.000603675 0.0206636 0.014127 0.000770994 0.00581836 0.0190219 0.000681425 0.0018129 0.00658285 0.012842
internal_weight=0 414 87 327 103 3823 59 74 224 73 47 1565 791 74 41
internal_count=4237 414 87 327 103 3823 59 74 224 73 47 1565 791 74 41
is_linear=0
shrinkage=0.05


Tree=5
num_leaves=16
num_cat=0
split_feature=1 0 1 5 3 7 3 6 1 8 14 5 9 4 5
split_gain=4.83283 2.00838 1.17553 0.988724 1.68331 2.25289 0.641491 0.968431 0.701783 0.980503 0.757195 2.15035 1.7398 1.06059 0.850378
threshold=0.00027566130516974247 0.0018581489659376591 8.4653776542144366e-05 8.8850000000000033 2.2650000000000001 -0.038719328213035191 3.1250000000000004 -1.0000000000000007 0.00015639894608797034 -6.0000000000000018 1.2350000000000001 6.7250000000000005 -3.0000000000000133 1.0000000180025095e-35 4.7650000000000006
decision_type=2 2 2 2 2 2 2 2 2 2 2 2 2 2 2
left_child=2 3 -1 -2 -5 -6 8 -8 9 -4 11 13 -13 -11 -15
right_child=1 -3 6 4 5 -7 7 -9 -10 10 -12 12 -14 14 -16
leaf_value=-0.0013904651395259821 0.0018582790396232838 0.017514341395219853 0.0089229999747323357 0.015922804926641478 0.01751696655813318 0.0012454488020167392 0.014439210062846541 -0.0011206013895571233 -0.0012178770490061134 -0.00080040655622299565 -0.00063995811391211362 0.00053724935650825505 0.01752079563019307 0.0087225360470631775 -0.0010893396266243038
leaf_weight=2235 247 29 38 39 26 117 20 20 529 274 481 25 38 63 34
leaf_count=2235 247 29 38 39 26 117 20 20 529 274 481 25 38 63 34
internal_value=0 0.0047796 -0.000660614 0.00391875 0.0067151 0.00420391 0.000411144 0.0066593 0.000242503 0.00105314 0.000726309 0.00224054 0.0107813 0.000790218 0.00528332
internal_weight=0 458 3757 429 182 143 1522 40 1482 953 915 434 63 371 97
internal_count=4215 458 3757 429 182 143 1522 40 1482 953 915 434 63 371 97
is_linear=0
shrinkage=0.05


Tree=6
num_leaves=16
num_cat=0
split_feature=1 0 1 5 3 7 2 14 3 20 1 8 14 3 4
split_gain=4.36163 1.81256 1.06091 0.892323 1.51918 2.03323 0.640805 0.619202 0.578946 0.885315 0.633359 0.884904 0.683368 1.97284 1.33761
threshold=0.00027566130516974247 0.0018581489659376591 8.4653776542144366e-05 8.8850000000000033 2.2650000000000001 -0.038719328213035191 0.00067078586548043279 2.4650000000000003 3.1250000000000004 -0.0010233592094659458 0.00015639894608797034 -6.0000000000000018 1.2350000000000001 1.7250000000000003 1.0000000180025095e-35
decision_type=2 2 2 2 2 2 2 2 2 2 2 2 2 2 2
left_child=2 3 -1 6 -5 -6 7 -2 10 -10 11 -4 13 14 -13
right_child=1 -3 8 4 5 -7 -8 -9 9 -11 -12 12 -14 -15 -16
leaf_value=-0.0013209419079974994 0.00014973278452710408 0.016638624513971394 0.0084768500130035385 0.015126664716845904 0.016641118205510654 0.0011831763351702284 0.0099098619158295084 0.00936664929613471 -0.0011122238449752331 0.013764901757240294 -0.0011569832393543932 -0.00062741364865582822 -0.0006079603005936389 0.013010972885316925 0.0060177971316757155
leaf_weight=2235 205 29 38 39 26 117 22 20 20 20 529 294 481 38 102
leaf_count=2235 205 29 38 39 26 117 22 20 20 20 529 294 481 38 102
internal_value=0 0.00454062 -0.000627584 0.00372281 0.00637934 0.00399371 0.00176537 0.000969014 0.000390587 0.00632634 0.000230378 0.00100049 0.000689993 0.00212851 0.00108423
internal_weight=0 458 3757 429 182 143 247 225 1522 40 1482 953 915 434 396
internal_count=4215 458 3757 429 182 143 247 225 1522 40 1482 953 915 434 396
is_linear=0
shrinkage=0.05


Tree=7
num_leaves=16
num_cat=0
split_feature=2 15 13 17 1 3 2 15 19 15 1 21 3 7 3
split_gain=3.97673 2.29561 2.06187 1.71659 0.871377 0.819468 1.01453 0.823074 0.755692 0.816004 1.36573 0.674994 0.528485 1.29763 1.49706
threshold=0.00022262610528635103 2.8750000000000004 -1.0000000180025095e-35 -2.249999999999996 8.4653776542144366e-05 3.8800000000000003 0.00067078586548043279 2.5550000000000002 0.0013202861830585724 0.095000000000000015 0.00038902402540016425 0.0038224747271455865 2.0750000000000006 0.0062650950357910915 2.5750000000000006
decision_type=2 2 2 2 2 2 2 2 2 2 2 2 2 2 2
left_child=4 5 3 -3 -1 8 7 -7 9 10 -2 -4 -11 14 -14
right_child=1 2 11 -5 -6 6 -8 -9 -10 12 -12 -13 13 -15 -16
leaf_value=-0.0013132374670787579 0.016872714206576347 0.0056264886898653851 0.0087349618319422003 0.02370880713420255 0.00028909464357915969 0.01895286828618158 0.0010798945593146177 0.0049380383454263217 -0.001508193526442359 -0.00035419297029278175 -0.00065694002434611319 -0.0031235234346240759 0.01289393388684474 -0.0030048914588032627 -0.0032466116640716791
leaf_weight=2221 25 21 24 35 1373 22 39 20 147 134 20 24 51 39 20
leaf_count=2221 25 21 24 35 1373 22 39 20 147 134 20 24 51 39 20
internal_value=0 0.00363198 0.01041 0.0169279 -0.000701106 0.00226851 0.00688691 0.0122791 0.00141051 0.0028951 0.00908176 0.00280572 0.00175412 0.00432243 0.0083473
internal_weight=0 621 104 56 3594 517 81 42 436 289 45 48 244 110 71
internal_count=4215 621 104 56 3594 517 81 42 436 289 45 48 244 110 71
is_linear=0
shrinkage=0.05


Tree=8
num_leaves=16
num_cat=0
split_feature=2 15 13 17 1 3 2 14 19 15 1 22 3 7 21
split_gain=3.589 2.07179 1.86084 1.54923 0.786418 0.73957 0.915616 0.743453 0.682012 0.736443 1.23257 0.629157 0.933173 1.2422 0.609182
threshold=0.00022262610528635103 2.8750000000000004 -1.0000000180025095e-35 -2.249999999999996 8.4653776542144366e-05 3.8800000000000003 0.00067078586548043279 1.8650000000000004 0.0013202861830585724 0.095000000000000015 0.00038902402540016425 -1.0000000180025095e-35 2.1950000000000007 0.0049211255233370119 0.0038224747271455865
decision_type=2 2 2 2 2 2 2 2 2 2 2 2 2 2 2
left_child=4 5 3 -3 -1 8 7 -7 9 10 -2 -11 -13 -14 -4
right_child=1 2 14 -5 -6 6 -8 -9 -10 11 -12 12 13 -15 -16
leaf_value=-0.0012475756918260881 0.016029078453779221 0.0053451640354025935 0.0082982135859007641 0.022523366989833968 0.00027463991582958 0.018007904325019232 0.0010258999438239979 0.004688188806176186 -0.0014327837724466715 -0.0010226442859224652 -0.00062409296631813058 0.00039739337674266588 0.014901890370118269 -0.00056484785108339229 -0.0029673472357292971
leaf_weight=2221 25 21 24 35 1373 22 39 20 147 115 20 74 34 21 24
leaf_count=2221 25 21 24 35 1373 22 39 20 147 115 20 74 34 21 24
internal_value=0 0.00345038 0.00988949 0.0160815 -0.00066605 0.00215509 0.00654257 0.0116652 0.00133998 0.00275035 0.00862767 0.00166642 0.00406364 0.00899641 0.00266543
internal_weight=0 621 104 56 3594 517 81 42 436 289 45 244 129 55 48
internal_count=4215 621 104 56 3594 517 81 42 436 289 45 244 129 55 48
is_linear=0
shrinkage=0.05


Tree=9
num_leaves=16
num_cat=0
split_feature=1 0 1 5 3 7 15 15 14 0 3 6 6 18 22
split_gain=3.26826 1.49741 0.810391 0.804643 1.71453 1.63568 0.487423 0.471871 1.75522 1.07607 0.457684 0.858972 0.45436 0.655212 0.612183
threshold=0.00029160087980803414 0.0018581489659376591 8.4653776542144366e-05 8.8850000000000033 2.2650000000000001 -0.038719328213035191 3.1650000000000005 0.23500000000000001 0.065000000000000016 0.00013453221150686051 3.1250000000000004 -1.9999999999999793 -1.9999999999999793 -0.10863486101674856 -0.00033909042578922349
decision_type=2 2 2 2 2 2 2 2 2 2 2 2 2 2 2
left_child=2 3 -1 6 -5 -6 -2 8 -4 -10 12 -12 -9 -14 -15
right_child=1 -3 7 4 5 -7 -8 10 9 -11 11 -13 13 14 -16
leaf_value=-0.0011316903512216521 0.00052328130813560103 0.015077289039718694 -0.001085846931958685 0.01572487774704184 0.014686861720222695 0.00080033694272455967 0.008713656021282077 -0.0012014258723915599 0.019292768100276591 0.0048977360230039908 0.012704917024821044 -0.0016122755509885877 0.0093766468887527786 0.0037487052065336098 -0.00015696391213073659
leaf_weight=2235 198 29 98 35 26 115 20 551 20 37 20 22 21 118 670
leaf_count=2235 198 29 98 35 26 115 20 551 20 37 20 22 21 118 670
internal_value=0 0.00411204 -0.000521608 0.00330495 0.0058197 0.00336097 0.00127469 0.000354138 0.00297199 0.00994862 6.47173e-05 0.00520544 -9.40402e-05 0.000660187 0.000427895
internal_weight=0 423 3792 394 176 141 218 1557 155 57 1402 42 1360 809 788
internal_count=4215 423 3792 394 176 141 218 1557 155 57 1402 42 1360 809 788
is_linear=0
shrinkage=0.05


Tree=10
num_leaves=16
num_cat=0
split_feature=2 15 13 2 2 3 1 2 8 2 2 0 15 3 1
split_gain=3.73178 2.88178 2.25207 1.41709 2.63827 1.04324 0.909849 1.54107 0.802429 1.14994 1.3809 1.4802 1.10512 0.797018 1.51847
threshold=0.00021454633883369949 2.8750000000000004 0.75000000000000633 0.00031965087587533205 0.00072509667545322032 1.5550000000000004 0.00044428057153355255 0.00053789099948906786 -1.0000000000000118 0.00016067123683951914 9.1489185130573338e-05 0.00017696232889624416 1.8950000000000002 2.0150000000000001 0.00029888057667890782
decision_type=2 2 2 2 2 2 2 2 2 2 2 2 2 2 2
left_child=5 6 3 -3 -5 -1 7 13 9 10 -7 12 -12 -2 -15
right_child=1 2 -4 4 -6 8 -8 -9 -10 -11 11 -13 -14 14 -16
leaf_value=-0.001128285618389354 0.00038181156707332311 0.023442226746941314 0.0017529182301627266 -0.0032828075625002382 0.022399231977760795 -0.00020470608557973593 -0.0011050479385597879 0.015094543169610775 9.6293626372797415e-05 -0.0019524635991356413 0.024185769118013838 0.00070790919976738791 0.0094243485888000581 0.00088770987902894434 0.011433232051588721
leaf_weight=2550 194 34 45 20 20 49 166 26 853 61 21 26 32 81 59
leaf_count=2550 194 34 45 20 20 49 166 26 853 61 21 26 32 81 59
internal_value=0 0.00354698 0.0105735 0.0159374 0.00955821 -0.000583584 0.00195733 0.00336943 0.000749418 0.00369712 0.00638949 0.0104796 0.0152732 0.0024567 0.00533189
internal_weight=0 645 119 74 40 3592 526 360 1042 189 128 79 53 334 140
internal_count=4237 645 119 74 40 3592 526 360 1042 189 128 79 53 334 140
is_linear=0
shrinkage=0.05


Tree=11
num_leaves=16
num_cat=0
split_feature=2 15 13 2 3 21 13 15 14 14 2 7 21 7 5
split_gain=3.36871 3.26364 2.68414 2.56681 0.962079 0.84971 1.58813 1.17464 0.820375 1.46547 1.42789 1.29908 0.792775 0.633605 0.623664
threshold=0.00022948028557848781 2.8550000000000004 -1.0000000180025095e-35 0.00034611490216103204 1.5550000000000004 0.00097136827871158193 4.999999999999992 0.14500000000000005 1.2350000000000001 -0.18499999999999997 0.00014768106293573601 -0.0059691262708976281 0.0038224747271455865 -0.017932999641647403 2.5950000000000002
decision_type=2 2 2 2 2 2 2 2 2 2 2 2 2 2 2
left_child=4 5 3 -3 14 -2 7 -7 9 -6 11 -11 -4 -9 -1
right_child=1 2 12 -5 8 6 -8 13 -10 10 -12 -13 -14 -15 -16
leaf_value=0.0034315632908932261 0.00019135565226988607 0.032420494363776274 0.0092944431700743742 0.010644461147487164 -0.001859082068502903 0.011156645862967707 0.016316931217443199 0.0078178248060867192 6.909016618718175e-05 0.019255389252377134 0.0011808921561429376 0.0053404871708048239 -0.0033006871059536934 -0.0010969203248620033 -0.0011799049745448798
leaf_weight=74 307 21 24 36 75 32 24 24 883 31 57 35 25 105 2484
leaf_count=74 307 21 24 36 75 32 24 24 883 31 57 35 25 105 2484
internal_value=0 0.00348561 0.011364 0.0186672 -0.000523283 0.00178824 0.00443822 0.00266748 0.00071482 0.00359451 0.00691988 0.0118763 0.00286836 0.000561637 -0.0010465
internal_weight=0 598 106 57 3639 492 185 161 1081 198 123 66 49 129 2558
internal_count=4237 598 106 57 3639 492 185 161 1081 198 123 66 49 129 2558
is_linear=0
shrinkage=0.0495


Tree=12
num_leaves=16
num_cat=0
split_feature=1 15 1 21 6 14 3 7 3 3 3 6 14 1 9
split_gain=3.07172 1.86002 1.92775 1.90206 1.67014 1.2516 1.01157 1.12996 1.00695 0.737535 1.01051 0.712417 0.564322 1.13296 1.0169
threshold=0.00029888057667890782 2.8950000000000005 0.00038902402540016425 -0.005282641437713397 5.9999999999999174 2.2150000000000003 1.7750000000000001 0.006681207940211765 1.5050000000000001 3.8800000000000003 5.6100000000000003 15.499999999999938 1.2350000000000001 0.00017683512872316339 1.9999999999999964
decision_type=2 2 2 2 2 2 2 2 2 2 2 2 2 2 2
left_child=8 2 4 -3 6 -5 -2 -8 11 -4 -11 -1 13 14 -10
right_child=1 3 9 5 -6 -7 7 -9 12 10 -12 -13 -14 -15 -16
leaf_value=-0.0010832450371094187 0.0027082636983160463 0.022872636599969121 -0.0021512333408206553 0.014269583482202142 -0.0020640308041523759 0.00047028869257847728 0.020987626513559371 0.0062258779948465527 0.0023083831172394033 0.010950058340689746 -0.00083266984648536896 0.0070723533327017836 0.00013636645406484604 -0.0023110560146047334 0.009757557030798043
leaf_weight=2405 21 22 151 27 29 38 33 20 158 29 44 26 1089 84 61
leaf_count=2405 21 22 151 27 29 38 33 20 158 29 44 26 1089 84 61
internal_value=0 0.00404964 0.00235536 0.0104178 0.00790413 0.0062023 0.0118106 0.0154172 -0.000394197 -0.00019608 0.00384814 -0.000996019 0.000656832 0.00252742 0.00438327
internal_weight=0 414 327 87 103 65 74 53 3823 224 73 2431 1392 303 219
internal_count=4237 414 327 87 103 65 74 53 3823 224 73 2431 1392 303 219
is_linear=0
shrinkage=0.049005


Tree=13
num_leaves=16
num_cat=0
split_feature=2 15 13 12 19 5 15 21 1 21 13 15 0 7 3
split_gain=2.82287 2.18489 1.77541 1.24984 1.36003 0.791799 0.888453 1.91827 1.13298 0.783742 1.19989 1.04023 0.659527 0.598309 0.816946
threshold=0.00021454633883369949 2.8750000000000004 0.75000000000000633 -4.7499999999999867 -0.00043819761254593187 6.9350000000000014 2.1150000000000007 -0.0021482538447079032 0.00013774902947501268 0.00097136827871158193 4.999999999999992 0.19500000000000003 0.00039292612916385034 -0.0055534806917958415 2.2150000000000003
decision_type=2 2 2 2 2 2 2 2 2 2 2 2 2 2 2
left_child=5 9 3 -3 -5 -1 7 8 -7 -2 11 -11 -4 14 -13
right_child=1 2 12 4 -6 6 -8 -9 -10 10 -12 13 -14 -15 -16
leaf_value=-0.00078127875915392413 0.00020065964978497228 0.0035338917072480812 -0.0039230429455806388 0.026394996734887606 0.010714353953183703 0.016345584485662267 -0.00024983094006130737 0.00045441850097644609 0.0028110127820259192 0.0098331733492215048 0.014001203496104345 -0.00068381892562138628 0.0078968429739258439 -0.0019052487992653579 0.011559831265555856
leaf_weight=3096 329 21 25 23 30 37 315 120 24 37 25 29 20 83 23
leaf_count=3096 329 21 25 23 30 37 315 120 24 37 25 29 20 83 23
internal_value=0 0.00299283 0.00892931 0.0135504 0.0175192 -0.000492972 0.00130662 0.00401537 0.0110205 0.00164978 0.00406988 0.00262638 0.00133024 0.000651183 0.00473164
internal_weight=0 645 119 74 53 3592 496 181 61 526 197 172 45 135 52
internal_count=4237 645 119 74 53 3592 496 181 61 526 197 172 45 135 52
is_linear=0
shrinkage=0.048515


Tree=14
num_leaves=16
num_cat=0
split_feature=2 15 13 2 3 1 2 21 8 2 2 0 16 3 1
split_gain=2.56094 2.54572 2.16916 2.24633 0.749224 0.730967 1.34118 0.702385 0.665752 0.987072 1.21207 1.30919 0.991648 0.628008 1.07086
threshold=0.00022948028557848781 2.8550000000000004 -1.0000000180025095e-35 0.00034611490216103204 1.5550000000000004 0.00048392163639903368 0.00053789099948906786 0.0038224747271455865 -1.0000000000000118 0.00016067123683951914 9.1489185130573338e-05 0.00017696232889624416 2.9999999999999996 2.0150000000000001 0.00029888057667890782
decision_type=2 2 2 2 2 2 2 2 2 2 2 2 2 2 2
left_child=4 5 3 -3 -1 6 13 -4 9 10 -6 12 -12 -2 -15
right_child=1 2 7 -5 8 -7 -8 -9 -10 -11 11 -13 -14 14 -16
leaf_value=-0.0008911991936820672 -5.6162737511476066e-05 0.028554070852415122 0.0081583649245584536 0.0087878393989510428 -0.00028890112278880499 -0.0012750342140136035 0.01242854279570061 -0.0033448880551013266 5.0781649149113695e-05 -0.0014155640929989579 0.0081225755066789852 0.0004987795239468041 0.021455800511719039 7.6005836552399443e-05 0.0087633147043448059
leaf_weight=2558 179 21 24 36 49 152 30 25 882 71 31 26 22 67 64
leaf_count=2558 179 21 24 36 49 152 30 25 882 71 31 26 22 67 64
internal_value=0 0.00294836 0.00969978 0.0160701 -0.000443189 0.00149379 0.00273161 0.00228936 0.000616951 0.0031263 0.00564562 0.00932653 0.0136571 0.0017932 0.00432019
internal_weight=0 598 106 57 3639 492 340 49 1081 199 128 79 53 310 131
internal_count=4237 598 106 57 3639 492 340 49 1081 199 128 79 53 310 131
is_linear=0
shrinkage=0.0480298


Tree=15
num_leaves=16
num_cat=0
split_feature=3 3 8 1 19 6 2 7 20 20 3 0 1 3 4
split_gain=2.06948 1.75097 1.08445 0.830092 0.722217 0.6481 0.405883 0.45478 0.782119 1.00942 1.01823 0.744471 1.34252 0.534506 0.581871
threshold=4.4350000000000014 5.2700000000000005 2.0000000000000013 8.4653776542144366e-05 0.0011760041154872394 1.0000000000001121 0.00067078586548043279 -0.0057759571285092006 -0.0041538593936574766 -0.0024605896373741105 1.655 0.00026904721226787614 0.0002844075817097918 2.1950000000000007 1.9999999999999853
decision_type=2 2 2 2 2 2 2 2 2 2 2 2 2 2 2
left_child=3 -2 4 -1 5 -3 7 8 -5 10 -10 12 13 14 -11
right_child=1 2 -4 6 -6 -7 -8 -9 9 11 -12 -13 -14 -15 -16
leaf_value=-0.00085106951799242768 0.017325384076382015 0.0025947497393615155 0.012960331048348482 -0.001193657033527777 0.0059681102937065716 -0.0092319991313415724 0.0053720442106589515 -0.00016317739368169456 0.002328937705042132 0.00024959431637825455 0.015057069190161141 -0.0021656311037079514 0.012442402493815787 0.0071637403661118986 0.0077413910187363799
leaf_weight=2235 25 20 20 189 31 22 38 1157 30 238 27 92 29 36 26
leaf_count=2235 25 20 20 189 31 22 38 1157 30 238 27 92 29 36 26
internal_value=0 0.00615376 0.00315063 -0.000233299 0.000463047 -0.00360021 0.000508225 0.000406896 0.00139576 0.00241961 0.00835805 0.0016156 0.00267296 0.00172858 0.000987423
internal_weight=0 118 93 4097 73 42 1862 1824 667 478 57 421 329 300 264
internal_count=4215 118 93 4097 73 42 1862 1824 667 478 57 421 329 300 264
is_linear=0
shrinkage=0.0475495


Tree=16
num_leaves=16
num_cat=0
split_feature=3 3 8 1 19 6 15 14 1 2 0 1 8 0 17
split_gain=1.87735 1.58842 0.983771 0.753028 0.655168 0.587932 0.401499 1.08868 1.12137 0.754246 0.626396 0.476686 0.972445 0.990231 0.50716
threshold=4.4350000000000014 5.2700000000000005 2.0000000000000013 8.4653776542144366e-05 0.0011760041154872394 1.0000000000001121 0.23500000000000001 0.065000000000000016 0.000431001232881904 0.00018147679434793822 0.00014580195543478728 0.0003279741401299276 -1.9999999999999682 0.00022564939150077195 -1.0000000180025095e-35
decision_type=2 2 2 2 2 2 2 2 2 2 2 2 2 2 2
left_child=3 -2 4 -1 5 -3 7 -5 9 10 -9 -8 -13 -14 -15
right_child=1 2 -4 6 -6 -7 11 8 -10 -11 -12 12 13 14 -16
leaf_value=-0.00080249551883277434 0.016336554992830467 0.0024466569697578072 0.012220633091788535 -0.00043254766415763273 0.0056274862523734773 -0.00870509190988333 -7.4053456380070295e-05 0.01205710779693837 -0.003026446998024763 0.01657944605900739 0.00077704598149311418 -0.0039130002142923424 0.013258632133395929 -0.00072957373400708988 0.0048958574786238003
leaf_weight=2235 25 20 20 123 31 22 1440 20 21 22 24 44 22 61 85
leaf_count=2235 25 20 20 123 31 22 1440 20 21 22 24 44 22 61 85
internal_value=0 0.00580254 0.00297082 -0.000219983 0.000436619 -0.00339474 0.000479219 0.002418 0.00644809 0.00946271 0.00590435 0.000232763 0.0023168 0.00394842 0.00254551
internal_weight=0 118 93 4097 73 42 1862 210 87 66 44 1652 212 168 146
internal_count=4215 118 93 4097 73 42 1862 210 87 66 44 1652 212 168 146
is_linear=0
shrinkage=0.047074


Tree=17
num_leaves=16
num_cat=0
split_feature=0 2 19 16 21 22 18 7 2 19 20 19 20 21 3
split_gain=1.76783 0.993484 0.639456 0.849609 0.73316 1.21219 1.11285 0.859906 0.625346 0.544503 0.543318 0.81112 0.884642 1.02255 0.523828
threshold=0.0018581489659376591 0.00021454633883369949 0.0015400324872644202 11.000000000000023 0.001636455837307649 1.2081599121027688e-05 -0.070906265747001249 0.012528455583848632 0.00031965087587533205 0.013522972884498221 -0.007805424457635545 -0.01017532938699439 0.0038421404072150893 -0.0032449686472222346 0.56500000000000006
decision_type=2 2 2 2 2 2 2 2 2 2 2 2 2 2 2
left_child=1 14 3 4 6 8 -3 10 -6 -4 -8 -12 -13 -14 -1
right_child=-2 2 9 -5 5 -7 7 -9 -10 -11 11 12 13 -15 -16
leaf_value=0.0054156005829922062 0.011418220608566754 0.010608321401379101 -0.0011476769956753081 -0.004236871988542802 0.0092333159549554174 0.015823186146904415 0.0098225454434193605 -0.0036763473069622355 -0.00090880278136588639 0.0067351676287304464 -0.004458199991100845 0.00068933822644620722 0.01625908025599939 0.0028507960255089904 -0.00048336019295379688
leaf_weight=33 29 31 203 35 23 25 21 59 31 21 35 90 21 30 3528
leaf_count=33 29 31 203 35 23 25 21 59 31 21 35 90 21 30 3528
internal_value=0 -0.000127913 0.00158582 0.00269994 0.0033633 0.0073389 0.00226897 0.00125913 0.00341099 -0.00040866 0.00273727 0.00189186 0.00346812 0.00837185 -0.000428694
internal_weight=0 4186 625 401 366 79 287 256 54 224 197 176 141 51 3561
internal_count=4215 4186 625 401 366 79 287 256 54 224 197 176 141 51 3561
is_linear=0
shrinkage=0.0466033


Tree=18
num_leaves=16
num_cat=0
split_feature=1 5 5 1 2 5 15 16 11 11 2 1 5 2 1
split_gain=1.62151 1.4227 0.800195 1.28312 0.624817 0.459313 0.39907 0.553884 0.91164 0.423467 0.311302 0.844719 0.486285 0.313229 0.310382
threshold=0.0012492236694274887 16.155000000000005 15.805000000000001 0.00059420226055148094 5.3802354996777435e-05 2.5750000000000006 0.23500000000000001 2 2.7499999999999862 5.2500000000000222 0.00018460155473028173 0.0003191949020927279 6.1650000000000009 7.1681503817177099e-05 0.0003279741401299276
decision_type=2 2 2 2 2 2 2 2 2 2 2 2 2 2 2
left_child=2 -2 4 -4 -1 -6 7 10 -9 -10 13 12 -12 -7 -8
right_child=1 -3 3 -5 5 6 14 8 9 -11 11 -13 -14 -15 -16
leaf_value=-0.00097912505329608279 0.016675739426497645 0.00061788318885308525 0.012867280181785783 -0.00066369104943944364 0.0059810023799997435 0.0038553769008776747 -0.00022944726675717353 0.010205952459858201 -0.0033333180525673273 0.0055964173336370869 0.012120133201384824 -0.0035646186397573177 0.0024681155997560641 -0.0019868305123851068 0.0016072280658762075
leaf_weight=1477 23 24 26 35 29 24 2100 38 26 20 20 27 25 105 216
leaf_count=1477 23 24 26 35 29 24 2100 38 26 20 20 27 25 105 216
internal_value=0 0.00847598 -0.000141846 0.00510361 -0.000219755 0.000206704 0.000142323 0.00177144 0.00491772 0.000549176 0.000456581 0.00288696 0.0067579 -0.000899908 -5.81511e-05
internal_weight=0 47 4168 61 4107 2630 2601 285 84 46 201 72 45 129 2316
internal_count=4215 47 4168 61 4107 2630 2601 285 84 46 201 72 45 129 2316
is_linear=0
shrinkage=0.0461372


Tree=19
num_leaves=16
num_cat=0
split_feature=0 2 19 12 15 22 18 3 13 20 5 10 20 19 22
split_gain=1.50652 0.812811 0.574524 0.678676 0.829359 0.569858 1.73686 0.806953 0.760062 0.52933 0.497076 1.21212 0.496186 0.490117 0.435485
threshold=0.0018581489659376591 0.00021454633883369949 0.0015400324872644202 0.75000000000000633 2.8750000000000004 -1.208013964681953e-05 -0.068304629225580379 2.1950000000000007 -1.9999999999999891 -0.0019049022221833687 2.5750000000000006 0.50000000000005607 0.0053783727067441287 0.013522972884498221 -1.2082037031846403e-05
decision_type=2 2 2 2 2 2 2 2 2 2 2 2 2 2 2
left_child=1 10 3 4 5 12 -7 9 -9 -8 11 -1 -3 14 -4
right_child=-2 2 13 -5 -6 6 7 8 -10 -11 -12 -13 -14 -15 -16
leaf_value=0.011925024477858504 0.010331506534306596 -0.0016388182239617279 0.0013821113688198832 -0.0017562862789443328 0.0097293556789010832 0.016121263269876566 0.0042816744015554634 0.00010232087506919709 0.010936678850756854 -0.0026013453515823875 -0.00044931636580454091 -0.0018217889588051026 0.005323431144974509 0.0061940781573745765 -0.0029133325538799287
leaf_weight=23 29 90 84 67 37 22 37 22 35 63 3506 32 28 21 119
leaf_count=23 29 90 84 67 37 22 37 22 35 63 3506 32 28 21 119
internal_value=0 -0.000115079 0.00140417 0.0024392 0.0032808 0.00247745 0.0041019 0.00241766 0.006755 -5.4628e-05 -0.000381726 0.00392688 1.32409e-05 -0.000448721 -0.00113591
internal_weight=0 4186 625 401 334 297 179 157 57 100 3561 55 118 224 203
internal_count=4215 4186 625 401 334 297 179 157 57 100 3561 55 118 224 203
is_linear=0
shrinkage=0.0456759


Tree=20
num_leaves=16
num_cat=0
split_feature=3 2 3 6 3 11 2 1 2 14 15 1 20 18 13
split_gain=1.6387 0.979538 2.31047 0.825734 0.603692 0.788344 1.09426 0.618346 1.02134 1.53322 1.27096 0.90945 0.479528 0.463217 0.615988
threshold=1.635 0.0011109579304333353 5.9750000000000005 16.500000000000007 1.6850000000000003 -1.2500000000000175 0.00010777165679742416 0.00029888057667890782 0.00033986550337901535 1.9950000000000003 2.0050000000000003 0.00036108626769904126 0.0075041854172572817 0.0058303284796558117 -1.9999999999999891
decision_type=2 2 2 2 2 2 2 2 2 2 2 2 2 2 2
left_child=3 4 -3 -1 5 6 -2 -6 9 10 -9 -10 13 -13 -15
right_child=1 2 -4 -5 7 -7 -8 8 11 -11 -12 12 -14 14 -16
leaf_value=-0.00073758641083990651 0.014101465863900054 0.020888006084022068 -0.0012250657572790429 0.0080486573347890826 0.00021030197284682087 0.0012147295412169882 -0.0004852656647562981 0.0098512415950362756 0.0098611261695623412 0.017690334975719452 -0.003344841120350692 -0.0041237972744078517 0.0054510368699474 -0.0047829116654136911 0.0056370737635203314
leaf_weight=2785 36 21 27 27 945 83 20 37 24 25 36 83 28 23 37
leaf_count=2785 36 21 27 27 945 83 20 37 24 25 36 83 28 23 37
internal_value=0 0.00142807 0.0084494 -0.000653223 0.00118332 0.0043077 0.00889192 0.000832521 0.00283934 0.00700347 0.00334358 0.000746593 -0.00053264 -0.00170427 0.00164275
internal_weight=0 1425 48 2812 1377 139 56 1238 293 98 73 195 171 143 60
internal_count=4237 1425 48 2812 1377 139 56 1238 293 98 73 195 171 143 60
is_linear=0
shrinkage=0.05


Tree=21
num_leaves=16
num_cat=0
split_feature=3 16 6 2 15 13 4 1 13 8 12 3 11 0 4
split_gain=1.47893 0.897073 0.745225 0.634873 1.49749 1.83069 1.3633 1.12298 0.901526 0.91415 0.94678 0.64847 0.704255 0.702017 0.599403
threshold=1.635 -17.499999999999996 16.500000000000007 0.00025615468592144375 2.8550000000000004 0.75000000000000633 3.9999999999999871 0.00044428057153355255 3.0000000000000142 -1.0000000000000118 -1.9999999999999682 1.6850000000000003 -1.2500000000000175 7.5887237658192212e-05 -1.0000000180025095e-35
decision_type=2 2 2 2 2 2 2 2 2 2 2 2 2 2 2
left_child=2 -2 -1 11 7 6 -6 8 9 -5 14 12 13 -3 -11
right_child=1 3 -4 4 5 -7 -8 -9 -10 10 -12 -13 -14 -15 -16
leaf_value=-0.00070070713016085829 0.01038376474408088 0.0152636010538448 0.007646224516685363 -0.0034884173827974697 0.020204623086111886 -1.6730925754496927e-05 0.0038403252325952056 -0.0024208375260116547 0.013724340191110969 0.013794333134488813 -0.0013606712687760593 3.4885913422469263e-05 0.00093385357208348617 0.0028982689293722314 0.0046156147778358154
leaf_weight=2785 27 22 27 46 35 38 20 127 20 29 40 877 74 24 46
leaf_count=2785 27 22 27 46 35 38 20 127 20 29 40 877 74 24 46
internal_value=0 0.00135667 -0.000620562 0.00118233 0.00286243 0.00842293 0.014254 0.00118344 0.00371241 0.00246869 0.00485154 0.000506578 0.00395386 0.00881212 0.00816472
internal_weight=0 1425 2812 1398 401 93 55 308 181 161 115 997 120 46 75
internal_count=4237 1425 2812 1398 401 93 55 308 181 161 115 997 120 46 75
is_linear=0
shrinkage=0.05


Tree=22
num_leaves=16
num_cat=0
split_feature=5 1 3 6 5 12 6 11 13 5 0 11 8 3 1
split_gain=1.3803 0.80317 2.17606 0.628568 0.921988 0.595908 0.534049 0.566159 0.47963 0.836671 0.830359 0.666987 0.581565 0.565803 1.71223
threshold=7.3750000000000009 0.0012492236694274887 5.9750000000000005 0.99999999999988998 2.5950000000000002 9.0000000000000036 14.000000000000037 -7.4999999999999725 -0.99999999999998967 7.6250000000000009 0.00012119080949087023 -1.0000000180025095e-35 -6.9999999999999885 2.2650000000000001 0.00029888057667890782
decision_type=2 2 2 2 2 2 2 2 2 2 2 2 2 2 2
left_child=3 5 -3 -1 -5 6 7 -2 9 11 -11 -9 -12 14 -14
right_child=1 2 -4 4 -6 -7 -8 8 -10 10 12 -13 13 -15 -16
leaf_value=-0.00092972491193312997 -0.0039056334688904737 0.020055925739662989 -0.0024459583769467744 0.010387484121905722 0.00028728664694310351 0.0098290949705101202 -0.0028691674210131173 0.016171668209135532 -8.2433023131810705e-05 -0.0008681789604605924 -0.0041183637632500559 0.0042165104166737629 0.0030178632868939088 0.0010685437370704699 0.014289378188550472
leaf_weight=2118 42 21 22 23 1282 21 70 20 182 142 21 28 119 79 47
leaf_count=2118 42 21 22 23 1282 21 70 20 182 142 21 28 119 79 47
internal_value=0 0.00189283 0.00854333 -0.00039788 0.000465298 0.00152192 0.00128932 0.0017174 0.00208757 0.00295366 0.00221905 0.00919783 0.00386713 0.0045516 0.0062092
internal_weight=0 814 43 3423 1305 771 750 680 638 456 408 48 266 245 166
internal_count=4237 814 43 3423 1305 771 750 680 638 456 408 48 266 245 166
is_linear=0
shrinkage=0.05


end of trees

feature_importances:
f_3=51
f_1=49
f_2=40
f_15=27
f_5=18
f_0=16
f_13=15
f_21=15
f_6=13
f_7=13
f_14=13
f_19=12
f_8=10
f_20=9
f_4=7
f_22=7
f_11=6
f_16=6
f_18=5
f_12=4
f_17=4
f_9=3
f_10=2

parameters:
[boosting: gbdt]
[objective: regression]
[metric: binary_logloss]
[tree_learner: serial]
[device_type: cpu]
[data: ]
[valid: ]
[num_iterations: 10]
[learning_rate: 0.05]
[num_leaves: 16]
[num_threads: 0]
[deterministic: 0]
[force_col_wise: 0]
[force_row_wise: 0]
[histogram_pool_size: -1]
[max_depth: -1]
[min_data_in_leaf: 20]
[min_sum_hessian_in_leaf: 0.001]
[bagging_fraction: 0.8]
[pos_bagging_fraction: 1]
[neg_bagging_fraction: 1]
[bagging_freq: 5]
[bagging_seed: 3]
[feature_fraction: 0.9]
[feature_fraction_bynode: 1]
[feature_fraction_seed: 2]
[extra_trees: 0]
[extra_seed: 6]
[early_stopping_round: 0]
[first_metric_only: 0]
[max_delta_step: 0]
[lambda_l1: 0]
[lambda_l2: 0]
[linear_lambda: 0]
[min_gain_to_split: 0]
[drop_rate: 0.1]
[max_drop: 50]
[skip_drop: 0.5]
[xgboost_dart_mode: 0]
[uniform_drop: 0]
[drop_seed: 4]
[top_rate: 0.2]
[other_rate: 0.1]
[min_data_per_group: 100]
[max_cat_threshold: 32]
[cat_l2: 10]
[cat_smooth: 10]
[max_cat_to_onehot: 4]
[top_k: 20]
[monotone_constraints: ]
[monotone_constraints_method: basic]
[monotone_penalty: 0]
[feature_contri: ]
[forcedsplits_filename: ]
[refit_decay_rate: 0.9]
[cegb_tradeoff: 1]
[cegb_penalty_split: 0]
[cegb_penalty_feature_lazy: ]
[cegb_penalty_feature_coupled: ]
[path_smooth: 0]
[interaction_constraints: ]
[verbosity: 0]
[saved_feature_importance_type: 0]
[linear_tree: 0]
[max_bin: 255]
[max_bin_by_feature: ]
[min_data_in_bin: 3]
[bin_construct_sample_cnt: 200000]
[data_random_seed: 1]
[is_enable_sparse: 1]
[enable_bundle: 1]
[use_missing: 1]
[zero_as_missing: 0]
[feature_pre_filter: 1]
[pre_partition: 0]
[two_round: 0]
[header: 0]
[label_column: ]
[weight_column: ]
[group_column: ]
[ignore_column: ]
[categorical_feature: ]
[forcedbins_filename: ]
[precise_float_parser: 0]
[objective_seed: 5]
[num_class: 1]
[is_unbalance: 0]
[scale_pos_weight: 1]
[sigmoid: 1]
[boost_from_average: 1]
[reg_sqrt: 0]
[alpha: 0.9]
[fair_c: 1]
[poisson_max_delta_step: 0.7]
[tweedie_variance_power: 1.5]
[lambdarank_truncation_level: 30]
[lambdarank_norm: 1]
[label_gain: ]
[eval_at: ]
[multi_error_top_k: 1]
[auc_mu_weights: ]
[num_machines: 1]
[local_listen_port: 12400]
[time_out: 120]
[machine_list_filename: ]
[machines: ]
[gpu_platform_id: -1]
[gpu_device_id: -1]
[gpu_use_dp: 0]
[num_gpu: 1]

end of parameters

pandas_categorical:[]
