tree
version=v3
num_class=1
num_tree_per_iteration=1
label_index=0
max_feature_idx=22
objective=regression
feature_names=f_0 f_1 f_2 f_3 f_4 f_5 f_6 f_7 f_8 f_9 f_10 f_11 f_12 f_13 f_14 f_15 f_16 f_17 f_18 f_19 f_20 f_21 f_22
feature_infos=[3.5138360446667107e-07:0.0066553821535006137] [2.5600331918768856e-06:0.0039732576088439284] [9.2225614268401974e-06:0.0029579505118275174] [0.53000000000000003:6.5599999999999996] [-33.000000000000007:46] [2.4100000000000001:21.82] [-101.00000000000016:144.99999999999994] [-0.15710919088766695:0.17837578087457961] [-81:74] [-46:33.999999999999986] [-51.000000000000021:33.999999999999986] [-33.000000000000007:27.999999999999979] [-41:96.000000000000014] [-36.000000000000007:32.999999999999986] [-0.52000000000000002:2.9100000000000001] [-0.94999999999999996:3.8500000000000001] [-52:73.999999999999972] [-28.000000000000004:24.000000000000004] [-0.29572649572649579:0.64215246636771273] [-0.02958455728073861:0.047292143401983289] [-0.054746473503621829:0.033993115318416534] [-0.039377561323276189:0.045346674363414774] [-0.019984292877423981:0.018327052533256172]
tree_sizes=1807 1878 1885 1878 1893 1882 1882 1883 1882 1888 1861 1894 1894 1913 1904 1892 1901 1899 1901 1890

Tree=0
num_leaves=20
num_cat=0
split_feature=1 3 7 6 20 3 19 16 6 20 21 7 3 3 2 0 0 8 19
split_gain=17.3264 6.98904 2.19068 1.97085 2.55485 2.45266 2.86861 2.56264 2.0496 1.94247 1.92334 1.82869 1.91815 1.67091 1.5153 1.51485 2.60085 1.78947 2.00836
threshold=6.5726403584304391e-05 1.4950000000000003 -0.0055161523069370824 -5.0000000000000036 0.0062432867954338453 1.8350000000000002 0.0010678886996755568 1.0000000000000007 -11.999999999999831 0.00031051206165466644 0.0054576492294422527 -0.0082106832309584137 3.3350000000000004 1.4650000000000001 0.0008778760289980921 0.00039292612916385034 0.00029294299535326018 -3.0000000000000004 0.00029045520414205944
decision_type=2 2 2 2 2 2 2 2 2 2 2 2 2 2 2 2 2 2 2
left_child=13 -2 3 4 8 6 7 9 -3 -5 14 12 -7 -1 15 16 17 18 -4
right_child=1 2 10 5 -6 11 -8 -9 -10 -11 -12 -13 -14 -15 -16 -17 -18 -19 -20
leaf_value=0.15264105015095111 0.15698893523973492 0.16671368901389153 0.15940599681509232 0.17632907348599575 0.15810164900844165 0.15663870125884394 0.160239330136008 0.18690599640531039 0.18493231222419426 0.15940599681509232 0.15565599687097167 0.17340599660647604 0.1691428387752652 0.15632347258918083 0.17559647276431162 0.15557883637829428 0.17501575268004979 0.16070820809789915 0.1781938753230099
leaf_weight=1221 844 26 25 39 23 159 60 28 38 30 128 25 38 412 21 81 41 407 33
leaf_count=1221 844 26 25 39 23 159 60 28 38 30 128 25 38 412 21 81 41 407 33
internal_value=0.157269 0.160476 0.162925 0.165608 0.172395 0.16405 0.168833 0.174148 0.177531 0.168971 0.161227 0.160667 0.159051 0.15357 0.162399 0.161927 0.162944 0.161879 0.170096
internal_weight=0 2046 1202 466 87 379 157 97 64 69 736 222 197 1633 608 587 506 465 58
internal_count=3679 2046 1202 466 87 379 157 97 64 69 736 222 197 1633 608 587 506 465 58
is_linear=0
shrinkage=1


Tree=1
num_leaves=20
num_cat=0
split_feature=5 5 1 0 5 8 21 2 14 6 21 5 14 2 16 18 3 13 0
split_gain=16.9503 5.20935 4.13458 2.06766 1.96883 2.4087 1.97704 2.7971 4.55658 2.61749 1.95504 1.849 1.6778 1.74759 1.6767 1.57818 1.51098 1.53095 1.45042
threshold=4.6850000000000014 2.5750000000000006 8.5935968161977044e-05 6.4293806717573889e-05 6.5250000000000012 -3.0000000000000004 0.0051427030701910468 0.00014272775835659257 1.2350000000000001 0.99999999999988998 0.0036478049392976168 4.7750000000000012 2.4750000000000005 2.4966296907854478e-05 1.0000000000000122 -0.011139633200523134 1.6150000000000004 6.0000000000000036 2.2361522396385086e-05
decision_type=2 2 2 2 2 2 2 2 2 2 2 2 2 2 2 2 2 2 2
left_child=1 -1 12 -3 5 -4 7 8 14 15 16 -7 13 -2 -6 -10 -9 -18 -15
right_child=2 3 4 -5 6 11 -8 10 9 -11 -12 -13 -14 18 -16 -17 17 -19 -20
leaf_value=0.012272294223308564 0.014228015005588533 -0.0052165867240003619 0.010967521799702042 -0.0011873287323130866 0.017487183702843533 0.013531305960246496 0.0010788334955771765 -0.0080676136030392222 0.0061956871567027914 -0.0012125547902256835 0.016106874750154775 0.00027550919987689488 -0.0046109264944830244 -0.0050495726946327424 0.034865759863801631 0.023137865905408506 0.0059626054858835523 -0.0081826009228825585 0.0020007900738870945
leaf_weight=50 25 1166 71 438 35 28 150 22 28 51 41 435 155 90 23 27 439 20 385
leaf_count=50 25 1166 71 438 35 28 150 22 28 51 41 435 155 90 23 27 439 20 385
internal_value=0 -0.0036209 0.0032016 -0.00411633 0.00476379 0.00239217 0.00627868 0.00741567 0.0131117 0.0069468 0.0056261 0.00107716 -6.58788e-05 0.00134309 0.0243787 0.0145128 0.00473273 0.00534626 0.000664932
internal_weight=0 1654 2025 1604 1370 534 836 686 164 106 522 463 655 500 58 55 481 459 475
internal_count=3679 1654 2025 1604 1370 534 836 686 164 106 522 463 655 500 58 55 481 459 475
is_linear=0
shrinkage=0.05


Tree=2
num_leaves=20
num_cat=0
split_feature=5 5 1 15 2 3 1 2 21 3 14 21 0 14 1 3 2 1 1
split_gain=15.2977 4.70144 3.74846 3.43508 4.00236 2.7036 2.11346 2.59905 2.51993 2.50093 2.05222 1.90562 1.86606 1.75061 2.35634 1.428 1.40821 1.59759 1.3523
threshold=4.6850000000000014 2.5750000000000006 9.4936300278312307e-05 2.8750000000000004 0.00021412709822831415 1.9450000000000001 0.00011492671108808577 0.00011322572871777011 0.0011722110493427309 1.6850000000000003 1.2350000000000001 0.0051427030701910468 6.4293806717573889e-05 2.0250000000000004 0.00014654629797720495 1.7250000000000003 1.7805028538604964e-05 3.5848820148827845e-05 0.000431001232881904
decision_type=2 2 2 2 2 2 2 2 2 2 2 2 2 2 2 2 2 2 2
left_child=1 -1 10 6 13 -6 7 9 -9 -4 15 -7 -3 14 -5 -2 -12 -18 -8
right_child=2 12 3 4 5 11 18 8 -10 -11 16 -13 -14 -15 -16 -17 17 -19 -20
leaf_value=0.011658679306507111 0.0034561449089857543 -0.0049557574917634198 0.0097650475157745956 -0.0008223546296358109 0.033999107740819455 0.0186485723473809 0.0032863248792071803 0.02766681256993064 0.0052259802140972832 -0.00821818470441062 0.011904440969228745 0.0019998255670070648 -0.0011279624993126142 0.0021437321713677158 0.020806383494945135 0.017531307893139975 -0.0060403376817703249 -1.0407657215469762e-05 -0.0018698770144293386
leaf_weight=50 127 1166 58 20 20 55 708 29 22 29 20 25 438 135 34 21 149 418 155
leaf_count=50 127 1166 58 20 20 55 708 29 22 29 20 25 438 135 34 21 149 418 155
internal_value=0 -0.00343986 0.00304152 0.00466532 0.00946721 0.0175565 0.00327896 0.00902431 0.0179865 0.00377064 0.000191586 0.0134458 -0.00391051 0.00518716 0.0127957 0.0054533 -0.00113505 -0.00159499 0.00236024
internal_weight=0 1654 2025 1290 289 100 1001 138 51 87 735 80 1604 189 54 148 587 567 863
internal_count=3679 1654 2025 1290 289 100 1001 138 51 87 735 80 1604 189 54 148 587 567 863
is_linear=0
shrinkage=0.05


Tree=3
num_leaves=20
num_cat=0
split_feature=5 5 5 8 14 19 15 15 2 1 3 2 0 0 2 15 1 15 1
split_gain=13.8062 4.26745 3.38855 3.37085 2.15394 2.05857 2.17866 1.9584 2.43919 1.97797 2.72448 1.94479 1.8341 1.75822 1.5737 1.48786 1.93765 2.03364 1.47976
threshold=4.6850000000000014 2.5350000000000006 6.7250000000000005 -2.9999999999999942 2.6050000000000004 0.004783445839655843 0.65500000000000014 2.8750000000000004 0.00021412709822831415 0.00013932666621876375 1.8250000000000004 0.00021175105529494946 0.00010173907323154901 0.00014580195543478728 0.00015863812416232217 2.1425000000000005 0.00036108626769904126 2.0050000000000003 0.0002389834274486406
decision_type=2 2 2 2 2 2 2 2 2 2 2 2 2 2 2 2 2 2 2
left_child=1 -1 3 11 5 6 14 15 9 -9 -11 13 -3 -2 -4 16 17 -8 -5
right_child=2 12 4 18 -6 -7 7 8 -10 10 -12 -13 -14 -15 -16 -17 -18 -19 -20
leaf_value=0.016085994137184961 0.01151329842209816 -0.0043101488615291707 0.025570645121236642 -0.00036377085327084316 -0.0082691964918169478 0.0009180052435015612 0.006258672922849655 0.0011371089076554334 0.017833137467051997 0.028154339566826822 0.0051378326283560861 0.023006388341838664 0.00037620649105165065 -0.0047265768647193913 0.0097765119827311966 0.001161691892359938 -0.0038191136191872994 0.019276721603595295 0.0069351069331169135
leaf_weight=28 50 1380 24 937 29 187 130 81 66 20 36 22 246 25 46 224 34 39 75
leaf_count=28 50 1380 24 937 29 187 130 81 66 20 36 22 246 25 46 224 34 39 75
internal_value=0 -0.00326787 0.00288945 0.00103059 0.00513996 0.00557837 0.00682335 0.00589354 0.00993666 0.00613252 0.013358 0.00993444 -0.00360114 0.00610001 0.0151916 0.0039714 0.00707177 0.00926284 0.000177154
internal_weight=0 1654 2025 1109 916 887 700 630 203 137 56 97 1626 75 70 427 203 169 1012
internal_count=3679 1654 2025 1109 916 887 700 630 203 137 56 97 1626 75 70 427 203 169 1012
is_linear=0
shrinkage=0.05


Tree=4
num_leaves=20
num_cat=0
split_feature=3 1 1 18 15 2 22 1 14 3 22 9 10 17 9 1 20 20 0
split_gain=11.936 4.3126 2.70022 2.03265 2.01493 1.52567 1.48064 2.62247 1.47659 1.28533 1.55845 1.97702 1.61405 2.48246 1.51229 1.53363 1.50953 2.00263 1.45599
threshold=1.4950000000000003 3.5848820148827845e-05 7.6878958991197669e-05 -0.019110644246733251 0.76500000000000012 0.0008778760289980921 0.00066566828555469925 0.00092014798587458418 -0.18499999999999997 2.5750000000000006 0.00041038870236498331 -0.50000000000004474 -5.000000000000048 1.9999999999999687 9.5000000000000213 0.00012088434735780755 -0.002344915822845572 0.002549380434826332 0.00036537238660844527
decision_type=2 2 2 2 2 2 2 2 2 2 2 2 2 2 2 2 2 2 2
left_child=2 -2 -1 4 8 -6 7 9 -3 10 11 12 13 -5 15 16 -13 -18 -17
right_child=1 3 -4 6 5 -7 -8 -9 -10 -11 -12 14 -14 -15 -16 18 17 -19 -20
leaf_value=-0.0036386740344706695 -0.0047927866362292189 0.0022478211558226383 0.00011935972808650025 0.0045463478023355661 0.0001017730504922245 0.012784796267747879 -0.00026488824041335135 0.022407479643821716 0.01689036066333453 0.00072819945566794458 0.020164429431869871 -0.002102640806697309 0.001298067465956722 0.020369185390882196 -0.0035911271348595623 0.018786641465205894 0.016492529238263769 0.0032837770743803542 0.0036244199797511104
leaf_weight=1381 145 33 731 110 460 25 91 25 36 102 21 32 224 32 20 76 60 55 20
leaf_count=1381 145 33 731 110 460 25 91 25 36 102 21 32 224 32 20 76 60 55 20
internal_value=0 0.00342152 -0.00233795 0.00425913 0.0018929 0.000755537 0.00576937 0.00647609 0.00988741 0.00594646 0.00676532 0.00631797 0.00394175 0.00811206 0.00962481 0.0107125 0.00750255 0.0101753 0.0156278
internal_weight=0 1567 2112 1422 554 485 868 777 69 752 650 629 366 142 263 243 147 115 96
internal_count=3679 1567 2112 1422 554 485 868 777 69 752 650 629 366 142 263 243 147 115 96
is_linear=0
shrinkage=0.05


Tree=5
num_leaves=20
num_cat=0
split_feature=5 2 3 18 14 8 3 22 1 1 8 2 13 3 4 2 1 5 3
split_gain=11.4446 2.90433 2.77429 1.86146 2.65692 2.0277 1.63491 1.7313 2.03199 1.86884 1.60469 1.57091 1.50671 1.80884 2.72259 1.80661 1.77783 1.77388 2.13862
threshold=4.6850000000000014 0.0003959031665177832 0.56500000000000006 0.085970422819072648 2.4750000000000005 -0.41666666666666513 5.9650000000000007 3.6041016090782037e-05 0.0010567632396975984 0.00067045409494581782 6.999999999999992 0.00022227302685285188 3.9999999999999707 2.0050000000000003 -1.0000000180025095e-35 0.00023413147035680136 0.00012708015221958249 7.0850000000000009 1.2350000000000001
decision_type=2 2 2 2 2 2 2 2 2 2 2 2 2 2 2 2 2 2 2
left_child=2 3 -1 4 5 12 7 8 9 -3 -7 -6 13 15 -15 17 -16 18 -2
right_child=1 6 -4 -5 11 10 -8 -9 -10 -11 -12 -13 -14 14 16 -17 -18 -19 -20
leaf_value=0.012291020154953003 0.011059493474338366 0.0082892485551143962 -0.0033092737274686085 -0.0032589490964727583 -0.0035787939146876857 0.0013233284759549633 -0.0025609767188628516 0.018518837889035543 0.020577525185502096 -0.0066299273279206514 0.011696409223935543 0.010128900797470758 -0.0062949883341789255 0.024232604680582883 0.019349549107608343 -0.0037053158879280092 0.0023312788914170183 0.0114666072172778 0.00059520898018768456
leaf_weight=29 69 76 1649 159 229 847 30 45 23 29 39 23 25 32 21 55 57 105 167
leaf_count=29 69 76 1649 159 229 847 30 45 23 29 39 23 25 32 21 55 57 105 167
internal_value=0 0.00254051 -0.00303966 0.00191043 0.0024029 0.00324419 0.00821437 0.0100829 0.00711717 0.00416871 0.00177993 -0.00232769 0.00568738 0.00627939 0.0119515 0.0047038 0.00691312 0.00606011 0.00365468
internal_weight=0 2031 1678 1828 1669 1417 203 173 128 105 886 252 531 506 110 396 78 341 236
internal_count=3709 2031 1678 1828 1669 1417 203 173 128 105 886 252 531 506 110 396 78 341 236
is_linear=0
shrinkage=0.05


Tree=6
num_leaves=20
num_cat=0
split_feature=5 2 3 20 0 13 13 18 14 8 5 6 22 0 15 5 15 15 2
split_gain=10.3288 2.62116 2.5038 1.69472 1.81253 2.04666 1.68059 1.99971 2.22599 1.45747 1.79704 1.40619 2.25095 2.35144 1.79676 1.51342 1.28039 1.19483 3.38743
threshold=4.6850000000000014 0.0003959031665177832 0.56500000000000006 -0.0032861411180600815 0.00038013036086486979 -1.0000000180025095e-35 1.2499999999999958 0.085970422819072648 2.6450000000000005 -0.41666666666666513 4.7750000000000012 2.0000000000002243 -2.4160863026922993e-05 0.00011548751961095039 3.2850000000000006 8.9500000000000011 2.2050000000000005 2.9150000000000005 0.00021175105529494946
decision_type=2 2 2 2 2 2 2 2 2 2 2 2 2 2 2 2 2 2 2
left_child=2 6 -1 -3 16 -6 7 8 9 10 -2 12 13 -12 -14 -13 -5 -11 -19
right_child=1 3 -4 4 5 -7 -8 -9 -10 17 11 15 14 -15 -16 -17 -18 18 -20
leaf_value=0.011676469162620348 0.01949844522320706 0.0014371731143066849 -0.0031438100068694971 0.010289021693170072 0.018940643822917574 0.0023421087287939513 -0.0013973542833113457 -0.0030071576639097569 -0.0043296245637760369 0.0013679741997265778 0.023785447290069178 0.00074438604836662612 0.0028227520552841397 0.0046896184927650861 0.018137051673098047 0.013598454972872369 0.027587020591549251 0.0026806470681363208 0.021361315225561461
leaf_weight=29 23 69 1649 20 26 65 333 147 93 621 38 192 148 28 22 26 23 127 30
leaf_count=29 23 69 1649 20 26 65 333 147 93 621 38 192 148 28 22 26 23 127 30
internal_value=0 0.00241349 -0.00288768 0.00780365 0.0110819 0.00708455 0.00181491 0.00253042 0.00313429 0.00368739 0.00586349 0.00517273 0.0078472 0.0156842 0.0048046 0.00227744 0.0195414 0.00235321 0.0062502
internal_weight=0 2031 1678 203 134 91 1828 1495 1348 1255 477 454 236 66 170 218 43 778 157
internal_count=3709 2031 1678 203 134 91 1828 1495 1348 1255 477 454 236 66 170 218 43 778 157
is_linear=0
shrinkage=0.05


Tree=7
num_leaves=20
num_cat=0
split_feature=5 2 5 20 0 13 14 2 19 5 2 15 1 3 21 5 5 0 15
split_gain=9.3217 2.3656 2.35152 1.52949 1.63581 1.84711 1.52622 3.84712 2.28335 2.38363 2.09419 2.74095 3.80675 2.70906 1.51826 1.50215 1.49411 1.48714 1.77493
threshold=4.6850000000000014 0.0003959031665177832 2.5750000000000006 -0.0032861411180600815 0.00038013036086486979 -1.0000000180025095e-35 1.2350000000000001 0.00015136415005260825 0.0085315627113423682 6.5250000000000012 0.00020125595990399398 2.8750000000000004 0.00019659368262106165 2.0550000000000002 -0.0018118180523344905 4.8950000000000005 9.2000000000000011 0.00013453221150686051 0.87500000000000011
decision_type=2 2 2 2 2 2 2 2 2 2 2 2 2 2 2 2 2 2 2
left_child=2 6 -1 -3 -5 -6 7 8 9 17 -8 16 -13 -14 -11 -9 -12 18 -2
right_child=1 3 -4 4 5 -7 10 15 -10 14 11 12 13 -15 -16 -17 -18 -19 -20
leaf_value=0.0076209316979039396 0.0046557827019377759 0.0013653143160585045 -0.003081327799650339 0.018564367952734927 0.017993611670457401 0.0022250032768799709 -0.00017784966528415681 0.011729720793664456 -0.0066448588086211171 0.027280471044091079 -0.0010777906898189994 0.030387070368636738 0.016738341224414331 -0.0058741687008967772 0.011834956087717195 -0.0013848612008015972 0.0094327455262343089 -0.0014760678722744898 0.01693708853175243
leaf_weight=53 76 69 1625 43 26 65 1050 24 23 26 136 22 27 26 41 242 45 42 48
leaf_count=53 76 69 1625 43 26 65 1050 24 23 26 136 22 27 26 41 242 45 42 48
internal_value=0 0.00229281 -0.00274329 0.00741347 0.0105278 0.00673032 0.00172416 0.00400938 0.00838484 0.00986846 0.000810777 0.00486569 0.012903 0.00564541 0.0178287 -0.000201591 0.00153533 0.00665557 0.00940984
internal_weight=0 2031 1678 203 134 91 1828 522 256 233 1306 256 75 53 67 266 181 166 124
internal_count=3709 2031 1678 203 134 91 1828 522 256 233 1306 256 75 53 67 266 181 166 124
is_linear=0
shrinkage=0.05


Tree=8
num_leaves=20
num_cat=0
split_feature=5 3 2 18 14 8 15 22 14 2 8 15 2 3 5 6 0 2 17
split_gain=8.41283 2.17559 2.13495 1.50829 2.18183 1.65605 1.57168 1.81826 3.9317 1.61482 1.4551 1.71937 2.08263 1.38166 1.54721 1.76113 1.36968 1.27994 1.25417
threshold=4.6850000000000014 0.56500000000000006 0.0003959031665177832 0.085970422819072648 2.4750000000000005 -0.41666666666666513 3.2850000000000006 -2.4160863026922993e-05 1.2350000000000001 0.00013599016773257848 6.999999999999992 2.8750000000000004 0.00021175105529494946 5.9650000000000007 15.805000000000001 -6.4999999999999494 0.00022995161977178258 0.00022227302685285188 2.0000000000000013
decision_type=2 2 2 2 2 2 2 2 2 2 2 2 2 2 2 2 2 2 2
left_child=1 -1 3 4 5 6 7 8 9 -2 11 16 -13 14 15 -4 -7 -6 -17
right_child=2 -3 13 -5 17 10 -8 -9 -10 -11 -12 12 -14 -15 -16 18 -18 -19 -20
leaf_value=0.010969929191572914 0.029693648316290067 -0.0028448842913183468 0.017354056956591431 -0.0030152675818722204 -0.003334891168181032 0.0011284492169867462 0.01484956235477799 0.002181819240641163 0.0031060520037312373 0.012207909769588902 0.01096333574790221 0.003055224412738687 0.018466256798378058 -0.0028628989060719809 0.01685691120272333 -0.0016454637298981348 -0.0046490221134116569 0.0090383361215176788 0.0096199546186696919
leaf_weight=29 23 1649 27 159 229 594 38 332 107 31 39 101 28 30 44 60 124 23 42
leaf_count=29 23 1649 27 159 229 594 38 332 107 31 39 101 28 30 44 60 124 23 42
internal_value=0 -0.00260613 0.00217817 0.00163795 0.00208125 0.00284363 0.00505159 0.00429637 0.00865681 0.0196555 0.00152034 0.00108554 0.00640025 0.00704279 0.00876054 0.00599899 0.000130669 -0.00220559 0.00299324
internal_weight=0 1678 2031 1828 1669 1417 531 493 161 54 886 847 129 203 173 129 718 252 102
internal_count=3709 1678 2031 1828 1669 1417 531 493 161 54 886 847 129 203 173 129 718 252 102
is_linear=0
shrinkage=0.05


Tree=9
num_leaves=20
num_cat=0
split_feature=5 5 2 1 18 13 20 0 13 3 5 2 14 22 3 0 3 5 5
split_gain=7.59258 2.04385 1.92679 1.41508 1.73397 1.50742 1.34423 1.46639 1.64339 1.32463 4.16582 1.94641 2.4957 1.60576 1.50677 1.84683 1.38982 1.63631 2.31155
threshold=4.6850000000000014 2.5750000000000006 0.0003959031665177832 2.9587252760402096e-05 0.085970422819072648 2.9999999999999862 -0.0032861411180600815 0.00038013036086486979 -1.0000000180025095e-35 1.9950000000000003 6.0550000000000006 0.00022932187716886209 1.3825000000000001 -0.00049008577381393071 2.5750000000000006 0.00020738543161622747 1.8050000000000004 6.9350000000000014 8.2050000000000018
decision_type=2 2 2 2 2 2 2 2 2 2 2 2 2 2 2 2 2 2 2
left_child=1 -1 3 -2 5 9 -4 -8 -9 16 -11 12 13 -12 15 -13 17 -5 -19
right_child=2 -3 6 4 -6 -7 7 8 -10 10 11 14 -14 -15 -16 -17 -18 18 -20
leaf_value=0.0071866369050628742 -0.003715874580275111 -0.0027909684208723218 0.0010206078273662623 0.0017536996416226147 -0.0031019403766363099 -0.0020299300286896835 0.017219313476667848 0.016638890567880409 0.0017652158783032345 0.027894615978002548 0.02224997479468584 0.026281313824912778 -0.0016817017748261131 0.0035576620311648759 0.0029415465718091922 0.0079363084014724278 -0.00153935059833412 0.0097949683342290969 -0.0021595307108428744
leaf_weight=53 119 1625 69 643 156 169 43 26 65 20 20 23 151 27 43 34 208 161 54
leaf_count=53 119 1625 69 643 156 169 43 26 65 20 20 23 151 27 43 34 208 161 54
internal_value=0 -0.00247582 0.00206926 0.00155606 0.00192315 0.00242792 0.00669065 0.0096103 0.00601484 0.00297227 0.00580441 0.00432185 0.0014501 0.0115118 0.0100079 0.0153387 0.00212741 0.00301632 0.00679244
internal_weight=0 1678 2031 1828 1709 1553 203 134 91 1384 318 298 198 47 100 57 1066 858 215
internal_count=3709 1678 2031 1828 1709 1553 203 134 91 1384 318 298 198 47 100 57 1066 858 215
is_linear=0
shrinkage=0.05


Tree=10
num_leaves=20
num_cat=0
split_feature=1 3 7 6 20 3 19 15 6 7 21 3 20 15 14 15 6 3 15
split_gain=7.71489 3.10421 1.80329 1.54252 2.17846 2.16671 2.51836 1.97401 1.56994 1.56639 1.4078 1.28871 1.16474 1.14037 1.39538 1.52553 1.6055 4.27427 1.10402
threshold=6.5726403584304391e-05 1.4950000000000003 -0.0055161523069370824 -5.0000000000000036 0.0062432867954338453 1.8350000000000002 0.0010678886996755568 0.85500000000000009 -11.999999999999831 -0.0082106832309584137 0.0054576492294422527 3.3350000000000004 0.0020822700835461121 3.3550000000000004 0.31500000000000006 1.1650000000000003 6.9999999999999627 1.155 2.8950000000000005
decision_type=2 2 2 2 2 2 2 2 2 2 2 2 2 2 2 2 2 2 2
left_child=-1 13 3 4 8 6 7 -5 -3 11 18 -7 -9 14 15 16 -2 -18 -4
right_child=1 2 10 5 -6 9 -8 12 -10 -11 -12 -13 -14 -15 -16 -17 17 -19 -20
leaf_value=-0.0024617541898486811 -0.00042472613757831761 0.0074924162660653772 0.0019460946623537992 0.026414926111698152 -0.00098141007449315952 -0.0018181608626677557 0.001278004286189874 0.014603962035228811 0.023437384163078511 0.013444804489612581 -0.0025282875052653254 0.0084310478677875108 0.0011135886733730635 0.011056771230968564 -0.0026096613922857821 0.013247906932464013 0.024880486046490465 -0.0049862485527992252 0.0067467163475911796
leaf_weight=1633 351 26 444 25 23 159 60 48 38 25 128 38 24 22 397 26 23 25 164
leaf_count=1633 351 26 444 25 23 159 60 48 38 25 128 38 24 22 397 26 23 25 164
internal_value=0 0.00214668 0.00377865 0.00621252 0.0122167 0.00483425 0.00932974 0.0143102 0.0169597 0.00165501 0.00223764 0.000158844 0.0101072 -0.000177518 -0.000478192 0.00151285 0.000748161 0.0093249 0.003241
internal_weight=0 2046 1202 466 87 379 157 97 64 222 736 197 72 844 822 425 399 48 608
internal_count=3679 2046 1202 466 87 379 157 97 64 222 736 197 72 844 822 425 399 48 608
is_linear=0
shrinkage=0.05


Tree=11
num_leaves=20
num_cat=0
split_feature=1 3 5 7 18 6 20 3 6 7 22 3 21 16 11 20 21 7 15
split_gain=6.96268 2.80155 1.74759 1.62747 1.39977 1.39212 1.96606 1.95545 1.41687 1.41366 1.26769 1.16306 1.11444 1.05502 1.30195 1.35837 1.2679 1.22747 1.02918
threshold=6.5726403584304391e-05 1.4950000000000003 2.5750000000000006 -0.0055161523069370824 -0.013665280631860453 -5.0000000000000036 0.0062432867954338453 1.8350000000000002 -11.999999999999831 -0.0082106832309584137 0.00074087035384207145 3.3350000000000004 -0.0021406837773617622 1.0000000000000007 -6.9999999999999609 0.00031051206165466644 -0.0005697345108626738 -0.015892173284085872 3.3550000000000004
decision_type=2 2 2 2 2 2 2 2 2 2 2 2 2 2 2 2 2 2 2
left_child=2 18 -1 5 12 6 8 13 -3 11 -6 -9 -5 14 -7 17 -15 -16 -2
right_child=1 3 -4 4 10 7 -8 9 -10 -11 -12 -13 -14 16 15 -17 -18 -19 -20
leaf_value=0.0099447255302220587 -0.00044973966874943603 0.0070466177578155809 -0.0025291615746149397 0.0040572647609420729 0.0049987325642001012 0.017048783373087645 -0.00092301599065894671 -0.0017099803047922425 0.022042859855843217 0.01264483832448721 -0.0067634610151872041 0.0079294003197237072 -0.0018920019971935648 0.024482117486000061 0.016817499175965787 -0.0031987861901521687 0.0076067724404856561 0.0014558371018904906 0.010398893538862466
leaf_weight=28 822 26 1605 111 348 22 23 159 38 25 24 38 253 20 25 40 24 26 22
leaf_count=28 822 26 1605 111 348 22 23 159 38 25 24 38 253 20 25 40 24 26 22
internal_value=0 0.00201896 -0.00231528 0.00355382 0.00210451 0.00584287 0.0114898 0.00454662 0.0159506 0.00155654 0.00423988 0.000149393 -7.78025e-05 0.00877462 0.00624258 0.00363009 0.0152774 0.00898606 -0.000166955
internal_weight=0 2046 1633 1202 736 466 87 379 64 222 372 197 364 157 113 91 44 51 844
internal_count=3679 2046 1633 1202 736 466 87 379 64 222 372 197 364 157 113 91 44 51 844
is_linear=0
shrinkage=0.0495


Tree=12
num_leaves=20
num_cat=0
split_feature=1 3 15 18 15 14 21 17 20 21 15 1 10 19 18 3 3 3 3
split_gain=6.29044 2.53106 1.49127 1.60496 1.68894 1.78028 1.19339 0.990424 1.97883 1.15365 0.966045 2.46346 0.986547 1.09616 0.962785 0.989199 1.78085 1.52094 1.5024
threshold=6.5726403584304391e-05 1.4950000000000003 3.5650000000000004 -0.029035810951784143 0.76500000000000012 -0.16499999999999995 0.0053192288897494508 3.9999999999999707 -0.000372013357928691 -0.00020591971477385004 2.9250000000000003 0.00015078858974383773 8.9999999999999982 -0.0053083807449998402 0.089442852301307454 2.5050000000000003 3.1250000000000004 5.8650000000000011 2.1950000000000007
decision_type=2 2 2 2 2 2 2 2 2 2 2 2 2 2 2 2 2 2 2
left_child=-1 -2 3 4 5 -3 10 14 9 -9 12 -12 13 -6 15 18 -17 -18 -5
right_child=1 2 -4 7 6 -7 -8 8 -10 -11 11 -13 -14 -15 -16 16 17 -19 -20
leaf_value=-0.0021786666740791212 -0.00015710415381880839 -0.0019136084542237222 0.014521009392301951 0.0042914556214809418 0.008037251971308142 0.017376564048975706 -0.006829389468420829 0.023855307158567013 0.0025525668225872974 0.0095344523306723147 -0.0049810235245259741 0.014399826108533889 -0.0093491099381832216 -0.001529954233364417 -0.0013780626776632738 -0.0049392381402674846 0.012728051713986978 -0.003783940178932888 0.012788910761134406
leaf_weight=1633 844 20 28 405 36 27 63 22 65 35 28 36 29 143 82 68 37 21 57
leaf_count=1633 844 20 28 405 36 27 63 22 65 35 28 36 29 143 82 68 37 21 57
internal_value=0 0.00189983 0.00334413 0.00307756 0.000468592 0.00916798 -0.000751919 0.00433593 0.00839704 0.0150618 0.00065573 0.0059207 -0.000964262 0.000394177 0.00359644 0.00429016 0.000441325 0.00674957 0.00533984
internal_weight=0 2046 1202 1174 382 47 335 792 122 57 272 64 208 179 670 588 126 58 462
internal_count=3679 2046 1202 1174 382 47 335 792 122 57 272 64 208 179 670 588 126 58 462
is_linear=0
shrinkage=0.049005


Tree=13
num_leaves=20
num_cat=0
split_feature=0 15 1 5 15 2 1 2 3 1 1 1 1 13 18 18 7 4 2
split_gain=5.78525 2.98608 2.87046 1.54404 1.86944 1.68809 1.60986 1.95206 1.41683 1.53767 2.32156 1.40849 1.99797 1.74634 1.39978 1.5359 2.05994 1.33845 1.9872
threshold=6.5323925252808233e-05 2.8750000000000004 0.00041659036141107858 4.6850000000000014 2.7250000000000005 2.6496290387515397e-05 3.7838225880678947e-05 4.3855695264137616e-05 1.9950000000000003 9.770877397249885e-05 0.00015377169860184874 0.000431001232881904 0.00031067803756707407 -0.75000000000000611 -0.019430346348390467 -0.0047946330760870173 -0.012008947917474254 -2.0000000000000235 0.00017929403305040422
decision_type=2 2 2 2 2 2 2 2 2 2 2 2 2 2 2 2 2 2 2
left_child=3 11 17 -1 5 -5 -7 -8 9 -9 -11 12 14 -14 -2 16 -16 -3 -19
right_child=1 2 -4 4 -6 6 7 8 -10 10 -12 -13 13 -15 15 -17 -18 18 -20
leaf_value=-0.0028765355994549591 -0.0010110113516617679 -0.003161020399647765 0.017395698820007445 0.013724496098394693 -0.0038059632770861621 -0.0043759112730028284 0.015385876442945749 -0.0024887798215706557 0.010608604118804075 0.012173598759269016 -0.0068583380446158347 -0.0032503572834882881 -0.0036751281087622047 0.011163919443010886 0.018762223514068699 0.0013038073613646768 0.0039064502857477567 0.0036410035103086281 0.014360274466392963
leaf_weight=1206 496 48 45 27 192 93 27 153 36 48 22 162 24 84 28 617 102 219 50
leaf_count=1206 496 48 45 27 192 93 27 153 36 48 22 162 24 84 28 617 102 219 50
internal_value=0 0.00197134 0.00592948 -0.00187708 0.000138547 0.00200393 0.00116896 0.00297201 0.0016779 0.00023617 0.00619213 0.00102432 0.0015369 0.00786635 0.000986957 0.00231359 0.00710616 0.00430178 0.00563343
internal_weight=0 1875 362 1804 598 406 379 286 259 223 70 1513 1351 108 1243 747 130 317 269
internal_count=3679 1875 362 1804 598 406 379 286 259 223 70 1513 1351 108 1243 747 130 317 269
is_linear=0
shrinkage=0.048515


Tree=14
num_leaves=20
num_cat=0
split_feature=0 15 1 5 5 15 2 1 2 3 2 5 18 15 5 4 1 8 1
split_gain=5.24058 2.77563 2.59199 1.52526 1.38613 1.80505 1.51079 1.47112 1.74043 1.36143 2.37839 1.20334 1.18781 1.36465 1.92438 1.29555 1.19877 1.15146 1.8019
threshold=6.3499182144671006e-05 2.8750000000000004 0.00041659036141107858 2.5750000000000006 4.6850000000000014 2.7250000000000005 2.6496290387515397e-05 3.7838225880678947e-05 4.3855695264137616e-05 2.3250000000000006 0.00020803536314443157 2.5950000000000002 -0.019430346348390467 2.3450000000000002 7.2950000000000008 1.0000000000000122 0.00016127300123694045 2.0000000000000013 9.770877397249885e-05
decision_type=2 2 2 2 2 2 2 2 2 2 2 2 2 2 2 2 2 2 2
left_child=4 3 9 -2 11 6 -6 -8 -9 10 -3 -1 13 14 15 -5 -17 18 -10
right_child=1 2 -4 12 5 -7 7 8 17 -11 -12 -13 -14 -15 -16 16 -18 -19 -20
leaf_value=0.0059041282486003979 0.014112786972599356 0.0039306420092166802 0.016386230021256935 -0.0021607753234850896 0.012928066413663869 -0.0037454615792496654 -0.0041025574089685341 0.0144930370924433 0.00027541215012971053 -0.0018998465572746515 0.01794882547861678 -0.0030132154730809582 0.001888215655579444 -0.0049239041945136021 0.0062854236815357923 0.015287497814445345 -0.0007906009884521537 -0.0060417486296008996 0.010164791262204622
leaf_weight=36 20 219 45 340 27 189 92 27 152 69 32 1152 893 145 101 20 23 38 59
leaf_count=36 20 219 45 340 27 189 92 27 152 69 32 1152 893 145 101 20 23 38 59
internal_value=0 0.00182678 0.00559305 0.000935277 -0.00180115 0.000114797 0.00196186 0.00115727 0.00291055 0.00407526 0.00571782 -0.00274299 0.000762116 -0.000836623 0.000387873 -0.00116736 0.00668758 0.00165461 0.00304069
internal_weight=0 1907 365 1542 1772 584 395 368 276 320 251 1188 1522 629 484 383 43 249 211
internal_count=3679 1907 365 1542 1772 584 395 368 276 320 251 1188 1522 629 484 383 43 249 211
is_linear=0
shrinkage=0.0480298


Tree=15
num_leaves=20
num_cat=0
split_feature=5 3 18 1 14 2 18 0 0 8 3 3 5 20 1 9 3 1 3
split_gain=4.50274 1.72429 1.47157 1.915 1.55469 1.95443 1.1618 1.93551 1.34298 1.69999 1.42559 2.09974 1.64203 2.71084 1.3042 1.17372 1.13189 1.33955 1.12291
threshold=4.6850000000000014 0.56500000000000006 0.085970422819072648 0.0010567632396975984 2.4750000000000005 0.00022932187716886209 0.045897874158743697 0.00016824764571012144 0.0002226209233078661 -0.41666666666666513 1.2350000000000001 2.0050000000000003 7.6050000000000013 0.0021387845360811846 0.00010511337443654477 -0.99999999999999523 3.0050000000000003 0.00067045409494581782 1.7250000000000003
decision_type=2 2 2 2 2 2 2 2 2 2 2 2 2 2 2 2 2 2 2
left_child=1 -1 3 4 6 -6 8 14 9 10 -2 15 13 -13 -8 -12 -10 -18 -17
right_child=2 -3 -4 -5 5 -7 7 -9 16 -11 11 12 -14 -15 -16 18 17 -19 -20
leaf_value=0.0096550034141902764 0.012880078659446908 -0.0020410093641468293 -0.0024943803499474886 0.012759930849961083 -0.0030713902314910019 0.011179411259014208 0.0064103009979491884 0.011742917611010765 -0.0019687041831984047 0.0011778479070778767 -0.0011504668675778511 0.029378700090859237 0.0030743031141422859 0.0049181887684710364 -0.0036053943634127405 0.0079231246337430842 0.0110768299884962 -0.0043493233123030172 -0.0038629384472052891
leaf_weight=29 48 1649 190 36 233 24 66 74 292 646 129 21 32 20 53 89 35 20 23
leaf_count=29 48 1649 190 36 233 24 66 74 292 646 129 21 32 20 53 89 35 20 23
internal_value=0 -0.00183887 0.00148973 0.00190091 0.00168433 -0.00174058 0.00225293 0.00570451 0.00176131 0.00263961 0.00524817 0.00408151 0.0111465 0.0174467 0.00194953 0.00194149 -0.000790084 0.00546732 0.00550277
internal_weight=0 1678 2031 1841 1805 257 1548 193 1355 1008 362 314 73 41 119 241 347 55 112
internal_count=3709 1678 2031 1841 1805 257 1548 193 1355 1008 362 314 73 41 119 241 347 55 112
is_linear=0
shrinkage=0.0475495


Tree=16
num_leaves=20
num_cat=0
split_feature=5 3 2 3 20 1 0 6 18 13 14 2 21 14 15 1 1 15 2
split_gain=4.08471 1.56421 1.38866 1.25931 1.37832 1.71701 1.37985 1.55995 1.24025 1.34909 1.35392 1.17104 1.67744 1.60963 1.91764 1.35545 1.62742 1.61546 1.53683
threshold=4.6850000000000014 0.56500000000000006 0.0003959031665177832 5.9650000000000007 0.0067364908507998597 0.0010567632396975984 0.00043359314916635751 -1.0000000000001117 0.1083406268499665 1.2499999999999958 2.6450000000000005 0.00015448375295714969 0.0070749939226967271 1.2350000000000001 1.1050000000000002 0.00014654629797720495 0.00012708015221958249 2.4350000000000005 0.00011412937101460319
decision_type=2 2 2 2 2 2 2 2 2 2 2 2 2 2 2 2 2 2 2
left_child=1 -1 8 4 5 6 7 -4 9 10 11 13 -13 14 -2 16 18 -17 -15
right_child=2 -3 3 -5 -6 -7 -8 -9 -10 -11 -12 12 -14 15 -16 17 -18 -19 -20
leaf_value=0.00910395372607113 0.0035316743823171548 -0.0019245207078884032 0.016666163100536265 -0.0038051028467365636 0.015296840341552445 0.01502877953898241 -0.0031367112436107643 0.0005938270253760229 -0.0039230098304309834 -0.0014469642590504471 -0.0035238852287142633 -0.00019790675101030296 0.0097245297097869644 0.00073056926749390499 0.012192786043930898 -0.0020004368653894862 -0.0090457617755435593 0.014528162968735492 0.0081927832697066029
leaf_weight=29 159 1649 23 30 33 28 57 32 107 322 94 477 41 377 88 20 32 38 73
leaf_count=29 159 1649 23 30 33 28 57 32 107 322 94 477 41 377 88 20 32 38 73
internal_value=0 -0.00173392 0.0014047 0.00509842 0.00664239 0.00460241 0.00199582 0.00731499 0.000994514 0.00130025 0.00193256 0.00232559 0.00058746 0.00346963 0.00661741 0.00202981 0.00121169 0.00882865 0.00194111
internal_weight=0 1678 2031 203 173 140 112 55 1828 1721 1399 1305 518 787 247 540 482 58 450
internal_count=3709 1678 2031 203 173 140 112 55 1828 1721 1399 1305 518 787 247 540 482 58 450
is_linear=0
shrinkage=0.047074


Tree=17
num_leaves=20
num_cat=0
split_feature=3 2 3 14 15 0 0 0 0 16 18 13 3 3 8 3 3 21 3
split_gain=3.46197 1.41377 1.31499 1.35995 1.40827 1.539 1.31346 1.8035 1.72531 1.27762 1.3006 1.36209 1.38029 2.04508 2.25288 1.99868 1.93798 1.84064 1.62947
threshold=1.4850000000000001 4.2996497766887604e-05 0.56500000000000006 0.30250000000000005 0.14500000000000005 0.00025807362364120594 9.5942178622793664e-05 0.00013946473670006969 0.00012119080949087023 -13.000000000000005 0.081142826735724718 2.9999999999999862 1.9950000000000003 2.2650000000000001 -2.9999999999999853 2.1950000000000007 1.8050000000000004 -0.0021958827760918949 2.0350000000000006
decision_type=2 2 2 2 2 2 2 2 2 2 2 2 2 2 2 2 2 2 2
left_child=2 -2 -1 4 -4 6 -6 8 -8 -3 11 12 16 15 -15 17 -11 -14 -19
right_child=1 9 3 -5 5 -7 7 -9 -10 10 -12 -13 13 14 -16 -17 -18 18 -20
leaf_value=0.008588640193726951 -0.0026885914727053733 0.0099617423611320574 -0.0027919642870774539 -0.0023530963871190853 0.00043723346331643647 -0.0058875428258610167 0.0051567208129810124 0.0010985163868181779 0.018961465244965996 0.0032794823548053429 -0.0024070620896293614 -0.0014430198270423572 -0.0023116352257183861 0.012598330097324466 0.0008020851179637448 0.02144036540320067 -0.0020298212842207166 0.019197525654145772 0.0051112791138895122
leaf_weight=29 151 43 250 1267 311 56 51 96 32 494 143 183 32 42 216 26 214 31 42
leaf_count=29 151 43 250 1267 311 56 51 96 32 494 143 183 32 42 216 26 214 31 42
internal_value=0 0.00160509 -0.00126616 -0.00140469 0.000104904 0.00143131 0.00226775 0.00544814 0.010479 0.00204735 0.00180819 0.00227911 0.00290003 0.00513022 0.0027224 0.00987232 0.00167469 0.00700785 0.0110931
internal_weight=0 1617 2092 2063 796 546 490 179 83 1466 1423 1280 1097 389 258 131 708 105 73
internal_count=3709 1617 2092 2063 796 546 490 179 83 1466 1423 1280 1097 389 258 131 708 105 73
is_linear=0
shrinkage=0.0466033


Tree=18
num_leaves=20
num_cat=0
split_feature=5 5 2 20 0 13 16 18 13 14 8 5 10 18 15 12 22 19 15
split_gain=3.41843 1.32718 1.23029 1.16856 1.35084 1.28981 1.14961 1.0637 1.15396 1.18151 1.09641 1.35255 1.41685 1.15255 1.05494 1.02124 1.76068 1.45717 1.13426
threshold=4.6850000000000014 2.5750000000000006 0.0003959031665177832 -0.0032861411180600815 0.00038013036086486979 -1.0000000180025095e-35 3.9999999999999871 0.1083406268499665 1.2499999999999958 2.6450000000000005 -0.41666666666666513 4.8550000000000013 -5.4166666666666465 0.068255918226013304 2.2050000000000005 1.9999999999999896 -0.00022136472224321133 -0.0069935534337357544 2.8750000000000004
decision_type=2 2 2 2 2 2 2 2 2 2 2 2 2 2 2 2 2 2 2
left_child=1 6 7 -4 14 -6 -1 8 9 10 11 -2 13 -13 -5 17 -17 -12 -19
right_child=2 -3 3 4 5 -7 -8 -9 -10 -11 15 12 -14 -15 -16 16 -18 18 -20
leaf_value=0.010920058197735399 0.011934265997090375 -0.0017888864827691224 -0.00021108507612022505 0.0061682358026907708 0.012679575013395132 0.00052073165892582436 -0.0030981881398942442 -0.0035823079543568998 -0.0013315588517577553 -0.0032639485457522568 -0.0052887125358904979 -0.0036369419210270653 0.0045708280117333026 0.0081182290215234838 0.020656671695807937 0.017569058175399985 0.001446263317651494 0.00028145647493755475 0.0049713833733835465
leaf_weight=33 40 1625 69 20 26 65 20 107 322 94 81 92 342 22 23 21 46 522 139
leaf_count=33 40 1625 69 20 26 65 20 107 322 94 81 92 342 22 23 21 46 522 139
internal_value=0 -0.00155455 0.00125956 0.00466709 0.00717899 0.00399469 0.00563015 0.000881155 0.00115866 0.00173182 0.00209167 0.00379959 0.00308602 -0.0013684 0.0139179 0.00104454 0.00649968 0.000551963 0.00126769
internal_weight=0 1678 2031 203 134 91 53 1828 1721 1399 1305 496 456 114 43 809 67 742 661
internal_count=3709 1678 2031 203 134 91 53 1828 1721 1399 1305 496 456 114 43 809 67 742 661
is_linear=0
shrinkage=0.0461372


Tree=19
num_leaves=20
num_cat=0
split_feature=5 3 3 3 21 14 3 18 3 5 2 3 5 5 2 15 15 15 0
split_gain=3.11027 1.24592 1.1568 1.52819 1.4865 1.89712 1.38183 1.16378 1.44944 2.40323 2.01642 1.70878 1.57256 2.15424 1.94867 1.53266 1.92569 1.28954 1.25221
threshold=4.6850000000000014 0.56500000000000006 3.3150000000000004 5.9650000000000007 -0.0070831142742918121 1.8425000000000002 2.6150000000000007 0.085970422819072648 1.9950000000000003 6.0550000000000006 0.00011140771744116544 1.8050000000000004 6.9350000000000014 8.3150000000000031 0.00023934326616045274 2.3350000000000004 2.1750000000000003 2.4150000000000005 0.00012379056125595713
decision_type=2 2 2 2 2 2 2 2 2 2 2 2 2 2 2 2 2 2 2
left_child=1 -1 6 4 -4 -6 7 8 11 -10 -11 12 -2 14 -14 16 -12 -13 -17
right_child=2 -3 3 -5 5 -7 -8 -9 9 10 15 17 13 -15 -16 18 -18 -19 -20
leaf_value=0.0079172827229716473 0.0007383313848131237 -0.0016330569190054966 0.019235567433958486 -0.0036558586074582557 0.017452858748121813 0.0011746559043512054 -0.0042396998176895354 -0.0024557453968680775 0.017551964591884114 -0.0027273454289756137 0.0059747371231189715 -0.0058426933441518385 0.0089102893190929674 -0.0063563440203335056 -0.0029812169754290891 0.0091502057098856084 0.020266531603531316 0.00079929024857882227 -0.0023024894012628749
leaf_weight=29 819 1649 20 30 20 59 103 165 26 89 109 124 161 30 35 28 24 120 69
leaf_count=29 819 1649 20 30 20 59 103 165 26 89 109 124 161 30 35 28 24 120 69
internal_value=0 -0.001468 0.00118944 0.00537517 0.00811185 0.00529572 0.000905544 0.00120013 0.0015693 0.00419882 0.00311048 0.000865507 0.00166911 0.00504214 0.00678681 0.00536947 0.00855371 -0.00257614 0.00100344
internal_weight=0 1678 2031 129 99 79 1902 1799 1634 345 319 1289 1045 226 196 230 133 244 97
internal_count=3709 1678 2031 129 99 79 1902 1799 1634 345 319 1289 1045 226 196 230 133 244 97
is_linear=0
shrinkage=0.0456759


end of trees

feature_importances:
f_3=56
f_5=42
f_1=39
f_2=38
f_15=34
f_0=26
f_14=20
f_18=19
f_20=15
f_21=14
f_8=12
f_13=12
f_6=11
f_7=8
f_22=8
f_19=7
f_16=5
f_4=3
f_9=3
f_10=3
f_17=3
f_11=1
f_12=1

parameters:
[boosting: gbdt]
[objective: regression]
[metric: binary_logloss]
[tree_learner: serial]
[device_type: cpu]
[data: ]
[valid: ]
[num_iterations: 10]
[learning_rate: 0.0456759]
[num_leaves: 20]
[num_threads: 0]
[deterministic: 0]
[force_col_wise: 0]
[force_row_wise: 0]
[histogram_pool_size: -1]
[max_depth: -1]
[min_data_in_leaf: 20]
[min_sum_hessian_in_leaf: 0.001]
[bagging_fraction: 0.7]
[pos_bagging_fraction: 1]
[neg_bagging_fraction: 1]
[bagging_freq: 5]
[bagging_seed: 3]
[feature_fraction: 0.9]
[feature_fraction_bynode: 1]
[feature_fraction_seed: 2]
[extra_trees: 0]
[extra_seed: 6]
[early_stopping_round: 0]
[first_metric_only: 0]
[max_delta_step: 0]
[lambda_l1: 0]
[lambda_l2: 0]
[linear_lambda: 0]
[min_gain_to_split: 0]
[drop_rate: 0.1]
[max_drop: 50]
[skip_drop: 0.5]
[xgboost_dart_mode: 0]
[uniform_drop: 0]
[drop_seed: 4]
[top_rate: 0.2]
[other_rate: 0.1]
[min_data_per_group: 100]
[max_cat_threshold: 32]
[cat_l2: 10]
[cat_smooth: 10]
[max_cat_to_onehot: 4]
[top_k: 20]
[monotone_constraints: ]
[monotone_constraints_method: basic]
[monotone_penalty: 0]
[feature_contri: ]
[forcedsplits_filename: ]
[refit_decay_rate: 0.9]
[cegb_tradeoff: 1]
[cegb_penalty_split: 0]
[cegb_penalty_feature_lazy: ]
[cegb_penalty_feature_coupled: ]
[path_smooth: 0]
[interaction_constraints: ]
[verbosity: 0]
[saved_feature_importance_type: 0]
[linear_tree: 0]
[max_bin: 255]
[max_bin_by_feature: ]
[min_data_in_bin: 3]
[bin_construct_sample_cnt: 200000]
[data_random_seed: 1]
[is_enable_sparse: 1]
[enable_bundle: 1]
[use_missing: 1]
[zero_as_missing: 0]
[feature_pre_filter: 1]
[pre_partition: 0]
[two_round: 0]
[header: 0]
[label_column: ]
[weight_column: ]
[group_column: ]
[ignore_column: ]
[categorical_feature: ]
[forcedbins_filename: ]
[precise_float_parser: 0]
[objective_seed: 5]
[num_class: 1]
[is_unbalance: 0]
[scale_pos_weight: 1]
[sigmoid: 1]
[boost_from_average: 1]
[reg_sqrt: 0]
[alpha: 0.9]
[fair_c: 1]
[poisson_max_delta_step: 0.7]
[tweedie_variance_power: 1.5]
[lambdarank_truncation_level: 30]
[lambdarank_norm: 1]
[label_gain: ]
[eval_at: ]
[multi_error_top_k: 1]
[auc_mu_weights: ]
[num_machines: 1]
[local_listen_port: 12400]
[time_out: 120]
[machine_list_filename: ]
[machines: ]
[gpu_platform_id: -1]
[gpu_device_id: -1]
[gpu_use_dp: 0]
[num_gpu: 1]

end of parameters

pandas_categorical:[]
