tree
version=v3
num_class=1
num_tree_per_iteration=1
label_index=0
max_feature_idx=22
objective=regression
feature_names=f_0 f_1 f_2 f_3 f_4 f_5 f_6 f_7 f_8 f_9 f_10 f_11 f_12 f_13 f_14 f_15 f_16 f_17 f_18 f_19 f_20 f_21 f_22
feature_infos=[3.5138360446667107e-07:0.0066553821535006137] [2.5600331918768856e-06:0.0039732576088439284] [9.2225614268401974e-06:0.0029579505118275174] [0.53000000000000003:6.5599999999999996] [-33.000000000000007:46] [2.4100000000000001:21.82] [-101.00000000000016:144.99999999999994] [-0.15710919088766695:0.17837578087457961] [-81:74] [-46:33.999999999999986] [-51.000000000000021:33.999999999999986] [-33.000000000000007:27.999999999999979] [-41:192.00000000000003] [-36.000000000000007:32.999999999999986] [-0.52000000000000002:2.9100000000000001] [-0.94999999999999996:3.8500000000000001] [-52:73.999999999999972] [-28.000000000000004:24.000000000000004] [-0.29572649572649579:0.64215246636771273] [-0.02958455728073861:0.047292143401983289] [-0.054746473503621829:0.033993115318416534] [-0.039377561323276189:0.045346674363414774] [-0.019984292877423981:0.018327052533256172]
tree_sizes=1842 1865 1879 1890 1874 1886 1895 1879 1888 1897 1890 1861 1888 1888 1889 1901 1914 1921 1930 1905 1897

Tree=0
num_leaves=20
num_cat=0
split_feature=2 15 13 1 15 19 3 2 0 21 7 11 3 14 2 15 16 3 1
split_gain=9.05868 6.39731 3.50053 1.9751 1.46967 1.92734 1.55647 1.35387 1.27201 1.11061 1.58979 0.976449 0.895735 1.31249 1.6297 1.71286 0.88955 0.797279 1.54957
threshold=0.00022948028557848781 2.8750000000000004 -1.0000000180025095e-35 8.4653776542144366e-05 0.095000000000000015 0.0012414170029082518 2.1950000000000007 0.00036358178136183789 0.00039292612916385034 0.0013527976126525012 -0.0055534806917958415 3.9999999999999818 1.5450000000000002 1.2350000000000001 0.00014958479746790502 0.095000000000000015 1.0000000000000122 2.4450000000000007 0.00035126105329102774
decision_type=2 2 2 2 2 2 2 2 2 2 2 2 2 2 2 2 2 2 2
left_child=3 4 7 -1 5 -2 -6 -3 -4 17 -11 -12 -5 14 15 -14 -17 18 -8
right_child=1 2 8 12 6 -7 9 -9 -10 10 11 -13 13 -15 -16 16 -18 -19 -20
leaf_value=0.048528593688304006 0.069733490358537306 0.088334680626843284 0.050239442957352651 0.049808568584335786 0.049602676630028313 0.050239442957352651 0.068313035828957577 0.070585763076285141 0.06785849037949207 0.070935413422027846 0.047858490603009486 0.062441823773361368 0.051562194265321076 0.051221719264974042 0.050490069520967719 0.061651593897135405 0.075358490295673042 0.050636268349743177 0.049941823913059749
leaf_weight=1940 32 21 21 641 172 21 22 22 20 26 22 24 27 446 57 29 20 90 24
leaf_count=1940 32 21 21 641 172 21 22 22 20 26 22 24 27 446 57 29 20 90 24
internal_value=0.0503774 0.0566593 0.0692871 0.0495199 0.0542095 0.0620094 0.0531216 0.0792538 0.0588341 0.0560316 0.0610529 0.0554672 0.0510962 0.0525217 0.056881 0.0616743 0.0672462 0.0533732 0.0587281
internal_weight=0 517 84 3160 433 53 380 43 41 208 72 46 1220 579 133 76 49 136 46
internal_count=3677 517 84 3160 433 53 380 43 41 208 72 46 1220 579 133 76 49 136 46
is_linear=0
shrinkage=1


Tree=1
num_leaves=20
num_cat=0
split_feature=1 14 1 5 5 1 2 1 5 14 9 5 5 1 0 6 3 8 3
split_gain=8.23049 2.62925 1.92526 1.7426 3.1965 1.44225 1.96667 1.20935 1.07912 1.28619 2.38134 1.00845 0.981182 1.7813 0.949222 0.729905 1.30741 0.576332 0.635526
threshold=0.00027566130516974247 2.4950000000000006 8.4653776542144366e-05 8.8850000000000033 9.5850000000000026 0.00041659036141107858 0.00031965087587533205 0.0010567632396975984 6.5250000000000012 1.2350000000000001 3.0000000000000142 7.6250000000000009 15.805000000000001 0.0005691685285342925 0.00039292612916385034 6.9999999999999627 1.1150000000000004 -6.0000000000000018 3.1250000000000004
decision_type=2 2 2 2 2 2 2 2 2 2 2 2 2 2 2 2 2 2 2
left_child=2 3 -1 5 -5 6 -2 12 15 10 11 -10 -6 -14 -8 -4 -17 -11 -19
right_child=1 -3 8 4 7 -7 14 -9 9 17 -12 -13 13 -15 -16 16 -18 18 -20
leaf_value=-0.0016856302936365212 0.00081968448955465018 0.02372133222154596 -0.00094484516135562866 0.025074586405285766 -0.000299120523656408 -0.00266504122532512 0.0081673487962689254 0.014461468764253567 0.0098253524312988325 0.0093057699856304004 0.022034492665393788 -0.00076769000657324522 0.019831482659686695 0.0008192625495472126 0.022052978659048678 0.015010086353868246 0.00084787517235699033 0.00014012506274732551 0.0071205045303536791
leaf_weight=1951 74 22 702 28 60 76 32 37 39 21 22 53 22 28 20 20 88 346 36
leaf_count=1951 74 22 702 28 60 76 32 37 39 21 22 53 22 28 20 20 88 346 36
internal_value=0 0.00691941 -0.000686281 0.00593893 0.00959113 0.00277489 0.00605612 0.0066419 0.000782996 0.0025677 0.00725667 0.00372284 0.00401168 0.00918464 0.013508 -0.000356132 0.00347051 0.0012413 0.000797962
internal_weight=0 399 3278 377 175 202 126 147 1327 517 114 92 110 50 52 810 108 403 382
internal_count=3677 399 3278 377 175 202 126 147 1327 517 114 92 110 50 52 810 108 403 382
is_linear=0
shrinkage=0.05


Tree=2
num_leaves=20
num_cat=0
split_feature=1 15 1 1 1 6 21 3 3 5 14 10 5 1 0 10 11 21 15
split_gain=7.44672 3.8123 3.11625 2.08445 1.84454 1.43761 1.28943 1.0849 1.39498 0.926907 0.940618 1.94736 0.943838 0.875927 0.842892 1.14528 0.728771 0.603865 0.801959
threshold=0.00029888057667890782 2.9150000000000005 0.00038902402540016425 0.000431001232881904 8.4653776542144366e-05 5.9999999999999174 -0.0018725400449068339 3.8800000000000003 5.5750000000000011 6.5250000000000012 1.2350000000000001 3.0000000000000142 7.6250000000000009 0.00013469164969493524 0.00045115425046341699 -1.0000000180025095e-35 -3.0000000000000022 -0.0020582467507974651 2.1825000000000006
decision_type=2 2 2 2 2 2 2 2 2 2 2 2 2 2 2 2 2 2 2
left_child=4 3 -3 5 -1 14 -4 -5 -9 16 11 12 13 -11 15 -2 17 -6 -19
right_child=1 2 6 7 9 -7 -8 8 -10 10 -12 -13 -14 -15 -16 -17 -18 18 -20
leaf_value=-0.0016013487753411063 0.016361516053703697 0.002407143741846085 0.033459082299045158 -0.0026088065486036096 -0.00096077260167635602 0.00011154581990205879 0.017304967511445286 0.016646520309150221 0.00053959477056817308 0.016425017490983011 0.0012848359429671501 0.019045614831460021 -0.00099329331791714629 0.0016269818041473628 0.020560600049793723 0.0036292480010735361 -0.0012059621675274313 0.0024998982326459081 0.012705785003693208
leaf_weight=1951 33 25 21 102 97 33 30 20 41 20 416 24 57 20 23 38 585 118 23
leaf_count=1951 33 25 21 102 97 33 30 20 41 20 416 24 57 20 23 38 585 118 23
internal_value=0 0.00689984 0.016868 0.00428749 -0.000616033 0.00908989 0.0239567 0.000545739 0.00582055 0.000797461 0.00241342 0.00629353 0.00313837 0.009026 0.0122419 0.00954706 -0.00025694 0.00207574 0.00416469
internal_weight=0 366 76 290 3311 127 51 163 61 1360 537 121 97 40 94 71 823 238 141
internal_count=3677 366 76 290 3311 127 51 163 61 1360 537 121 97 40 94 71 823 238 141
is_linear=0
shrinkage=0.05


Tree=3
num_leaves=20
num_cat=0
split_feature=2 15 1 3 1 21 15 19 3 12 7 3 3 6 0 21 20 5 15
split_gain=6.80938 4.14391 2.88043 1.43091 1.34309 1.16371 1.11956 1.50835 1.03926 1.13875 1.12772 1.88757 0.919409 0.598644 0.72754 0.529001 0.686073 0.500069 2.61248
threshold=0.00021449601488346005 2.8750000000000004 0.00038902402540016425 2.0850000000000004 8.4653776542144366e-05 -0.0018725400449068339 0.095000000000000015 0.0012414170029082518 2.1950000000000007 6.4999999999999956 -0.0055534806917958415 2.5350000000000006 3.1250000000000004 6.9999999999999627 7.797942580290706e-05 -0.0013199256995922724 0.0008247098867957271 6.5250000000000012 0.79500000000000015
decision_type=2 2 2 2 2 2 2 2 2 2 2 2 2 2 2 2 2 2 2
left_child=4 6 3 -3 -1 -4 7 -2 -8 10 11 -10 13 17 -15 -16 -17 -6 -19
right_child=1 2 5 -5 12 -7 8 -9 9 -11 -12 -13 -14 14 15 16 -18 18 -20
leaf_value=-0.0015919775417861865 0.016398957026574543 0.015649759671872571 0.031786128328669637 -0.0016159953549504281 -0.00093658621680008352 0.016439719349145891 -0.00045228984947967273 -0.00064430776096525652 0.020171435128735461 0.016014245338737965 0.00038192049305663155 0.0031135995347391478 0.0094990012635077763 0.0092232063412666324 -0.0019319124886709633 0.0013966275571749129 0.012135867197066545 0.016356858514525272 7.6307249354555246e-05
leaf_weight=1940 34 21 21 28 663 30 186 21 23 20 117 55 28 37 66 58 20 27 282
leaf_count=1940 34 21 21 28 663 30 186 21 23 20 117 55 28 37 66 58 20 27 282
internal_value=0 0.00522332 0.014441 0.00578361 -0.000782696 0.0227588 0.00320191 0.00989153 0.00228438 0.00465191 0.00348654 0.00814347 0.000546692 0.00032929 0.00296947 0.00136261 0.00415028 -0.000162349 0.00149888
internal_weight=0 556 100 49 3121 51 456 55 401 215 195 78 1181 1153 181 144 78 972 309
internal_count=3677 556 100 49 3121 51 456 55 401 215 195 78 1181 1153 181 144 78 972 309
is_linear=0
shrinkage=0.05


Tree=4
num_leaves=20
num_cat=0
split_feature=2 15 1 3 1 21 21 13 15 7 18 3 21 8 20 0 6 22 3
split_gain=6.14547 3.73988 2.59959 1.2914 1.21214 1.05025 1.02683 1.46558 1.71532 1.07255 1.16201 0.829767 0.662287 0.735461 0.758466 1.0998 0.540276 0.734258 0.497947
threshold=0.00021449601488346005 2.8750000000000004 0.00038902402540016425 2.0850000000000004 8.4653776542144366e-05 -0.0018725400449068339 0.00097136827871158193 4.999999999999992 0.16500000000000004 -0.0052008558794232598 0.0071252905203818004 3.1250000000000004 -0.0021021343204423166 4.0000000000000027 0.0030877112986577031 0.00027416650506405113 6.9999999999999627 -0.00088227951229263846 1.155
decision_type=2 2 2 2 2 2 2 2 2 2 2 2 2 2 2 2 2 2 2
left_child=4 6 3 -3 -1 -4 12 8 -8 10 -10 16 13 14 -2 -16 -6 -18 -19
right_child=1 2 5 -5 11 -7 7 -9 9 -11 -12 -13 -14 -15 15 -17 17 18 -20
leaf_value=-0.0015123787026890775 -0.00096423213059703512 0.01486727213930516 0.030196822186311086 -0.0015351956178035057 -0.00015423108915579907 0.0156177331879735 0.015448876323976688 0.018197448974983259 -0.00069294858369089312 -0.002098027176948057 0.015574779596341693 0.0090240510180592537 -0.001638111039617304 0.011344966214771074 0.015507070533931256 0.0011808959515513602 0.011856514029204845 0.0090817477274686108 0.000651313620784604
leaf_weight=1940 90 21 21 28 972 30 28 22 21 72 23 28 118 24 21 37 20 20 141
leaf_count=1940 90 21 21 28 972 30 28 22 21 72 23 28 118 24 21 37 20 20 141
internal_value=0 0.00496215 0.0137189 0.00549443 -0.000743561 0.0216209 0.00304181 0.00617785 0.00434152 0.00166043 0.00781064 0.000519358 0.0012467 0.00322581 0.00190919 0.00636796 0.000312826 0.002821 0.00169857
internal_weight=0 556 100 49 3121 51 456 166 144 116 44 1181 290 172 148 58 1153 181 161
internal_count=3677 556 100 49 3121 51 456 166 144 116 44 1181 290 172 148 58 1153 181 161
is_linear=0
shrinkage=0.05


Tree=5
num_leaves=20
num_cat=0
split_feature=3 3 1 1 14 1 12 1 8 4 2 4 14 19 0 18 14 21 3
split_gain=4.4875 1.75929 1.65285 1.33373 1.28253 0.579978 0.909229 0.780187 0.890927 0.769047 0.806983 0.64732 1.00242 0.90963 1.19006 0.668402 0.525654 0.522926 0.564045
threshold=4.4350000000000014 5.9650000000000007 8.4653776542144366e-05 0.00092014798587458418 1.925 0.00027566130516974247 -1.9999999999999682 0.00015639894608797034 -6.0000000000000018 -1.0000000000000118 0.00067078586548043279 1.0000000180025095e-35 1.3250000000000004 0.0032906853251577499 7.6927919461196461e-05 -0.014060743011988229 -0.12499999999999999 -0.0032458999094017722 1.8050000000000004
decision_type=2 2 2 2 2 2 2 2 2 2 2 2 2 2 2 2 2 2 2
left_child=2 3 16 4 -2 7 9 8 -4 -7 17 -10 13 14 -13 -16 -1 18 -11
right_child=1 -3 5 -5 -6 6 -8 -9 11 10 -12 12 -14 -15 15 -17 -18 -19 -20
leaf_value=0.0030035415024899726 0.018271209617766241 0.00016562707101305327 0.0094576304662041377 0.02483434814282439 0.002089425139129162 0.011064294813614754 -0.0018365684966556728 -0.0012265434793450618 3.1647756564805715e-05 0.012250030819665303 0.012117753304879774 0.018378944816472738 -8.9160422043454269e-06 -0.0032659688871353866 0.011448259684922441 0.0016500484198331833 -0.0015028749644724849 0.00019192322477942607 0.0014647467751745826
leaf_weight=67 24 30 32 22 25 36 80 495 569 22 22 23 124 20 28 46 1894 122 27
leaf_count=67 24 30 32 22 25 36 80 495 569 22 22 23 124 20 28 46 1894 122 27
internal_value=0 0.0103175 -0.000368314 0.014607 0.0100152 0.000799939 0.00275224 0.000348734 0.00127482 0.00435532 0.00310391 0.000951545 0.00312342 0.00644316 0.00844504 0.00535748 -0.00134891 0.00194423 0.00630712
internal_weight=0 101 3607 71 49 1646 309 1337 842 229 193 810 241 117 97 74 1961 171 49
internal_count=3708 101 3607 71 49 1646 309 1337 842 229 193 810 241 117 97 74 1961 171 49
is_linear=0
shrinkage=0.05


Tree=6
num_leaves=20
num_cat=0
split_feature=3 3 1 1 15 5 3 1 1 5 0 5 1 18 14 2 16 2 14
split_gain=4.04997 1.58776 1.49169 1.20369 1.35544 0.574318 0.897506 0.806419 0.620244 1.41477 1.81206 0.782081 0.771217 0.638254 0.615402 0.827773 0.693073 0.587757 0.474403
threshold=4.4350000000000014 5.9650000000000007 8.4653776542144366e-05 0.00092014798587458418 2.6125000000000003 6.6550000000000011 2.4950000000000006 0.00010257529705095438 0.00029160087980803414 8.8850000000000033 0.00040928595257693927 8.1750000000000025 0.00021531351104665624 -0.066175828539924139 1.2350000000000001 0.0001697251663729839 0.75000000000000633 0.00047795047566142907 -0.12499999999999999
decision_type=2 2 2 2 2 2 2 2 2 2 2 2 2 2 2 2 2 2 2
left_child=2 3 18 4 -2 17 7 -7 11 13 -11 12 14 -10 16 -16 -9 -4 -1
right_child=1 -3 5 -5 -6 6 -8 8 9 10 -12 -13 -14 -15 15 -17 -18 -19 -20
leaf_value=0.0028533643639799375 0.018356121396240984 0.00015734581276774409 -0.00029582211051371184 0.02359263055365194 0.0016929474444343493 0.0098247166772029906 -0.0012946842122549393 0.0039594772789213395 0.0090987239871174099 0.02288829183117265 0.0043099846211927277 -0.0017976235868274303 -0.0022634398847542429 -0.0009979738388210535 0.00014259471247593563 0.0090265277169040738 0.015914880628274244 0.0071926161508869242 -0.0014277312049982478
leaf_weight=67 23 30 888 22 26 38 177 27 20 21 35 138 54 72 90 37 22 27 1894
leaf_count=67 23 30 888 22 26 38 177 27 20 21 35 138 54 72 90 37 22 27 1894
internal_value=0 0.00980164 -0.000349898 0.0138767 0.00951444 0.000759942 0.00180486 0.00279515 0.00227747 0.00501097 0.0112768 0.00117813 0.00296358 0.00119696 0.00456732 0.00273083 0.00932721 -7.48518e-05 -0.00128146
internal_weight=0 101 3607 71 49 1646 731 554 516 148 56 368 230 92 176 127 49 915 1961
internal_count=3708 101 3607 71 49 1646 731 554 516 148 56 368 230 92 176 127 49 915 1961
is_linear=0
shrinkage=0.05


Tree=7
num_leaves=20
num_cat=0
split_feature=3 3 1 10 12 3 14 3 4 7 6 6 7 0 3 3 8 7 14
split_gain=3.6551 1.43295 1.34625 1.11452 0.63147 0.529587 0.782685 0.647259 0.613842 0.562746 1.27439 1.15557 1.38572 0.684552 0.654461 0.735168 0.512377 0.464104 0.428148
threshold=4.4350000000000014 5.9650000000000007 8.4653776542144366e-05 3.9999999999999707 -2.249999999999996 1.5450000000000002 0.25500000000000006 2.5050000000000003 1.9999999999999853 -0.0057759571285092006 8.2500000000000036 4.0000000000000488 -0.0091151231150548 0.00078494393648379315 1.8050000000000004 2.1950000000000007 0.75000000000002853 0.030548718398820677 -0.12499999999999999
decision_type=2 2 2 2 2 2 2 2 2 2 2 2 2 2 2 2 2 2 2
left_child=2 3 18 4 -2 6 8 9 17 10 11 12 14 -11 16 -16 -7 -4 -1
right_child=1 -3 5 -5 -6 7 -8 -9 -10 13 -12 -13 -14 -15 15 -17 -18 -19 -20
leaf_value=0.0027106962875643775 0.011888506695289505 0.00014947858328620594 0.00013066820576786996 0.0049413804036493487 0.023737391311189404 0.010096600324519582 -0.001708960584308728 -0.0012150485228214945 0.0076501555992542093 0.00066544981441057189 -0.0014939657316949124 0.014151258347555996 0.015956952913918281 0.0097026340578767398 -0.003225010648736211 0.0076216414748203195 0.00083065650612115869 0.0071496737691072315 -0.0013563447452908522
leaf_weight=67 22 30 250 26 23 37 415 175 37 441 78 36 22 22 61 21 25 26 1894
leaf_count=67 22 30 250 26 23 37 415 175 37 441 78 36 22 22 61 21 25 26 1894
internal_value=0 0.00931156 -0.000332403 0.0131829 0.0179446 0.000721945 -0.000285171 0.00152062 0.0016026 0.00216495 0.00393442 0.00603053 0.00426941 0.00109486 0.00248382 -0.000447209 0.00636033 0.000791879 -0.00121739
internal_weight=0 101 3607 71 45 1646 728 918 313 743 280 202 166 463 144 82 62 276 1961
internal_count=3708 101 3607 71 45 1646 728 918 313 743 280 202 166 463 144 82 62 276 1961
is_linear=0
shrinkage=0.05


Tree=8
num_leaves=20
num_cat=0
split_feature=3 3 1 1 15 5 3 15 1 21 14 12 2 15 15 22 18 5 3
split_gain=3.29872 1.29324 1.21499 1.08692 1.2058 0.501251 0.741581 0.570641 1.80385 1.21107 0.808816 1.0179 0.516524 0.513709 2.14406 0.448261 0.65578 0.462614 0.399091
threshold=4.4350000000000014 5.9650000000000007 8.4653776542144366e-05 0.00092014798587458418 2.6125000000000003 6.8150000000000004 2.5750000000000006 2.2950000000000004 0.00012382522305140774 -0.0019225488953661383 1.7750000000000001 -1.0000000000000118 0.00047795047566142907 2.8550000000000004 3.0550000000000002 -2.4163490175310717e-05 0.048460170827895228 8.0350000000000019 1.7150000000000001
decision_type=2 2 2 2 2 2 2 2 2 2 2 2 2 2 2 2 2 2 2
left_child=2 3 -1 4 -2 12 7 8 9 -7 15 -12 -4 -9 -15 -10 17 -17 -16
right_child=1 -3 5 -5 -6 6 -8 13 10 -11 11 -13 -14 14 18 16 -18 -19 -20
leaf_value=-0.001156519804565898 0.01671778120748375 0.00014200447748104731 -0.00025811047811765932 0.021756380220705814 0.0010013290752585117 0.022677431264892221 -0.0014587501944234112 -0.0012792136391194969 -0.0033927595889081761 0.0056772929277609692 0.013330460945144297 -0.00083648091448204869 0.0067577537494125199 0.01319102148214976 0.0059951863590289251 0.0040246732434944107 0.0092825373204854823 -0.0037270919252664621 -0.0013819038986482403
leaf_weight=1961 23 30 925 22 26 20 146 130 49 22 32 21 27 39 22 38 26 39 110
leaf_count=1961 23 30 925 22 26 20 146 130 49 22 32 21 27 39 22 38 26 39 110
internal_value=0 0.00884598 -0.000315783 0.0125237 0.00837844 0.000685848 0.00170778 0.00255142 0.00433255 0.0137726 0.00239849 0.00771714 -5.91311e-05 0.00108982 0.00289085 0.000543959 0.00241677 9.84545e-05 -0.000152389
internal_weight=0 101 3607 71 49 1646 694 548 247 42 205 53 952 301 171 152 103 77 132
internal_count=3708 101 3607 71 49 1646 694 548 247 42 205 53 952 301 171 152 103 77 132
is_linear=0
shrinkage=0.05


Tree=9
num_leaves=20
num_cat=0
split_feature=3 3 5 10 16 3 14 0 22 15 2 4 2 3 0 3 1 2 1
split_gain=2.9771 1.16715 1.10329 0.994267 0.780714 0.69005 0.491437 0.991903 0.962348 0.617721 1.41083 0.413432 0.378042 1.18272 1.25333 2.1336 0.372226 1.81003 0.332389
threshold=4.4350000000000014 5.9650000000000007 5.3450000000000006 3.9999999999999707 -4.2499999999999973 0.56500000000000006 1.2350000000000001 0.00078494393648379315 -0.0006909842939312737 1.4750000000000003 0.00011682014899832339 1.9999999999999853 0.00025615468592144375 2.2650000000000001 0.00028712304409886385 1.9450000000000001 8.6945569651055129e-05 0.00010918110196433992 0.00041659036141107858
decision_type=2 2 2 2 2 2 2 2 2 2 2 2 2 2 2 2 2 2 2
left_child=2 3 5 4 -2 -1 8 12 -4 18 -11 -7 -8 14 15 -14 -13 -18 -10
right_child=1 -3 6 -5 -6 11 7 -9 9 10 -12 16 13 -15 -16 -17 17 -19 -20
leaf_value=0.0066310362312300454 0.0093545127305246535 0.00013490452741583188 0.012726187395552794 0.0041133687759821232 0.022555514254296818 -0.0013068780779951451 -0.00045553885897562513 0.0096906831281052697 0.0014381241438968574 0.016000276277570624 -0.00034377349600676573 -0.0010924857646479444 0.00096998278362055634 -0.0014221078131051192 -0.00048104052578932361 0.021841265827417376 0.016782055674120784 -0.0016402480658143761 -0.0036318564384772972
leaf_weight=29 21 30 21 26 24 1980 884 27 256 23 31 59 24 113 38 25 20 40 37
leaf_count=29 21 30 21 26 24 1980 884 27 256 23 31 59 24 113 38 25 20 40 37
internal_value=0 0.00840368 -0.000299994 0.0118975 0.016395 -0.00102902 0.000748929 0.000224379 0.00233256 0.00170355 0.00661758 -0.00113485 -1.14048e-05 0.00195167 0.0063337 0.0116186 0.00172752 0.00450052 0.000797888
internal_weight=0 101 3607 71 45 2128 1479 1111 368 347 54 2099 1084 200 87 49 119 60 293
internal_count=3708 101 3607 71 45 2128 1479 1111 368 347 54 2099 1084 200 87 49 119 60 293
is_linear=0
shrinkage=0.05


Tree=10
num_leaves=20
num_cat=0
split_feature=2 15 1 13 8 3 1 2 3 3 1 4 3 3 1 14 15 2 21
split_gain=3.93068 2.88406 1.86226 1.19577 1.01034 0.99915 0.958206 1.52888 0.687939 1.2526 1.0796 0.896337 0.62563 0.671031 0.979053 0.701779 0.655011 0.59426 0.586117
threshold=0.00021449601488346005 2.8750000000000004 0.00038902402540016425 -1.0000000000000118 -1.0000000000000118 3.1250000000000004 0.00044428057153355255 0.00053789099948906786 2.0150000000000001 2.5750000000000006 0.00029888057667890782 1.9999999999999964 1.5550000000000004 1.7850000000000004 9.770877397249885e-05 2.3250000000000006 0.97500000000000009 0.00014958479746790502 0.00074607989481034764
decision_type=2 2 2 2 2 2 2 2 2 2 2 2 2 2 2 2 2 2 2
left_child=5 6 3 -3 -4 12 7 8 11 10 -10 -2 -1 14 -14 17 -15 18 -16
right_child=1 2 4 -5 -6 -7 -8 -9 9 -11 -12 -13 13 16 15 -17 -18 -19 -20
leaf_value=-0.0010980668378080278 -0.00073884979688695505 0.013749024617884839 0.010299188084900379 -0.0020344703990433899 0.024508656676987123 0.0088406016784054898 -0.00097520923954528453 0.01576216557621956 0.0045774925954458192 -0.00052617614467938745 0.016942504246629055 0.010117598267441448 2.7234502362482478e-05 0.0064265156100536212 0.0091784479658839832 0.012491402029991151 -0.0013360221257985192 -0.0015943201445043087 0.0013220100382039714
leaf_weight=2206 140 21 22 28 29 28 149 25 41 48 31 22 264 29 53 26 432 40 43
leaf_count=2206 140 21 22 28 29 28 149 25 41 48 31 22 264 29 53 26 432 40 43
internal_value=0 0.00400114 0.011691 0.00472988 0.0183791 -0.000562029 0.00231477 0.00391153 0.00286095 0.00573032 0.00990132 0.000735483 -0.000647149 0.000474301 0.00190492 0.00496486 -0.000847706 0.00352597 0.00565942
internal_weight=0 556 100 49 51 3121 456 307 282 120 72 162 3093 887 426 162 461 136 96
internal_count=3677 556 100 49 51 3121 456 307 282 120 72 162 3093 887 426 162 461 136 96
is_linear=0
shrinkage=0.05


Tree=11
num_leaves=20
num_cat=0
split_feature=2 15 3 2 15 5 12 5 15 21 10 12 5 11 1 3 7 3 3
split_gain=3.56288 3.18624 2.14147 2.43131 1.02143 1.03928 0.919646 0.858006 0.900696 2.06562 1.61953 0.680051 0.665424 1.41021 0.52843 1.20949 0.418496 0.623642 1.66978
threshold=0.00022948028557848781 2.8750000000000004 2.0750000000000006 0.00072509667545322032 0.095000000000000015 7.7550000000000008 6.4999999999999956 7.3350000000000009 2.0750000000000006 -0.0021516872072049327 -1.0000000180025095e-35 -8 2.5750000000000006 0.74999999999998412 0.000166153715865929 1.7750000000000001 -0.0055534806917958415 2.2150000000000003 2.4750000000000005
decision_type=2 2 2 2 2 2 2 2 2 2 2 2 2 2 2 2 2 2 2
left_child=7 4 -3 -4 5 -2 11 12 9 10 -9 -6 13 -1 -10 -16 17 -13 -19
right_child=1 2 3 -5 6 -7 -8 8 14 -11 -12 16 -14 -15 15 -17 -18 18 -20
leaf_value=0.015039112655259668 0.015991440470740199 0.025249110998120161 -0.0015669433344737628 0.018406216280534866 0.0095409504739567639 0.0021059893259911663 0.010496629572138191 0.005434150864059727 -0.0018586312453355025 0.00038326247721644387 0.024018667864054443 -0.00095519510751117525 -0.00090466922623672595 -0.0019299233721569184 0.013335605371477348 -0.00020906017736664839 -0.0012397493784071752 0.017705397269502283 0.00032777304588151832
leaf_weight=20 25 24 32 28 20 28 25 27 151 84 20 67 2737 30 21 70 206 20 42
leaf_count=20 25 24 32 28 20 28 25 27 151 84 20 67 2737 30 21 70 206 20 42
internal_value=0 0.00392976 0.0127525 0.00775386 0.00221819 0.00865573 0.00132032 -0.000502894 0.00172667 0.00503274 0.0133425 0.000674104 -0.00080129 0.00485769 -6.29745e-05 0.00291663 0.00014474 0.00235563 0.00593346
internal_weight=0 517 84 60 433 53 380 3160 373 131 47 355 2787 50 242 91 335 129 62
internal_count=3677 517 84 60 433 53 380 3160 373 131 47 355 2787 50 242 91 335 129 62
is_linear=0
shrinkage=0.0495


Tree=12
num_leaves=20
num_cat=0
split_feature=2 15 13 0 15 19 3 13 8 14 14 2 15 3 3 9 7 1 1
split_gain=3.21889 2.87861 2.02755 1.50335 0.922813 1.34222 0.830175 0.772047 0.715878 0.527303 1.53989 1.38084 1.1372 0.590004 0.520758 0.610789 0.509678 0.495226 0.448225
threshold=0.00022948028557848781 2.8750000000000004 -1.0000000000000118 0.00056286372351235792 0.095000000000000015 0.0012414170029082518 1.5550000000000004 3.0000000000000142 -0.99999999999999656 1.2350000000000001 -0.18499999999999997 0.00014958479746790502 0.14500000000000005 3.1250000000000004 1.7850000000000004 -8.9999999999999893 -0.0027576340206179046 0.00017439684792101235 0.0005691685285342925
decision_type=2 2 2 2 2 2 2 2 2 2 2 2 2 2 2 2 2 2 2
left_child=6 4 -3 -4 5 -2 -1 18 -9 10 -8 12 -12 14 15 -11 -14 -17 -6
right_child=1 2 3 -5 7 -7 9 8 -10 13 11 -13 16 -15 -16 17 -18 -19 -20
leaf_value=-0.00099360070065164291 0.01446255437816726 0.020580983761170426 -0.0022983347776718436 0.015428119825825095 0.0013735920088209614 -0.0014817513925236251 -0.0026167504265373022 9.4833755909465249e-05 0.012327240611538292 0.0097181516690477733 0.0019216886038040475 -1.5489452026004708e-05 0.020596906746402383 0.006702945126732811 -0.0011981997200079956 0.00030106600965745746 0.010004511841222644 0.0081136943420501706 -0.0029509990923892002
leaf_weight=2211 32 37 27 20 259 21 68 20 27 20 21 43 24 32 430 270 20 21 74
leaf_count=2211 32 37 27 20 259 21 68 20 27 20 21 43 24 32 430 270 20 21 74
internal_value=0 0.00369789 0.012 0.00524484 0.00208731 0.008145 -0.000473221 0.00124242 0.00712196 0.000739171 0.00316004 0.00679727 0.0113042 0.000187978 -9.33704e-05 0.00143421 0.0157822 0.000864864 0.000412572
internal_weight=0 517 84 47 433 53 3160 380 47 949 176 108 65 773 741 311 44 291 333
internal_count=3677 517 84 47 433 53 3160 380 47 949 176 108 65 773 741 311 44 291 333
is_linear=0
shrinkage=0.049005


Tree=13
num_leaves=20
num_cat=0
split_feature=2 15 13 2 21 13 15 3 21 7 16 5 9 14 14 2 15 3 3
split_gain=2.91114 2.60502 2.03685 1.44585 0.893544 1.27236 1.44311 0.750803 0.705362 0.701486 0.910672 0.669479 1.3791 0.476888 1.39266 1.24882 1.02847 0.533595 0.470969
threshold=0.00022948028557848781 2.8550000000000004 -1.0000000180025095e-35 0.00036358178136183789 0.00097136827871158193 4.999999999999992 0.16500000000000004 1.5550000000000004 0.0040185095131923818 -0.0062415097867752891 -1.0000000000000118 2.5950000000000002 0.50000000000005607 1.2350000000000001 -0.18499999999999997 0.00014958479746790502 0.14500000000000005 3.1250000000000004 1.7850000000000004
decision_type=2 2 2 2 2 2 2 2 2 2 2 2 2 2 2 2 2 2 2
left_child=7 4 3 -3 -2 6 -6 11 -4 10 -8 12 -1 14 -9 16 -16 18 -15
right_child=1 2 8 -5 5 -7 9 13 -10 -11 -12 -13 -14 17 15 -17 -18 -19 -20
leaf_value=0.012843597638908379 0.00024804501974405417 0.027596937045571739 0.0096052915521332993 0.010165687338826199 0.012928290935386631 0.01595980583716913 0.012961009714566254 -0.0024636314550461795 -0.002825386394919934 -0.0024783851118794962 -0.0016795127301660554 -0.0010800383864459763 -0.0018281565813002714 0.0013502846163123319 0.0018092410868450466 -1.458315257486389e-05 0.014858688290371748 0.0063107227532423456 -0.0011280871421879631
leaf_weight=25 273 21 22 24 28 21 20 68 21 67 20 2148 38 311 21 43 44 32 430
leaf_count=25 273 21 22 24 28 21 20 68 21 67 20 2148 38 311 21 43 44 32 430
internal_value=0 0.0034815 0.0110852 0.0183003 0.00192178 0.00485081 0.00312274 -0.00044553 0.0035345 0.000556805 0.00564075 -0.00093546 0.00399397 0.000695918 0.00297513 0.00639953 0.0106427 0.000176978 -8.79068e-05
internal_weight=0 517 88 45 429 156 135 3160 43 107 40 2211 63 949 176 108 65 773 741
internal_count=3677 517 88 45 429 156 135 3160 43 107 40 2211 63 949 176 108 65 773 741
is_linear=0
shrinkage=0.048515


Tree=14
num_leaves=20
num_cat=0
split_feature=2 15 3 2 1 2 2 3 3 3 1 4 5 9 3 9 19 3 16
split_gain=2.64302 1.92943 1.50754 1.68701 0.838701 1.24982 0.762424 0.734024 0.593251 1.05144 0.902291 0.786327 0.514548 1.08231 0.527545 0.575671 1.26778 0.426043 0.457384
threshold=0.00021449601488346005 2.8750000000000004 1.9450000000000001 0.00072509667545322032 0.00044428057153355255 0.00053789099948906786 0.00031965087587533205 3.1250000000000004 2.0150000000000001 2.5750000000000006 0.00029888057667890782 1.9999999999999964 2.5750000000000006 0.50000000000005607 1.5450000000000002 -8.9999999999999893 0.0020840038724307956 3.8800000000000003 -1.2499999999999953
decision_type=2 2 2 2 2 2 2 2 2 2 2 2 2 2 2 2 2 2 2
left_child=7 4 -3 6 5 8 -4 12 11 10 -10 -2 13 -1 -14 16 -16 -6 -19
right_child=1 2 3 -5 17 -7 -8 -9 9 -11 -12 -13 14 -15 15 -17 -18 18 -20
leaf_value=0.0126237318011026 -0.00087359112319928482 0.020987554458016543 0.0069423232744689973 0.015749464543739596 -0.003123323038992857 0.013553832478943123 -0.0046892182345892076 0.0072985204846940195 0.0039040799126907489 -0.00059778641225092979 0.014762772545043117 0.0088941565264309217 -0.0010059441543484168 -0.0016936316226735671 -0.0026991497601700611 8.0862003222271543e-05 0.012472389353987812 0.0080029827734966093 -0.0010559922559332832
leaf_weight=21 140 20 26 28 93 25 26 28 41 48 31 22 2132 29 24 860 27 20 36
leaf_count=21 140 20 26 28 93 25 26 28 41 48 31 22 2132 29 24 860 27 20 36
internal_value=0 0.00315131 0.00919317 0.00624457 0.00182634 0.00326135 0.00112655 -0.000443068 0.00234889 0.0049085 0.00857935 0.000452893 -0.00051315 0.00431966 -0.000592559 0.000374881 0.00533284 -0.00113037 0.00217936
internal_weight=0 556 100 80 456 307 52 3121 282 120 72 162 3093 50 3043 911 51 149 56
internal_count=3677 556 100 80 456 307 52 3121 282 120 72 162 3093 50 3043 911 51 149 56
is_linear=0
shrinkage=0.0480298


Tree=15
num_leaves=20
num_cat=0
split_feature=3 3 10 16 2 3 6 6 7 2 20 20 0 1 14 4 8 5 20
split_gain=1.77964 1.06215 0.93637 0.67101 0.657934 0.497876 0.479315 0.53247 0.536297 0.899474 0.578051 1.62976 0.500642 1.64541 0.635067 0.527119 0.586159 0.816074 0.380712
threshold=4.4350000000000014 5.9650000000000007 3.9999999999999707 -4.2499999999999973 5.8319409107235937e-05 0.56500000000000006 19.999999999999975 16.500000000000007 -0.0057759571285092006 0.00062599042765729888 -0.0041538593936574766 -0.0029170538102358252 0.00026904721226787614 0.00025528724294924388 -0.105 1.0000000000000122 -1.4999999999999838 4.6950000000000012 0.0028893353936765291
decision_type=2 2 2 2 2 2 2 2 2 2 2 2 2 2 2 2 2 2 2
left_child=4 2 3 -2 -1 -6 7 8 10 -10 -7 -12 13 14 -13 16 17 -16 -17
right_child=1 -3 -4 -5 5 6 -8 -9 9 -11 11 12 -14 -15 15 18 -18 -19 -20
leaf_value=-0.0010680026132108291 0.0072613565932412851 -0.0013531894727024209 0.0021340243637754854 0.018899972449043685 0.006795112370508314 -0.0011003779718087798 -0.0041270622139871283 0.0059455790538416589 -0.00054413615201590699 0.0080669643030357625 0.012228765455968005 0.0090639196627642846 -0.0020781338814806053 0.012915997315452872 -0.00078274165486542241 0.01033748220915732 -0.0007937072707183961 0.0095022019769519482 0.001170812935153912
leaf_weight=1378 21 30 26 24 26 183 57 37 1338 28 33 22 82 29 37 21 283 33 20
leaf_count=1378 21 30 26 24 26 183 57 37 1338 28 33 22 82 29 37 21 283 33 20
internal_value=0 0.00614828 0.00931792 0.0134686 -0.000251242 0.000253691 0.000176488 0.000290795 0.000191588 -0.000367628 0.0012197 0.00197787 0.00133597 0.00196509 0.00120169 0.000762679 0.000169949 0.00406587 0.00586594
internal_weight=0 101 71 45 3607 2229 2203 2146 2109 1366 743 560 527 445 416 394 353 70 41
internal_count=3708 101 71 45 3607 2229 2203 2146 2109 1366 743 560 527 445 416 394 353 70 41
is_linear=0
shrinkage=0.0475495


Tree=16
num_leaves=20
num_cat=0
split_feature=3 3 19 2 19 13 6 1 8 11 19 5 0 1 6 9 2 8 8
split_gain=1.61442 0.963542 0.850619 0.596853 0.476011 0.465867 0.511624 0.612123 0.634407 1.11509 0.842945 0.865887 0.577193 0.548548 0.798536 0.922931 1.21731 0.651038 0.610701
threshold=4.4350000000000014 5.9650000000000007 0.004610048020292524 5.8319409107235937e-05 -0.003256871515969761 -1.5000000000000011 19.999999999999975 0.00027566130516974247 2.0000000000000244 -1.5000000000000344 -0.00072866452234077162 7.6250000000000009 0.00026904721226787614 0.00015639894608797034 0.99999999999988998 -3.0000000000000133 7.9109284232523684e-05 1.0000000000000122 -2.0000000000000235
decision_type=2 2 2 2 2 2 2 2 2 2 2 2 2 2 2 2 2 2 2
left_child=3 2 4 -1 -2 6 7 13 9 12 11 -11 -9 14 -5 17 -17 -16 -18
right_child=1 -3 -4 5 -6 -7 -8 8 -10 10 -12 -13 -14 -15 15 16 18 -19 -20
leaf_value=-0.0010070473934134616 0.0078860975894736937 -0.0012759577779540448 0.00083560423174365876 -0.00018533490363573422 0.017101806343565389 -0.00064263601475386158 -0.0041734728434174428 0.0074829230430759263 -0.0019293411764124391 0.0068084392294731136 0.003033606090348692 0.019774587067981242 -0.0015655240953329772 -0.0011559071322939287 -3.0525917958389874e-05 0.014765509248867069 0.011085603469212474 0.0070961416626183112 0.0020095776557312209
leaf_weight=1378 27 30 21 454 23 832 45 21 41 25 35 21 61 318 204 27 20 33 92
leaf_count=1378 27 30 21 454 23 832 45 21 41 25 35 21 61 318 204 27 20 33 92
internal_value=0 0.00579738 0.00878611 -0.000236903 0.0121253 0.000239211 0.000764406 0.000928759 0.00330488 0.00462146 0.00853893 0.0127278 0.000751761 0.000506522 0.00114345 0.00274789 0.00579325 0.000961795 0.0036303
internal_weight=0 101 71 3607 50 2229 1397 1352 204 163 81 46 82 1148 830 376 139 237 112
internal_count=3708 101 71 3607 50 2229 1397 1352 204 163 81 46 82 1148 830 376 139 237 112
is_linear=0
shrinkage=0.047074


Tree=17
num_leaves=20
num_cat=0
split_feature=0 3 7 20 2 3 6 6 7 20 20 3 21 4 4 2 14 20 2
split_gain=1.51915 0.720832 0.923721 0.597994 0.512377 0.441553 0.390838 0.491096 0.513419 0.520302 1.4591 0.469656 0.961589 0.515607 0.430727 0.56297 1.13259 0.513261 0.420402
threshold=0.0018581489659376591 4.4350000000000014 -0.037583892213287222 0.0062764032296394054 5.8319409107235937e-05 0.56500000000000006 19.999999999999975 16.500000000000007 -0.0057759571285092006 -0.0041538593936574766 -0.0033080304782526766 1.6650000000000003 0.0036235632251163667 1.9999999999999853 -1.0000000000000118 0.0001716112529503363 1.6450000000000002 0.0017864620474680184 0.00067078586548043279
decision_type=2 2 2 2 2 2 2 2 2 2 2 2 2 2 2 2 2 2 2
left_child=1 4 -3 -4 -1 -6 7 8 9 -7 -11 13 14 -12 -13 16 17 -16 -10
right_child=-2 2 3 -5 5 6 -8 -9 18 10 11 12 -14 -15 15 -17 -18 -19 -20
leaf_value=-0.00095004524538067482 0.011380831238313295 0.0126137846324788 -0.0021567236265449272 0.0075976304586244979 0.0062312421119504174 -0.001041312276782386 -0.0037212292968007324 0.0055451522563891619 -0.00051747617921232879 0.01306313791773895 -0.00042236835877506842 0.0059182253920765423 0.0095728706020321939 0.0069852154784875997 0.013953607926666813 -0.0026062335056883127 -0.0022827625081633879 0.0033955174045769707 0.0057055351840395625
leaf_weight=1378 25 21 39 21 26 183 56 37 1339 24 282 39 39 22 20 71 42 20 24
leaf_count=1378 25 21 39 21 26 183 56 37 1339 24 282 39 39 22 20 71 42 20 24
internal_value=0 -0.00014615 0.00420157 0.0012573 -0.000243919 0.000193599 0.00012218 0.000222662 0.000129107 0.00111555 0.00182164 0.00131735 0.00290137 0.000113707 0.00154622 0.00043179 0.00306227 0.00867456 -0.0004079
internal_weight=0 3683 81 60 3602 2224 2198 2142 2105 742 559 535 231 304 192 153 82 40 1363
internal_count=3708 3683 81 60 3602 2224 2198 2142 2105 742 559 535 231 304 192 153 82 40 1363
is_linear=0
shrinkage=0.0466033


Tree=18
num_leaves=20
num_cat=0
split_feature=0 5 1 2 13 2 1 11 8 16 19 18 9 1 16 14 2 22 22
split_gain=1.38085 0.729982 1.16942 0.473533 0.4967 0.384702 0.335701 0.666056 1.18418 1.28334 0.743414 0.567271 0.818322 0.381022 0.552168 0.432673 0.929861 0.554328 0.647983
threshold=0.0018581489659376591 15.805000000000001 0.0005691685285342925 5.8319409107235937e-05 -1.5000000000000011 6.1265107268246698e-05 0.00027566130516974247 -1.5000000000000344 2.0000000000000244 10.000000000000004 -0.0010436861834579589 0.018429896640944413 -4.9999999999999973 0.00015639894608797034 10.999999999999995 0.085000000000000006 0.00018142458180016752 -3.6052925741936186e-05 -4.7287472531576384e-05
decision_type=2 2 2 2 2 2 2 2 2 2 2 2 2 2 2 2 2 2 2
left_child=1 3 -3 -1 5 -5 13 11 9 10 -9 -8 -13 14 15 16 -7 18 -17
right_child=-2 2 -4 4 -6 6 7 8 -10 -11 -12 12 -14 -15 -16 17 -18 -19 -20
leaf_value=-0.00089671231079202908 0.010741942744611746 0.013366916136591415 0.00018121472360298012 0.005978886191854724 -0.00069966583443939316 0.0012867285329513421 -0.0044199472772030353 0.015043259863994818 -0.0028100784144856369 -0.0027675998471297339 0.0052093293733930963 -0.0014527597852730056 0.0089580930125714546 -0.0010354762607383162 0.0080313215086187557 0.001414048002792828 0.012319325146775131 -0.00055417145117684404 0.010081782005039735
leaf_weight=1378 25 22 41 29 837 87 44 36 33 20 30 45 25 331 22 146 20 516 21
leaf_count=1378 25 22 41 29 837 87 44 36 33 20 30 45 25 331 22 146 20 516 21
internal_value=0 -0.000137945 0.00478575 -0.000223634 0.00019006 0.000720096 0.000609264 0.00220538 0.00461977 0.00747076 0.0105733 -0.000314908 0.0022654 0.000283897 0.00082172 0.000620947 0.0033489 0.000193581 0.002504
internal_weight=0 3683 63 3620 2242 1405 1376 233 119 86 66 114 70 1143 812 790 107 683 167
internal_count=3708 3683 63 3620 2242 1405 1376 233 119 86 66 114 70 1143 812 790 107 683 167
is_linear=0
shrinkage=0.0461372


Tree=19
num_leaves=20
num_cat=0
split_feature=0 5 1 1 17 13 14 15 1 14 11 1 8 17 22 22 19 2 14
split_gain=1.25638 0.664177 1.064 0.435931 0.405103 0.45884 0.530671 0.460356 1.06512 1.13804 0.666617 0.584778 1.2879 0.714143 0.760367 0.48602 0.796677 0.395117 0.606269
threshold=0.0018581489659376591 15.805000000000001 0.0005691685285342925 8.4653776542144366e-05 -6.9999999999999885 -1.5000000000000011 -0.22499999999999998 0.29500000000000004 0.00041659036141107858 0.115 -1.0000000000000007 0.0003279741401299276 -1.0000000000000118 -0.99999999999998412 -1.0000000180025095e-35 0.00036970122657720156 -0.0013196482073294378 9.5034366498120818e-05 0.23500000000000001
decision_type=2 2 2 2 2 2 2 2 2 2 2 2 2 2 2 2 2 2 2
left_child=1 3 -3 -1 -5 6 -6 8 9 -8 -11 15 -13 -14 -15 17 -17 18 -9
right_child=-2 2 -4 4 5 -7 7 11 -10 10 -12 12 13 14 -16 16 -18 -19 -20
leaf_value=-0.00067220920778091964 0.010143875692641791 0.012622701282899398 0.00017112549459591622 -0.003450134982291882 -0.0028495717246946866 -0.00056049734859357043 0.00180755302761647 0.0091906832853301569 -0.0046008845523867964 0.005856655237171029 0.017100852816695541 -0.0030949049276643805 0.0022352341471943127 0.0046589058695422252 0.016560070093506973 -0.00011996957615789292 0.010817143576220963 -0.00041185149282931411 0.00083161675983199667
leaf_weight=1961 25 22 41 57 68 578 60 23 25 22 22 37 34 21 24 33 24 546 85
leaf_count=1961 25 22 41 57 68 578 60 23 25 22 22 37 34 21 24 33 24 546 85
internal_value=0 -0.000130265 0.00451929 -0.000211183 0.000333767 0.000468401 0.00104917 0.00132648 0.00386431 0.00589921 0.0114788 0.000930617 0.00393763 0.00723135 0.0110062 0.000440021 0.00448513 8.74652e-05 0.00261179
internal_weight=0 3683 63 3620 1659 1602 1024 956 129 104 44 827 116 79 45 711 57 654 108
internal_count=3708 3683 63 3620 1659 1602 1024 956 129 104 44 827 116 79 45 711 57 654 108
is_linear=0
shrinkage=0.0456759


Tree=20
num_leaves=20
num_cat=0
split_feature=2 15 3 2 1 15 19 3 7 3 13 20 8 1 3 3 1 18 14
split_gain=1.72056 2.00164 1.69031 1.06166 0.831818 1.09918 1.0794 0.727665 0.736295 0.530224 0.469007 0.45013 0.363023 1.20958 0.452907 0.486842 0.639091 0.519826 0.92666
threshold=0.00022948028557848781 2.8550000000000004 2.0350000000000006 0.00072509667545322032 0.000431001232881904 0.095000000000000015 0.00042525082312261381 2.1950000000000007 -0.0055534806917958415 1.5550000000000004 -1.0000000000000118 -0.00040663025995479879 -6.0000000000000018 0.00016346678744459341 3.1250000000000004 1.8050000000000004 9.770877397249885e-05 0.075699819547027217 2.3250000000000006
decision_type=2 2 2 2 2 2 2 2 2 2 2 2 2 2 2 2 2 2 2
left_child=9 4 -3 -4 5 6 -2 -7 -9 -1 -6 -10 13 -11 15 16 -14 18 -18
right_child=1 2 3 -5 10 7 -8 8 11 12 -12 -13 14 -15 -16 -17 17 -19 -20
leaf_value=-0.00075629838173244402 0.018528733349272183 0.022426328714936973 0.00050318405175438295 0.013135556542667851 -0.0035779007449746134 -0.00086404170780893296 0.0022983287740498781 0.010237576172519955 -0.0038913664796079196 0.013457847268066623 0.0019850839479047745 0.0047701421985402708 -0.00011677070314647588 -0.0027733035657244425 0.0064764548093080524 -0.00093497532371507276 0.0032032038425169294 -0.003731905799359083 0.014324733276258817
leaf_weight=2211 21 20 39 29 100 124 20 39 24 22 61 40 262 24 30 443 126 20 22
leaf_count=2211 21 20 39 29 100 124 20 39 24 22 61 40 262 24 30 443 126 20 22
internal_value=0 0.00277948 0.00964866 0.00589052 0.00137041 0.00307689 0.0106115 0.00171602 0.00482212 -0.000331977 -0.00147019 0.00152208 0.000656616 0.00498942 0.000435897 0.000228318 0.00142678 0.00383399 0.0048564
internal_weight=0 517 88 68 429 268 41 227 103 3160 161 64 949 46 903 873 430 168 148
internal_count=3677 517 88 68 429 268 41 227 103 3160 161 64 949 46 903 873 430 168 148
is_linear=0
shrinkage=0.05


end of trees

feature_importances:
f_3=69
f_1=53
f_2=40
f_15=31
f_14=25
f_5=23
f_0=16
f_21=15
f_7=13
f_8=13
f_6=12
f_13=11
f_19=11
f_20=10
f_4=9
f_16=8
f_9=7
f_22=7
f_10=6
f_11=6
f_12=6
f_18=6
f_17=2

parameters:
[boosting: gbdt]
[objective: regression]
[metric: binary_logloss]
[tree_learner: serial]
[device_type: cpu]
[data: ]
[valid: ]
[num_iterations: 10]
[learning_rate: 0.05]
[num_leaves: 20]
[num_threads: 0]
[deterministic: 0]
[force_col_wise: 0]
[force_row_wise: 0]
[histogram_pool_size: -1]
[max_depth: -1]
[min_data_in_leaf: 20]
[min_sum_hessian_in_leaf: 0.001]
[bagging_fraction: 0.7]
[pos_bagging_fraction: 1]
[neg_bagging_fraction: 1]
[bagging_freq: 5]
[bagging_seed: 3]
[feature_fraction: 0.9]
[feature_fraction_bynode: 1]
[feature_fraction_seed: 2]
[extra_trees: 0]
[extra_seed: 6]
[early_stopping_round: 0]
[first_metric_only: 0]
[max_delta_step: 0]
[lambda_l1: 0]
[lambda_l2: 0]
[linear_lambda: 0]
[min_gain_to_split: 0]
[drop_rate: 0.1]
[max_drop: 50]
[skip_drop: 0.5]
[xgboost_dart_mode: 0]
[uniform_drop: 0]
[drop_seed: 4]
[top_rate: 0.2]
[other_rate: 0.1]
[min_data_per_group: 100]
[max_cat_threshold: 32]
[cat_l2: 10]
[cat_smooth: 10]
[max_cat_to_onehot: 4]
[top_k: 20]
[monotone_constraints: ]
[monotone_constraints_method: basic]
[monotone_penalty: 0]
[feature_contri: ]
[forcedsplits_filename: ]
[refit_decay_rate: 0.9]
[cegb_tradeoff: 1]
[cegb_penalty_split: 0]
[cegb_penalty_feature_lazy: ]
[cegb_penalty_feature_coupled: ]
[path_smooth: 0]
[interaction_constraints: ]
[verbosity: 0]
[saved_feature_importance_type: 0]
[linear_tree: 0]
[max_bin: 255]
[max_bin_by_feature: ]
[min_data_in_bin: 3]
[bin_construct_sample_cnt: 200000]
[data_random_seed: 1]
[is_enable_sparse: 1]
[enable_bundle: 1]
[use_missing: 1]
[zero_as_missing: 0]
[feature_pre_filter: 1]
[pre_partition: 0]
[two_round: 0]
[header: 0]
[label_column: ]
[weight_column: ]
[group_column: ]
[ignore_column: ]
[categorical_feature: ]
[forcedbins_filename: ]
[precise_float_parser: 0]
[objective_seed: 5]
[num_class: 1]
[is_unbalance: 0]
[scale_pos_weight: 1]
[sigmoid: 1]
[boost_from_average: 1]
[reg_sqrt: 0]
[alpha: 0.9]
[fair_c: 1]
[poisson_max_delta_step: 0.7]
[tweedie_variance_power: 1.5]
[lambdarank_truncation_level: 30]
[lambdarank_norm: 1]
[label_gain: ]
[eval_at: ]
[multi_error_top_k: 1]
[auc_mu_weights: ]
[num_machines: 1]
[local_listen_port: 12400]
[time_out: 120]
[machine_list_filename: ]
[machines: ]
[gpu_platform_id: -1]
[gpu_device_id: -1]
[gpu_use_dp: 0]
[num_gpu: 1]

end of parameters

pandas_categorical:[]
