tree
version=v3
num_class=1
num_tree_per_iteration=1
label_index=0
max_feature_idx=22
objective=regression
feature_names=f_0 f_1 f_2 f_3 f_4 f_5 f_6 f_7 f_8 f_9 f_10 f_11 f_12 f_13 f_14 f_15 f_16 f_17 f_18 f_19 f_20 f_21 f_22
feature_infos=[3.5138360446667107e-07:0.0066553821535006137] [2.5600331918768856e-06:0.0039732576088439284] [9.2225614268401974e-06:0.0029579505118275174] [0.53000000000000003:6.5599999999999996] [-33.000000000000007:46] [2.4100000000000001:21.82] [-101.00000000000016:144.99999999999994] [-0.15710919088766695:0.17837578087457961] [-81:74] [-46:33.999999999999986] [-51.000000000000021:33.999999999999986] [-33.000000000000007:27.999999999999979] [-41:96.000000000000014] [-36.000000000000007:32.999999999999986] [-0.52000000000000002:2.9100000000000001] [-0.94999999999999996:3.8500000000000001] [-52:73.999999999999972] [-28.000000000000004:24.000000000000004] [-0.29572649572649579:0.64215246636771273] [-0.02958455728073861:0.047292143401983289] [-0.054746473503621829:0.033993115318416534] [-0.039377561323276189:0.045346674363414774] [-0.019984292877423981:0.018327052533256172]
tree_sizes=1808 1891 1855 1900 1865 1863 1851 1857 1848 1858

Tree=0
num_leaves=20
num_cat=0
split_feature=3 14 1 3 3 3 14 3 3 1 15 3 15 3 3 15 0 1 1
split_gain=16.3485 6.83019 15.7484 4.39806 3.79546 3.75614 5.19605 3.45252 3.18406 3.48903 3.16834 3.14325 2.40971 2.18955 3.53426 5.38957 2.17494 2.12762 3.70485
threshold=1.4750000000000003 1.2350000000000001 0.00017790295829568948 1.7150000000000001 0.56500000000000006 3.0750000000000006 1.8425000000000002 5.5500000000000007 2.5250000000000004 3.3375676931697394e-05 1.6250000000000002 1.5750000000000004 3.4250000000000003 0.77500000000000013 0.87500000000000011 0.40500000000000008 6.7883636548269811e-05 0.0001718158101154786 0.00053623892310966626
decision_type=2 2 2 2 2 2 2 2 2 2 2 2 2 2 2 2 2 2 2
left_child=4 2 3 11 -1 8 7 -7 9 -3 -11 -2 -8 -6 15 -15 -16 -12 -19
right_child=1 5 -4 -5 13 6 12 -9 -10 10 17 -13 -14 14 16 -17 -18 18 -20
leaf_value=0.17204497162445262 0.17963425722564916 0.15215409890497669 0.15440074111814137 0.18579497141956164 0.1520830154001698 0.19276256390832902 0.1572287953746426 0.16607906262244249 0.15139948012881574 0.15191415797093674 0.16036160942921029 0.16374140031961404 0.1751699715778865 0.17989970123713775 0.1534712924294333 0.15641997185728326 0.15768025990434711 0.16846265460466256 0.15016997195041551
leaf_weight=32 56 126 130 80 575 27 85 22 122 86 574 70 24 37 833 72 486 205 32
leaf_count=32 56 126 130 80 575 27 85 22 122 86 574 70 24 37 833 72 486 205 32
internal_value=0.158074 0.161671 0.168027 0.176626 0.154961 0.160032 0.167259 0.180782 0.159035 0.159945 0.16104 0.170805 0.161179 0.154688 0.155737 0.16439 0.155022 0.162007 0.165993
internal_weight=0 1639 336 206 2035 1303 158 49 1145 1023 897 126 109 2003 1428 109 1319 811 237
internal_count=3674 1639 336 206 2035 1303 158 49 1145 1023 897 126 109 2003 1428 109 1319 811 237
is_linear=0
shrinkage=1


Tree=1
num_leaves=20
num_cat=0
split_feature=3 14 1 3 3 3 5 3 0 14 3 16 2 3 3 14 1 3 1
split_gain=14.7545 6.16425 14.2129 3.96925 3.4254 3.38992 5.81181 2.87362 3.15191 2.89675 2.86488 2.48557 1.99435 1.97607 3.18967 4.28766 2.00522 3.1667 1.96521
threshold=1.4750000000000003 1.2350000000000001 0.00017790295829568948 1.7150000000000001 0.56500000000000006 3.0750000000000006 10.255000000000001 2.5250000000000004 4.3047777060788656e-05 1.3950000000000002 1.5550000000000004 1.0000000180025095e-35 0.00011322572871777011 0.77500000000000013 0.87500000000000011 0.22500000000000003 0.00025528724294924388 1.3150000000000002 0.00053623892310966626
decision_type=2 2 2 2 2 2 2 2 2 2 2 2 2 2 2 2 2 2 2
left_child=4 2 3 10 -1 7 -7 8 -3 -10 -2 18 -12 -6 15 -15 -16 -18 -11
right_child=1 5 -4 -5 13 6 -8 -9 9 11 12 -13 -14 14 16 -17 17 -19 -20
leaf_value=0.013272750796750188 0.021869350462517839 -0.0028452908915787166 -0.0034892676999935738 0.02633525230921805 -0.0056911070528237722 0.033219015066112793 0.0049712259077677769 -0.0063404657374151428 -0.0046680983621627094 0.0082417883064555032 0.011370646767318249 0.0011413020721088303 -0.0061168058410934782 0.018525727678622522 -0.0032899250244069547 -0.0018508497125177244 0.019039063614148363 -0.0058840129375457772 -0.0075084984302520759
leaf_weight=32 47 271 130 80 575 21 137 122 96 348 56 287 23 42 1268 67 26 25 21
leaf_count=32 47 271 130 80 575 21 137 122 96 348 56 287 23 42 1268 67 26 25 21
internal_value=0 0.00341737 0.00945579 0.017625 -0.0029569 0.00186027 0.00872568 0.000912899 0.00177791 0.00344399 0.0120947 0.00463112 0.00627936 -0.00321619 -0.00221963 0.00600068 -0.00289895 0.00682187 0.00734543
internal_weight=0 1639 336 206 2035 1303 158 1145 1023 752 126 656 79 2003 1428 109 1319 51 369
internal_count=3674 1639 336 206 2035 1303 158 1145 1023 752 126 656 79 2003 1428 109 1319 51 369
is_linear=0
shrinkage=0.05


Tree=2
num_leaves=20
num_cat=0
split_feature=3 14 1 3 3 3 5 3 2 15 3 0 1 3 3 15 20 21 1
split_gain=13.316 5.56323 12.8272 3.58225 3.09143 3.0594 5.24516 2.68249 4.63226 2.59392 2.6458 3.46212 2.09171 2.90978 2.99646 3.25154 2.96053 3.21613 2.72164
threshold=1.4750000000000003 1.2350000000000001 0.00017790295829568948 1.7150000000000001 0.56500000000000006 3.0750000000000006 10.255000000000001 1.675 0.00012256738673578206 2.0050000000000003 2.5250000000000004 4.3047777060788656e-05 0.00053623892310966626 2.1950000000000007 1.7950000000000002 3.3950000000000005 -0.0027327614593623535 -0.00080616172124525754 0.0001718158101154786
decision_type=2 2 2 2 2 2 2 2 2 2 2 2 2 2 2 2 2 2 2
left_child=4 2 3 7 -1 9 -7 8 -2 -3 11 -11 13 14 15 18 -15 -18 -13
right_child=1 5 -4 -5 -6 6 -8 -9 -10 10 -12 12 -14 16 -16 -17 17 -19 -20
leaf_value=0.012609114404767752 0.025841452754460849 -0.003375811853112966 -0.0033148046525625086 0.025018488001078365 -0.003055377773237538 0.031558063306978773 0.0047226641843788816 0.0020315245269460882 0.00031464665576263714 -0.0024824235050832453 -0.0056740035508808344 0.0025889384863247355 -0.0072817419888451702 0.0011459873272822454 1.5383941326902506e-05 0.020953249422515311 0.010039456685384114 0.03519503166899085 0.016333168469693349
leaf_weight=32 52 274 130 80 2003 21 137 47 27 201 95 166 32 26 213 41 27 24 46
leaf_count=32 52 274 130 80 2003 21 137 47 27 201 95 166 32 26 213 41 27 24 46
internal_value=0 0.0032465 0.008983 0.0167437 -0.00280906 0.00176725 0.00828939 0.0114899 0.0171171 0.000867254 0.00220204 0.00316625 0.00514083 0.00587291 0.00438508 0.00806392 0.0148772 0.0218774 0.00557118
internal_weight=0 1639 336 206 2035 1303 158 126 79 1145 871 776 575 543 466 253 77 51 212
internal_count=3674 1639 336 206 2035 1303 158 126 79 1145 871 776 575 543 466 253 77 51 212
is_linear=0
shrinkage=0.05


Tree=3
num_leaves=20
num_cat=0
split_feature=3 14 2 14 2 5 3 1 15 9 0 21 15 3 3 15 0 3 1
split_gain=12.0177 5.02082 11.7508 3.58904 3.04279 2.99736 2.79001 2.77284 2.87499 2.30779 2.11154 2.03608 1.91629 1.78341 2.87868 4.45939 1.91114 1.7994 3.14455
threshold=1.4750000000000003 1.2350000000000001 0.00015136415005260825 0.28500000000000009 7.7690597854830742e-05 8.0950000000000006 0.56500000000000006 3.3375676931697394e-05 3.5750000000000006 -14.000000000000034 9.289772172340523e-05 0.00025550674108243415 1.6250000000000002 0.77500000000000013 0.87500000000000011 0.40500000000000008 6.7883636548269811e-05 1.3050000000000004 0.00025528724294924388
decision_type=2 2 2 2 2 2 2 2 2 2 2 2 2 2 2 2 2 2 2
left_child=6 2 3 4 -2 -5 -1 -3 9 -9 -4 -10 -11 -8 15 -15 -16 18 -18
right_child=1 7 10 5 -6 -7 13 8 11 12 -12 -13 -14 14 16 -17 17 -19 -20
leaf_value=0.011978658614680171 0.021824629813432694 -0.0053706921873584628 0.011156287212525645 0.027970097178077125 -0.00088185597625043658 0.006825100524084908 -0.0052537832467452342 0.017600001589111663 0.0057149460007037437 -0.0055695736390906714 -0.0032656149193644526 0.026602826900780203 0.0022023616643512952 0.019961226429488207 -0.0040549790301099694 -0.001396439110653268 0.00023269519873980361 -0.0060494942977876954 0.018239878920408396
leaf_weight=32 25 126 31 83 36 21 575 23 28 86 140 20 1020 37 833 72 359 101 26
leaf_count=32 25 126 31 83 36 21 575 23 28 86 140 20 1020 37 833 72 359 101 26
internal_value=0 0.00308418 0.00853385 0.0180528 0.00842408 0.0237004 -0.0026686 0.00167889 0.00243356 0.00192403 -0.000651118 0.0144182 0.00159803 -0.00290261 -0.00195588 0.00585341 -0.00260123 -0.000109515 0.00144876
internal_weight=0 1639 336 165 61 104 2035 1303 1177 1129 171 48 1106 2003 1428 109 1319 486 385
internal_count=3674 1639 336 165 61 104 2035 1303 1177 1129 171 48 1106 2003 1428 109 1319 486 385
is_linear=0
shrinkage=0.05


Tree=4
num_leaves=20
num_cat=0
split_feature=3 14 1 3 3 14 3 3 3 1 3 15 14 2 3 15 15 18 1
split_gain=10.8459 4.53129 10.7212 3.05003 2.66855 4.20425 3.5882 2.51799 2.41461 2.65517 3.42079 4.42759 2.9775 2.40584 2.54347 2.39182 2.3223 1.68125 1.61091
threshold=1.4750000000000003 1.2350000000000001 0.00017790295829568948 1.7150000000000001 3.0750000000000006 1.8750000000000002 5.5500000000000007 0.56500000000000006 2.5250000000000004 0.0001718158101154786 1.8250000000000004 2.8550000000000004 2.0850000000000004 7.6824929219369752e-05 1.5750000000000004 1.9550000000000003 3.4250000000000003 -0.0059957448369464808 3.3375676931697394e-05
decision_type=2 2 2 2 2 2 2 2 2 2 2 2 2 2 2 2 2 2 2
left_child=7 2 3 13 8 6 -6 -1 9 18 11 -11 15 -2 -15 -12 -7 -5 -3
right_child=1 4 -4 17 5 16 -8 -9 -10 10 12 -13 -14 14 -16 -17 -18 -19 -20
leaf_value=0.011379725160077216 0.025376291166652333 -0.0051021576164260746 -0.0031358751138815515 0.032195248703161879 0.030972098507757846 -0.0022832406125962734 0.0051235408484935768 -0.0027574782565243532 -0.005894481293002113 0.0053063815165507169 -0.0056003590700802984 0.032399689674377445 -0.0051631418565909071 0.015302764117717743 -0.00034737299989770964 0.011283876794449827 0.015450278855860235 0.017223039910197257 0.0010845011351250558
leaf_weight=32 22 126 130 30 29 80 25 2003 122 38 27 25 75 50 54 94 24 50 638
leaf_count=32 22 126 130 30 29 80 25 2003 122 38 27 25 75 50 54 94 24 50 638
internal_value=0 0.00292997 0.00810716 0.0152023 0.00159495 0.00768625 0.0190052 -0.00253517 0.000754399 0.00154733 0.00592229 0.0160577 0.00266449 0.0103544 0.00717673 0.00751632 0.00180911 0.0228376 6.41883e-05
internal_weight=0 1639 336 206 1303 158 54 2035 1145 1023 259 63 196 126 104 121 104 80 764
internal_count=3674 1639 336 206 1303 158 54 2035 1145 1023 259 63 196 126 104 121 104 80 764
is_linear=0
shrinkage=0.05


Tree=5
num_leaves=20
num_cat=0
split_feature=5 14 3 5 1 18 1 3 5 14 14 0 1 14 2 3 3 3 14
split_gain=11.1663 3.58826 3.04267 2.63328 2.18403 2.17765 2.96112 1.70288 1.93513 2.17977 2.04407 1.97596 1.82642 1.73702 2.26261 1.57875 3.31326 3.64778 3.59944
threshold=5.455000000000001 2.0850000000000004 0.56500000000000006 6.9350000000000014 0.0001197733394854334 0.043986568986569059 7.2899965690264795e-05 2.4750000000000005 6.0550000000000006 1.4425000000000001 0.18250000000000002 2.2402904061691655e-05 6.9170341287056575e-05 1.2350000000000001 7.7690597854830742e-05 5.9650000000000007 3.1250000000000004 2.3750000000000004 1.8650000000000004
decision_type=2 2 2 2 2 2 2 2 2 2 2 2 2 2 2 2 2 2 2
left_child=2 3 -1 7 5 6 -5 8 9 10 -2 -11 -13 14 -10 16 17 -6 -18
right_child=1 -3 -4 4 15 -7 -8 -9 13 11 -12 12 -14 -15 -16 -17 18 -19 -20
leaf_value=0.014935738801956179 0.0068982959277444078 -0.00055869968878802755 -0.0026085791893750224 0.0055463616337094995 0.0070893463257112009 -0.0028579135239124301 0.021572333893605643 0.013634265316971417 0.017859097346663477 -0.00049645074389197607 -0.0045494807200341285 0.02646064887253138 0.0063628932088613506 -0.0061152490877336074 -0.0013047036728752195 -0.0069506465196609501 0.02835159874521196 -0.0040512899557749431 0.0044458816368733679
leaf_weight=25 77 454 2151 49 285 20 70 29 20 22 79 26 20 124 67 25 32 99 31
leaf_count=25 77 454 2151 49 285 20 70 29 20 22 79 26 20 124 67 25 32 99 31
internal_value=0 0.00316852 -0.00240701 0.00474262 0.00689913 0.0124077 0.0149734 0.00190289 0.0011208 0.00435747 0.00110102 0.0118281 0.0177225 -0.00231528 0.00310077 0.00527689 0.00596076 0.00421715 0.0165885
internal_weight=0 1529 2176 1075 611 139 119 464 435 224 156 68 46 211 87 472 447 384 63
internal_count=3705 1529 2176 1075 611 139 119 464 435 224 156 68 46 211 87 472 447 384 63
is_linear=0
shrinkage=0.05


Tree=6
num_leaves=20
num_cat=0
split_feature=5 14 3 5 3 3 3 1 17 6 5 3 15 14 2 0 4 0 15
split_gain=10.0776 3.23841 2.74601 2.37654 2.02131 5.89903 3.57059 2.5678 2.27248 1.99482 2.37688 6.4475 1.9487 2.0198 1.91193 1.87229 1.61907 1.61695 1.5457
threshold=5.455000000000001 2.0850000000000004 0.56500000000000006 6.9350000000000014 5.5500000000000007 3.1250000000000004 2.4450000000000007 0.00048392163639903368 2.9999999999999951 9.0000000000000551 7.9350000000000014 2.0350000000000006 3.5750000000000006 2.8050000000000002 8.9809896665054984e-05 0.00021166313524638674 0.50000000000000611 0.00012967137246912977 -0.31499999999999995
decision_type=2 2 2 2 2 2 2 2 2 2 2 2 2 2 2 2 2 2 2
left_child=2 3 -1 18 5 6 7 8 9 10 17 14 -3 -14 -12 -16 -7 -5 -2
right_child=1 12 -4 4 -6 16 -8 -9 -10 -11 11 -13 13 -15 15 -17 -18 -19 -20
leaf_value=0.01418895220756531 0.014444308112496916 -0.0016960901524825369 -0.0024781502073224562 0.023323768285604625 -0.0035246794800395556 0.015155216274054154 -0.0025831689560177305 -0.0050713379893984117 0.0022759245528328801 0.00024293456226587296 0.016870210319757464 0.034636096991598607 0.018058877493496297 -0.0018763553040723009 -0.0039649593371611381 0.011135887429118157 0.033916150098261627 0.011430386263950199 0.0011486984688003049
leaf_weight=25 23 403 2151 65 46 23 101 35 93 36 23 20 27 24 65 30 23 51 441
leaf_count=25 23 403 2151 65 46 23 101 35 93 36 23 20 27 24 65 30 23 51 441
internal_value=0 0.00301009 -0.00228666 0.00450549 0.00655418 0.00737476 0.00585375 0.00789233 0.009077 0.011258 0.0128192 0.00838472 -0.000530765 0.00867759 0.00393533 0.000803729 0.0245357 0.0180948 0.00180775
internal_weight=0 1529 2176 1075 611 565 519 418 383 290 254 138 454 51 118 95 46 116 464
internal_count=3705 1529 2176 1075 611 565 519 418 383 290 254 138 454 51 118 95 46 116 464
is_linear=0
shrinkage=0.05


Tree=7
num_leaves=20
num_cat=0
split_feature=5 14 3 5 3 3 3 1 17 18 5 3 8 15 14 14 3 5 15
split_gain=9.09505 2.92266 2.47827 2.14482 1.82423 5.32387 3.22246 2.31744 2.05091 1.88749 2.1696 5.34537 2.12532 1.7587 1.82287 1.71549 1.54595 1.78661 2.66435
threshold=5.455000000000001 2.0850000000000004 0.56500000000000006 6.9350000000000014 5.5500000000000007 3.1250000000000004 2.4450000000000007 0.00048392163639903368 2.9999999999999951 0.04220696947757497 7.9650000000000007 2.0350000000000006 1.9999999999999936 3.5750000000000006 2.8050000000000002 1.9650000000000001 2.4750000000000005 6.0550000000000006 -0.29499999999999993
decision_type=2 2 2 2 2 2 2 2 2 2 2 2 2 2 2 2 2 2 2
left_child=2 3 -1 16 5 6 7 8 9 10 12 15 -5 -3 -15 -12 17 -2 -19
right_child=1 13 -4 4 -6 -7 -8 -9 -10 -11 11 -13 -14 14 -16 -17 -18 18 -20
leaf_value=0.013479504942893983 0.0040821588564930221 -0.0016112856123198943 -0.0023542425279587387 0.021408150890885397 -0.0033484456979710124 0.023308898881077768 -0.0024540106480074402 -0.0048177710388387952 0.0021621283984953358 0.0025395818316099935 0.00044295576711495714 0.031272202375389281 0.0036656329674380167 0.017155934207969244 -0.0017825375311076642 0.016420464572452366 0.012895117057808514 0.012657895283057139 -0.0044357399884107952
leaf_weight=25 224 403 2151 86 46 46 101 35 93 57 84 21 21 27 24 21 29 26 185
leaf_count=25 224 403 2151 86 46 46 101 35 93 57 84 21 21 27 24 21 29 26 185
internal_value=0 0.00285959 -0.00217233 0.00428021 0.00622647 0.00700602 0.00556106 0.00749772 0.00862315 0.0106951 0.0126903 0.00824408 0.017926 -0.000504226 0.00824371 0.00363846 0.00171736 0.000972177 -0.00232942
internal_weight=0 1529 2176 1075 611 565 519 418 383 290 233 126 107 454 51 105 464 435 211
internal_count=3705 1529 2176 1075 611 565 519 418 383 290 233 126 107 454 51 105 464 435 211
is_linear=0
shrinkage=0.05


Tree=8
num_leaves=20
num_cat=0
split_feature=5 14 3 5 1 15 2 15 19 19 3 15 14 3 15 5 15 15 14
split_gain=8.20828 2.6377 2.23664 1.9357 1.69616 2.23808 3.85468 2.13495 2.0407 1.78188 1.80797 1.58723 1.64514 1.39522 1.66085 1.77471 3.62514 1.88437 1.29874
threshold=5.455000000000001 2.0850000000000004 0.56500000000000006 6.9350000000000014 0.00012749949172216247 2.9150000000000005 0.00017290198797944545 2.3625000000000003 0.00069296924510353641 0.0019152505352200146 1.7050000000000003 3.5750000000000006 2.8050000000000002 2.4750000000000005 0.095000000000000015 6.0550000000000006 1.655 2.0750000000000006 0.14500000000000005
decision_type=2 2 2 2 2 2 2 2 2 2 2 2 2 2 2 2 2 2 2
left_child=2 3 -1 13 7 -6 -7 8 -5 10 -9 -3 -13 14 -2 16 18 -18 -16
right_child=1 11 -4 4 5 6 -8 9 -10 -11 -12 12 -14 -15 15 -17 17 -19 -20
leaf_value=0.012805529117584228 0.0082947032038982096 -0.0015307213916967881 -0.0022365307725484515 0.0089479363678644109 0.0029259586773621731 0.0023213337361812593 0.025811291870570952 0.020212216355970928 0.024573925842304487 -0.0074748452914797751 -0.00053550799687703454 0.016298137191269133 -0.0016934107057750226 0.012250361591577531 0.0036589818921956146 -0.0042311887894615988 0.021293783361713094 0.0049663004313790522 -0.0064008549726628644
leaf_weight=25 65 403 2151 48 390 40 31 21 37 23 21 27 24 29 55 165 30 43 77
leaf_count=25 65 403 2151 48 390 40 31 21 37 23 21 27 24 29 55 165 30 43 77
internal_value=0 0.00271661 -0.00206371 0.0040662 0.00591514 0.00441242 0.0125775 0.0105335 0.0157498 0.00371215 0.00983835 -0.000479015 0.00783153 0.00163149 0.000923568 -0.000371361 0.00273533 0.0116762 -0.00220926
internal_weight=0 1529 2176 1075 611 461 71 150 85 65 42 454 51 464 435 370 205 73 132
internal_count=3705 1529 2176 1075 611 461 71 150 85 65 42 454 51 464 435 370 205 73 132
is_linear=0
shrinkage=0.05


Tree=9
num_leaves=20
num_cat=0
split_feature=5 14 3 5 3 3 3 16 1 3 5 5 4 20 14 3 16 15 21
split_gain=7.40797 2.38053 2.01857 1.74697 1.61939 4.78195 2.82552 2.07125 1.77561 1.52117 3.67564 3.34821 1.70427 1.65858 1.59206 2.13613 1.76631 1.43795 1.60995
threshold=5.455000000000001 2.0850000000000004 0.56500000000000006 6.9350000000000014 5.5500000000000007 3.1250000000000004 2.4450000000000007 10.000000000000004 0.00048392163639903368 2.0150000000000001 7.8750000000000009 9.0750000000000011 0.50000000000000611 0.00061154207298763652 1.9750000000000003 1.6250000000000002 1.0000000000000007 3.5550000000000002 0.0039466822660424459
decision_type=2 2 2 2 2 2 2 2 2 2 2 2 2 2 2 2 2 2 2
left_child=2 3 -1 -2 5 6 7 8 9 10 12 13 -5 -11 15 16 -12 -3 -19
right_child=1 17 -4 4 -6 -7 -8 -9 -10 11 14 -13 -14 -15 -16 -17 -18 18 -20
leaf_value=0.012165252327919006 0.0015499180375502027 -0.001553163554538325 -0.0021247042543053461 0.018538090156417497 -0.0034019469890905468 0.02180473681377328 -0.0025207831385997263 -0.0068685261675944702 -0.0042013751021746934 0.015139906464711481 -0.00018954545907352282 0.026932713863524523 0.0066239921662669919 -0.0042953706213406159 0.01394418633232514 -0.0041495697728047764 0.020127437971532346 0.00074574334117082455 0.017917297141892569
leaf_weight=25 464 394 2151 71 46 46 101 26 29 23 23 33 52 21 24 96 20 39 21
leaf_count=25 464 394 2151 71 46 46 101 26 29 23 23 33 52 21 24 96 20 39 21
internal_value=0 0.00258078 -0.00196053 0.00386289 0.00561939 0.00635387 0.00498443 0.00679789 0.00770433 0.00865548 0.00697602 0.0148934 0.0135012 0.00586398 0.00205209 -1.21931e-06 0.00926021 -0.000455064 0.00675579
internal_weight=0 1529 2176 1075 611 565 519 418 392 363 286 77 123 44 163 139 43 454 60
internal_count=3705 1529 2176 1075 611 565 519 418 392 363 286 77 123 44 163 139 43 454 60
is_linear=0
shrinkage=0.05


end of trees

feature_importances:
f_3=64
f_14=26
f_1=22
f_15=22
f_5=20
f_0=8
f_2=8
f_16=3
f_18=3
f_21=3
f_4=2
f_17=2
f_19=2
f_20=2
f_6=1
f_8=1
f_9=1

parameters:
[boosting: gbdt]
[objective: regression]
[metric: binary_logloss]
[tree_learner: serial]
[device_type: cpu]
[data: ]
[valid: ]
[num_iterations: 10]
[learning_rate: 0.05]
[num_leaves: 20]
[num_threads: 0]
[deterministic: 0]
[force_col_wise: 0]
[force_row_wise: 0]
[histogram_pool_size: -1]
[max_depth: -1]
[min_data_in_leaf: 20]
[min_sum_hessian_in_leaf: 0.001]
[bagging_fraction: 0.7]
[pos_bagging_fraction: 1]
[neg_bagging_fraction: 1]
[bagging_freq: 5]
[bagging_seed: 3]
[feature_fraction: 0.9]
[feature_fraction_bynode: 1]
[feature_fraction_seed: 2]
[extra_trees: 0]
[extra_seed: 6]
[early_stopping_round: 0]
[first_metric_only: 0]
[max_delta_step: 0]
[lambda_l1: 0]
[lambda_l2: 0]
[linear_lambda: 0]
[min_gain_to_split: 0]
[drop_rate: 0.1]
[max_drop: 50]
[skip_drop: 0.5]
[xgboost_dart_mode: 0]
[uniform_drop: 0]
[drop_seed: 4]
[top_rate: 0.2]
[other_rate: 0.1]
[min_data_per_group: 100]
[max_cat_threshold: 32]
[cat_l2: 10]
[cat_smooth: 10]
[max_cat_to_onehot: 4]
[top_k: 20]
[monotone_constraints: ]
[monotone_constraints_method: basic]
[monotone_penalty: 0]
[feature_contri: ]
[forcedsplits_filename: ]
[refit_decay_rate: 0.9]
[cegb_tradeoff: 1]
[cegb_penalty_split: 0]
[cegb_penalty_feature_lazy: ]
[cegb_penalty_feature_coupled: ]
[path_smooth: 0]
[interaction_constraints: ]
[verbosity: 0]
[saved_feature_importance_type: 0]
[linear_tree: 0]
[max_bin: 255]
[max_bin_by_feature: ]
[min_data_in_bin: 3]
[bin_construct_sample_cnt: 200000]
[data_random_seed: 1]
[is_enable_sparse: 1]
[enable_bundle: 1]
[use_missing: 1]
[zero_as_missing: 0]
[feature_pre_filter: 1]
[pre_partition: 0]
[two_round: 0]
[header: 0]
[label_column: ]
[weight_column: ]
[group_column: ]
[ignore_column: ]
[categorical_feature: ]
[forcedbins_filename: ]
[precise_float_parser: 0]
[objective_seed: 5]
[num_class: 1]
[is_unbalance: 0]
[scale_pos_weight: 1]
[sigmoid: 1]
[boost_from_average: 1]
[reg_sqrt: 0]
[alpha: 0.9]
[fair_c: 1]
[poisson_max_delta_step: 0.7]
[tweedie_variance_power: 1.5]
[lambdarank_truncation_level: 30]
[lambdarank_norm: 1]
[label_gain: ]
[eval_at: ]
[multi_error_top_k: 1]
[auc_mu_weights: ]
[num_machines: 1]
[local_listen_port: 12400]
[time_out: 120]
[machine_list_filename: ]
[machines: ]
[gpu_platform_id: -1]
[gpu_device_id: -1]
[gpu_use_dp: 0]
[num_gpu: 1]

end of parameters

pandas_categorical:[]
