tree
version=v3
num_class=1
num_tree_per_iteration=1
label_index=0
max_feature_idx=22
objective=regression
feature_names=f_0 f_1 f_2 f_3 f_4 f_5 f_6 f_7 f_8 f_9 f_10 f_11 f_12 f_13 f_14 f_15 f_16 f_17 f_18 f_19 f_20 f_21 f_22
feature_infos=[3.5138360446667107e-07:0.0066553821535006137] [2.5600331918768856e-06:0.0039732576088439284] [9.2225614268401974e-06:0.0029579505118275174] [0.53000000000000003:6.5599999999999996] [-33.000000000000007:46] [2.4100000000000001:21.82] [-101.00000000000016:144.99999999999994] [-0.15710919088766695:0.17837578087457961] [-81:74] [-46:33.999999999999986] [-51.000000000000021:33.999999999999986] [-33.000000000000007:27.999999999999979] [-41:96.000000000000014] [-36.000000000000007:32.999999999999986] [-0.52000000000000002:2.9100000000000001] [-0.94999999999999996:3.8500000000000001] [-52:73.999999999999972] [-28.000000000000004:24.000000000000004] [-0.29572649572649579:0.64215246636771273] [-0.02958455728073861:0.047292143401983289] [-0.054746473503621829:0.033993115318416534] [-0.039377561323276189:0.045346674363414774] [-0.019984292877423981:0.018327052533256172]
tree_sizes=3618 3770 3762 3783 3787 3773 3737 3751 3751 3783

Tree=0
num_leaves=42
num_cat=0
split_feature=3 1 1 15 10 14 2 10 7 2 20 3 9 19 3 0 10 1 15 20 15 11 12 6 2 3 18 14 9 7 0 0 7 10 11 18 14 2 18 14 0
split_gain=17.6515 6.63391 2.95798 2.73993 2.81905 2.44513 3.09931 2.24793 2.16964 1.77598 1.84228 2.12865 2.36282 2.25144 2.03192 2.2725 1.83236 1.76202 2.68438 2.18624 1.60556 1.75208 1.59489 1.77883 2.25462 3.3595 1.58848 1.5456 1.37715 1.32105 1.23139 1.77219 2.48215 1.25357 1.50893 1.29424 1.2275 1.10676 2.28308 1.30164 1.29657
threshold=1.4950000000000003 3.667515708496517e-05 7.8719737676296867e-05 0.76500000000000012 3.0000000000000142 -0.22499999999999998 0.00013274109257684782 9.9999999999999876 0.0021556481818265642 0.0011109579304333353 0.0025516728399916926 1.7950000000000002 6.2500000000000453 -0.0027070430613743697 2.0150000000000001 7.9573246589843182e-05 -5.000000000000048 0.00015377169860184874 2.7850000000000006 0.0011811386124406245 2.4150000000000005 1.0000000180025095e-35 -5.0000000000000009 -1.0000000180025095e-35 0.00022262610528635103 2.5850000000000004 0.0200964191372528 2.1750000000000003 -1.0000000180025095e-35 -0.01121675918702336 0.00010355877535675684 0.00023015135905199828 0.0190231667418479 -4.2499999999999973 1.0000000000000455 -0.018568893280039852 1.4650000000000001 7.9826162016698998e-05 0.017157346482058137 0.40500000000000008 6.4293806717573889e-05
decision_type=2 2 2 2 2 2 2 2 2 2 2 2 2 2 2 2 2 2 2 2 2 2 2 2 2 2 2 2 2 2 2 2 2 2 2 2 2 2 2 2 2
left_child=2 -2 -1 4 5 8 -7 9 -3 10 11 13 14 28 20 -16 -15 19 -19 -18 -13 27 -17 24 -24 -26 -8 -22 29 -5 -12 33 -33 -32 -35 -36 -25 38 40 -39 -4
right_child=1 3 37 7 -6 6 26 -9 -10 -11 30 12 -14 16 15 22 17 18 -20 -21 21 -23 23 36 25 -27 -28 -29 -30 -31 31 32 -34 34 35 -37 -38 39 -40 -41 -42
leaf_value=0.20764006770679219 0.20564516111512643 0.22304147421995646 0.21202956962214187 0.23343108445474958 0.23456744807418009 0.24074333731021541 0.22753882865029515 0.20866418505690537 0.20161290311069563 0.22888562997702758 0.20918866057356561 0.20473790306412948 0.23256528360185016 0.22924448164632144 0.22827956937999799 0.2258553269918796 0.21101884356459558 0.21351766483806275 0.23911290255190207 0.2291129027009137 0.23115835721588859 0.20630040304084643 0.20637480780164247 0.21979472102158359 0.24161290251464917 0.21457586588049538 0.21054147440622095 0.21315136447722069 0.24024926617133258 0.21589861718353617 0.23161290266366077 0.2036537194068157 0.22276674894932491 0.2099462363198526 0.21561290290207935 0.23204768526587766 0.20634263276994688 0.21262480770851022 0.20773535199905585 0.20716845858346694 0.22612270666703971
leaf_weight=1178 124 21 24 22 44 23 27 78 27 33 99 64 21 38 45 33 101 21 20 20 22 32 21 22 20 27 28 26 22 21 20 49 26 36 25 23 74 336 49 162 51
leaf_count=1178 124 21 24 22 44 23 27 78 27 33 99 64 21 38 45 33 101 21 20 20 22 32 21 22 20 27 28 26 22 21 20 49 26 36 25 23 74 336 49 162 51
internal_value=0.212224 0.216668 0.209113 0.217779 0.223672 0.219867 0.225331 0.216834 0.210988 0.217483 0.217087 0.218503 0.216232 0.22199 0.215343 0.218142 0.219363 0.217045 0.226003 0.21401 0.210641 0.215363 0.215826 0.213808 0.219995 0.226081 0.218886 0.221405 0.230074 0.224869 0.213663 0.216138 0.21028 0.220363 0.217684 0.223488 0.209425 0.211902 0.216129 0.21085 0.221613
internal_weight=0 1355 1800 1231 170 126 78 1061 48 983 950 672 407 265 386 242 200 162 41 121 144 80 197 164 68 47 55 48 65 43 278 179 75 104 84 48 96 622 124 498 75
internal_count=3155 1355 1800 1231 170 126 78 1061 48 983 950 672 407 265 386 242 200 162 41 121 144 80 197 164 68 47 55 48 65 43 278 179 75 104 84 48 96 622 124 498 75
is_linear=0
shrinkage=1


Tree=1
num_leaves=42
num_cat=0
split_feature=5 5 5 3 3 5 2 1 2 3 3 6 8 5 1 2 6 17 1 1 5 21 7 11 14 1 1 14 19 21 19 4 14 2 4 0 7 11 7 8 1
split_gain=17.042 4.86857 3.9786 2.93145 2.47474 2.34781 2.33263 2.59834 3.52663 2.42291 2.1798 2.16689 2.14275 1.93791 1.8643 3.09485 1.72895 2.23696 1.59562 1.66555 2.30662 1.71372 1.83456 2.19741 1.52637 1.498 1.6996 3.1083 1.47917 1.60382 1.42343 1.40935 1.38236 1.35493 1.27426 1.64892 1.24838 1.17174 1.21327 1.00324 0.950028
threshold=4.6850000000000014 2.5750000000000006 6.5250000000000012 1.7850000000000004 1.5550000000000004 7.6550000000000011 0.00020467053333761656 0.00040460440659399087 0.0011109579304333353 2.5750000000000006 1.5250000000000001 6.9999999999998961 -1.0000000000000118 8.3150000000000031 0.00027566130516974247 0.00033220395274397295 8.2500000000000036 0.58333333333334692 0.00017095568635345116 5.2609242738473945e-05 6.6850000000000014 0.0013443643790707063 -0.019705563893553376 -1.2500000000000175 1.8550000000000002 0.00026710277035244093 0.00015377169860184874 1.2350000000000001 0.0066415542011385451 0.0018602916428548391 -0.0001141227268446343 -1.0000000180025095e-35 0.20500000000000004 3.4874034338445212e-05 0.50000000000000611 0.00014184467660587592 -0.037583892213287222 -6.4999999999999938 -0.0016536971441006296 0.49999999999999994 3.667515708496517e-05
decision_type=2 2 2 2 2 2 2 2 2 2 2 2 2 2 2 2 2 2 2 2 2 2 2 2 2 2 2 2 2 2 2 2 2 2 2 2 2 2 2 2 2
left_child=1 -1 12 4 5 -4 18 9 -9 16 -7 33 28 25 37 -16 17 31 19 -5 -21 22 -22 -24 -19 26 27 -6 29 34 -29 -8 -13 -3 -2 -36 -35 38 -14 -11 -39
right_child=2 11 3 6 13 10 7 8 -10 39 -12 32 14 -15 15 -17 -18 24 -20 20 21 -23 23 -25 -26 -27 -28 30 -30 -31 -32 -33 -34 36 35 -37 -38 40 -40 -41 -42
leaf_value=0.013236258868128063 -6.7628404268851641e-05 -0.0072783257152842385 -0.0062298492661544257 -0.010457926690578462 0.025675578033312774 0.021709233522415161 0.032844335705041881 -0.0018188478237436724 0.015692050050239308 0.0071510179302631278 -0.00086087748408317569 0.013405049430287403 0.012606725003570319 0.00055838440629568968 0.023184116387909112 -0.0036509631999901366 0.0027806239059338204 0.017374851341758455 -0.0052462174770343739 0.01949577820689782 -0.0045964755738774933 -0.0044363149729642008 0.022230970611174905 0.0025692814836899441 -8.8239817515663475e-06 0.0039653531089425082 0.029494934449238439 0.01651597786694765 -0.0057988785916850685 0.01802424942002152 -0.0012265577052648251 0.017000055033713581 -0.00058526319304579185 0.006176867087682089 0.020376889221370223 0.001191908014672143 -0.0042105915839639593 -0.0052670633529915533 -0.0030918381363153457 -0.0062024301425977193 -0.00031733455895009965
leaf_weight=40 52 435 35 20 39 23 25 129 37 39 20 23 32 22 22 21 26 28 83 23 24 55 27 30 23 20 28 20 21 33 26 32 76 30 24 21 807 119 20 22 523
leaf_count=40 52 435 35 20 39 23 25 129 37 39 20 23 32 22 22 21 26 28 83 23 24 55 27 30 23 20 28 20 21 33 26 32 76 30 24 21 807 119 20 22 523
internal_value=0 -0.00395849 0.00343233 0.00586472 0.0106493 0.00338526 0.00407531 0.00668175 0.00208418 0.0105956 0.0112115 -0.00446016 0.00108761 0.0143047 -2.41353e-05 0.0100786 0.014356 0.0171426 0.000484009 0.00314104 0.0048516 0.00237501 0.00699999 0.0118827 0.00953515 0.0165785 0.0188109 0.0152915 0.00651379 0.00850276 0.00648759 0.0239493 0.00266501 -0.00501471 0.00526349 0.0114239 -0.00383828 -0.000650098 0.00656882 0.00233502 -0.00123481
internal_weight=0 1411 1744 856 233 78 623 361 166 195 43 1371 888 155 737 43 134 108 262 179 159 136 81 57 51 133 113 85 151 130 46 57 99 1272 97 45 837 694 52 61 642
internal_count=3155 1411 1744 856 233 78 623 361 166 195 43 1371 888 155 737 43 134 108 262 179 159 136 81 57 51 133 113 85 151 130 46 57 99 1272 97 45 837 694 52 61 642
is_linear=0
shrinkage=0.05


Tree=2
num_leaves=42
num_cat=0
split_feature=5 5 1 3 3 2 15 1 10 21 9 20 6 21 6 21 1 5 3 2 2 2 15 18 14 5 8 18 5 14 14 2 14 7 18 22 14 5 9 17 9
split_gain=15.3804 4.39388 3.59256 2.65694 2.16303 3.02123 3.96202 3.50962 2.07453 2.90648 2.16023 2.79064 1.95561 1.84942 1.83979 1.67273 1.71821 1.66447 2.15679 2.10257 1.64984 1.58201 1.56165 1.49893 1.38449 1.35653 1.3119 1.75571 1.27378 1.25908 1.24758 1.22282 1.21545 1.12667 1.08427 1.04754 0.986315 0.971631 0.917626 1.22225 0.98921
threshold=4.6850000000000014 2.5750000000000006 3.667515708496517e-05 1.4950000000000003 1.7850000000000004 0.00020467053333761656 2.9150000000000005 0.00040460440659399087 -5.000000000000048 -0.001584473339835246 -1.5000000000000011 0.0025516728399916926 6.9999999999998961 0.0051366305151360212 -4.0000000000000471 0.0028917307415251563 8.1994468777069898e-05 6.6850000000000014 1.6150000000000004 0.00010617131818293667 2.0032917427379925e-05 0.00028325790669639909 1.0850000000000002 -0.017068281747050381 2.1550000000000007 7.8350000000000009 -1.0000000000000118 0.039749515792032016 4.7750000000000012 1.905 0.20500000000000004 3.4874034338445212e-05 1.2350000000000001 -0.037583892213287222 -0.017068281747050381 0.00037948265233134221 2.4950000000000006 5.5250000000000012 -1.0000000180025095e-35 0.58333333333334692 -2.9999999999999853
decision_type=2 2 2 2 2 2 2 2 2 2 2 2 2 2 2 2 2 2 2 2 2 2 2 2 2 2 2 2 2 2 2 2 2 2 2 2 2 2 2 2 2
left_child=1 -1 20 15 8 26 7 14 -5 10 -10 32 31 24 23 28 -17 35 -19 -20 -2 -16 -18 -7 -8 -23 27 -6 -4 -21 -14 -3 -12 -33 -13 38 -26 -30 40 -40 -11
right_child=2 12 3 4 5 6 13 -9 9 17 11 34 30 -15 21 16 22 18 19 29 -22 25 -24 -25 36 -27 -28 -29 37 -31 -32 33 -34 -35 -36 -37 -38 -39 39 -41 -42
leaf_value=0.012574445307254793 0.008859646213906152 -0.006914409556608091 0.0067759459465742107 0.015082805193960666 0.013271913104332412 0.0083803181415018826 0.03080809634356272 -0.0023212506507451717 0.0015933609734743071 0.0032363578677177432 0.029698575933774313 -0.0016964410855011506 0.012734796236390653 0.0031848008788767316 0.00022243486000941352 -0.0057501270689747554 0.0026936305969050439 -0.003165903291665018 0.025750387211640677 -0.00045470178679183682 -0.0062527201203412793 0.021733148999157407 0.018075900660319763 0.026635721359740606 0.0080841181394846542 0.005164033894737562 -0.0011700315180381662 -0.0041459837685460634 -0.0048880574745791307 0.015284892730414869 -0.00055600029269331388 0.0058680232365926109 0.015465662876764933 -0.0040000620181528017 0.013023719679692698 -0.010744775188240139 0.023266261965036394 0.0018518901684067468 0.01501910746807144 0.00035783812742341652 -0.01069337370303961
leaf_weight=40 21 435 40 80 39 23 21 130 39 25 30 22 23 21 65 22 33 32 21 27 129 21 33 22 23 30 304 23 175 24 76 30 30 807 29 22 20 77 21 44 26
leaf_count=40 21 435 40 80 39 23 21 130 39 25 30 22 23 21 65 22 33 32 21 27 129 21 33 22 23 30 304 23 175 24 76 30 30 807 29 22 20 77 21 44 26
internal_value=0 -0.00376056 0.00326072 0.00395686 0.00509895 0.00341565 0.00656345 0.00378951 0.00774515 0.00624767 0.0117162 0.0152729 -0.00423715 0.0160601 0.00872366 0.000308198 0.00635104 0.00285807 0.00763471 0.012435 -0.00413699 0.00539462 0.0103848 0.0173052 0.0202848 0.0119866 0.000181851 0.00681044 -0.00151293 0.00695217 0.00253176 -0.00476398 0.0225821 -0.00364637 0.00667385 -0.000741722 0.0151456 -0.00282863 0.00115541 0.00509456 -0.00386507
internal_weight=0 1411 1744 1594 1214 742 376 291 472 392 150 111 1371 85 161 380 88 242 104 72 150 116 66 45 64 51 366 62 292 51 99 1272 60 837 51 138 43 252 116 65 51
internal_count=3155 1411 1744 1594 1214 742 376 291 472 392 150 111 1371 85 161 380 88 242 104 72 150 116 66 45 64 51 366 62 292 51 99 1272 60 837 51 138 43 252 116 65 51
is_linear=0
shrinkage=0.05


Tree=3
num_leaves=42
num_cat=0
split_feature=5 5 5 15 2 8 6 14 15 2 0 0 5 20 20 1 2 1 3 19 21 20 7 18 1 15 3 15 7 3 3 2 14 18 20 11 7 2 0 1 5
split_gain=13.8808 3.96548 3.26726 2.56156 2.65643 1.87345 1.76494 1.68714 1.99334 2.91739 2.7484 2.34509 2.15361 1.80971 2.08123 1.60421 2.70641 1.48728 2.53969 1.34046 1.44304 1.60931 1.23735 1.17292 1.13255 1.1093 2.85628 1.10371 1.14726 1.09418 2.4856 1.93056 1.22192 1.09091 1.08648 1.0058 1.07423 0.876508 1.22004 0.871373 1.15369
threshold=4.6850000000000014 2.5750000000000006 6.5250000000000012 0.7350000000000001 0.00015863812416232217 -1.0000000000000118 6.9999999999998961 2.6150000000000007 2.8750000000000004 0.00017929403305040422 0.00022564939150077195 0.00015873642285143812 8.0650000000000031 -0.0070925534191317299 -0.00083792584366304535 0.00027566130516974247 0.00033220395274397295 0.0010567632396975984 2.0050000000000003 0.0066415542011385451 0.0018602916428548391 -0.0019325646891415469 -0.0027300828890746138 -0.0097118818854066685 8.8709990392471112e-05 2.1550000000000007 2.3250000000000006 0.03500000000000001 -0.037583892213287222 2.5050000000000003 2.1950000000000007 0.00014272775835659257 1.2350000000000001 0.021331477496072896 0.00066580727629195213 -6.4999999999999938 -0.0016536971441006296 9.8583468655695253e-05 0.00014184467660587592 0.00014202758401773538 7.0850000000000009
decision_type=2 2 2 2 2 2 2 2 2 2 2 2 2 2 2 2 2 2 2 2 2 2 2 2 2 2 2 2 2 2 2 2 2 2 2 2 2 2 2 2 2
left_child=1 -1 5 4 -4 19 27 8 10 12 13 -11 33 -5 39 35 -17 18 -13 20 21 -2 -14 -6 -8 26 -12 -3 -29 30 31 32 -16 34 -10 36 -7 -23 -39 40 -15
right_child=2 6 3 7 23 15 24 -9 9 11 25 17 22 14 29 16 -18 -19 -20 -21 -22 37 -24 -25 -26 -27 -28 28 -30 -31 -32 -33 -34 -35 -36 -37 -38 38 -40 -41 -42
leaf_value=0.011945723313838245 0.015509997537502877 -0.0090273277243462999 0.025176577678611201 -0.0040246229825748343 0.016275168458620707 0.011722355219535531 -0.00086972054301036729 -0.0072417458146810526 -0.0011436200079818569 0.030140177728164765 -0.0066261836845013834 0.019457341358065608 0.0053047640373309456 0.0091682179272174844 0.018588815842356003 0.021560391445051542 -0.0035341823384875343 0.021823576189901519 -0.002908738305171331 -0.0056745050918488278 0.016971697816343018 -0.00680416701361537 -0.0082789641265806398 0.0013281275970595226 0.011138221400755424 -0.0034720276643832523 0.012364392372017557 0.0048696557538849966 -0.0043239365139544758 -0.0035682810978455979 0.018423193467385839 -0.0047809190400268722 0.0019069396931192151 0.020158376172184946 0.014429329158294769 -0.0011890428494720072 -0.0030493476614356042 0.013527493212710729 -0.0026169759631156924 0.0084254974793446704 0.024671501417954766
leaf_weight=40 26 123 31 36 21 32 72 30 24 21 36 22 30 20 21 22 21 23 30 21 33 24 38 35 27 150 44 35 1114 33 33 46 23 20 21 642 20 22 25 38 30
leaf_count=40 26 123 31 36 21 32 72 30 24 21 36 22 30 20 21 22 21 23 30 21 33 24 38 35 27 150 44 35 1114 33 33 46 23 20 21 642 20 22 25 38 30
internal_value=0 -0.00357254 0.00309768 0.00530192 0.0134338 0.000972878 -0.00402529 0.00438193 0.0048538 0.0087291 0.00311371 0.0153717 0.00393443 0.00644038 0.0079844 -6.66571e-05 0.0093049 0.0112366 0.00655383 0.00604663 0.00794005 0.00486743 -0.00228614 0.00693327 0.00240517 -0.000936146 0.00381863 -0.00452578 -0.00404389 0.00451612 0.0066851 0.00238114 0.00986874 0.0104421 0.00612376 -0.000647316 0.00604093 0.000970147 0.00494001 0.0141327 0.0184702
internal_weight=0 1411 1744 856 87 888 1371 769 739 229 510 96 133 280 244 737 43 75 52 151 130 97 68 56 99 230 80 1272 1149 156 123 90 44 65 45 694 52 71 47 88 50
internal_count=3155 1411 1744 856 87 888 1371 769 739 229 510 96 133 280 244 737 43 75 52 151 130 97 68 56 99 230 80 1272 1149 156 123 90 44 65 45 694 52 71 47 88 50
is_linear=0
shrinkage=0.05


Tree=4
num_leaves=42
num_cat=0
split_feature=3 1 0 15 10 14 18 10 7 0 14 15 2 6 0 20 7 18 18 8 16 15 10 0 7 0 22 7 21 10 9 2 17 14 3 14 7 10 3 18 22
split_gain=11.883 4.95725 2.1543 1.99388 2.5012 1.93364 2.53179 1.88584 1.86801 1.63836 2.12379 2.1432 1.87906 1.31982 1.46352 1.64085 2.15089 2.07287 2.04808 4.36552 2.58978 1.93811 1.74988 1.91679 1.9309 1.37865 2.15349 1.56026 1.32655 1.22817 1.25965 1.2254 1.11633 1.22778 1.10968 1.08186 1.83695 1.05361 1.0394 1.34904 0.975389
threshold=1.4950000000000003 3.667515708496517e-05 8.6357569629969821e-05 0.76500000000000012 3.0000000000000142 -0.22499999999999998 0.0200964191372528 9.9999999999999876 0.0021556481818265642 0.00013946473670006969 0.30250000000000005 0.76500000000000012 8.8868818301607725e-05 14.000000000000037 2.2361522396385086e-05 0.0026207884362369209 0.017466729250620764 -0.013279525471383944 0.010889608291310584 -0.99999999999999967 -5.9999999999999885 3.1850000000000005 4.2499999999999991 7.6927919461196461e-05 -0.0066112973966115365 0.00010355877535675684 1.2082183009187732e-05 0.0072945724943430665 -0.001584473339835246 -0.99999999999998967 0.50000000000005607 0.00047795047566142907 3.0000000000000022 2.1550000000000007 0.57500000000000007 2.1150000000000007 -0.01253709402334696 -8.9999999999999947 1.8050000000000004 0.001256687860316297 -1.0000000180025095e-35
decision_type=2 2 2 2 2 2 2 2 2 2 2 2 2 2 2 2 2 2 2 2 2 2 2 2 2 2 2 2 2 2 2 2 2 2 2 2 2 2 2 2 2
left_child=2 -2 -1 4 5 8 -7 13 -3 10 11 12 -4 14 -5 16 17 22 19 -19 37 29 23 -16 40 -17 28 -28 -27 -22 -31 34 33 -18 -11 36 -12 -20 -21 -40 -25
right_child=1 3 9 7 -6 6 -8 -9 -10 31 35 -13 -14 -15 15 25 32 18 20 38 21 -23 -24 24 -26 26 27 -29 -30 30 -32 -33 -34 -35 -36 -37 -38 -39 39 -41 -42
leaf_value=-0.0036232963507671699 -0.0058832410542714979 0.0093371530019101655 0.014259238620953902 -0.0031726448151927727 0.019895692169666291 0.019465107216340743 0.0014250273035990226 -0.0036833777355077938 -0.01054614070389006 0.0073129756545478658 0.007423048436641694 0.019564765691757205 -0.0020392568161090216 -0.0014490702951496298 0.012494827210903168 -0.003091574872241301 -0.0072767308354377757 0.031678206857406736 0.0092249376788025809 0.01867788096978551 -0.0027918564628309282 0.015808953344821932 0.015147506661953464 0.015248793438076974 -0.0060574383267925844 0.015294410693256752 -0.009475050328506365 0.0076741793680758707 0.0041627778322435921 0.017240794710814952 0.00040570506453514103 0.0094670698046684272 0.0089720746052676225 0.0055179558446009956 -0.00445498942530581 0.006201966148283747 -0.0085597933386452503 0.023930668830871582 -0.0036903212016279048 0.01345102544873953 0.0011730740312486888
leaf_weight=1302 124 21 28 52 44 41 37 78 27 22 25 31 48 88 35 85 50 33 21 21 67 30 31 20 72 46 36 21 64 20 25 20 29 30 224 36 64 29 22 24 32
leaf_count=1302 124 21 28 52 44 41 37 78 27 22 25 31 48 88 35 85 50 33 21 21 67 30 31 20 72 46 36 21 64 20 25 20 29 30 224 36 64 29 22 24 32
internal_value=0 0.00364558 -0.00255351 0.00460542 0.00963259 0.00604865 0.0109076 0.00379994 -0.0018472 0.000243397 0.00331423 0.00848488 0.00396545 0.00439373 0.00496822 0.00547039 0.00691083 0.00834525 0.0109902 0.0167925 0.00796816 0.00452234 0.00428037 0.00216162 -0.000755011 0.00209219 0.00473064 -0.00315691 0.00881782 0.00149914 0.00788797 -0.00243493 0.000567819 -0.00247872 -0.00340257 -0.00111184 -0.00407023 0.0177543 0.00946079 0.00525299 0.00658681
internal_weight=0 1355 1800 1231 170 126 78 1061 48 498 232 107 76 983 895 843 591 482 292 100 192 142 190 159 124 252 167 57 110 112 45 266 109 80 246 125 89 50 67 46 52
internal_count=3155 1355 1800 1231 170 126 78 1061 48 498 232 107 76 983 895 843 591 482 292 100 192 142 190 159 124 252 167 57 110 112 45 266 109 80 246 125 89 50 67 46 52
is_linear=0
shrinkage=0.05


Tree=5
num_leaves=42
num_cat=0
split_feature=5 5 14 3 3 3 18 8 8 1 1 2 3 18 0 19 2 19 3 2 0 6 14 14 2 3 3 11 1 2 0 14 2 14 14 5 9 12 14 6 22
split_gain=12.0283 2.94635 3.456 1.9946 3.73995 3.02237 2.94938 2.54104 1.88398 1.70049 2.22881 2.17906 3.3183 2.4866 2.0908 1.69584 2.10108 2.26004 1.64628 2.18241 1.66759 1.79212 1.42367 1.47837 1.41431 1.58748 2.26164 1.87913 1.49691 1.93707 1.77692 2.30069 1.37102 1.33411 1.32408 1.29017 1.26775 1.42434 1.23167 1.19307 1.16459
threshold=4.6850000000000014 6.5250000000000012 2.5750000000000006 5.9650000000000007 3.3150000000000004 2.5050000000000003 0.093736806101126127 1.250000000000018 -2.0000000000000235 0.00011106428065593529 7.1133816050475293e-05 0.00020467053333761656 1.7550000000000001 0.023729000146180072 0.00011687405595036205 -0.0043990296487336758 0.00019292242589676791 -0.0050373769342532118 1.9950000000000003 0.00034611490216103204 0.00022564939150077195 0.99999999999988998 1.8650000000000004 2.0450000000000004 2.0032917427379925e-05 0.87500000000000011 0.77500000000000013 -2.4166666666666443 3.0052460312315154e-05 3.6310564490839871e-05 6.6932114410933339e-05 0.22500000000000003 2.395670899585631e-05 1.4825000000000002 2.2450000000000006 4.7350000000000012 -6.9999999999999609 -2.9999999999999996 1.7250000000000003 -1.0000000000000451 -0.0020794041804547687
decision_type=2 2 2 2 2 2 2 2 2 2 2 2 2 2 2 2 2 2 2 2 2 2 2 2 2 2 2 2 2 2 2 2 2 2 2 2 2 2 2 2 2
left_child=24 15 3 4 5 6 7 9 -7 10 38 12 13 -11 -12 16 17 -2 19 34 -20 -22 -6 -24 -1 26 28 -28 29 32 -30 -32 -26 -10 -13 -17 37 -27 -3 -33 -37
right_child=1 2 -4 -5 22 8 -8 -9 33 11 14 18 -14 -15 -16 35 -18 -19 20 -21 21 -23 23 -25 25 36 27 -29 30 -31 31 39 -34 -35 -36 40 -38 -39 -40 -41 -42
leaf_value=-0.0079010983499196857 0.00050371540992548978 0.014054749906063081 -0.0084644074738025668 -0.0078695690689178626 0.02647874327376485 0.011974462015288217 -0.0065335366316139707 0.00022976210682976004 0.0051064995782715943 0.0044062685842315352 0.024102897929220365 0.016621123318161284 -0.0028475917022054396 0.026055851720628288 0.0053553601354360582 0.0091266111603805003 0.018999003122250238 0.01689906358718872 0.025771336177630083 -0.0085306825116276738 0.020843810091416042 0.0038029869604441855 0.0033929322052884989 0.019168983783685801 0.0082020112499594702 -0.0057475401979425684 0.018154207319021228 0.0022143166459782024 -0.0072204771887704813 0.012016300627818475 0.0091186022880126016 0.0042214124543326244 -0.0079713123409371634 -0.0074959956553010722 0.00049390893429517751 0.01114808052778244 -0.0046910169895833347 0.011045102109866483 -0.00093219097832153593 -0.0066247639286777255 -0.001108210694276545
leaf_weight=143 132 26 45 26 24 21 40 98 28 36 58 35 96 21 20 35 24 25 28 20 27 36 27 33 20 23 25 71 173 39 49 35 38 84 20 20 706 28 29 92 627
leaf_count=143 132 26 45 26 24 21 40 98 28 36 58 35 96 21 20 35 24 25 28 20 27 36 27 33 20 23 25 71 173 39 49 35 38 84 20 20 706 28 29 92 627
internal_value=0 0.00299299 0.00503225 0.00576136 0.00620052 0.00504031 0.00657519 0.00752855 -0.00176856 0.00911103 0.0138606 0.00713079 0.00282634 0.0123824 0.0192958 0.000918294 0.00522068 0.00311444 0.0110981 0.00561338 0.0156185 0.0111062 0.0161866 0.0120698 -0.0031816 -0.00266206 -0.000596351 0.00636533 -0.00209483 0.00339965 -0.00362195 -8.47576e-05 -0.0023943 -0.00434537 0.0107567 -0.000223541 -0.00414107 0.00347195 0.00615254 -0.00363566 -0.000729345
internal_weight=0 1741 878 833 807 723 590 550 133 452 133 319 153 57 78 863 181 157 166 75 91 63 84 60 1442 1299 542 96 446 97 349 176 58 112 55 682 757 51 55 127 647
internal_count=3183 1741 878 833 807 723 590 550 133 452 133 319 153 57 78 863 181 157 166 75 91 63 84 60 1442 1299 542 96 446 97 349 176 58 112 55 682 757 51 55 127 647
is_linear=0
shrinkage=0.05


Tree=6
num_leaves=42
num_cat=0
split_feature=5 5 14 3 3 3 18 8 8 15 5 1 14 1 8 9 1 1 2 3 15 3 18 0 0 0 20 14 15 14 4 3 9 3 8 1 15 1 5 5 14
split_gain=10.8555 2.65908 3.11904 1.80013 3.3753 2.72769 2.66181 2.29329 1.7003 1.65303 1.74773 3.14307 1.54706 2.54158 2.2152 1.89618 1.5347 2.01151 1.9666 2.99477 2.93626 2.71051 2.24416 1.88694 1.55995 1.52059 1.34848 1.28486 2.23234 1.20404 1.17016 1.16282 1.16917 1.16181 1.96803 1.4862 1.67436 1.91168 4.04017 1.11462 1.11158
threshold=4.6850000000000014 6.5250000000000012 2.5750000000000006 5.9650000000000007 3.3150000000000004 2.5050000000000003 0.093736806101126127 1.250000000000018 -2.0000000000000235 0.095000000000000015 3.1250000000000004 2.9180694901725197e-05 -0.26499999999999996 8.6945569651055129e-05 6.0000000000000284 -1.0000000180025095e-35 0.00011106428065593529 7.1133816050475293e-05 0.00020467053333761656 1.7550000000000001 2.8750000000000004 1.9950000000000003 0.023729000146180072 0.00011687405595036205 0.00022564939150077195 0.00034891114498748624 0.00051216553819732902 1.8650000000000004 3.0250000000000004 1.4825000000000002 1.9999999999999853 2.0250000000000004 0.50000000000005607 1.155 -1.0000000180025095e-35 9.2637387552078727e-05 3.2750000000000004 0.00011492671108808577 5.3750000000000009 7.6250000000000009 1.7250000000000003
decision_type=2 2 2 2 2 2 2 2 2 2 2 2 2 2 2 2 2 2 2 2 2 2 2 2 2 2 2 2 2 2 2 2 2 2 2 2 2 2 2 2 2
left_child=9 12 3 4 5 6 7 16 -7 -1 11 -11 13 -2 33 -15 17 40 19 22 21 25 -18 39 -23 -20 -26 -6 -29 -10 -12 32 -9 34 -14 -35 37 38 -37 -19 -3
right_child=1 2 -4 -5 27 8 -8 31 29 10 30 -13 14 15 -16 -17 18 23 20 -21 -22 24 -24 -25 26 -27 -28 28 -30 -31 -32 -33 -34 35 -36 36 -38 -39 -40 -41 -42
leaf_value=-0.0074628498547715571 0.022041316702961923 0.013352012490996948 -0.0080411870943175433 -0.0074760905538613981 0.025154805431763336 0.011375738893236433 -0.0062068598717451096 -0.011569699108600617 0.0048511746738638195 0.015567885835965476 -0.0037440788795390953 -0.00083476097623663616 0.014385569393634796 -0.007380663300002064 0.015872294354167853 0.011934900035460791 0.0041859552057252987 0.027926299466114298 -0.0076084296931238742 -0.002705212022798757 0.024420364561580844 0.024410229305858198 0.024753059233937946 0.0050875921174883846 0.015412297868169845 0.0088294201220075301 -0.00066829530352895909 0.0030325015458990551 0.022495049610733987 -0.0071211959191021471 0.0050959459673135706 0.010341256179592827 0.0016299157750372794 -0.0029486061686678873 -0.001138057316444358 0.022541091750775066 0.015026651018045165 -0.0018482222893641362 -0.0014512309368620527 0.0133435145765543 -0.00088558150776501361
leaf_weight=183 22 26 45 26 24 21 40 25 28 33 933 254 35 27 22 24 36 38 34 96 31 23 21 20 32 24 22 34 26 84 39 22 51 386 49 28 22 201 47 20 29
leaf_count=183 22 26 45 26 24 21 40 25 28 33 933 254 35 27 22 24 36 38 34 96 31 23 21 20 32 24 22 34 26 84 39 22 51 386 49 28 22 201 47 20 29
internal_value=0 0.00284334 0.00478063 0.00547329 0.00589049 0.00478829 0.00624643 0.00715212 -0.00168013 -0.00302252 -0.0023771 0.00105126 0.00087238 0.00783656 0.000228854 0.00170901 0.00865548 0.0131676 0.00677425 0.00268502 0.0105432 0.00735664 0.0117633 0.018331 0.0135055 -0.000806561 0.00886095 0.0153773 0.0114663 -0.0041281 -0.00338939 0.000218274 -0.00271206 -0.000219265 0.00533012 -0.000900768 0.0017518 0.00069366 0.0075059 0.0228978 0.00584492
internal_weight=0 1741 878 833 807 723 590 550 133 1442 1259 287 863 73 790 51 452 133 319 153 166 135 57 78 77 58 54 84 60 112 972 98 76 768 84 684 298 276 75 58 55
internal_count=3183 1741 878 833 807 723 590 550 133 1442 1259 287 863 73 790 51 452 133 319 153 166 135 57 78 77 58 54 84 60 112 972 98 76 768 84 684 298 276 75 58 55
is_linear=0
shrinkage=0.05


Tree=7
num_leaves=42
num_cat=0
split_feature=5 5 14 3 3 3 18 8 8 19 20 10 5 15 5 19 0 5 1 6 3 2 8 1 10 1 5 2 8 14 15 21 15 5 8 4 20 3 4 9 3
split_gain=9.79712 2.39982 2.81494 1.62461 3.04621 2.46174 2.41442 2.09796 1.53452 1.51623 1.93355 2.95643 1.81041 1.49186 1.57733 2.98234 1.45605 3.47465 2.10121 2.77422 2.74622 2.38132 1.75586 1.42122 1.72835 1.52197 1.37316 1.35035 1.20953 1.15959 2.01469 1.13732 1.27677 1.12135 1.12113 1.13604 1.37427 1.07327 1.05607 1.0184 1.09977
threshold=4.6850000000000014 6.5250000000000012 2.5750000000000006 5.9650000000000007 3.3150000000000004 2.5050000000000003 0.1083406268499665 1.250000000000018 -2.0000000000000235 -0.0043990296487336758 0.0026207884362369209 1.7500000000000073 5.5650000000000004 0.095000000000000015 3.1250000000000004 0.001852424128274688 0.00012735455172703999 8.2350000000000012 0.00029160087980803414 0.99999999999988998 1.7350000000000001 0.00038418823054210194 -2.9999999999999578 5.50841268025848e-05 -6.0000000000000266 0.00012947058760590381 8.5950000000000006 0.00014447607916982376 -7.4999999999999725 1.8650000000000004 3.0250000000000004 -0.002488491077101473 2.1650000000000005 8.7050000000000018 -1.9999999999999682 -0.99999999999999523 -0.0019325646891415469 2.0250000000000004 1.9999999999999853 0.50000000000005607 1.7950000000000002
decision_type=2 2 2 2 2 2 2 2 2 2 2 2 2 2 2 2 2 2 2 2 2 2 2 2 2 2 2 2 2 2 2 2 2 2 2 2 2 2 2 2 2
left_child=13 9 3 4 5 6 7 16 -7 10 11 12 -2 -1 15 34 17 23 20 -20 27 -21 -22 -3 -25 -26 -24 -18 -11 -6 -31 32 -10 -19 -15 -36 -37 39 -16 -9 -41
right_child=1 2 -4 -5 29 8 -8 37 31 28 -12 -13 -14 14 38 -17 18 33 19 21 22 -23 26 24 25 -27 -28 -29 -30 30 -32 -33 -34 -35 35 36 -38 -39 -40 40 -42
leaf_value=-0.007089707414146329 -0.0025005586445331577 0.0042905126180913722 -0.0076391276882754435 -0.0071022860132730938 0.023897065998365483 0.010806951849233538 -0.0076482709857725335 -0.010991214334964753 0.010443621809067934 0.010774446558207274 -0.0018440534708215233 0.022970185881214484 0.012043934594839812 -0.0060301719836785769 -0.0035568748495969742 0.016500362886914186 0.022710910551249981 -0.0096867416586194719 0.021826615604834679 0.013553333678282799 0.012082613967359067 -0.00704210975766182 -0.0080111215651874814 0.0041234636509960348 0.023696214260740412 0.011104993853304122 0.0043330412470933164 0.0047597757117314775 -0.0006530570709868405 0.0028808765332488454 0.021370297269179273 -0.0081280908688451305 -0.0062164997924929084 0.0068560419231653213 -0.006252668721553608 0.010632980101638372 0.00017430215644148681 0.0098241930996829825 0.004841148738677685 0.0075157823413610466 -0.0072022545405409548
leaf_weight=183 46 27 45 26 24 21 31 25 23 24 67 28 40 71 933 28 20 21 39 32 20 25 71 22 72 36 33 22 658 34 26 66 23 20 39 45 104 22 39 30 22
leaf_count=183 46 27 45 26 24 21 31 25 23 24 67 28 40 71 933 28 20 21 39 32 20 25 71 22 72 36 33 22 658 34 26 66 23 20 39 45 104 22 39 30 22
internal_value=0 0.00270118 0.0045416 0.00519962 0.00559597 0.00454888 0.00593411 0.00668734 -0.00159612 0.000828761 0.00489694 0.00885874 0.00426432 -0.00287139 -0.00225825 0.000998695 0.00810836 0.0113443 0.00566289 0.011551 0.00225775 0.00452024 -0.00148506 0.0147291 0.0168971 0.0194991 -0.00409422 0.0133079 -0.000250916 0.0146084 0.010893 -0.0039217 0.00211356 -0.00161709 -0.000677161 0.00134445 0.00333296 8.46036e-05 -0.00321992 -0.00269814 0.00128892
internal_weight=0 1741 878 833 807 723 590 559 133 863 181 114 86 1442 1259 287 460 198 262 96 166 57 124 157 130 108 104 42 682 84 60 112 46 41 259 188 149 99 972 77 52
internal_count=3183 1741 878 833 807 723 590 559 133 863 181 114 86 1442 1259 287 460 198 262 96 166 57 124 157 130 108 104 42 682 84 60 112 46 41 259 188 149 99 972 77 52
is_linear=0
shrinkage=0.05


Tree=8
num_leaves=42
num_cat=0
split_feature=5 5 14 18 15 16 7 15 8 7 9 21 8 18 17 17 7 15 5 1 5 8 3 3 6 16 3 2 3 8 5 3 7 0 16 1 5 5 22 5 7
split_gain=8.8419 2.16584 2.54048 1.51028 1.49505 1.41085 1.71725 2.22096 1.61035 1.6422 1.70351 1.47931 1.38727 1.8843 1.55886 1.45282 1.3832 1.3464 1.42354 2.74495 1.27135 1.50431 1.32461 1.2621 2.35405 2.13302 2.11736 2.69198 1.81141 1.57588 1.33839 1.31937 2.1974 1.28666 1.23466 1.2052 1.98605 1.70469 1.88331 1.69515 1.47853
threshold=4.6850000000000014 6.5250000000000012 2.5750000000000006 0.14876917075628007 3.4750000000000005 4.9999999999999973 0.0023348892780378221 0.65500000000000014 5.0000000000000497 -0.019705563893553376 -3.0000000000000133 0.00085667055981941697 -1.0000000180025095e-35 -0.074854140540925027 -4.9999999999999867 -2.9999999999999853 -0.005909608417132394 0.095000000000000015 3.1250000000000004 2.9180694901725197e-05 6.1150000000000011 -0.50000000000000588 1.155 2.2750000000000004 8.2500000000000036 -1.0000000000000118 2.0550000000000002 0.00027156800296505683 3.0050000000000003 1.250000000000018 7.8750000000000009 1.8950000000000002 0.0013434945401823441 0.00016572283483066294 -2.9999999999999982 0.00013629026300561822 8.0050000000000008 10.155000000000003 1.0000000180025095e-35 8.2050000000000018 -0.0017718737123010862
decision_type=2 2 2 2 2 2 2 2 2 2 2 2 2 2 2 2 2 2 2 2 2 2 2 2 2 2 2 2 2 2 2 2 2 2 2 2 2 2 2 2 2
left_child=17 5 3 4 12 8 16 -8 9 10 -2 -12 13 -3 -15 -16 -7 -1 19 -19 21 22 -11 24 26 28 29 -28 30 31 -25 32 -14 -34 -24 36 -17 38 39 -37 -40
right_child=1 2 -4 -5 -6 6 7 -9 -10 20 11 -13 23 14 15 35 -18 18 -20 -21 -22 -23 34 25 -26 -27 27 -29 -30 -31 -32 -33 33 -35 -36 37 -38 -39 40 -41 -42
leaf_value=-0.0067352217891828619 -0.0029282485636381007 -0.007154014209906261 -0.0072571714056862725 -0.0086342944949865351 0.014577549841345811 0.0055404386142405074 0.013009989178842968 -0.0038054996377064124 0.011776822170725575 0.013925102621316909 0.016299515752456126 8.4357234564694496e-05 0.02071484693636497 -0.0047850498486132851 0.019932936440254082 0.020214409669014541 0.02046230608224869 0.014514887174873642 -0.0030589212498669765 -0.00081376824674643869 -0.0065697686866335913 -0.0026432240369501491 0.008764502089470624 0.0070836569272702743 -0.0075291643384844068 -0.0058070398443801838 0.0038737206586769652 0.028634188162243886 0.013838203520410592 -0.0010672209230629174 -0.0076088635911864613 -0.001493297600083881 0.011445031687617303 -0.0038698962268730007 -0.0017072486563732749 0.0041050458716791732 0.0036914267847614904 0.015283232987732501 0.018094736257834095 -0.011380994841456413 0.0024735423200058218
leaf_weight=183 39 21 45 20 41 41 27 72 27 25 39 22 36 21 29 44 25 33 972 254 109 302 40 31 32 88 21 23 36 74 31 27 32 24 95 43 31 37 28 30 33
leaf_count=183 39 21 45 20 41 41 27 72 27 25 39 22 36 21 29 44 25 33 972 254 109 302 40 31 32 88 21 23 36 74 31 27 32 24 95 43 31 37 28 30 33
internal_value=0 0.00256612 0.00431452 0.00493964 0.00527357 0.000787323 0.00494539 0.000780543 -0.000195602 -0.000677353 0.00523335 0.0104514 0.00477944 0.00731877 0.00834555 0.00934825 0.0111927 -0.00272782 -0.00214534 0.00094876 -0.0017125 -0.000566525 0.00335324 0.00301029 0.00520002 -0.000156589 0.00691873 0.0168167 0.00491728 0.0046622 -0.000262603 0.00822503 0.0110772 0.00488149 0.00139549 0.00810047 0.0133849 0.00578273 0.00315945 -0.00225908 0.00964393
internal_weight=0 1741 878 833 813 863 165 99 698 671 100 61 772 317 296 275 66 1442 1259 287 571 462 160 455 269 186 237 44 98 193 62 119 92 56 135 246 75 171 134 73 61
internal_count=3183 1741 878 833 813 863 165 99 698 671 100 61 772 317 296 275 66 1442 1259 287 571 462 160 455 269 186 237 44 98 193 62 119 92 56 135 246 75 171 134 73 61
is_linear=0
shrinkage=0.05


Tree=9
num_leaves=42
num_cat=0
split_feature=5 5 14 3 3 3 18 20 21 16 14 5 6 15 2 6 14 1 11 8 3 10 3 0 15 8 8 15 14 20 3 0 14 16 5 0 2 1 2 9 7
split_gain=7.97982 1.95467 2.29278 1.47894 2.63499 2.1119 2.08862 1.77716 2.32103 1.75444 1.73558 1.54494 1.70363 1.40372 1.98568 1.34055 1.30813 2.27796 1.93408 1.87726 1.25877 1.22189 1.11933 1.1975 1.11655 1.39217 1.35835 1.10307 1.3586 1.4435 1.78024 1.52346 1.28001 1.78398 1.69907 1.32996 1.32087 2.02543 1.49247 1.05848 1.04865
threshold=4.6850000000000014 6.5250000000000012 2.5750000000000006 5.9650000000000007 3.3150000000000004 2.5050000000000003 0.093736806101126127 -0.00083792584366304535 0.00074382083666990628 5.0000000000000018 2.2850000000000006 8.1250000000000018 2.0000000000000244 2.3350000000000004 0.00019292242589676791 -5.9999999999999822 -0.26499999999999996 8.6945569651055129e-05 0.50000000000003386 6.0000000000000284 0.56500000000000006 -0.50000000000005584 1.7850000000000004 0.000211239021436684 2.2350000000000008 -1.0000000000000118 -1.5833333333333364 0.095000000000000015 0.16500000000000004 -0.00080935840877938137 0.84500000000000008 7.0015469512172142e-05 0.46500000000000002 9.4999999999999982 3.0050000000000003 0.00024662460996700445 3.9901665013997445e-05 1.5890422471908431e-05 1.7805028538604964e-05 7.999999999999992 0.0076281221164000721
decision_type=2 2 2 2 2 2 2 2 2 2 2 2 2 2 2 2 2 2 2 2 2 2 2 2 2 2 2 2 2 2 2 2 2 2 2 2 2 2 2 2 2
left_child=20 16 3 4 5 6 7 8 11 21 15 12 -3 14 -7 -10 17 -2 -19 39 -1 24 -17 -24 26 -26 -9 -22 29 30 -29 -31 35 34 -34 -30 38 -38 -36 -18 -23
right_child=1 2 -4 -5 -6 13 -8 9 10 -11 -12 -13 -14 -15 -16 22 19 18 -20 -21 27 40 23 -25 25 -27 -28 28 32 31 -32 -33 33 -35 36 -37 37 -39 -40 -41 -42
leaf_value=0.0092770144004713419 0.020599762655117298 0.015141919048296083 -0.0068943128155337444 -0.0070447612840395706 0.013452908875686781 0.011937420070171357 -0.0056512465141713621 0.019391183244685334 0.006309575736522674 0.010994491627549424 0.00077576665651230589 -0.0055293219704781807 -0.0018484078943729401 -0.0081080524652611986 -0.0039289210675930494 0.027242338756720226 -0.00078685496789468847 -0.0064701398534159505 0.013473132587969304 0.014557033641771836 -0.0063984607371801901 -0.005633648610870603 0.021856386090318362 0.0068720053570965932 -0.0099229708668731528 0.0050031931063190841 0.0042727210391790447 -0.00033149557809034985 -0.0065311005054455671 -0.0065815693874290027 0.014604642712756209 0.0056827796064317232 0.0078844587963361017 0.011595757181445759 -0.0084099166603250949 0.0065024379108633325 0.010947653278708459 -0.0053578479248180726 0.0017052534180627744 0.0062382003613587087 0.0041901298713955008
leaf_weight=22 22 36 45 26 84 33 40 24 25 68 21 31 25 51 49 30 710 31 20 22 183 71 30 24 21 61 39 42 288 69 38 40 39 24 44 21 20 399 213 58 44
leaf_count=22 22 36 45 26 84 33 40 24 25 68 21 31 25 51 49 30 710 31 20 22 183 71 30 24 21 61 39 42 288 69 38 40 39 24 44 21 20 399 213 58 44
internal_value=0 0.00243781 0.0040988 0.00469266 0.00507082 0.00409697 0.00538 0.00618227 0.00963698 0.00384402 0.0139378 0.00355967 0.00817867 -0.00159468 0.00245631 0.0164737 0.000747956 0.00715182 0.00135075 0.000156207 -0.00259143 0.0019739 0.0194987 0.0151967 0.00502646 0.00118064 0.0100321 -0.00277531 -0.00223931 0.00166263 0.00676317 -0.00208089 -0.002943 -0.00181306 -0.00226315 -0.00564533 -0.00284859 -0.00457954 -2.65267e-05 -0.000256317 -0.00187499
internal_weight=0 1741 878 833 807 723 590 550 222 328 130 92 61 133 82 109 863 73 51 790 1442 260 84 54 145 82 63 1420 1237 189 80 109 1048 739 715 309 676 419 257 768 115
internal_count=3183 1741 878 833 807 723 590 550 222 328 130 92 61 133 82 109 863 73 51 790 1442 260 84 54 145 82 63 1420 1237 189 80 109 1048 739 715 309 676 419 257 768 115
is_linear=0
shrinkage=0.05


end of trees

feature_importances:
f_3=49
f_5=44
f_14=38
f_1=34
f_2=33
f_15=25
f_0=24
f_8=23
f_7=21
f_18=20
f_6=13
f_10=13
f_20=13
f_9=12
f_21=10
f_19=8
f_11=7
f_16=6
f_4=5
f_17=5
f_22=5
f_12=2

parameters:
[boosting: gbdt]
[objective: regression]
[metric: binary_logloss]
[tree_learner: serial]
[device_type: cpu]
[data: ]
[valid: ]
[num_iterations: 10]
[learning_rate: 0.05]
[num_leaves: 42]
[num_threads: 0]
[deterministic: 0]
[force_col_wise: 0]
[force_row_wise: 0]
[histogram_pool_size: -1]
[max_depth: -1]
[min_data_in_leaf: 20]
[min_sum_hessian_in_leaf: 0.001]
[bagging_fraction: 0.6]
[pos_bagging_fraction: 1]
[neg_bagging_fraction: 1]
[bagging_freq: 5]
[bagging_seed: 3]
[feature_fraction: 0.9]
[feature_fraction_bynode: 1]
[feature_fraction_seed: 2]
[extra_trees: 0]
[extra_seed: 6]
[early_stopping_round: 0]
[first_metric_only: 0]
[max_delta_step: 0]
[lambda_l1: 0]
[lambda_l2: 0]
[linear_lambda: 0]
[min_gain_to_split: 0]
[drop_rate: 0.1]
[max_drop: 50]
[skip_drop: 0.5]
[xgboost_dart_mode: 0]
[uniform_drop: 0]
[drop_seed: 4]
[top_rate: 0.2]
[other_rate: 0.1]
[min_data_per_group: 100]
[max_cat_threshold: 32]
[cat_l2: 10]
[cat_smooth: 10]
[max_cat_to_onehot: 4]
[top_k: 20]
[monotone_constraints: ]
[monotone_constraints_method: basic]
[monotone_penalty: 0]
[feature_contri: ]
[forcedsplits_filename: ]
[refit_decay_rate: 0.9]
[cegb_tradeoff: 1]
[cegb_penalty_split: 0]
[cegb_penalty_feature_lazy: ]
[cegb_penalty_feature_coupled: ]
[path_smooth: 0]
[interaction_constraints: ]
[verbosity: 0]
[saved_feature_importance_type: 0]
[linear_tree: 0]
[max_bin: 255]
[max_bin_by_feature: ]
[min_data_in_bin: 3]
[bin_construct_sample_cnt: 200000]
[data_random_seed: 1]
[is_enable_sparse: 1]
[enable_bundle: 1]
[use_missing: 1]
[zero_as_missing: 0]
[feature_pre_filter: 1]
[pre_partition: 0]
[two_round: 0]
[header: 0]
[label_column: ]
[weight_column: ]
[group_column: ]
[ignore_column: ]
[categorical_feature: ]
[forcedbins_filename: ]
[precise_float_parser: 0]
[objective_seed: 5]
[num_class: 1]
[is_unbalance: 0]
[scale_pos_weight: 1]
[sigmoid: 1]
[boost_from_average: 1]
[reg_sqrt: 0]
[alpha: 0.9]
[fair_c: 1]
[poisson_max_delta_step: 0.7]
[tweedie_variance_power: 1.5]
[lambdarank_truncation_level: 30]
[lambdarank_norm: 1]
[label_gain: ]
[eval_at: ]
[multi_error_top_k: 1]
[auc_mu_weights: ]
[num_machines: 1]
[local_listen_port: 12400]
[time_out: 120]
[machine_list_filename: ]
[machines: ]
[gpu_platform_id: -1]
[gpu_device_id: -1]
[gpu_use_dp: 0]
[num_gpu: 1]

end of parameters

pandas_categorical:[]
