tree
version=v3
num_class=1
num_tree_per_iteration=1
label_index=0
max_feature_idx=22
objective=regression
feature_names=f_0 f_1 f_2 f_3 f_4 f_5 f_6 f_7 f_8 f_9 f_10 f_11 f_12 f_13 f_14 f_15 f_16 f_17 f_18 f_19 f_20 f_21 f_22
feature_infos=[3.5138360446667107e-07:0.0066553821535006137] [2.5600331918768856e-06:0.0039732576088439284] [9.2225614268401974e-06:0.0029579505118275174] [0.53000000000000003:6.5599999999999996] [-33.000000000000007:46] [2.4100000000000001:21.82] [-101.00000000000016:144.99999999999994] [-0.15710919088766695:0.17837578087457961] [-81:74] [-46:33.999999999999986] [-51.000000000000021:33.999999999999986] [-33.000000000000007:27.999999999999979] [-41:96.000000000000014] [-36.000000000000007:32.999999999999986] [-0.52000000000000002:2.9100000000000001] [-0.94999999999999996:3.8500000000000001] [-52:73.999999999999972] [-28.000000000000004:24.000000000000004] [-0.29572649572649579:0.64215246636771273] [-0.02958455728073861:0.047292143401983289] [-0.054746473503621829:0.033993115318416534] [-0.039377561323276189:0.045346674363414774] [-0.019984292877423981:0.018327052533256172]
tree_sizes=1844 1862 1883 1863 1894 1877 1878 1875 1858 1881

Tree=0
num_leaves=20
num_cat=0
split_feature=3 3 8 14 2 14 18 3 15 1 3 1 1 7 4 14 3 15 2
split_gain=4.19441 2.05031 2.93188 2.32355 3.67431 7.47476 2.76923 1.23785 1.12023 1.05568 1.46803 2.2947 1.20908 1.67486 0.902034 1.21557 1.35663 0.935361 0.697286
threshold=1.6150000000000004 3.6400000000000001 1.5000000000000009 1.2650000000000003 0.00014011816530469721 -0.13499999999999998 0.0096181054372904713 2.0250000000000004 2.6125000000000003 0.0003279741401299276 1.7750000000000001 0.00018386050219471148 0.00053623892310966626 0.0097594414972633787 0.99999999999998435 0.075000000000000025 0.88500000000000012 0.095000000000000015 4.6062463337321026e-05
decision_type=2 2 2 2 2 2 2 2 2 2 2 2 2 2 2 2 2 2 2
left_child=14 3 8 4 5 -2 -7 -6 -3 10 11 18 13 -11 -1 16 -16 -17 -5
right_child=1 2 -4 9 7 6 -8 -9 -10 12 -12 -13 -14 -15 15 17 -18 -19 -20
leaf_value=0.047388392630875652 0.049458774349793726 0.063493862016807193 0.07182719531909644 0.056827195374975797 0.048008297770033473 0.087211810646399671 0.064134887655444825 0.061112909644724552 0.050348322159674858 0.052487572749632713 0.047547916130264524 0.065160528677265045 0.046827195412228698 0.067981041487270633 0.066827195337722897 0.059327195365662569 0.051544176526732044 0.048259176313815398 0.049099922676489403
leaf_weight=1871 57 21 28 35 127 26 26 21 71 53 555 30 39 26 20 20 53 419 176
leaf_count=1871 57 21 28 35 127 26 26 21 71 53 555 30 39 26 20 20 53 419 176
internal_value=0.0492918 0.051436 0.0576605 0.0507982 0.0549984 0.0619648 0.0756733 0.0498677 0.0533489 0.0496171 0.0489629 0.0522214 0.0540306 0.0575867 0.0478973 0.0497569 0.0557313 0.0487634 0.0503817
internal_weight=0 1291 120 1171 257 109 52 148 92 914 796 241 118 79 2383 512 73 439 211
internal_count=3674 1291 120 1171 257 109 52 148 92 914 796 241 118 79 2383 512 73 439 211
is_linear=0
shrinkage=1


Tree=1
num_leaves=20
num_cat=0
split_feature=5 3 8 14 1 3 2 1 2 5 1 3 19 9 3 1 7 16 8
split_gain=4.16313 1.92322 2.64603 2.22432 2.78246 5.05515 1.9141 1.01953 1.51776 0.972701 1.06948 1.02596 1.47353 1.13304 0.534967 1.85637 1.09166 0.522883 0.457994
threshold=5.495000000000001 3.6400000000000001 1.5000000000000009 1.2350000000000001 0.00017499259060072225 1.7250000000000003 0.00014011816530469721 9.5297907956866653e-05 0.00010617131818293667 5.5850000000000009 0.0003279741401299276 2.3750000000000004 0.0010147870866945576 -1.0000000000000451 1.885 0.0001718158101154786 -0.015481227205451807 10.000000000000004 -0.99999999999999967
decision_type=2 2 2 2 2 2 2 2 2 2 2 2 2 2 2 2 2 2 2
left_child=-1 3 17 4 5 7 -7 -2 -9 -5 14 12 13 -12 15 -11 -17 18 -3
right_child=1 2 -4 9 -6 6 -8 8 -10 10 11 -13 -14 -15 -16 16 -18 -19 -20
leaf_value=-0.0015446965116578315 -0.00056191877461969858 0.0054663422492307592 0.021408640779554844 0.0080129854135999566 -0.00026602383679265432 0.027000356627962532 0.0098655742792678747 0.018861161172389986 0.0018583197678838457 -0.00085568318695381841 0.0055954949309428535 -0.002607143591893347 -4.5647766245038887e-05 0.021125505564977293 -0.0020306285074416625 -0.00046743439849127429 0.013399104312993588 0.010383175864167836 -0.0027022752969060094
leaf_weight=2170 80 37 28 38 157 39 28 21 35 378 24 38 38 23 423 22 40 23 32
leaf_count=2170 80 37 28 38 157 39 28 21 35 378 24 38 38 23 423 22 40 23 32
internal_value=0 0.00187822 0.00795031 0.00135173 0.00473238 0.00859814 0.0198396 0.00306009 0.00823439 0.000163225 -0.000139301 0.00422254 0.00727581 0.0131953 -0.000760977 0.000459619 0.00847872 0.00385429 0.001678
internal_weight=0 1504 120 1384 360 203 67 136 56 1024 986 123 85 47 863 440 62 92 69
internal_count=3674 1504 120 1384 360 203 67 136 56 1024 986 123 85 47 863 440 62 92 69
is_linear=0
shrinkage=0.05


Tree=2
num_leaves=20
num_cat=0
split_feature=5 3 8 14 1 3 0 3 15 1 2 5 1 1 7 18 3 1 2
split_gain=3.75722 1.73571 2.40048 2.00745 2.51117 4.56227 1.77142 1.40316 1.09759 0.920125 1.36978 0.877863 0.965202 0.95617 1.35841 0.563575 0.489674 2.34344 0.506371
threshold=5.495000000000001 3.6400000000000001 2.0000000000000013 1.2350000000000001 0.00017499259060072225 1.7250000000000003 0.00011375872340486854 1.7850000000000004 2.6125000000000003 9.5297907956866653e-05 0.00010617131818293667 5.5850000000000009 0.0003279741401299276 0.00053623892310966626 0.0097594414972633787 -0.012048615768171731 1.7750000000000001 0.0001718158101154786 4.7738469749984058e-05
decision_type=2 2 2 2 2 2 2 2 2 2 2 2 2 2 2 2 2 2 2
left_child=-1 3 8 4 5 9 7 -7 -3 -2 -11 -5 16 14 15 -14 17 18 -13
right_child=1 2 -4 11 -6 6 -8 -9 -10 10 -12 12 13 -15 -16 -17 -18 -19 -20
leaf_value=-0.001467461614152803 -0.00053382275858893991 0.013168878410942853 0.021338207840919499 0.0076123361034612915 -0.00025272269727318151 0.034891775948926805 0.0089519858567251101 0.016162417335435747 0.00080037609949498104 0.017918103188276292 0.0017654038806046758 0.0051586846006102865 0.0089947588741779334 -0.0024584075818077115 0.016007349473823394 -0.0013661144993134908 -0.0016012410828193952 0.012684875988476986 -0.0015455822131418169
leaf_weight=2170 80 24 25 38 157 20 27 20 71 21 35 32 21 39 28 35 559 37 235
leaf_count=2170 80 24 25 38 157 20 27 20 71 21 35 32 21 39 28 35 559 37 235
internal_value=0 0.0017843 0.00755279 0.00128415 0.00449576 0.00816823 0.0188476 0.0255271 0.00392505 0.00290708 0.00782267 0.000155064 -0.000132336 0.00401141 0.00701526 0.00251921 -0.000722928 0.000892127 -0.000742075
internal_weight=0 1504 120 1384 360 203 67 40 95 136 56 1024 986 123 84 56 863 304 267
internal_count=3674 1504 120 1384 360 203 67 40 95 136 56 1024 986 123 84 56 863 304 267
is_linear=0
shrinkage=0.05


Tree=3
num_leaves=20
num_cat=0
split_feature=5 3 8 14 1 3 2 15 1 2 5 1 3 19 9 15 3 1 15
split_gain=3.39089 1.56648 2.16643 1.81173 2.26633 4.11745 1.62651 0.990575 0.830413 1.23622 0.792271 0.871095 0.902633 1.31067 1.01138 0.453328 0.448291 1.5291 1.25386
threshold=5.495000000000001 3.6400000000000001 2.0000000000000013 1.2350000000000001 0.00017499259060072225 1.7250000000000003 0.00014011816530469721 2.6125000000000003 9.5297907956866653e-05 0.00010617131818293667 5.5850000000000009 0.0003279741401299276 2.3750000000000004 0.0010147870866945576 -1.0000000000000451 3.1650000000000005 1.885 0.0001718158101154786 2.8750000000000004
decision_type=2 2 2 2 2 2 2 2 2 2 2 2 2 2 2 2 2 2 2
left_child=-1 3 7 4 5 8 -7 -3 -2 -10 -5 16 13 14 -13 -9 17 -12 -19
right_child=1 2 -4 10 -6 6 -8 15 9 -11 11 12 -14 -15 -16 -17 -18 18 -20
leaf_value=-0.0013940886275044511 -0.00050713161937892442 0.012510434522603951 0.020271298527717592 0.0072317193409329964 -0.0002400865196991878 0.024506163090849534 0.0087109898749206747 -0.0017415832034220883 0.017022197906460083 0.0016771335740174568 -0.00076318049813231472 0.0050772858628382288 -0.0025952131536446121 -0.00023027766299875161 0.019749887692539589 0.0071403051633387813 -0.001849034941154169 -0.00012679012226206915 0.014161212561542498
leaf_weight=2170 80 24 25 38 157 39 28 51 21 35 378 24 38 38 23 20 423 28 34
leaf_count=2170 80 24 25 38 157 39 28 51 21 35 378 24 38 38 23 20 423 28 34
internal_value=0 0.00169509 0.00717515 0.00121994 0.00427097 0.00775982 0.0179052 0.0037288 0.00276173 0.00743153 0.000147311 -0.000125719 0.00381084 0.00667473 0.0122575 0.000760357 -0.000686782 0.000430566 0.00770857
internal_weight=0 1504 120 1384 360 203 67 95 136 56 1024 986 123 85 47 71 863 440 62
internal_count=3674 1504 120 1384 360 203 67 95 136 56 1024 986 123 85 47 71 863 440 62
is_linear=0
shrinkage=0.05


Tree=4
num_leaves=20
num_cat=0
split_feature=3 14 1 3 1 8 0 18 2 10 15 2 22 19 18 14 4 3 14
split_gain=2.86882 1.80101 2.74441 3.00475 2.22083 2.30874 1.5718 1.54853 1.22784 0.868539 1.20697 0.685195 0.66428 0.651092 0.609659 0.603638 0.820657 0.652304 0.576493
threshold=1.4750000000000003 1.2350000000000001 0.00017499259060072225 1.7250000000000003 0.0003279741401299276 2.0000000000000013 0.00011375872340486854 -0.039785839557968709 0.00013091683169166383 2.0000000000000244 3.1150000000000007 0.00072509667545322032 1.2082037031846406e-05 -0.0012460173987682286 -0.0069025072955750102 0.18250000000000002 0.99999999999998435 0.88500000000000012 -0.13499999999999998
decision_type=2 2 2 2 2 2 2 2 2 2 2 2 2 2 2 2 2 2 2
left_child=15 2 3 7 -3 9 8 -2 -5 10 11 12 13 -6 -7 16 -1 -18 -9
right_child=1 4 -4 6 5 14 -8 18 -10 -11 -12 -13 -14 -15 -16 -17 17 -19 -20
leaf_value=-0.0010694637890120396 0.016946296924725174 -0.00036353068278697977 -0.00091986603414018957 0.032061973661184316 0.0090194877330213776 0.022141433330252768 0.0076885826885700233 -0.0013026413100305945 0.014541724361479283 -0.0018282151794922884 0.016487253475934268 -0.0030098727613221857 0.012362802259624005 -0.0029801542727419966 0.009795794049277903 -0.0019003312849260436 0.0088697118541369076 0.0012129275301068099 0.0057480564586958795
leaf_weight=413 20 1073 132 20 20 20 27 64 20 67 20 32 25 26 20 1486 39 97 53
leaf_count=413 20 1073 132 20 20 20 27 64 20 67 20 32 25 26 20 1486 39 97 53
internal_value=0 0.00143382 0.00469776 0.00833269 0.000592165 0.00505069 0.0170099 0.00408908 0.0233018 0.00275218 0.00524719 0.00306466 0.00580248 0.00223708 0.0159686 -0.00137691 3.98619e-05 0.00340862 0.00189126
internal_weight=0 1639 336 204 1303 230 67 137 40 190 123 103 71 46 40 2035 549 136 117
internal_count=3674 1639 336 204 1303 230 67 137 40 190 123 103 71 46 40 2035 549 136 117
is_linear=0
shrinkage=0.05


Tree=5
num_leaves=20
num_cat=0
split_feature=5 13 14 3 5 5 1 3 14 14 2 1 5 8 8 0 2 3 0
split_gain=4.20732 1.5625 1.11009 1.3811 0.803838 1.67715 1.15703 1.94781 1.40561 1.0516 3.56988 1.59036 0.581881 0.646881 0.696224 0.571232 0.418444 0.892982 0.626642
threshold=6.9350000000000014 -8.4999999999999947 2.0850000000000004 4.6800000000000006 8.9500000000000011 9.2950000000000017 0.0005691685285342925 2.2450000000000006 1.9450000000000001 1.2350000000000001 0.00014011816530469721 9.9816482749479193e-05 5.3450000000000006 5.0000000000000497 -1.9999999999999682 9.5180099932118604e-05 0.00012978994375717194 2.4750000000000005 0.00012285220422286665
decision_type=2 2 2 2 2 2 2 2 2 2 2 2 2 2 2 2 2 2 2
left_child=12 -2 4 -4 9 -6 7 -7 -9 10 11 -3 -1 14 15 -14 -11 18 -18
right_child=1 2 3 -5 5 6 -8 8 -10 16 -12 -13 13 -15 -16 -17 17 -19 -20
leaf_value=-0.0013859749331753305 0.015883406664690247 0.0075330213733738466 -0.0013282802267783908 0.012392560020089149 0.017046888574259355 5.6592691689729693e-05 -0.0012868230112574319 0.023840850696939489 0.0059489956303011814 -0.0018496509784689315 -0.00090848188602218503 0.023822753343345791 0.0076297134044580163 0.0077032739695693771 -0.00077102398692533889 0.00064453200995922091 0.010584647272174296 -0.0012383115350415833 0.0024788045411696658
leaf_weight=2115 23 31 221 20 32 40 55 23 21 91 76 29 48 28 580 75 38 95 64
leaf_count=2115 23 31 221 20 32 40 55 23 21 91 76 29 48 28 580 75 38 95 64
internal_value=0 0.00302691 0.00267321 -0.000189621 0.00383277 0.00672665 0.00435077 0.00804205 0.0153016 0.00266566 0.00628926 0.0154064 -0.000965662 0.000250429 -4.64122e-05 0.00337046 0.000954522 0.00224985 0.00549863
internal_weight=0 859 836 241 595 171 139 84 44 424 136 60 2846 731 703 123 288 197 102
internal_count=3705 859 836 241 595 171 139 84 44 424 136 60 2846 731 703 123 288 197 102
is_linear=0
shrinkage=0.05


Tree=6
num_leaves=20
num_cat=0
split_feature=5 1 15 14 2 5 22 8 1 1 14 2 15 5 8 8 5 7 2
split_gain=3.79711 1.45849 1.7253 1.64834 0.721034 1.1636 1.19688 1.37441 2.4689 2.95587 0.818182 3.22181 1.86259 0.525147 0.58381 0.628342 0.552064 0.81863 0.486746
threshold=6.9350000000000014 0.0010567632396975984 3.0250000000000004 2.0850000000000004 0.00072509667545322032 8.9500000000000011 8.9950661119497801e-05 -1.0000000000000118 0.00048392163639903368 0.00029160087980803414 1.2350000000000001 0.00014011816530469721 1.4950000000000003 5.3450000000000006 5.0000000000000497 -1.9999999999999682 5.9450000000000012 -0.0086318635663301651 0.00012978994375717194
decision_type=2 2 2 2 2 2 2 2 2 2 2 2 2 2 2 2 2 2 2
left_child=13 3 -3 4 5 10 7 -7 9 -9 11 12 -2 -1 15 16 17 -15 -12
right_child=1 2 -4 -5 -6 6 -8 8 -10 -11 18 -13 -14 14 -16 -17 -18 -19 -20
leaf_value=-0.0013166761714480729 0.025425508276869853 0.0030662286320123182 0.021634724803946237 -0.0013111502636928816 -0.0039385254526960447 -0.00078698973688814391 0.019368757717311384 0.0059134751879449552 -0.0021061067917832622 0.029915714377294417 -0.0017571684116354355 -0.00086305776709004456 0.007443114763332738 0.014936045883223415 0.0073181103515837873 -0.00073247283086951443 3.7692045936217677e-05 0.0024386034592201837 0.0027053907193163394
leaf_weight=2115 24 29 22 222 29 45 20 29 27 23 91 76 36 20 28 580 65 38 186
leaf_count=2115 24 29 22 222 29 45 20 29 27 23 91 76 36 20 28 580 65 38 186
internal_value=0 0.00287557 0.0110762 0.00235795 0.00374796 0.00414815 0.00801839 0.00618768 0.0101606 0.0165299 0.00279872 0.00597479 0.0146361 -0.000917379 0.000237908 -4.40916e-05 0.00320193 0.00674807 0.00123935
internal_weight=0 859 51 808 586 557 144 124 79 52 413 136 60 2846 731 703 123 58 277
internal_count=3705 859 51 808 586 557 144 124 79 52 413 136 60 2846 731 703 123 58 277
is_linear=0
shrinkage=0.05


Tree=7
num_leaves=20
num_cat=0
split_feature=5 13 14 2 5 5 15 1 3 8 14 1 3 5 8 8 0 20 15
split_gain=3.42689 1.33106 0.908565 1.11382 0.66229 0.845374 1.89225 1.17713 2.19811 1.4906 0.914777 1.9773 0.501553 0.473946 0.526888 0.567079 0.513254 0.417416 0.413722
threshold=6.9350000000000014 -8.4999999999999947 2.0850000000000004 0.00079495537080474571 7.0550000000000006 8.9500000000000011 2.7850000000000006 0.0005691685285342925 2.0150000000000001 -0.99999999999998412 0.51500000000000012 0.00017499259060072225 1.5350000000000004 5.3450000000000006 5.0000000000000497 -1.9999999999999682 9.5180099932118604e-05 0.00092267965753312098 3.6350000000000002
decision_type=2 2 2 2 2 2 2 2 2 2 2 2 2 2 2 2 2 2 2
left_child=13 -2 4 -4 -3 10 7 8 -7 -10 11 -6 -12 -1 15 16 17 -15 -17
right_child=1 2 3 -5 5 6 -8 -9 9 -11 12 -13 -14 14 -16 18 -18 -19 -20
leaf_value=-0.0012508423309376899 0.014597986905795078 0.011967746320773257 -0.0012348322028463538 0.010817334144597963 0.01808600704371929 -0.0027127739308135854 0.019760242891921243 -0.0020187090294292338 0.0046900464928355708 0.020227890264130001 0.0069667282747104767 -0.0022279029712080956 0.00040335628140416945 0.012148007115518507 0.0069522047747990912 -0.00097329531186561796 0.00045794985691706338 0.0027901364920231014 0.005731653445400298
leaf_weight=2115 23 22 220 21 25 35 22 52 29 33 32 23 322 22 28 556 75 26 24
leaf_count=2115 23 22 220 21 25 35 22 52 29 33 32 23 322 22 28 556 75 26 24
internal_value=0 0.00273179 0.00240533 -0.000184643 0.00345437 0.00312751 0.00607215 0.00405109 0.007305 0.0129602 0.00187494 0.00835226 0.000996655 -0.00087151 0.000226013 -4.1887e-05 0.00304184 0.00707916 -0.000695849
internal_weight=0 859 836 241 595 573 171 149 97 62 402 48 354 2846 731 703 123 48 580
internal_count=3705 859 836 241 595 573 171 149 97 62 402 48 354 2846 731 703 123 48 580
is_linear=0
shrinkage=0.05


Tree=8
num_leaves=20
num_cat=0
split_feature=5 1 15 14 2 5 3 8 1 8 15 9 6 6 7 22 2 4 14
split_gain=3.09277 1.21705 1.49033 1.35592 0.623745 1.03316 1.18025 0.886915 1.47694 1.04877 1.11411 1.58628 0.800839 1.17785 0.769639 0.510632 0.65259 0.451341 0.640329
threshold=6.9350000000000014 0.0010567632396975984 3.0250000000000004 2.0850000000000004 0.00072509667545322032 15.805000000000001 2.4450000000000007 -0.99999999999999878 0.00012632839919987044 0.999999999999999 1.925 -1.0000000000000118 3.0000000000000697 -5.9999999999999822 -0.011206203393646639 -9.5732246022106598e-06 0.00014958479746790502 0.99999999999998435 0.085000000000000006
decision_type=2 2 2 2 2 2 2 2 2 2 2 2 2 2 2 2 2 2 2
left_child=17 3 -3 4 5 6 7 15 14 10 -10 -12 13 -11 -9 16 -2 -1 -19
right_child=1 2 -4 -5 -6 -7 -8 8 9 12 11 -13 -14 -15 -16 -17 -18 18 -20
leaf_value=-0.0011605827843540171 0.009979466803591042 0.0026417937450881664 0.019899593429131945 -0.001205406760008217 -0.0037660709614383767 0.012625576093071892 -0.0010545978050042943 0.0085217309386833844 0.0046242011711001398 0.0013697057301479002 0.007450034283101559 0.025126266237348316 -0.0033247943222522742 0.015267251233259838 -0.0024001694353366341 -0.00067409330463789885 0.00061054589544854516 0.003923151599509375 -0.00036033885986652486
leaf_weight=2225 34 29 22 222 29 31 123 23 24 31 22 30 20 30 54 94 41 105 516
leaf_count=2225 34 29 22 222 29 31 123 23 24 31 22 30 20 30 54 94 41 105 516
internal_value=0 0.0025952 0.0100863 0.00212237 0.00338306 0.00375528 0.0032325 0.00454097 0.00653437 0.00931626 0.0135351 0.0176479 0.00535781 0.00820456 0.000862216 0.00178088 0.00485779 -0.000827934 0.000363923
internal_weight=0 859 51 808 586 557 526 403 234 157 76 52 81 61 77 169 75 2846 621
internal_count=3705 859 51 808 586 557 526 403 234 157 76 52 81 61 77 169 75 2846 621
is_linear=0
shrinkage=0.05


Tree=9
num_leaves=20
num_cat=0
split_feature=5 13 14 3 5 5 15 1 3 8 14 1 3 22 2 3 5 8 7
split_gain=2.79122 1.15361 0.742132 0.892337 0.584592 0.719569 1.65725 1.01566 1.93308 1.26238 0.803384 1.76447 0.45196 0.440667 0.385628 0.589085 1.23383 0.331645 0.332824
threshold=6.9350000000000014 -8.4999999999999947 2.0850000000000004 4.6800000000000006 7.0550000000000006 8.9500000000000011 2.7850000000000006 0.0005691685285342925 2.0150000000000001 -0.99999999999998412 0.51500000000000012 0.00017499259060072225 1.5350000000000004 0.0028280463254199977 0.00012037244523975599 2.0250000000000004 6.5950000000000006 0.50000000000004496 0.021318392763890363
decision_type=2 2 2 2 2 2 2 2 2 2 2 2 2 2 2 2 2 2 2
left_child=13 -2 4 -4 -3 10 7 8 -7 -10 11 -6 -12 14 -1 -16 -17 18 -14
right_child=1 2 3 -5 5 6 -8 -9 9 -11 12 -13 17 -15 15 16 -18 -19 -20
leaf_value=-0.0011340970088028152 0.013512389556221341 0.011108039810576223 -0.0010945075693038794 0.0099343848973512654 0.016912043780088426 -0.0027440996787377768 0.018329184629361738 -0.0020102866226807238 0.0043429229023127722 0.018641878788669904 0.0064910781104117639 -0.0022774760246924734 0.002277066106986067 0.005822520323097706 -0.00015896610709924906 0.013292031027376652 -0.0029434347271241924 -0.0020299830596964314 -0.0029322064607530032
leaf_weight=2267 23 22 221 20 25 35 22 52 29 33 32 23 179 25 507 25 22 106 37
leaf_count=2267 23 22 221 20 25 35 22 52 29 33 32 23 179 25 507 25 22 106 37
internal_value=0 0.00246544 0.00216152 -0.000179247 0.00310962 0.00280253 0.00551924 0.00362784 0.00665034 0.0119537 0.00164691 0.00771707 0.00082384 -0.000786537 -0.000845108 0.000337454 0.00569245 0.000260637 0.00138474
internal_weight=0 859 836 241 595 573 171 149 97 62 402 48 354 2846 2821 554 47 322 216
internal_count=3705 859 836 241 595 573 171 149 97 62 402 48 354 2846 2821 554 47 322 216
is_linear=0
shrinkage=0.05


end of trees

feature_importances:
f_3=30
f_1=29
f_5=24
f_14=20
f_2=19
f_8=18
f_15=14
f_7=6
f_0=5
f_18=4
f_22=4
f_4=3
f_9=3
f_13=3
f_19=3
f_6=2
f_10=1
f_16=1
f_20=1

parameters:
[boosting: gbdt]
[objective: regression]
[metric: binary_logloss]
[tree_learner: serial]
[device_type: cpu]
[data: ]
[valid: ]
[num_iterations: 10]
[learning_rate: 0.05]
[num_leaves: 20]
[num_threads: 0]
[deterministic: 0]
[force_col_wise: 0]
[force_row_wise: 0]
[histogram_pool_size: -1]
[max_depth: -1]
[min_data_in_leaf: 20]
[min_sum_hessian_in_leaf: 0.001]
[bagging_fraction: 0.7]
[pos_bagging_fraction: 1]
[neg_bagging_fraction: 1]
[bagging_freq: 5]
[bagging_seed: 3]
[feature_fraction: 0.9]
[feature_fraction_bynode: 1]
[feature_fraction_seed: 2]
[extra_trees: 0]
[extra_seed: 6]
[early_stopping_round: 0]
[first_metric_only: 0]
[max_delta_step: 0]
[lambda_l1: 0]
[lambda_l2: 0]
[linear_lambda: 0]
[min_gain_to_split: 0]
[drop_rate: 0.1]
[max_drop: 50]
[skip_drop: 0.5]
[xgboost_dart_mode: 0]
[uniform_drop: 0]
[drop_seed: 4]
[top_rate: 0.2]
[other_rate: 0.1]
[min_data_per_group: 100]
[max_cat_threshold: 32]
[cat_l2: 10]
[cat_smooth: 10]
[max_cat_to_onehot: 4]
[top_k: 20]
[monotone_constraints: ]
[monotone_constraints_method: basic]
[monotone_penalty: 0]
[feature_contri: ]
[forcedsplits_filename: ]
[refit_decay_rate: 0.9]
[cegb_tradeoff: 1]
[cegb_penalty_split: 0]
[cegb_penalty_feature_lazy: ]
[cegb_penalty_feature_coupled: ]
[path_smooth: 0]
[interaction_constraints: ]
[verbosity: 0]
[saved_feature_importance_type: 0]
[linear_tree: 0]
[max_bin: 255]
[max_bin_by_feature: ]
[min_data_in_bin: 3]
[bin_construct_sample_cnt: 200000]
[data_random_seed: 1]
[is_enable_sparse: 1]
[enable_bundle: 1]
[use_missing: 1]
[zero_as_missing: 0]
[feature_pre_filter: 1]
[pre_partition: 0]
[two_round: 0]
[header: 0]
[label_column: ]
[weight_column: ]
[group_column: ]
[ignore_column: ]
[categorical_feature: ]
[forcedbins_filename: ]
[precise_float_parser: 0]
[objective_seed: 5]
[num_class: 1]
[is_unbalance: 0]
[scale_pos_weight: 1]
[sigmoid: 1]
[boost_from_average: 1]
[reg_sqrt: 0]
[alpha: 0.9]
[fair_c: 1]
[poisson_max_delta_step: 0.7]
[tweedie_variance_power: 1.5]
[lambdarank_truncation_level: 30]
[lambdarank_norm: 1]
[label_gain: ]
[eval_at: ]
[multi_error_top_k: 1]
[auc_mu_weights: ]
[num_machines: 1]
[local_listen_port: 12400]
[time_out: 120]
[machine_list_filename: ]
[machines: ]
[gpu_platform_id: -1]
[gpu_device_id: -1]
[gpu_use_dp: 0]
[num_gpu: 1]

end of parameters

pandas_categorical:[]
