tree
version=v3
num_class=1
num_tree_per_iteration=1
label_index=0
max_feature_idx=22
objective=regression
feature_names=f_0 f_1 f_2 f_3 f_4 f_5 f_6 f_7 f_8 f_9 f_10 f_11 f_12 f_13 f_14 f_15 f_16 f_17 f_18 f_19 f_20 f_21 f_22
feature_infos=[3.5138360446667107e-07:0.0066553821535006137] [2.5600331918768856e-06:0.0039732576088439284] [9.2225614268401974e-06:0.0029579505118275174] [0.53000000000000003:6.5599999999999996] [-33.000000000000007:46] [2.4100000000000001:21.82] [-101.00000000000016:144.99999999999994] [-0.15710919088766695:0.17837578087457961] [-81:74] [-46:33.999999999999986] [-51.000000000000021:33.999999999999986] [-33.000000000000007:27.999999999999979] [-41:192.00000000000003] [-36.000000000000007:32.999999999999986] [-0.52000000000000002:2.9100000000000001] [-0.94999999999999996:3.8500000000000001] [-52:73.999999999999972] [-28.000000000000004:24.000000000000004] [-0.29572649572649579:0.64215246636771273] [-0.02958455728073861:0.047292143401983289] [-0.054746473503621829:0.033993115318416534] [-0.039377561323276189:0.045346674363414774] [-0.019984292877423981:0.018327052533256172]
tree_sizes=1841 1869 1868 1873 1900 1867 1880 1884 1884 1877

Tree=0
num_leaves=20
num_cat=0
split_feature=2 15 1 1 15 19 3 21 18 21 13 3 12 3 4 6 22 3 19
split_gain=9.08107 5.46231 3.53422 1.83988 1.3433 1.72142 1.34935 1.44681 1.51724 1.33361 1.21212 0.998049 0.709081 0.759278 0.9 0.69983 0.761051 0.561704 0.546122
threshold=0.00021454633883369949 2.9150000000000005 0.00038902402540016425 8.4653776542144366e-05 0.095000000000000015 0.0012414170029082518 2.0250000000000004 0.0036235632251163667 -0.00068627271132282164 -0.0019185301438402467 0.99999999999998956 3.1250000000000004 -5.0000000000000009 2.3550000000000004 -1.0000000180025095e-35 6.9999999999999627 -0.00088227951229263846 1.155 0.005161950464387167
decision_type=2 2 2 2 2 2 2 2 2 2 2 2 2 2 2 2 2 2 2
left_child=3 4 10 -1 5 -2 -6 12 -9 -4 -3 15 -8 14 -14 -5 -17 -18 -19
right_child=1 2 9 11 6 -7 7 8 -10 -11 -12 -13 13 -15 -16 16 17 18 -20
leaf_value=0.048537625316977133 0.068455757889315405 0.064534189188819507 0.085962761016529193 0.050282732945290773 0.049867522248964888 0.050248474637013062 0.060830485416128954 0.056200855700265749 0.072867522677373273 0.069534189281951764 0.047867522211711984 0.060367522444542632 0.065367522537674888 0.049772284151952846 0.050367522258278112 0.06286752249110876 0.060367522444542632 0.050004274388264235 0.058284189072404194
leaf_weight=1940 34 24 21 973 175 21 27 36 22 30 20 28 20 105 20 20 20 117 24
leaf_count=1940 34 24 21 973 175 21 27 36 22 30 20 28 20 105 20 20 20 117 24
internal_value=0.0503869 0.0564261 0.0673412 0.0494851 0.0541719 0.0615039 0.0531762 0.0556936 0.0625227 0.0762989 0.0569584 0.0510401 0.0533908 0.0520055 0.0578675 0.0508138 0.0536686 0.0525259 0.0514136
internal_weight=0 555 95 3122 460 55 405 230 58 51 44 1182 172 145 40 1154 181 161 141
internal_count=3677 555 95 3122 460 55 405 230 58 51 44 1182 172 145 40 1154 181 161 141
is_linear=0
shrinkage=1


Tree=1
num_leaves=20
num_cat=0
split_feature=2 2 3 1 18 21 14 5 14 9 2 3 1 2 3 3 19 1 5
split_gain=8.20533 2.46525 3.61389 1.77595 1.60427 1.41635 1.78118 1.02463 2.08895 2.52196 0.792995 0.713368 0.680996 1.42339 0.723334 1.38993 1.31774 0.87906 0.723186
threshold=0.00022948028557848781 0.0011109579304333353 6.0750000000000002 8.4653776542144366e-05 0.033957259396426694 0.001636455837307649 1.6950000000000001 6.5250000000000012 1.2350000000000001 1.5000000000000349 0.00033986550337901535 3.1250000000000004 0.0005691685285342925 0.00053789099948906786 2.5850000000000004 1.8650000000000004 -0.0048321490010424508 0.00031067803756707407 7.7550000000000008
decision_type=2 2 2 2 2 2 2 2 2 2 2 2 2 2 2 2 2 2 2
left_child=3 4 -3 -1 12 10 -7 -5 9 -9 -6 -10 13 14 15 16 -2 18 -17
right_child=1 2 -4 7 5 6 -8 8 11 -11 -12 -13 -14 -15 -16 17 -18 -19 -20
leaf_value=-0.0017567782403574775 0.012281981091946365 0.030958130534576335 0.0018969678040593862 -0.0004181232406594551 0.012068238680561385 0.0076314488813901951 0.027570998021179724 0.0049465856910364267 0.00011429768230847805 0.024986901842057707 0.001619291580889536 0.0079451655794400729 -0.0012203916961300201 0.014250905520748348 -0.00173583642890056 0.011572988251490253 -0.0019666807639390923 0.01482604661335548 -0.00090221845759795279
leaf_weight=1940 20 23 20 776 30 24 21 73 319 20 46 32 69 32 60 21 86 39 26
leaf_count=1940 20 23 20 776 30 24 21 73 319 20 46 32 69 32 60 21 86 39 26
internal_value=0 0.005978 0.0174413 -0.000816794 0.00493808 0.00990645 0.0169366 0.000677936 0.00259357 0.00925633 0.00574388 0.000828223 0.00323504 0.00431752 0.00305613 0.00455362 0.000721746 0.00927664 0.00467181
internal_weight=0 517 43 3160 474 121 45 1220 444 93 76 351 353 284 252 192 106 86 47
internal_count=3677 517 43 3160 474 121 45 1220 444 93 76 351 353 284 252 192 106 86 47
is_linear=0
shrinkage=0.05


Tree=2
num_leaves=20
num_cat=0
split_feature=2 15 13 1 2 15 3 5 0 7 1 5 7 5 14 9 5 3 6
split_gain=7.40531 5.43057 3.10635 1.60279 1.47798 1.31725 1.35759 1.11498 1.09371 1.02644 1.78432 1.95193 0.95037 0.924727 1.88527 2.27607 0.647276 0.643814 0.58204
threshold=0.00022948028557848781 2.8750000000000004 -1.0000000180025095e-35 8.4653776542144366e-05 0.00036358178136183789 0.095000000000000015 2.1950000000000007 7.7550000000000008 0.00039292612916385034 -0.0055534806917958415 0.00050838497951248996 9.2950000000000017 0.028590904163035228 6.5250000000000012 1.2350000000000001 1.5000000000000349 7.6250000000000009 3.1250000000000004 2.0000000000000244
decision_type=2 2 2 2 2 2 2 2 2 2 2 2 2 2 2 2 2 2 2
left_child=3 5 4 -1 -3 7 -7 -2 -4 10 11 -8 -11 18 15 16 -15 -16 -5
right_child=1 2 8 13 -6 6 9 -9 -10 12 -12 -13 -14 14 17 -17 -18 -19 -20
leaf_value=-0.0016689392428883574 0.018481350041925908 0.036190509104302958 -0.00050271030160642805 -0.0013496291120296228 0.017645917731252583 -0.0008943576972151911 0.0066855662000867046 0.0039537858217954637 0.01583486464805901 -0.0003083652145760034 0.0011640401204695574 0.027180863411298824 0.0098005569990604162 0.00934337980642512 0.00010858266074268797 0.023737556207925083 -7.3870255922277777e-05 0.0075479070423170929 0.0015716030177744954
leaf_weight=1940 25 21 21 523 22 172 26 28 20 93 37 21 31 37 319 20 36 32 253
leaf_count=1940 25 21 21 523 22 172 26 28 20 93 37 21 31 37 319 20 36 32 253
internal_value=0 0.0056791 0.0173137 -0.000775954 0.0267026 0.00342204 0.00239211 0.0108064 0.00746684 0.00510977 0.00937729 0.015843 0.00221887 0.000644039 0.00246389 0.00879351 0.00469926 0.000786812 -0.000397217
internal_weight=0 517 84 3160 43 433 380 53 41 208 84 47 124 1220 444 93 73 351 776
internal_count=3677 517 84 3160 43 433 380 53 41 208 84 47 124 1220 444 93 73 351 776
is_linear=0
shrinkage=0.05


Tree=3
num_leaves=20
num_cat=0
split_feature=1 15 1 1 2 3 5 6 15 21 3 3 1 5 10 3 8 13 14
split_gain=6.70021 3.41994 2.88839 1.77462 1.86492 1.72294 1.17606 1.17883 1.72053 1.16051 1.11843 1.3647 0.767008 0.765926 1.75378 0.698588 0.616788 1.4407 0.609859
threshold=0.00027566130516974247 2.9150000000000005 0.00038902402540016425 0.000431001232881904 0.00044812312785765044 1.5450000000000002 7.4250000000000007 5.9999999999999174 2.0850000000000004 -0.0019185301438402467 3.8800000000000003 5.5750000000000011 9.4936300278312307e-05 2.5950000000000002 -1.0000000180025095e-35 1.7850000000000004 1.0000000000000122 -1.2499999999999953 2.3250000000000006
decision_type=2 2 2 2 2 2 2 2 2 2 2 2 2 2 2 2 2 2 2
left_child=5 3 -3 4 6 13 -2 8 -8 -4 -5 -12 -7 14 -1 18 -17 -18 -14
right_child=1 2 9 10 -6 12 7 -9 -10 -11 11 -13 15 -15 -16 16 17 -19 -20
leaf_value=0.015020754358366781 -0.0015015141735243243 0.0021460633510007308 0.031638201787358239 -0.0028899011348246361 0.019710475447829126 -0.00049429335631430156 0.018922436482420094 -0.00090122013352811337 0.0024148259863809307 0.016312901216248673 0.016376537047326566 0.00044538114765068379 0.0033628019330979781 -0.0015740226082677066 -0.0023066415451467037 9.583971013051761e-05 0.014852415151894095 -0.00037644102079112358 0.010691294928683955
leaf_weight=23 43 26 21 102 27 464 38 24 27 30 20 41 172 2150 40 329 25 41 34
leaf_count=23 43 26 21 102 27 464 38 24 27 30 20 41 172 2150 40 329 25 41 34
internal_value=0 0.00624273 0.0157089 0.00397908 0.00773737 -0.000619578 0.00528832 0.0085688 0.0120654 0.0226233 0.000313015 0.00566871 0.00103283 -0.00141479 0.00401923 0.00221184 0.000980779 0.00539207 0.00457236
internal_weight=0 399 77 322 159 3278 132 89 65 51 163 61 1065 2213 63 601 395 66 206
internal_count=3677 399 77 322 159 3278 132 89 65 51 163 61 1065 2213 63 601 395 66 206
is_linear=0
shrinkage=0.05


Tree=4
num_leaves=20
num_cat=0
split_feature=2 15 1 3 1 15 19 4 13 3 7 7 21 20 6 0 21 20 16
split_gain=6.09142 3.82815 2.46471 1.86538 1.25838 1.03588 1.48407 0.961491 0.947779 0.747167 0.711376 0.945968 0.633595 0.597091 0.583443 0.732808 0.540846 0.68908 0.505994
threshold=0.00021454633883369949 2.8750000000000004 0.00041659036141107858 2.0850000000000004 8.4653776542144366e-05 0.095000000000000015 0.0012414170029082518 1.2500000000000291 4.999999999999992 3.1250000000000004 -0.0055534806917958415 -0.0086654296459570661 -0.0029894753260061853 -0.00040663025995479879 6.9999999999999627 7.797942580290706e-05 -0.0013199256995922724 0.0008247098867957271 -1.0000000000000118
decision_type=2 2 2 2 2 2 2 2 2 2 2 2 2 2 2 2 2 2 2
left_child=4 5 3 -3 -1 6 -2 -4 10 14 11 18 13 -12 -6 -16 -17 -18 -7
right_child=1 2 7 -5 9 8 -8 -9 -10 -11 12 -13 -14 -15 15 16 17 -19 -20
leaf_value=-0.0015227868446369762 0.01590027801473351 0.017220928155533648 0.030568000655621291 -0.0017054520547389986 -0.00013391580930379777 0.0054472903173197716 -0.0010052555817223732 0.015985909777765091 0.0097524122108478811 0.0086171741597354419 -0.0029806758537888529 0.014077707687392832 -0.0025235521458629251 0.0065832835324901211 0.009233969903072797 -0.0019862349624886659 0.0014039947265951798 0.012166739078238606 -0.00069837070380647981
leaf_weight=1940 34 23 20 30 973 68 21 26 37 28 25 20 138 47 37 66 58 20 66
leaf_count=1940 34 23 20 30 973 68 21 26 37 28 25 20 138 47 37 66 58 20 66
internal_value=0 0.00494554 0.0138577 0.00650788 -0.000739236 0.00301066 0.00944544 0.0223259 0.00212809 0.000546796 0.00135309 0.00393427 -0.000539775 0.00326246 0.000350981 0.00295763 0.00134497 0.00416367 0.00242032
internal_weight=0 555 99 53 3122 456 55 46 401 1182 364 154 210 72 1154 181 144 78 134
internal_count=3677 555 99 53 3122 456 55 46 401 1182 364 154 210 72 1154 181 144 78 134
is_linear=0
shrinkage=0.05


Tree=5
num_leaves=20
num_cat=0
split_feature=3 1 3 1 14 1 12 4 1 8 2 14 5 16 4 6 14 11 14
split_gain=4.41653 1.67044 1.61978 1.25293 1.32489 0.572903 0.867215 0.778659 0.774597 0.960329 0.746312 0.523728 1.4825 1.4588 0.936077 0.790727 0.508207 0.506433 0.607845
threshold=4.4350000000000014 8.4653776542144366e-05 5.9650000000000007 0.00092014798587458418 1.925 0.00027566130516974247 -1.9999999999999682 -1.0000000000000118 0.00015639894608797034 -6.0000000000000018 0.00067078586548043279 1.2350000000000001 6.7250000000000005 0.75000000000000633 1.9999999999999853 6.9999999999999627 -0.12499999999999999 -1.5000000000000344 1.7950000000000002
decision_type=2 2 2 2 2 2 2 2 2 2 2 2 2 2 2 2 2 2 2
left_child=1 16 3 4 -2 8 7 -7 9 -3 17 12 14 -14 15 -11 -1 -9 -19
right_child=2 5 -4 -5 -6 6 -8 10 -10 11 -12 -13 13 -15 -16 -17 -18 18 -20
leaf_value=0.0028929211449489666 0.018256568404225012 0.0097441758669447164 0.00045894968012968705 0.024228609649633821 0.0018097313120961191 0.011030518361884687 -0.0017673917161300781 -0.00083168324740494001 -0.0012441069004361077 -0.0005633374566136692 0.011688921575180511 -0.00026682135574091441 0.00332496444384257 0.020758176902309064 0.0097863241231867255 0.0087300614342093463 -0.001538079177002878 0.0021459128591232004 0.01178008041090586
leaf_weight=67 24 32 30 22 25 36 80 85 495 271 22 435 30 20 28 25 1894 64 22
leaf_count=67 24 32 30 22 25 36 80 85 495 271 22 435 30 20 28 25 1894 64 22
internal_value=0 -0.000401053 0.0102 0.0143159 0.00986532 0.000773921 0.00271414 0.00427975 0.000325172 0.00124883 0.00302054 0.000912793 0.0022848 0.0102982 0.00104816 0.000221578 -0.00138669 0.0019053 0.00461047
internal_weight=0 3606 101 71 49 1645 309 229 1336 841 193 809 374 50 324 296 1961 171 86
internal_count=3707 3606 101 71 49 1645 309 229 1336 841 193 809 374 50 324 296 1961 171 86
is_linear=0
shrinkage=0.05


Tree=6
num_leaves=20
num_cat=0
split_feature=3 1 3 1 15 1 12 1 14 6 19 5 1 8 14 5 16 4 5
split_gain=3.98592 1.50757 1.46185 1.13077 1.39775 0.517045 0.782662 0.722515 1.27128 1.05086 1.40219 1.05168 0.699074 0.866697 0.472665 1.33796 1.31657 0.845883 0.686863
threshold=4.4350000000000014 8.4653776542144366e-05 5.9650000000000007 0.00092014798587458418 2.6125000000000003 0.00027566130516974247 -1.9999999999999682 0.00041659036141107858 1.9150000000000003 6.0000000000000284 0.0015400324872644202 7.4250000000000007 0.00015639894608797034 -6.0000000000000018 1.2350000000000001 6.7250000000000005 0.75000000000000633 1.0000000180025095e-35 4.7650000000000006
decision_type=2 2 2 2 2 2 2 2 2 2 2 2 2 2 2 2 2 2 2
left_child=1 -1 3 4 -2 12 7 9 -9 10 11 -7 13 -3 15 17 -17 -15 -19
right_child=2 5 -4 -5 -6 6 -8 8 -10 -11 -12 -13 -14 14 -16 16 -18 18 -20
leaf_value=-0.0013173541365678612 0.018350667425471805 0.009256966982502491 0.00043600218991438544 0.023017179000784052 0.0014294430470237365 0.005729496041312814 -0.001679022111929953 -0.0027603760982553168 0.0085435493113963229 0.00028525382825514168 0.00041151738911867144 0.020259935984557328 -0.0011819015544923869 -0.00055213027912730413 -0.00025348025834423369 0.0031587162800133226 0.019720268510282041 0.0083538522333677489 -0.0010705030555355139
leaf_weight=1961 23 32 30 22 26 20 80 72 38 41 25 33 495 237 435 30 20 58 29
leaf_count=1961 23 32 30 22 26 20 80 72 38 41 25 33 495 237 435 30 20 58 29
internal_value=0 -0.000381 0.00968999 0.0136001 0.00937206 0.000735225 0.00257844 0.00406576 0.00114462 0.00676598 0.0101725 0.0147768 0.000308914 0.00118639 0.000867153 0.00217056 0.00978334 0.000995753 0.0052124
internal_weight=0 3606 101 71 49 1645 309 229 110 119 78 53 1336 841 809 374 50 324 87
internal_count=3707 3606 101 71 49 1645 309 229 110 119 78 53 1336 841 809 374 50 324 87
is_linear=0
shrinkage=0.05


Tree=7
num_leaves=20
num_cat=0
split_feature=3 1 3 10 12 3 14 3 4 14 3 2 15 14 2 10 3 9 3
split_gain=3.59729 1.36058 1.31932 1.07053 0.678213 0.493703 0.776768 0.633356 0.581357 0.537376 0.500624 0.654459 1.69327 0.925309 3.04356 0.884579 0.630352 0.594524 0.78731
threshold=4.4350000000000014 8.4653776542144366e-05 5.9650000000000007 3.9999999999999707 -2.249999999999996 1.5450000000000002 0.25500000000000006 2.5050000000000003 1.9999999999999853 -0.22499999999999998 1.5750000000000004 0.00021233812900653472 2.9250000000000003 1.2350000000000001 0.00014011816530469721 -1.0000000180025095e-35 1.7550000000000001 -8.9999999999999627 1.9950000000000003
decision_type=2 2 2 2 2 2 2 2 2 2 2 2 2 2 2 2 2 2 2
left_child=1 -1 3 4 -2 6 8 9 -3 -7 -11 13 17 14 -12 -14 -15 -13 -19
right_child=2 5 -4 -5 -6 7 -8 -9 -10 10 11 12 15 16 -16 -17 -18 18 -20
leaf_value=-0.0012514864764670704 0.011310705932026561 0.00081794608681314245 0.00041420205806692444 0.0048429214395582683 0.023590298976911152 -0.002743117982205355 -0.0016920963266348265 -0.0012355214836341994 0.0074922819798057157 0.0097341382633084842 0.01656979924171335 -0.0038280963082797828 0.0062230100482702257 0.002744552297359806 -0.0031357630220956584 0.02109394555911422 -0.0018187309434346114 8.0000887485756278e-05 0.0065996180128569566
leaf_weight=1961 22 276 30 26 23 53 415 175 37 23 36 32 20 118 43 20 211 87 99
leaf_count=1961 22 276 30 26 23 53 415 175 37 23 36 32 20 118 43 20 211 87 99
internal_value=0 -0.00036195 0.00920549 0.0129201 0.0175869 0.000698464 -0.000273698 0.00147026 0.00160693 0.00210841 0.00248161 0.00223114 0.00420218 0.000984755 0.00584399 0.0136585 -0.000182052 0.00246708 0.00355012
internal_weight=0 3606 101 71 45 1645 728 917 313 742 689 666 258 408 79 40 329 218 186
internal_count=3707 3606 101 71 45 1645 728 917 313 742 689 666 258 408 79 40 329 218 186
is_linear=0
shrinkage=0.05


Tree=8
num_leaves=20
num_cat=0
split_feature=3 1 3 1 15 14 3 17 3 14 3 9 16 4 22 14 1 5 0
split_gain=3.24656 1.22793 1.19068 1.02114 1.24374 0.458657 0.460913 0.591828 0.445567 0.701033 0.571604 0.548016 0.679639 0.776758 0.550135 0.484982 0.457841 1.19108 1.71488
threshold=4.4350000000000014 8.4653776542144366e-05 5.9650000000000007 0.00092014798587458418 2.6125000000000003 -0.12499999999999999 1.675 -1.0000000180025095e-35 1.5450000000000002 0.25500000000000006 2.5050000000000003 3.0000000000000142 1.0000000000000007 0.99999999999999545 -3.6243483724995855e-05 -0.22499999999999998 0.00029160087980803414 8.8850000000000033 0.00040928595257693927
decision_type=2 2 2 2 2 2 2 2 2 2 2 2 2 2 2 2 2 2 2
left_child=1 5 3 4 -2 6 7 -1 9 11 15 12 14 -14 -3 -10 -17 -18 -19
right_child=2 8 -4 -5 -6 -7 -8 -9 10 -11 -12 -13 13 -15 -16 16 17 18 -20
leaf_value=0.00020201322622597219 0.016725768974941709 0.0076369982013212781 0.00039349196478724482 0.021223023415289144 0.00076395193687998344 -0.0013327331872265531 -0.0021709453314542773 0.012365765618160367 -0.0026059620820407599 -0.0016074915086648552 -0.0011737453777875221 -0.0018999354300253532 0.0030743434663034149 0.015174455452887786 -2.7008296049141385e-05 0.0016486841801462418 0.0015355306390959483 0.021875920466014318 0.0038026445358991623
leaf_weight=20 23 28 30 22 26 1894 27 20 53 415 175 85 36 21 143 529 104 21 35
leaf_count=20 23 28 30 22 26 1894 27 20 53 415 175 85 36 21 143 529 104 21 35
internal_value=0 -0.000343852 0.00874521 0.0122741 0.00825623 -0.00118891 0.00287672 0.00628389 0.000663541 -0.000260013 0.00139674 0.00152658 0.00280401 0.00753228 0.00122792 0.00200299 0.00235753 0.00470114 0.0105801
internal_weight=0 3606 101 71 49 1961 67 40 1645 728 917 313 228 57 171 742 689 160 56
internal_count=3707 3606 101 71 49 1961 67 40 1645 728 917 313 228 57 171 742 689 160 56
is_linear=0
shrinkage=0.05


Tree=9
num_leaves=20
num_cat=0
split_feature=3 1 3 10 16 14 6 6 5 15 1 21 3 2 3 7 14 20 8
split_gain=2.93002 1.1082 1.07459 0.954637 0.775152 0.418159 0.414142 0.660795 0.670675 0.681202 1.13401 0.567522 0.540979 0.704747 1.6137 0.397027 0.729912 0.552296 0.862088
threshold=4.4350000000000014 8.4653776542144366e-05 5.9650000000000007 3.9999999999999707 -4.2499999999999973 -0.26499999999999996 19.999999999999975 16.500000000000007 6.6550000000000011 2.3150000000000008 0.00010257529705095438 -0.005724526369687565 2.2650000000000001 0.00025615468592144375 1.885 -0.0033448394130954902 1.7750000000000001 0.0017864620474680184 -0.99999999999999878
decision_type=2 2 2 2 2 2 2 2 2 2 2 2 2 2 2 2 2 2 2
left_child=1 5 3 4 -2 -1 7 8 -3 10 -10 -12 13 -11 -15 16 17 18 -13
right_child=2 6 -4 -5 -6 -7 -8 -9 9 12 11 15 -14 14 -16 -17 -18 -19 -20
leaf_value=0.005169303371356084 0.0090519698957602195 -0.000280396031456537 0.00037381740286946297 0.0040329522739809293 0.022205863799899819 -0.0012141010740853711 -0.0035956379624881916 0.0075734110921621333 0.014485835131596438 0.00024179334144050978 0.0086700326151081496 -0.00021479883541663486 -0.0025208857915965856 -0.0030869198963046074 0.014182442444707117 0.00033500764495248249 0.012918747290968896 -0.004081613632539908 0.013186759017407896
leaf_weight=26 21 882 30 26 24 1935 56 35 22 196 35 30 113 24 31 157 20 24 20
leaf_count=26 21 882 30 26 24 1935 56 35 22 196 35 30 113 24 31 157 20 24 20
internal_value=0 -0.00032666 0.00830795 0.0116604 0.0160674 -0.00112947 0.000630364 0.000779298 0.000626277 0.00181629 0.00354689 0.00270544 0.000351926 0.00164526 0.00664672 0.00187372 0.0044437 0.00215314 0.00514582
internal_weight=0 3606 101 71 45 1961 1645 1589 1554 672 308 286 364 251 55 251 94 74 50
internal_count=3707 3606 101 71 45 1961 1645 1589 1554 672 308 286 364 251 55 251 94 74 50
is_linear=0
shrinkage=0.05


end of trees

feature_importances:
f_3=36
f_1=28
f_14=18
f_5=14
f_2=13
f_15=12
f_6=8
f_4=7
f_21=7
f_7=5
f_16=5
f_19=5
f_8=4
f_9=4
f_10=4
f_12=4
f_13=4
f_0=3
f_20=3
f_18=2
f_22=2
f_11=1
f_17=1

parameters:
[boosting: gbdt]
[objective: regression]
[metric: binary_logloss]
[tree_learner: serial]
[device_type: cpu]
[data: ]
[valid: ]
[num_iterations: 10]
[learning_rate: 0.05]
[num_leaves: 20]
[num_threads: 0]
[deterministic: 0]
[force_col_wise: 0]
[force_row_wise: 0]
[histogram_pool_size: -1]
[max_depth: -1]
[min_data_in_leaf: 20]
[min_sum_hessian_in_leaf: 0.001]
[bagging_fraction: 0.7]
[pos_bagging_fraction: 1]
[neg_bagging_fraction: 1]
[bagging_freq: 5]
[bagging_seed: 3]
[feature_fraction: 0.9]
[feature_fraction_bynode: 1]
[feature_fraction_seed: 2]
[extra_trees: 0]
[extra_seed: 6]
[early_stopping_round: 0]
[first_metric_only: 0]
[max_delta_step: 0]
[lambda_l1: 0]
[lambda_l2: 0]
[linear_lambda: 0]
[min_gain_to_split: 0]
[drop_rate: 0.1]
[max_drop: 50]
[skip_drop: 0.5]
[xgboost_dart_mode: 0]
[uniform_drop: 0]
[drop_seed: 4]
[top_rate: 0.2]
[other_rate: 0.1]
[min_data_per_group: 100]
[max_cat_threshold: 32]
[cat_l2: 10]
[cat_smooth: 10]
[max_cat_to_onehot: 4]
[top_k: 20]
[monotone_constraints: ]
[monotone_constraints_method: basic]
[monotone_penalty: 0]
[feature_contri: ]
[forcedsplits_filename: ]
[refit_decay_rate: 0.9]
[cegb_tradeoff: 1]
[cegb_penalty_split: 0]
[cegb_penalty_feature_lazy: ]
[cegb_penalty_feature_coupled: ]
[path_smooth: 0]
[interaction_constraints: ]
[verbosity: 0]
[saved_feature_importance_type: 0]
[linear_tree: 0]
[max_bin: 255]
[max_bin_by_feature: ]
[min_data_in_bin: 3]
[bin_construct_sample_cnt: 200000]
[data_random_seed: 1]
[is_enable_sparse: 1]
[enable_bundle: 1]
[use_missing: 1]
[zero_as_missing: 0]
[feature_pre_filter: 1]
[pre_partition: 0]
[two_round: 0]
[header: 0]
[label_column: ]
[weight_column: ]
[group_column: ]
[ignore_column: ]
[categorical_feature: ]
[forcedbins_filename: ]
[precise_float_parser: 0]
[objective_seed: 5]
[num_class: 1]
[is_unbalance: 0]
[scale_pos_weight: 1]
[sigmoid: 1]
[boost_from_average: 1]
[reg_sqrt: 0]
[alpha: 0.9]
[fair_c: 1]
[poisson_max_delta_step: 0.7]
[tweedie_variance_power: 1.5]
[lambdarank_truncation_level: 30]
[lambdarank_norm: 1]
[label_gain: ]
[eval_at: ]
[multi_error_top_k: 1]
[auc_mu_weights: ]
[num_machines: 1]
[local_listen_port: 12400]
[time_out: 120]
[machine_list_filename: ]
[machines: ]
[gpu_platform_id: -1]
[gpu_device_id: -1]
[gpu_use_dp: 0]
[num_gpu: 1]

end of parameters

pandas_categorical:[]
