tree
version=v3
num_class=1
num_tree_per_iteration=1
label_index=0
max_feature_idx=22
objective=regression
feature_names=f_0 f_1 f_2 f_3 f_4 f_5 f_6 f_7 f_8 f_9 f_10 f_11 f_12 f_13 f_14 f_15 f_16 f_17 f_18 f_19 f_20 f_21 f_22
feature_infos=[2.811842593898112e-07:0.0089292451603560918] [2.1333248529010825e-06:0.0055990001705921817] [4.7857545124566229e-06:0.003721014941950642] [0.53000000000000003:6.5599999999999996] [-33.000000000000007:48] [2.4100000000000001:21.82] [-101.00000000000016:144.99999999999994] [-3.0196613872200984:0.53086419753086433] [-81:74] [-46:33.999999999999986] [-51.000000000000021:33.999999999999986] [-33.000000000000007:29.000000000000004] [-41:96.000000000000014] [-36.000000000000007:32.999999999999986] [-0.83999999999999997:2.9100000000000001] [-1.3200000000000001:3.8500000000000001] [-52:73.999999999999972] [-28.000000000000004:24.000000000000004] [-0.29572649572649579:1.1559792027729636] [-0.02958455728073861:0.047292143401983289] [-0.054746473503621829:0.033993115318416534] [-0.078445945945946005:0.045346674363414774] [-0.019984292877423981:0.018327052533256172]
tree_sizes=1815 1886 1891 1888 1887 1863 1909 1903 1893 1889 1909 1908 1912 1907 1917 1896 1872 1888 1891 1881 1912 1921 1912 1895 1893 1916 1894 1922 1908 1888

Tree=0
num_leaves=20
num_cat=0
split_feature=1 3 3 8 22 14 13 10 1 15 4 0 19 18 13 2 6 21 15
split_gain=19.6654 3.84075 3.58455 3.1026 3.01743 2.86971 2.80611 2.74873 2.61244 2.59128 2.53088 2.40446 2.22334 2.18641 2.52002 2.1545 2.11359 1.98477 1.64978
threshold=6.0762899018556884e-05 1.5550000000000004 1.3650000000000004 -1.0000000000000118 0.00038996761035570154 0.37500000000000006 6.0000000000000036 7.999999999999992 0.0010535365846643973 1.8750000000000002 5.0000000000000169 2.8787793206171611e-05 0.0049980784012297894 -0.050549340744899356 1.0000000000000122 1.8711598745249464e-05 14.999999999999904 0.0087793400632140157 2.7950000000000004
decision_type=2 2 2 2 2 2 2 2 2 2 2 2 2 2 2 2 2 2 2
left_child=2 5 15 -4 6 9 8 17 10 11 12 -2 -3 -14 18 -1 -13 -7 -15
right_child=1 4 3 -5 -6 7 -8 -9 -10 -11 -12 16 13 14 -16 -17 -18 -19 -20
leaf_value=0.24174585922127112 0.23766784503687396 0.25830496415044735 0.26174191911094802 0.24913843327216809 0.24999968360189639 0.2479106371461304 0.24626159503687395 0.25970174334195872 0.27010027746930637 0.27027654068904788 0.2425065547142933 0.25318243797082174 0.24231900782757163 0.25455096191999083 0.24338213075115966 0.24655260340118623 0.26697818986446015 0.26174191911094802 0.2673975747666037
leaf_weight=282 24 722 54 510 223 659 64 59 37 23 31 651 43 77 35 1345 29 27 37
leaf_count=282 24 722 54 510 223 659 64 59 37 23 31 651 43 77 35 1345 29 27 37
internal_value=0.250177 0.253264 0.24691 0.250345 0.25528 0.251527 0.256406 0.249346 0.257067 0.253761 0.256557 0.253222 0.257033 0.252251 0.255118 0.245719 0.253771 0.248455 0.25872
internal_weight=0 2741 2191 564 1269 1472 1046 745 982 727 945 704 914 192 149 1627 680 686 114
internal_count=4932 2741 2191 564 1269 1472 1046 745 982 727 945 704 914 192 149 1627 680 686 114
is_linear=0
shrinkage=1


Tree=1
num_leaves=20
num_cat=0
split_feature=1 5 5 9 14 0 14 5 13 3 3 6 14 3 2 14 6 0 10
split_gain=17.748 4.28016 3.31314 2.95483 2.88555 3.68152 2.86673 2.83024 2.69577 2.42934 5.53241 3.18466 2.42845 2.39791 3.16445 2.39623 2.23173 2.59978 2.18658
threshold=6.0762899018556884e-05 6.5250000000000012 4.3650000000000011 7.250000000000024 2.5525000000000002 9.9082148872875695e-05 0.35500000000000004 2.5550000000000002 1.0000000180025095e-35 2.5250000000000004 3.1350000000000002 15.000000000000016 1.2050000000000003 2.1650000000000005 0.00033129451259031827 2.2950000000000004 7.9999999999999414 3.4491145507228986e-05 -8.9999999999999627
decision_type=2 2 2 2 2 2 2 2 2 2 2 2 2 2 2 2 2 2 2
left_child=2 3 7 4 6 -6 -2 -1 9 11 -11 13 -10 14 15 -3 -9 -18 -8
right_child=1 8 -4 -5 5 -7 18 16 12 10 -12 -13 -14 -15 -16 -17 17 -19 -20
leaf_value=0.013862846507912592 0.0025195826439626547 0.01140665277174324 -0.00011268980034302274 0.0076978810654397605 -0.0017703304218279351 0.019520047720935612 0.010361000171729497 -0.0050800940488830923 -0.011141027488252696 -0.0072748151857678486 0.011451061236623088 -0.003012440597208647 0.0031332131954396911 0.017046566945068616 -0.0036188472290428321 -0.0015872870571911335 0.011096987920872709 -0.0067587223731809202 -0.0024304807966663722
leaf_weight=21 733 314 651 171 37 45 35 1436 34 82 76 52 241 97 49 40 47 36 735
leaf_count=21 733 314 651 171 37 45 35 1436 34 82 76 52 241 97 49 40 47 36 735
internal_value=0 0.00293328 -0.00310315 0.00145349 0.000779802 0.00991341 0.000281494 -0.00436731 0.00557137 0.00719928 0.00173257 0.00876403 0.0013684 0.00998878 0.00829001 0.00993841 -0.00461934 0.00335234 -0.00184905
internal_weight=0 2741 2191 1756 1585 82 1503 1540 985 710 158 552 275 500 403 354 1519 83 770
internal_count=4932 2741 2191 1756 1585 82 1503 1540 985 710 158 552 275 500 403 354 1519 83 770
is_linear=0
shrinkage=0.05


Tree=2
num_leaves=20
num_cat=0
split_feature=1 5 15 1 14 5 10 14 9 14 18 14 5 0 21 6 0 0 10
split_gain=16.0176 3.86284 3.19826 3.86783 3.65073 2.99011 2.92668 2.71688 2.66673 2.60421 3.42304 2.58722 2.55429 2.39177 2.03595 2.01413 2.3463 1.9852 1.97339
threshold=6.0762899018556884e-05 6.5250000000000012 0.44500000000000006 0.00013077144955372699 1.0750000000000004 4.3650000000000011 9.9999999999999769 2.6150000000000007 7.250000000000024 2.5525000000000002 -0.018247784077446757 0.35500000000000004 2.5550000000000002 9.9082148872875695e-05 0.00089222086574092263 7.9999999999999414 3.4491145507228986e-05 7.1497513038080548e-05 -8.9999999999999627
decision_type=2 2 2 2 2 2 2 2 2 2 2 2 2 2 2 2 2 2 2
left_child=5 8 3 -3 -4 12 7 -6 9 11 -11 17 -1 -12 -10 -14 -17 -2 -13
right_child=1 2 4 -5 6 -7 -8 -9 14 10 13 18 15 -15 -16 16 -18 -19 -20
leaf_value=0.013169703739030021 -0.0024342340456716943 0.032182915055233505 -0.0048272093738380237 0.0078918175085594781 0.0069816972734858696 -0.00010705593910451676 -0.0049060009179576758 -0.009173272688079763 0.011375777308236469 -0.0043927172905412213 0.0048436442795007128 0.0098429498927933845 -0.0048260895301870657 0.026274663557608924 -1.3356643622038795e-05 0.010542137952561075 -0.0064207865546147035 0.0037960560651312415 -0.0023089569756368391
leaf_weight=21 165 23 95 57 721 651 62 27 110 29 23 35 1436 30 61 47 36 568 735
leaf_count=21 165 23 95 57 721 651 62 27 110 29 23 35 1436 30 61 47 36 568 735
internal_value=0 0.00278662 0.0052928 0.0148755 0.00444571 -0.002948 0.00553328 0.00639856 0.00138081 0.000740811 0.00941774 0.000267419 -0.00414894 0.0169744 0.00731299 -0.00438837 0.00318472 0.0023936 -0.0017566
internal_weight=0 2741 985 80 905 2191 810 748 1756 1585 82 1503 1540 53 171 1519 83 733 770
internal_count=4932 2741 985 80 905 2191 810 748 1756 1585 82 1503 1540 53 171 1519 83 733 770
is_linear=0
shrinkage=0.05


Tree=3
num_leaves=20
num_cat=0
split_feature=1 5 15 1 14 2 10 14 9 14 18 14 0 15 18 3 3 14 2
split_gain=14.4559 3.48621 2.88643 3.49071 3.29479 2.79009 2.64133 2.47468 2.40672 2.3503 3.0893 2.33497 2.15857 2.00404 2.13149 2.6425 2.98038 2.45458 2.63421
threshold=6.0762899018556884e-05 6.5250000000000012 0.44500000000000006 0.00013077144955372699 1.0750000000000004 3.0177435414456636e-05 9.9999999999999769 2.5750000000000006 7.250000000000024 2.5525000000000002 -0.018247784077446757 0.35500000000000004 9.9082148872875695e-05 3.3550000000000004 0.077947101131458765 2.5050000000000003 3.0050000000000003 2.2950000000000004 0.00021097630659235936
decision_type=2 2 2 2 2 2 2 2 2 2 2 2 2 2 2 2 2 2 2
left_child=5 8 3 -3 -4 -1 7 13 9 11 -11 -2 -12 14 15 17 -17 18 -6
right_child=1 2 4 -5 6 -7 -8 -9 -10 10 12 -13 -14 -15 -16 16 -18 -19 -20
leaf_value=-0.0050118406216993379 0.0022739229553555727 0.030573768460232284 -0.0045858488427965262 0.0074972262638702729 0.0078658562760020416 -0.0013608727185862714 -0.0046607007422754844 -0.0069018088919775835 0.0069473374482483894 -0.0041730817792744474 0.0046014616670815847 -0.0016687678632798136 0.024960929900407793 0.015015454793518242 -0.0022409375550018415 -0.0045378878050380284 0.0079745027245861477 0.00025174168367234485 0.017496946229124968
leaf_weight=864 733 23 95 57 215 1327 62 35 171 29 23 770 30 66 72 90 101 63 106
leaf_count=864 733 23 95 57 215 1327 62 35 171 29 23 770 30 66 72 90 101 63 106
internal_value=0 0.00264729 0.00502816 0.0141317 0.00422343 -0.0028006 0.00525661 0.00607864 0.00131177 0.000703771 0.00894686 0.000254048 0.0161257 0.00671582 0.00586918 0.00688471 0.00207861 0.00927525 0.0110462
internal_weight=0 2741 985 80 905 2191 810 748 1756 1585 82 1503 53 713 647 575 191 384 321
internal_count=4932 2741 985 80 905 2191 810 748 1756 1585 82 1503 53 713 647 575 191 384 321
is_linear=0
shrinkage=0.05


Tree=4
num_leaves=20
num_cat=0
split_feature=1 3 3 3 8 15 2 3 2 1 15 14 18 8 2 2 8 22 21
split_gain=13.0464 2.94692 2.83214 2.66111 2.75127 2.20308 4.78079 3.11839 2.14797 1.98473 2.43031 2.38925 2.31448 1.94247 1.83214 1.82831 1.78011 2.546 2.3833
threshold=6.0762899018556884e-05 0.99500000000000011 0.56500000000000006 1.3650000000000004 -1.0000000000000118 2.8650000000000007 0.00018339368371503807 2.0050000000000003 0.00011270401796003122 9.0575871165587455e-05 3.3750000000000004 2.5525000000000002 -0.0091890969771640778 -0.41666666666666513 1.8711598745249464e-05 0.00069406867351463257 -0.99999999999999656 -1.8122727108604849e-05 -0.0019669907554102357
decision_type=2 2 2 2 2 2 2 2 2 2 2 2 2 2 2 2 2 2 2
left_child=3 2 -2 14 -5 13 8 -8 9 12 11 -11 -7 16 -1 -9 -3 -18 -19
right_child=1 5 -4 4 -6 6 7 15 -10 10 -12 -13 -14 -15 -16 -17 17 18 -20
leaf_value=-0.0073508253492784838 0.017184590213000776 0.0037136373660194943 -0.002067372211618043 0.011031161690199819 -0.00083730220940767561 -0.010963815078139306 0.024873365921543003 0.002815326750278473 -0.0026689963520697829 -0.0015693766757463798 0.024973949479560057 0.017574383797390122 0.0080896115383586372 0.0012441764739544497 -0.0029182371336509746 0.018595950408228513 0.025695197122252506 -0.0067207387902519919 0.015270714461803437
leaf_weight=282 20 684 426 54 510 28 47 50 106 39 24 28 37 1150 1345 29 23 22 28
leaf_count=282 20 684 426 54 510 28 47 50 106 39 24 28 37 1150 1345 29 23 22 28
internal_value=0 0.00251492 -0.00120406 -0.00266057 0.00029904 0.00323765 0.00667207 0.0146754 0.00282316 0.006555 0.0113214 0.006431 -0.000118018 0.00253888 -0.00368652 0.00860821 0.00450573 0.0119276 0.00559448
internal_weight=0 2741 446 2191 564 2295 388 126 262 156 91 67 65 1907 1627 79 757 73 50
internal_count=4932 2741 446 2191 564 2295 388 126 262 156 91 67 65 1907 1627 79 757 73 50
is_linear=0
shrinkage=0.05


Tree=5
num_leaves=20
num_cat=0
split_feature=2 5 5 14 7 14 9 3 5 17 3 2 14 5 16 1 4 3 5
split_gain=12.5743 3.32798 2.85061 3.67952 2.64817 3.49379 2.2728 2.23106 2.56238 2.5198 2.12624 3.34524 3.24317 2.7914 2.55905 2.54706 2.75534 2.3213 2.2908
threshold=6.9885063106335301e-05 4.3450000000000006 6.6250000000000009 2.6150000000000007 0.025393691492250018 0.17500000000000002 -2.9999999999999578 1.9950000000000003 6.1550000000000011 -6.9999999999999956 1.7850000000000004 0.00020412823942416334 1.2350000000000001 6.9750000000000005 2.8333333333333215 0.00015663514942037792 -0.99999999999998412 1.6150000000000004 6.8250000000000011
decision_type=2 2 2 2 2 2 2 2 2 2 2 2 2 2 2 2 2 2 2
left_child=1 -1 4 10 7 6 -6 9 -9 -2 12 18 15 -13 17 16 -4 -14 -12
right_child=2 -3 3 -5 5 -7 -8 8 -10 -11 11 13 14 -15 -16 -17 -18 -19 -20
leaf_value=-0.0037988647846592632 0.014239121324593021 0.000436451374937635 0.0074419570820672175 -0.012068542558699847 0.0020997961983084679 0.0022031893180746612 0.022357289824220871 0.024767584130167962 0.0013350861413138253 -0.00017322422310347551 0.012449965049182216 0.024340826095569701 -0.0093423336140207348 0.0056602170988739537 0.015255415266336399 0.003088348296781381 0.029623609213601979 0.0059619445999463403 -0.0019414706883253531
leaf_weight=1595 31 654 21 32 20 147 45 20 28 1398 31 21 37 419 43 24 42 75 256
leaf_count=1595 31 654 21 32 20 147 45 20 28 1398 31 21 37 419 43 24 42 75 256
internal_value=0 -0.00256725 0.0024987 0.00461297 0.00124566 0.00647143 0.0161242 0.000495585 0.0110986 0.00013943 0.00516386 0.00381255 0.00922337 0.00655179 0.00488685 0.0169493 0.0222297 0.000906067 -0.000386995
internal_weight=0 2249 2690 1001 1689 212 65 1477 48 1429 969 727 242 440 155 87 63 112 287
internal_count=4939 2249 2690 1001 1689 212 65 1477 48 1429 969 727 242 440 155 87 63 112 287
is_linear=0
shrinkage=0.05


Tree=6
num_leaves=20
num_cat=0
split_feature=2 2 5 14 3 14 15 5 15 1 7 2 3 12 19 0 15 19 20
split_gain=11.3483 3.04418 2.57639 3.3627 2.75711 3.31978 3.49675 3.14591 2.64262 3.04851 2.71224 2.48803 2.34147 3.1256 2.49799 2.27055 2.04948 2.14867 2.29709
threshold=6.9885063106335301e-05 3.0177435414456636e-05 6.5250000000000012 2.6150000000000007 1.9950000000000003 0.37500000000000006 3.3950000000000005 6.1350000000000007 0.80500000000000016 9.560008948807478e-05 0.025393691492250018 0.00016424951725203566 1.3750000000000002 -1.9999999999999849 -1.0000000180025095e-35 1.8560354295466536e-05 3.4750000000000005 -0.0056887238648735119 0.0077664954013656482
decision_type=2 2 2 2 2 2 2 2 2 2 2 2 2 2 2 2 2 2 2
left_child=1 -1 4 16 5 8 -7 -6 10 -10 11 -2 -3 -14 15 -15 17 18 -4
right_child=2 12 3 -5 7 6 -8 -9 9 -11 -12 -13 13 14 -16 -17 -18 -19 -20
leaf_value=-0.0047397381401999925 -0.0031286110915883709 -0.0023002314847443252 -0.0047865590399450014 -0.010267735860849683 0.026874248480254954 -0.0021991090312263725 0.01493581886733732 0.00042738852941471596 0.018537727789003023 0.004587117869120378 0.010202705604981072 0.0039359029621706095 -0.0050890573970625332 -0.0024620569994052255 0.00053091410260934101 0.01305618437176401 0.014858150026019741 0.0054035280749463203 0.0093196688745266348
leaf_weight=877 291 969 111 38 22 753 31 23 49 195 73 218 107 30 156 110 49 798 39
leaf_count=877 291 969 111 38 22 753 31 23 49 195 73 218 107 30 156 110 49 798 39
internal_value=0 -0.00243889 0.00237377 0.00433048 0.00115008 0.000808892 -0.00152158 0.013357 0.00302087 0.00738867 0.00118969 -0.000102945 -0.000968158 0.00223477 0.00488223 0.00973085 0.00488688 0.00437149 -0.00111894
internal_weight=0 2249 2690 1035 1655 1610 784 45 826 244 582 509 1372 403 296 140 997 948 150
internal_count=4939 2249 2690 1035 1655 1610 784 45 826 244 582 509 1372 403 296 140 997 948 150
is_linear=0
shrinkage=0.05


Tree=7
num_leaves=20
num_cat=0
split_feature=1 3 5 5 20 2 3 14 3 2 15 3 3 3 14 5 19 1 0
split_gain=10.2973 3.994 3.59473 3.20292 2.47704 2.34641 2.12089 2.07768 1.92658 1.86709 2.15459 1.85026 3.30742 2.83855 2.76286 2.19773 3.1287 2.88876 2.34765
threshold=6.8901256466877666e-05 1.0950000000000004 3.6850000000000005 7.1550000000000011 0.0020943663402686057 3.0177435414456636e-05 1.1650000000000003 -0.17499999999999996 0.87500000000000011 3.5919928626114088e-05 0.9850000000000001 3.3150000000000004 5.9650000000000007 2.5250000000000004 1.4825000000000002 6.5250000000000012 -0.0064933458796717627 9.560008948807478e-05 4.9374420194535015e-05
decision_type=2 2 2 2 2 2 2 2 2 2 2 2 2 2 2 2 2 2 2
left_child=3 -2 6 5 -5 -1 -3 -7 -9 -10 -11 13 -13 15 -15 18 -17 -18 -4
right_child=1 2 11 4 -6 7 -8 8 9 10 -12 12 -14 14 -16 16 17 -19 -20
leaf_value=-0.0045027513469026734 -0.0016055880280414431 0.007338164180517197 -0.0048238771408796316 0.020194840298167299 -0.0022249384359879928 0.013060909569263458 0.028892173653557188 0.0020835442592700322 0.0017458121588427901 -0.0076119861813611859 -0.0020097436619936119 0.01287758185040383 -0.0059470334649086003 0.0064657789695522069 -0.0081269458274949684 -0.0039056629780679941 0.015597022401216704 0.0052971501467383919 0.0026208180896979197
leaf_weight=877 505 25 120 28 22 25 21 300 217 229 685 105 30 46 110 80 78 535 901
leaf_count=877 505 25 120 28 22 25 21 300 217 229 685 105 30 46 110 80 78 535 901
internal_value=0 0.0023776 0.00335835 -0.00219127 0.0103301 -0.00245962 0.017178 -0.00122898 -0.00147863 -0.0024235 -0.00341337 0.00304129 0.00869433 0.00263318 -0.00382396 0.00322088 0.00539407 0.00660774 0.00174583
internal_weight=0 2556 2051 2383 50 2333 46 1456 1431 1131 914 2005 135 1870 156 1714 693 613 1021
internal_count=4939 2556 2051 2383 50 2333 46 1456 1431 1131 914 2005 135 1870 156 1714 693 613 1021
is_linear=0
shrinkage=0.05


Tree=8
num_leaves=20
num_cat=0
split_feature=2 5 22 3 3 3 5 19 7 14 5 4 15 9 6 8 5 0 19
split_gain=9.30241 2.64649 2.21999 2.38157 2.90101 2.26875 2.91751 3.18489 2.42825 2.93697 2.31971 2.21333 2.1639 2.13132 2.1205 2.05878 1.93279 1.91816 3.00087
threshold=6.9885063106335301e-05 4.3450000000000006 0.0033585093811038251 3.3150000000000004 5.9650000000000007 2.5250000000000004 6.6250000000000009 -0.0051712695400378808 0.025393691492250018 0.17500000000000002 7.7950000000000008 0.50000000000000611 3.3950000000000005 -2.9999999999999578 2.0000000000000244 1.5000000000000009 3.0150000000000001 0.00010371455962972773 -0.0026608057525610014
decision_type=2 2 2 2 2 2 2 2 2 2 2 2 2 2 2 2 2 2 2
left_child=1 14 3 5 -5 6 8 -8 12 13 11 -7 -2 -10 -1 -9 -16 -11 -19
right_child=2 -3 -4 4 -6 10 7 15 9 17 -12 -13 -14 -15 16 -17 -18 18 -20
leaf_value=-0.004246986309687297 -0.00023831505031143483 0.00046991189708221211 0.01081004443888863 0.012572485007345677 -0.0053889212680274046 -0.0044817004601160684 -0.0030363788383196942 0.0074077327855892718 0.0013770004734396935 -0.0043552189952496328 -0.0085819561894123382 0.016397915577346628 0.012716260778181483 0.021133750503839449 0.011915274150669576 -0.00069908854621712887 -0.0010054956765064705 0.023927617818117142 0.0014675239550656287
leaf_weight=1260 1391 654 72 100 29 30 113 496 20 66 104 22 33 43 32 93 303 20 58
leaf_count=1260 1391 654 72 100 29 30 113 496 20 66 104 22 33 43 32 93 303 20 58
internal_value=0 -0.00220865 0.00214864 0.00191043 0.00853465 0.00156711 0.00195746 0.00465258 0.000797459 0.00585756 -0.00427064 0.00435198 6.18963e-05 0.0148618 -0.00330695 0.00612771 0.000228727 0.00191822 0.00722652
internal_weight=0 2249 2690 2618 129 2489 2333 702 1631 207 156 52 1424 63 1595 589 335 144 78
internal_count=4939 2249 2690 2618 129 2489 2333 702 1631 207 156 52 1424 63 1595 589 335 144 78
is_linear=0
shrinkage=0.05


Tree=9
num_leaves=20
num_cat=0
split_feature=1 3 5 5 20 22 2 2 3 14 3 2 3 14 5 3 3 3 5
split_gain=8.50623 3.40329 3.26091 2.75589 2.20926 2.06055 2.10076 2.01214 1.90374 1.84842 1.79493 1.74264 2.41502 1.8949 2.51183 1.72096 2.61816 2.41492 2.02421
threshold=6.8901256466877666e-05 1.0950000000000004 3.6850000000000005 7.1550000000000011 0.0020943663402686057 0.0037706777294832521 0.00018905364902646715 3.0177435414456636e-05 1.1650000000000003 -0.17499999999999996 0.87500000000000011 3.9351333406771975e-05 1.9150000000000003 2.4950000000000006 5.3250000000000011 3.3150000000000004 5.9650000000000007 2.5250000000000004 7.7950000000000008
decision_type=2 2 2 2 2 2 2 2 2 2 2 2 2 2 2 2 2 2 2
left_child=3 -2 8 7 -5 15 -7 -1 -3 -9 -11 -12 13 -13 -15 17 -17 -4 -19
right_child=1 2 5 4 -6 6 -8 9 -10 10 11 12 -14 14 -16 16 -18 18 -20
leaf_value=-0.004133639635864386 -0.0015170038543125192 0.0069050202369689943 0.002680735978342238 0.018938336042421205 -0.0022349556400017303 0.024387940899892289 0.002278828230642137 0.01237643587589264 0.027325831850369769 0.0021008237426479656 0.00080172377005444562 -0.0049053137888123988 0.0091435921067992854 0.013209172763994761 -0.0056017006230023175 0.011943860799074174 -0.0051194753369380695 0.0041343839839100838 -0.0080073522828002976
leaf_weight=877 505 25 1680 28 22 22 21 25 21 300 331 693 36 35 36 100 29 52 101
leaf_count=877 505 25 1680 28 22 22 21 25 21 300 331 693 36 35 36 100 29 52 101
internal_value=0 0.00215985 0.00306517 -0.00199271 0.00962209 0.00276319 0.0135905 -0.00224163 0.0162276 -0.00110201 -0.00133748 -0.0022495 -0.00351194 -0.00410828 0.00367127 0.00252589 0.00810792 0.00213305 -0.00388075
internal_weight=0 2556 2051 2383 50 2005 43 2333 46 1456 1431 1131 800 764 71 1962 129 1833 153
internal_count=4939 2556 2051 2383 50 2005 43 2333 46 1456 1431 1131 800 764 71 1962 129 1833 153
is_linear=0
shrinkage=0.05


Tree=10
num_leaves=20
num_cat=0
split_feature=1 15 2 3 3 19 3 3 6 14 21 1 2 2 15 13 2 3 8
split_gain=7.40063 2.16756 3.84845 2.93499 1.78602 1.74099 2.0839 3.17428 2.59265 2.27964 2.15604 1.92291 1.68558 2.37448 2.17445 1.87912 1.67787 1.53735 2.11565
threshold=6.0762899018556884e-05 2.8650000000000007 0.00018339368371503807 2.0050000000000003 0.56500000000000006 -1.0000000180025095e-35 2.0150000000000001 2.5050000000000003 1.0000000180025095e-35 0.37500000000000006 0.0087793400632140157 0.00013364725762370135 0.00011270401796003122 5.3023220642760116e-05 3.4250000000000003 0.99999999999998956 0.00069406867351463257 1.3650000000000004 -1.0000000000000118
decision_type=2 2 2 2 2 2 2 2 2 2 2 2 2 2 2 2 2 2 2
left_child=17 4 12 -4 -2 -6 9 8 -8 -7 -9 -11 13 -3 15 -15 -5 -1 -19
right_child=1 2 3 16 5 6 7 10 -10 11 -12 -13 -14 14 -16 -17 -18 18 -20
leaf_value=-0.0027807438889198973 0.016184760034084322 -0.0086613175769646965 0.022415875817867036 0.0010868185162544251 0.0026917602034680337 0.0015346239328505548 0.017696229291373287 -0.005422151097912848 0.0018956150304763877 -0.00080003477739741264 0.01290948998183012 -0.0067604782219925627 -0.0029686172686095511 0.0090149995726598823 0.017969435413141509 -0.0042295268975025002 0.016204277451696069 0.0096596805861702689 -0.00074790133418990116
leaf_weight=1627 20 27 47 50 1043 492 58 81 47 349 20 221 106 71 37 43 29 54 510
leaf_count=1627 20 27 47 50 1043 492 58 81 47 349 20 221 106 71 37 43 29 54 510
internal_value=0 0.00189704 0.00524963 0.0125223 0.00130735 0.0011786 -6.60663e-05 0.00453627 0.0106236 -0.000958797 -0.00179212 -0.00311101 0.00202301 0.00499556 0.00743751 0.00401926 0.00663627 -0.00200095 0.000248569
internal_weight=0 2741 410 126 2331 2311 1268 206 105 1062 101 570 284 178 151 114 79 2191 564
internal_count=4932 2741 410 126 2331 2311 1268 206 105 1062 101 570 284 178 151 114 79 2191 564
is_linear=0
shrinkage=0.05


Tree=11
num_leaves=20
num_cat=0
split_feature=1 15 2 3 2 5 5 3 2 15 8 6 0 3 11 20 17 15 5
split_gain=6.67906 1.95622 3.47687 2.84682 2.22728 1.84455 1.61287 1.79643 1.97049 2.68534 1.79009 1.70864 2.17075 1.61189 1.64855 2.03418 1.8465 2.29545 3.15325
threshold=6.0762899018556884e-05 2.8650000000000007 0.00020412823942416334 2.1150000000000007 0.00069406867351463257 2.5550000000000002 4.3650000000000011 1.7650000000000003 6.2485636567448136e-05 0.31500000000000006 -1.9999999999999993 7.9999999999999414 3.4491145507228986e-05 0.56500000000000006 -10.00000000000003 -0.0068496445433767752 -1.9999999999999931 2.2550000000000003 6.3650000000000011
decision_type=2 2 2 2 2 2 2 2 2 2 2 2 2 2 2 2 2 2 2
left_child=5 13 -3 -4 -5 -1 11 8 9 -8 -11 -7 -13 -2 -15 -16 -17 18 -18
right_child=1 2 3 4 -6 6 7 -9 -10 10 -12 12 -14 14 15 16 17 -19 -20
leaf_value=0.012717973849603107 0.015221766487509012 0.0020912033857935566 0.020810505150888975 -0.0034333205762154921 0.015240122762733493 -0.0033057699453262067 0.02055449751019478 -0.0054881750304188771 -0.0044135111558895844 0.015686163123697042 0.0011569117572815979 0.011004825604247287 -0.0051480093467980628 0.0087015183335718005 -0.0033592942409549167 0.0038407987584436003 -9.9591317153213064e-05 -0.0039699729782443089 0.0057678391925690565
leaf_weight=21 20 295 52 34 29 1436 20 118 117 22 374 47 36 68 247 551 909 238 298
leaf_count=21 20 295 52 34 29 1436 20 118 117 22 374 47 36 68 247 551 909 238 298
internal_value=0 0.00178416 0.00493727 0.0122381 0.00516239 -0.00188189 -0.00202318 3.82259e-05 0.00126171 0.00285786 0.00196409 -0.00290664 0.00399878 0.00122956 0.00110847 0.000878274 0.00140266 0.000472965 0.00134904
internal_weight=0 2741 410 115 63 2191 2170 651 533 416 396 1519 83 2331 2311 2243 1996 1445 1207
internal_count=4932 2741 410 115 63 2191 2170 651 533 416 396 1519 83 2331 2311 2243 1996 1445 1207
is_linear=0
shrinkage=0.0495


Tree=12
num_leaves=20
num_cat=0
split_feature=1 15 2 3 1 2 0 2 2 1 3 19 3 3 6 6 14 15 21
split_gain=6.0384 1.68762 3.23239 2.46418 1.48211 1.46049 1.74201 1.56865 1.57284 1.47946 1.455 1.51166 1.80266 2.84095 2.3291 2.15148 2.14509 3.45119 1.9693
threshold=6.0166386355351493e-05 2.8650000000000007 0.00018339368371503807 2.0050000000000003 1.1175203479297162e-05 0.00015362851842071581 4.0281337025323918e-05 5.3023220642760116e-05 6.9885063106335301e-05 0.00015057861019300786 0.56500000000000006 -1.0000000180025095e-35 2.0150000000000001 2.5050000000000003 1.0000000180025095e-35 11.000000000000012 1.2050000000000003 1.6250000000000002 0.0087793400632140157
decision_type=2 2 2 2 2 2 2 2 2 2 2 2 2 2 2 2 2 2 2
left_child=4 10 5 -4 -1 6 -3 -8 -9 -10 -2 -12 15 14 -14 16 17 -13 -15
right_child=1 2 3 -5 -6 -7 7 8 9 -11 11 12 13 18 -16 -17 -18 -19 -20
leaf_value=-0.0061752675011223727 0.014323606343619524 -0.0081624349555039204 0.0199881163929276 0.0058171496782357555 -0.0014098314839601517 -0.0068780049283548106 -0.0074682710356200523 0.017282573556828384 0.0018645080962255596 0.012971030865317664 0.002432502841489582 -0.0011325752473811666 0.016331867416390571 -0.0051504990449547762 0.0016538835354450536 0.0066414032625406972 -0.0057818551711380749 0.012711884922709154 0.012020658111333848
leaf_weight=170 20 29 47 79 2008 41 23 26 130 37 1044 721 58 81 47 84 221 46 20
leaf_count=170 20 29 47 79 2008 41 23 26 130 37 1044 721 58 81 47 84 221 46 20
internal_value=0 0.00167125 0.00456354 0.0111031 -0.00178179 0.00168245 0.00311502 0.00462912 0.00607078 0.00432523 0.00116245 0.00104909 -8.10239e-05 0.00411749 0.00976172 -0.000887829 -0.00152797 -0.000302269 -0.00175027
internal_weight=0 2754 412 126 2178 286 245 216 193 167 2342 2322 1278 206 105 1072 988 767 101
internal_count=4932 2754 412 126 2178 286 245 216 193 167 2342 2322 1278 206 105 1072 988 767 101
is_linear=0
shrinkage=0.049005


Tree=13
num_leaves=20
num_cat=0
split_feature=1 5 5 3 8 6 22 21 0 15 2 3 2 18 15 2 21 1 8
split_gain=5.46108 1.66478 1.65236 1.66325 1.86653 1.62383 1.75494 2.08494 1.90781 1.52627 2.93716 2.38873 2.01224 1.54147 1.63969 1.52622 1.48474 1.43277 1.39558
threshold=6.0166386355351493e-05 2.5550000000000002 4.3650000000000011 1.7650000000000003 -1.0000000000000118 2.7499999999999862 -0.00020898181886175313 -0.0027026040204436437 4.4118644928457501e-05 2.8650000000000007 0.00020412823942416334 2.1150000000000007 0.00069406867351463257 -0.011953721192960785 3.0650000000000004 0.00014308351389787574 -0.0015130571709406346 0.00013455967644390997 -0.41666666666666513
decision_type=2 2 2 2 2 2 2 2 2 2 2 2 2 2 2 2 2 2 2
left_child=1 -1 5 4 -4 -3 16 -8 -9 18 13 -12 -13 -11 -15 17 -7 -16 -2
right_child=9 2 3 -5 -6 6 7 8 -10 10 11 12 -14 14 15 -17 -18 -19 -20
leaf_value=0.011916272014041244 0.002557610021545427 -0.0035074411600485205 0.010636971968676119 -0.0049843833261182672 0.000506525863767732 0.0059442509833855291 -0.0039232871944030745 0.0093494773286520675 -0.0026192736655544489 -0.0022138714644701438 0.018575688026541672 -0.0034806488434177109 0.013915251983148528 0.014518385588454455 0.0023031907516710111 -0.0076284212151982687 -0.0087886148469145213 0.016454519656673609 0.00013586398205523407
leaf_weight=21 927 1194 47 117 480 21 76 109 44 130 52 34 29 33 85 28 69 21 1415
leaf_count=21 927 1194 47 117 480 21 76 109 44 130 52 34 29 33 85 28 69 21 1415
internal_value=0 -0.00167753 -0.00180987 0.000248288 0.00141 -0.00268592 0.000388997 0.00264487 0.00590748 0.00157346 0.0042965 0.0108794 0.00452699 0.00174755 0.0048313 0.00244567 -0.00535095 0.00510676 0.00109443
internal_weight=0 2178 2157 644 527 1513 319 229 153 2754 412 115 63 297 167 134 90 106 2342
internal_count=4932 2178 2157 644 527 1513 319 229 153 2754 412 115 63 297 167 134 90 106 2342
is_linear=0
shrinkage=0.048515


Tree=14
num_leaves=20
num_cat=0
split_feature=0 3 8 15 5 15 2 14 5 1 14 15 22 18 18 0 22 22 2
split_gain=5.06422 2.15523 2.54258 2.12459 1.92587 2.89314 1.89927 1.89589 3.24772 2.75689 2.33256 2.04377 1.89084 1.86794 3.80802 1.72669 1.67006 2.02604 1.53777
threshold=7.262519923937034e-05 1.3650000000000004 -0.50000000000000588 3.3350000000000004 3.1050000000000004 1.2650000000000003 3.3398298505228037e-05 0.37500000000000006 7.1950000000000012 0.00046152713966101001 2.4350000000000005 1.8750000000000002 -0.00033597227993820139 -0.009595951078340768 -0.040201005025125518 7.734256355888236e-05 7.782588731075625e-05 -0.00057370158484926204 8.2208741201847006e-05
decision_type=2 2 2 2 2 2 2 2 2 2 2 2 2 2 2 2 2 2 2
left_child=1 4 16 7 5 -1 -7 11 15 10 12 -2 -10 14 -5 -9 17 -3 -4
right_child=3 2 18 13 -6 6 -8 8 9 -11 -12 -13 -14 -15 -16 -17 -18 -19 -20
leaf_value=-0.0019315399907689273 0.0029933957361657462 -0.0012444043113468209 0.00086372867871531899 0.014715865885712302 -0.0028257615307121374 -0.0035579966558158165 0.012350640918248994 0.0069705276452973657 -0.0016816285872663472 -0.0026454991400538456 -0.0103050120844023 0.018200131181241867 0.007102023031891432 0.013340969038208562 -0.0083110831472329779 -0.002160653651710209 -0.0015382825961788302 0.010379713698459005 -0.0044233269642779396
leaf_weight=189 700 47 360 30 1590 23 70 51 67 146 22 21 362 67 37 755 68 131 196
leaf_count=189 700 47 360 30 1590 23 70 51 67 146 22 21 362 67 37 755 68 131 196
internal_value=0 -0.00128448 0.000798781 0.00180465 -0.00217698 0.00148103 0.00841625 0.0014346 0.000405926 0.00309097 0.00494801 0.00343631 0.00573022 0.00767023 0.00199949 -0.00158287 0.00486444 0.00731042 -0.00100005
internal_weight=0 2674 802 2258 1872 282 93 2124 1403 597 451 721 429 134 67 806 246 178 556
internal_count=4932 2674 802 2258 1872 282 93 2124 1403 597 451 721 429 134 67 806 246 178 556
is_linear=0
shrinkage=0.0480298


Tree=15
num_leaves=20
num_cat=0
split_feature=5 4 3 8 15 2 2 8 2 0 14 16 7 1 6 3 21 14 17
split_gain=5.32245 2.6014 2.34115 2.29735 2.3038 2.44687 3.33345 2.12511 2.30468 2.12389 2.0913 2.44542 2.21488 2.37349 1.97647 2.40976 1.98637 1.87018 2.11054
threshold=4.3450000000000006 1.0000000180025095e-35 0.56500000000000006 -1.0000000180025095e-35 1.9950000000000003 0.00024890558699307698 0.00029961794808363559 9.0000000000000053 0.00026444997171336189 0.00037851369996101301 0.15500000000000003 -6.0000000000000027 -0.019506638082234126 0.00013243620438178446 4.0000000000001821 2.2750000000000004 0.0046772007086450804 2.6050000000000004 5.9999999999999991
decision_type=2 2 2 2 2 2 2 2 2 2 2 2 2 2 2 2 2 2 2
left_child=1 2 -1 17 7 -6 -7 9 -9 10 11 -5 13 -12 15 -8 -17 18 -2
right_child=3 -3 -4 4 5 6 14 8 -10 -11 12 -13 -14 -15 -16 16 -18 -19 -20
leaf_value=0.012091818336922234 0.0031321366485803684 0.0017471856391699017 -0.002558811352261563 -0.0094859721147438989 0.00088557217668373161 0.021624949441413865 0.01820687497509851 0.017221580889894218 -0.0039122347719613131 -0.010336657157321764 0.0094112643516180636 0.0065306977417558141 -0.003707967566101574 -0.0087678395457884105 -0.0042076128904947876 -0.0025165776096514126 0.01468213577841612 -0.0045833182824561265 0.010678692747605096
leaf_weight=25 846 430 1818 26 650 30 34 28 20 62 62 126 489 22 44 49 22 63 93
leaf_count=25 846 430 1818 26 650 30 34 28 20 62 62 126 489 22 44 49 22 63 93
internal_value=0 -0.00158308 -0.00236008 0.00154871 0.000465561 0.00224121 0.00716392 -0.00129733 0.00841582 -0.00188975 -0.00116739 0.003791 -0.00248271 0.00465007 0.00425231 0.00779741 0.0028126 0.00334746 0.00387956
internal_weight=0 2273 1843 2666 1664 829 179 835 48 787 725 152 573 84 149 105 71 1002 939
internal_count=4939 2273 1843 2666 1664 829 179 835 48 787 725 152 573 84 149 105 71 1002 939
is_linear=0
shrinkage=0.0475495


Tree=16
num_leaves=20
num_cat=0
split_feature=2 5 14 3 5 5 2 15 17 1 4 10 8 0 6 4 21 21 21
split_gain=4.89537 2.72412 3.05449 2.2254 2.42466 2.23007 2.11113 3.74153 2.38694 2.37732 2.52202 2.01838 1.88659 1.79119 1.68754 2.11177 1.65638 3.49421 1.69302
threshold=3.0177435414456636e-05 6.5250000000000012 2.6150000000000007 1.7850000000000004 8.3150000000000031 6.9350000000000014 0.00020412823942416334 2.9150000000000005 -0.99999999999998412 0.000167875385556188 -2.0000000000000235 2.9999999999999587 -1.0000000000000118 0.00012703082268884804 8.7499999999999929 0.99999999999999545 -0.0011293783934558375 0.0018531584985259644 -0.00306694724793749
decision_type=2 2 2 2 2 2 2 2 2 2 2 2 2 2 2 2 2 2 2
left_child=-1 -2 3 4 5 -3 9 -8 -9 10 -5 -10 -12 -14 15 16 18 -18 -7
right_child=1 2 -4 6 -6 14 7 8 11 -11 12 -13 13 -15 -16 -17 17 -19 -20
leaf_value=-0.0030882298540145835 5.8584799027427753e-05 -0.0022549605339665562 -0.0097793144374076959 -0.012220905565890639 -0.0062018538471206013 0.0077794949875408257 0.0019089472213412808 0.0018164509211666771 0.026712836186701575 -0.0069919441730737575 0.012102026922408313 0.0094450408303550261 0.0048886859159207874 -0.006138994788854899 -0.0002804969119655721 0.021207156793613919 -0.0072766456392642457 0.012567590196213365 0.023903138789790751
leaf_weight=877 2987 37 41 25 28 31 354 30 30 99 45 30 94 50 29 42 32 51 27
leaf_count=877 2987 37 41 25 28 31 354 30 30 99 45 30 94 50 29 42 32 51 27
internal_value=0 0.00078991 0.00282197 0.00332164 0.00693186 0.00840874 0.00200059 0.00408783 0.0126581 -0.000960215 0.00183016 0.0180789 0.00368877 0.00105963 0.0102699 0.0119418 0.00918187 0.0049168 0.0152853
internal_weight=0 4062 1075 1034 277 249 757 444 90 313 214 60 189 144 212 183 141 83 58
internal_count=4939 4062 1075 1034 277 249 757 444 90 313 214 60 189 144 212 183 141 83 58
is_linear=0
shrinkage=0.047074


Tree=17
num_leaves=20
num_cat=0
split_feature=2 15 15 22 2 3 3 3 3 14 3 19 2 0 19 7 14 14 3
split_gain=4.46903 2.03081 3.04689 1.79259 1.86471 2.31066 1.48948 2.40783 1.75721 1.95593 1.61673 2.91225 2.45624 2.31664 2.03296 1.90751 2.93992 1.8438 1.76543
threshold=6.9885063106335301e-05 2.6350000000000002 3.1450000000000005 0.0033585093811038251 0.00026444997171336189 1.3250000000000004 3.3150000000000004 5.9650000000000007 2.5250000000000004 1.405 1.9950000000000003 -0.0030295102171196682 0.00021316649495301717 0.0001412989197107756 0.003902046317310393 0.031323847981277748 0.17500000000000002 2.4750000000000005 1.8050000000000004
decision_type=2 2 2 2 2 2 2 2 2 2 2 2 2 2 2 2 2 2 2
left_child=1 -1 -3 6 5 -5 8 -8 10 -10 15 -12 13 17 -14 18 -17 -13 -2
right_child=3 2 -4 4 -6 -7 7 -9 9 -11 11 12 14 -15 -16 16 -18 -19 -20
leaf_value=-0.0020326993907462182 0.00084447109368403889 0.0076633311211966584 -0.0014556607613443928 0.0020552733832334192 -0.003056028277500236 0.022084276068601829 0.009489353739216182 -0.0057625879553963666 0.0093670123044516315 -0.0059219680208147983 -0.0027005942139931597 0.011328366463153742 0.01695743509330927 -0.0067901780766300972 0.0036800584488192512 0.015463583331373133 0.0019189247041432149 -0.0050810016806429777 -0.0035390102062298106
leaf_weight=1905 1599 125 219 22 21 29 100 29 21 135 91 58 70 39 39 46 143 20 228
leaf_count=1905 1599 125 219 22 21 29 100 29 21 135 91 58 70 39 39 46 143 20 228
internal_value=0 -0.0014376 0.00185793 0.00137736 0.00863171 0.0134443 0.00117785 0.00606062 0.000924783 -0.00386384 0.00124498 0.00433879 0.00717323 0.00248383 0.0122068 0.000758505 0.00521551 0.00712084 0.000297436
internal_weight=0 2249 344 2690 72 51 2618 129 2489 156 2333 317 226 117 109 2016 189 78 1827
internal_count=4939 2249 344 2690 72 51 2618 129 2489 156 2333 317 226 117 109 2016 189 78 1827
is_linear=0
shrinkage=0.0466033


Tree=18
num_leaves=20
num_cat=0
split_feature=5 4 22 2 8 15 2 2 6 15 7 7 20 15 15 14 11 5 20
split_gain=4.32744 2.313 1.98051 2.02665 1.96189 2.16358 2.06951 2.91043 1.95236 1.77137 2.8602 1.81222 1.6639 1.72096 1.82708 2.03778 2.03446 1.77036 1.65894
threshold=4.3450000000000006 1.0000000180025095e-35 0.0035778385161516772 0.00018905364902646715 -1.0000000180025095e-35 1.9950000000000003 0.00024890558699307698 0.00029961794808363559 4.0000000000001821 1.2350000000000001 -0.02676732552169114 0.025393691492250018 -0.0090143713578973977 1.0650000000000002 1.385 1.1850000000000003 -2.9999999999999911 3.6650000000000005 0.0077664954013656482
decision_type=2 2 2 2 2 2 2 2 2 2 2 2 2 2 2 2 2 2 2
left_child=1 -1 4 -4 -2 9 -7 -8 -9 11 -11 18 -3 -14 -15 16 -16 -18 -6
right_child=2 12 3 -5 5 6 7 8 -10 10 -12 -13 13 14 15 -17 17 -19 -20
leaf_value=-0.0020997509377396199 0.0028111165506628281 -0.011007673502118445 0.020944301267258703 0.0019175984869075884 0.00044345890797626951 0.00066406981277266491 0.019396992661311778 0.0070095829010191893 -0.0047764223385640099 0.0098890527751456965 -0.0049548093265802309 0.0075078779811663726 0.0053678237263237475 -0.007186133955432915 0.018480702107638535 -0.0036232709033756604 0.0087434205462373262 -0.0085557255259137033 -0.0088374255986515358
leaf_weight=1843 982 21 22 26 321 645 30 104 42 30 350 67 200 63 24 68 34 20 47
leaf_count=1843 982 21 22 26 321 645 30 104 42 30 350 67 200 63 24 68 34 20 47
internal_value=0 -0.00138885 0.00135119 0.0106382 0.00118092 0.000202402 0.00187408 0.0063085 0.00361909 -0.00148159 -0.00378293 0.00052878 0.00165812 0.00230845 -0.000619188 0.00221449 0.00730383 0.00233633 -0.000741871
internal_weight=0 2273 2666 48 2618 1636 821 176 146 815 380 435 430 409 209 146 78 54 368
internal_count=4939 2273 2666 48 2618 1636 821 176 146 815 380 435 430 409 209 146 78 54 368
is_linear=0
shrinkage=0.0461372


Tree=19
num_leaves=20
num_cat=0
split_feature=2 5 14 0 18 3 14 15 0 14 1 20 2 0 3 3 3 15 3
split_gain=3.96894 2.24398 2.70883 2.05813 1.6686 1.52871 2.54578 2.25526 1.95134 1.95032 1.84256 1.43995 1.42248 2.71673 2.58751 2.11385 2.80844 2.00751 2.09167
threshold=3.0177435414456636e-05 6.5250000000000012 2.6150000000000007 3.254708090927895e-05 0.14406335401591588 1.7850000000000004 1.2350000000000001 2.3950000000000005 5.7958248420464155e-05 1.1150000000000004 0.00015663514942037792 0.0023450225271678398 0.00020711358882892909 0.0001246625843203932 2.2750000000000004 3.3350000000000004 5.9650000000000007 2.1650000000000005 2.5350000000000006
decision_type=2 2 2 2 2 2 2 2 2 2 2 2 2 2 2 2 2 2 2
left_child=-1 -2 3 -3 5 6 10 -8 -9 -7 -5 -10 13 -11 -14 17 -17 18 -16
right_child=1 2 -4 4 -6 9 7 8 11 12 -12 -13 14 -15 15 16 -18 -19 -20
leaf_value=-0.0027014338866854655 4.2762085904274337e-05 0.012486229121297546 -0.0090380752768561539 0.016309263034086446 -0.008296251220212842 -0.0036722860396696589 -0.0087848178424833247 -0.007329024941734698 0.011217573097235574 0.0053934197800261981 0.001436869762787879 8.0035411681680379e-05 0.011071746708916651 -0.003897490821261776 0.011422415652873856 0.011075331859839152 -0.0054623646152971066 -0.008869396104327805 -0.0042961832517677042
leaf_weight=877 2987 45 41 63 29 116 30 22 74 120 24 36 97 145 33 82 29 51 38
leaf_count=877 2987 45 41 63 29 116 30 22 74 120 24 36 97 145 33 82 29 51 38
internal_value=0 0.000686802 0.00247633 0.0029329 0.00249822 0.0028243 0.00590429 0.00251974 0.00508896 0.00174566 0.0122065 0.00757256 0.00280193 0.000309714 0.00480325 0.00219362 0.00675467 -0.00195618 0.00300964
internal_weight=0 4062 1075 1034 989 960 249 162 132 711 87 110 595 265 330 233 111 122 71
internal_count=4939 4062 1075 1034 989 960 249 162 132 711 87 110 595 265 330 233 111 122 71
is_linear=0
shrinkage=0.0456759


Tree=20
num_leaves=20
num_cat=0
split_feature=0 2 6 3 1 1 21 18 2 21 16 14 9 2 1 15 1 2 3
split_gain=3.53892 2.34731 2.05186 2.1685 1.80778 1.62178 1.45833 2.75252 3.96405 2.38082 1.43175 1.74426 1.53716 1.65784 3.01861 2.81264 2.45611 1.64402 1.6409
threshold=3.0700435946764169e-05 3.0522140841855645e-05 7.9999999999999414 1.135 2.2988688237850365e-05 2.1925850856414433e-05 0.0046772007086450804 -0.050549340744899356 0.00045753307835964309 0.0043354311679755239 5.0000000000000169 -0.34499999999999992 -15.000000000000002 0.00032410538890872992 0.0004192411074517845 1.7350000000000001 0.00036298420079258227 0.0013042713437336885 1.5050000000000001
decision_type=2 2 2 2 2 2 2 2 2 2 2 2 2 2 2 2 2 2 2
left_child=2 5 -1 -4 -3 -2 9 -8 -9 10 12 -12 -6 14 18 -15 -17 -18 -14
right_child=1 4 3 -5 6 -7 7 8 -10 -11 11 -13 13 15 -16 16 17 -19 -20
leaf_value=-0.0024865931037225224 0.0072112665408187449 0.015557536313479598 0.017267773079651376 -3.4099776636470453e-05 0.014116143062710763 -0.0059298693057563577 -0.0076630029531698386 -0.0007438996279394472 0.016390332579612733 0.013605705194356965 0.016172516665288381 0.0032678289836881183 -2.8788827944035626e-05 -0.0094449344838019658 0.018939938054730498 0.012145991222216533 -0.0055629834618376589 0.0097361137582497176 0.0029400318374884593
leaf_weight=1330 27 22 27 55 22 180 126 385 37 41 28 404 1224 101 24 39 87 22 751
leaf_count=1330 27 22 27 55 22 180 126 385 37 41 28 404 1224 101 24 39 87 22 751
internal_value=0 0.000949652 -0.00201332 0.00566286 0.0012724 -0.00421581 0.0011769 -0.00117792 0.000758391 0.00164735 0.00146589 0.00410424 0.000963793 0.000835078 0.0013143 -0.00301217 0.00137776 -0.00247509 0.00110011
internal_weight=0 3520 1412 82 3313 207 3291 548 422 2743 2702 432 2270 2248 1999 249 148 109 1975
internal_count=4932 3520 1412 82 3313 207 3291 548 422 2743 2702 432 2270 2248 1999 249 148 109 1975
is_linear=0
shrinkage=0.05


Tree=21
num_leaves=20
num_cat=0
split_feature=0 2 6 5 1 5 1 5 21 18 2 21 16 14 22 3 14 5 13
split_gain=3.19387 2.11844 1.8518 2.08306 1.63152 1.52634 1.46366 1.36744 1.31614 2.48415 3.57756 2.14869 1.29216 1.576 1.43994 1.95672 2.98035 2.88957 2.18403
threshold=3.0700435946764169e-05 3.0522140841855645e-05 7.9999999999999414 3.9450000000000007 2.2988688237850365e-05 6.9750000000000005 2.1925850856414433e-05 2.6250000000000004 0.0046772007086450804 -0.050549340744899356 0.00045753307835964309 0.0043354311679755239 5.0000000000000169 -0.014999999999999998 0.00065218001321964991 1.5050000000000001 1.3650000000000004 4.955000000000001 3.999999999999996
decision_type=2 2 2 2 2 2 2 2 2 2 2 2 2 2 2 2 2 2 2
left_child=2 6 5 -4 -3 7 -2 -1 11 -10 -11 12 14 -14 15 16 17 -6 -17
right_child=1 4 3 -5 8 -7 -8 -9 9 10 -12 -13 13 -15 -16 18 -18 -19 -20
leaf_value=0.010402269773185254 0.0068507031710059556 0.014779659292914651 0.016153111026204866 -0.00051516138438908565 0.0028332201139501289 0.011346233859658243 -0.0056333758268091415 -0.0027726980633744902 -0.0072798528486774086 -0.00070670452791374999 0.015570816156026479 0.012925419792896365 0.01254249429132076 0.0028438557645717229 -0.0021761941397706792 0.0038522960108459295 -0.0047546116835567587 -0.0047628234414493339 -0.0069176938235759738
leaf_weight=20 27 22 29 53 689 20 180 1290 126 385 37 41 47 385 323 804 251 153 50
leaf_count=20 27 22 29 53 689 20 180 1290 126 385 37 41 47 385 323 804 251 153 50
internal_value=0 0.000902169 -0.00191266 0.00537972 0.00120878 -0.00236226 -0.00400502 -0.00257155 0.00111806 -0.00111902 0.000720471 0.00156498 0.0013926 0.00389903 0.000915603 0.00142852 2.74192e-05 0.00145294 0.00322173
internal_weight=0 3520 1412 82 3313 1330 207 1310 3291 548 422 2743 2702 432 2270 1947 1093 842 854
internal_count=4932 3520 1412 82 3313 1330 207 1310 3291 548 422 2743 2702 432 2270 1947 1093 842 854
is_linear=0
shrinkage=0.05


Tree=22
num_leaves=20
num_cat=0
split_feature=0 2 6 5 15 1 1 5 22 8 17 18 21 18 22 5 15 15 2
split_gain=2.88247 1.91189 1.67125 1.87996 1.73713 1.49102 1.96169 1.72206 1.40963 1.396 1.50889 1.40734 1.5363 1.48568 1.56649 1.37752 1.36297 1.65647 1.45417
threshold=3.0700435946764169e-05 3.0522140841855645e-05 7.9999999999999414 3.9450000000000007 2.0550000000000002 4.4066604590088728e-05 6.0166386355351493e-05 5.0450000000000008 7.1964450496286872e-05 -3.0000000000000004 -2.249999999999996 0.0052159740587121037 0.0058702113272396392 -0.0037042697132061981 1.208130719787537e-05 6.9750000000000005 2.8650000000000007 2.7350000000000008 0.00018339368371503807
decision_type=2 2 2 2 2 2 2 2 2 2 2 2 2 2 2 2 2 2 2
left_child=2 -2 15 -4 -5 9 7 -7 -9 -3 -11 12 13 14 -12 -1 17 -8 -18
right_child=1 5 3 4 -6 6 16 8 -10 10 11 -13 -14 -15 -16 -17 18 -19 -20
leaf_value=-0.0024429758126271591 -0.0038047668258637049 0.015906591123590868 0.015345455500586282 -0.010439833781371515 0.0077454357568559982 -0.0049822895937869632 0.0010852132734822373 0.006841748542543772 -0.0053633416071534159 0.011565850395709277 0.0089167087681983649 -0.0024056926911527462 -0.0080064777284860611 0.019068162391583127 -0.003115452630888848 0.010778922364115715 0.0018908951888518708 -0.0053196935229144005 0.0083998960871545097
leaf_weight=1310 207 24 29 24 29 248 2118 69 36 48 76 110 20 21 42 20 269 106 126
leaf_count=1310 207 24 29 24 29 248 2118 69 36 48 76 110 20 21 42 20 269 106 126
internal_value=0 0.000857061 -0.00181703 0.00511073 -0.000489403 0.00114834 0.000789039 -0.00270994 0.00265715 0.00427981 0.00339955 0.00194237 0.00495046 0.00681476 0.00463408 -0.00224415 0.00126065 0.000779943 0.00396718
internal_weight=0 3520 1412 82 53 3313 2972 353 105 341 317 269 159 139 118 1330 2619 2224 395
internal_count=4932 3520 1412 82 53 3313 2972 353 105 341 317 269 159 139 118 1330 2619 2224 395
is_linear=0
shrinkage=0.05


Tree=23
num_leaves=20
num_cat=0
split_feature=0 2 6 1 1 5 3 14 14 2 3 15 8 2 8 6 12 14 20
split_gain=2.60143 1.72548 1.51051 1.42569 1.32095 1.23932 1.55625 1.65182 2.09482 2.9327 2.70175 1.7487 1.26929 1.67222 1.50627 1.42025 1.73132 1.59155 1.38712
threshold=3.0700435946764169e-05 3.0522140841855645e-05 8.7499999999999929 2.2988688237850365e-05 2.1925850856414433e-05 2.5550000000000002 0.99500000000000011 -1.0000000180025095e-35 1.1850000000000003 9.8164538617059988e-05 0.83500000000000008 1.6450000000000002 -0.50000000000005584 7.7450162525864727e-05 1 -1.0000000180025095e-35 -1.1666666666666712 1.4950000000000003 0.0095858484293377417
decision_type=2 2 2 2 2 2 2 2 2 2 2 2 2 2 2 2 2 2 2
left_child=2 4 -1 -3 -2 -5 7 -7 9 11 -11 -9 13 15 -14 17 -17 -8 -16
right_child=1 3 -4 5 -6 6 12 8 -10 10 -12 -13 14 -15 18 16 -18 -19 -20
leaf_value=-0.0020940224756486716 0.0066984067084612676 0.013776915859092366 0.0055442378363188584 0.011296711528095707 -0.0051614686970909438 -0.0089607167989015583 0.009422245373328527 0.0025370768779097597 -0.0052313469171880967 -0.0082518700776355609 0.0093682489737316414 0.01405996537289104 -0.00077438612790347791 0.00198678010255283 0.0030374984146085736 0.0030923896414392135 0.017548149416469178 -0.0052646340642656603 -0.0044202249119247219
leaf_weight=1344 27 22 68 29 180 62 39 299 167 112 27 37 874 807 647 34 53 35 69
leaf_count=1344 27 22 68 29 180 62 39 299 167 112 27 37 874 807 647 34 53 35 69
internal_value=0 0.000814208 -0.00172617 0.00109092 -0.00361453 0.00100612 0.000914629 -0.00116713 -0.000414481 0.00127903 -0.00482926 0.00380597 0.00148756 0.00291501 0.000618524 0.00756769 0.0118988 0.00247575 0.00231881
internal_weight=0 3520 1412 3313 207 3291 3262 704 642 475 139 336 2558 968 1590 161 87 74 716
internal_count=4932 3520 1412 3313 207 3291 3262 704 642 475 139 336 2558 968 1590 161 87 74 716
is_linear=0
shrinkage=0.05


Tree=24
num_leaves=20
num_cat=0
split_feature=0 15 14 14 6 13 22 2 0 10 3 7 0 3 3 2 21 10 9
split_gain=2.40538 1.69585 1.93179 1.89531 1.97084 2.65819 1.92456 2.33287 2.27111 1.70929 1.87853 2.10562 1.60526 1.86877 1.91876 2.5094 2.10771 3.60387 2.26225
threshold=7.262519923937034e-05 3.3350000000000004 0.37500000000000006 0.24250000000000002 -6.4999999999999494 0.99999999999998956 0.0041146081084419981 8.8200375163159317e-05 8.5752227802181376e-05 -2.9999999999999853 1.0950000000000004 0.010218838256066511 7.8280192166547326e-05 1.5050000000000001 1.8050000000000004 0.00012653807997333865 -0.0021021110932877281 -5.000000000000048 -1.1666666666666934
decision_type=2 2 2 2 2 2 2 2 2 2 2 2 2 2 2 2 2 2 2
left_child=-1 2 3 4 5 -2 7 8 -6 -5 -11 -12 -4 -14 16 -16 18 -18 -15
right_child=1 -3 12 9 6 -7 -8 -9 -10 10 11 -13 13 14 15 -17 17 -19 -20
leaf_value=-0.00093211840501050941 0.016976303088924158 0.0067395964832003448 0.0070780770317332396 -0.0011254165002277919 -0.0076278384774923326 -0.0010257645837358526 0.015096657621589574 -0.0016968975057992178 0.01147715049130576 0.0025756540604763563 0.010514788087024246 0.029830314999534969 -0.0032440213447657096 0.0014282221651890062 -0.0088513850722284539 0.00045392832363579263 0.01752220429480076 -0.0019312847803973554 0.01651987388991473
leaf_weight=2674 46 134 73 35 20 37 22 391 70 36 43 21 431 44 84 527 28 159 57
leaf_count=2674 46 134 73 35 20 37 22 391 70 36 43 21 431 44 84 527 28 159 57
internal_value=0 0.00128419 0.000940018 0.00304348 0.00181304 0.00895128 0.000635156 -2.62852e-05 0.0072316 0.00838449 0.011713 0.0168527 -0.000140946 -0.000537178 0.00076054 -0.000825362 0.00412508 0.000981537 0.00994529
internal_weight=0 2258 2124 721 586 83 503 481 90 135 100 64 1403 1330 899 611 288 187 101
internal_count=4932 2258 2124 721 586 83 503 481 90 135 100 64 1403 1330 899 611 288 187 101
is_linear=0
shrinkage=0.05


Tree=25
num_leaves=20
num_cat=0
split_feature=5 4 3 22 2 21 5 17 18 10 19 16 6 2 21 1 8 14 8
split_gain=2.71086 1.80416 1.90629 1.7482 1.82789 1.69347 1.82002 1.61011 2.18005 2.0929 1.79694 1.51781 1.9934 1.84423 1.75831 1.75294 1.6446 1.55159 1.38347
threshold=4.3450000000000006 1.0000000180025095e-35 0.56500000000000006 0.0035778385161516772 0.00018905364902646715 -0.0087593713257231292 8.3850000000000033 -1.9999999999999976 -0.035306765859360871 0.99999999999998435 0.002191753042873668 4.9999999999999885 -4.0000000000000471 0.00038405198153240169 -0.0015130571709406346 0.00048762204348006986 9.0000000000000053 0.14250000000000004 -1.0000000180025095e-35
decision_type=2 2 2 2 2 2 2 2 2 2 2 2 2 2 2 2 2 2 2
left_child=1 2 -1 5 -5 6 -2 8 9 10 -4 12 13 17 -13 16 18 -7 -14
right_child=3 -3 7 4 -6 11 -8 -9 -10 -11 -12 14 15 -15 -16 -17 -18 -19 -20
leaf_value=0.011828480809926987 -0.0070616288032351428 0.0017123650898073996 -0.0011854302702528057 0.021209287474101241 0.0016268115777235766 0.0051408110939441844 0.0059089843928813932 -0.0028986446414705665 -0.0015287042042565725 0.019333181858062747 0.01531498178162358 0.0081685189778606098 0.0037072184560923561 0.0074081372469663627 0.0017265843035596789 -0.0053717117713785725 0.014915095176547766 -0.004539585822082047 0.00050087375513864876
leaf_weight=25 119 430 66 22 26 47 35 1390 315 25 22 156 542 44 330 87 24 347 887
leaf_count=25 119 430 66 22 26 47 35 1390 315 25 22 156 542 44 330 87 24 347 887
internal_value=0 -0.00120396 -0.00188439 0.00114628 0.0106021 0.000972916 -0.00411376 -0.00207296 0.000608596 0.00656656 0.00293967 0.00129083 0.000675708 -0.00230059 0.00379437 0.00152221 0.001935 -0.00338482 0.001717
internal_weight=0 2273 1843 2666 48 2618 154 1818 428 113 88 2464 1978 438 486 1540 1453 394 1429
internal_count=4939 2273 1843 2666 48 2618 154 1818 428 113 88 2464 1978 438 486 1540 1453 394 1429
is_linear=0
shrinkage=0.05


Tree=26
num_leaves=20
num_cat=0
split_feature=5 2 22 2 22 6 22 2 22 5 22 21 12 5 13 1 16 17 14
split_gain=2.44656 1.74309 2.01425 2.3987 1.84068 1.81485 1.57775 1.64967 1.58293 3.28858 1.82197 1.8268 1.74424 1.5372 1.47313 1.44711 1.37283 1.39502 1.33955
threshold=4.3450000000000006 0.00016424951725203566 4.8083571371204677e-05 0.00020412823942416334 -1.8122727108604849e-05 2.0000000000000244 0.0035778385161516772 0.00018905364902646715 0.00043084498470269411 4.5550000000000006 0.00012889090861289978 -0.0087593713257231292 -5.0000000000000151 3.1050000000000004 -5.4999999999999929 5.8439865334754733e-05 8 -5.2500000000000098 -0.30499999999999994
decision_type=2 2 2 2 2 2 2 2 2 2 2 2 2 2 2 2 2 2 2
left_child=1 4 3 -3 -1 -6 8 -8 10 -10 11 -2 -12 15 -13 -7 17 -11 -16
right_child=6 2 -4 -5 5 13 7 -9 9 16 12 14 -14 -15 18 -17 -18 -19 -20
leaf_value=-0.0032145980261099184 -0.0057533471534649532 0.02281318788106243 -0.003177547574043274 0.003644258032242457 -0.0012716671819856138 0.020427398513192717 0.020148823274807496 0.0015454712395484632 0.012836283576839112 0.0053581649155327767 0.019923606812953951 -0.0066767303805266107 0.0043961399446719538 0.0015508485806090639 0.0073701495740641949 0.0035010739628757747 0.0067924918234348293 -0.0054874291720047388 0.0012452770574721838
leaf_weight=892 96 24 50 51 972 23 22 26 34 33 20 56 189 233 94 28 30 292 1774
leaf_count=892 96 24 50 51 972 23 22 26 34 33 20 56 189 233 94 28 30 292 1774
internal_value=0 -0.00114376 0.00459597 0.00977832 -0.00147778 -0.000244309 0.00108897 0.010072 0.00092427 -0.00201877 0.00143788 0.000978068 0.00588202 0.00327186 0.00131394 0.0111345 -0.00344151 -0.00438618 0.00155349
internal_weight=0 2273 125 75 2148 1256 2666 48 2618 389 2229 2020 209 284 1924 51 355 325 1868
internal_count=4939 2273 125 75 2148 1256 2666 48 2618 389 2229 2020 209 284 1924 51 355 325 1868
is_linear=0
shrinkage=0.05


Tree=27
num_leaves=20
num_cat=0
split_feature=5 2 14 2 21 5 3 15 5 15 0 4 3 19 12 21 12 8 18
split_gain=2.20802 1.57314 1.89703 1.49646 1.41981 1.50804 1.36949 1.27719 1.25747 2.34822 2.09355 1.6436 1.28479 1.24726 2.05383 1.84849 2.03845 1.79715 1.97641
threshold=4.3450000000000006 0.00016424951725203566 0.42500000000000004 0.00020412823942416334 -0.0087593713257231292 7.3650000000000011 0.56500000000000006 0.83500000000000008 4.1150000000000011 2.7125000000000004 3.1091581941928129e-05 1.0000000180025095e-35 0.9850000000000001 -1.0000000180025095e-35 -1.9999999999999682 0.0087793400632140157 0.99999999999998435 -1.0000000180025095e-35 0.0032362544282485976
decision_type=2 2 2 2 2 2 2 2 2 2 2 2 2 2 2 2 2 2 2
left_child=1 6 3 -3 5 -2 -1 -5 9 11 -11 -8 -12 14 -6 16 -15 18 -16
right_child=4 2 -4 7 13 -7 8 -9 -10 10 12 -13 -14 15 17 -17 -18 -19 -20
leaf_value=0.0093880289587481274 -0.0072018489825959311 0.016736229276284577 -0.0061345259891822934 -0.0037317358438045747 -0.0010885661629038287 0.0027879958848158522 -0.0022629832523371955 0.01074002576371034 -0.0055737239884191686 0.01771417591592361 -0.0032564285126599397 0.0016490544323906578 0.012027513496577741 0.0010407795423378974 0.0035206649314474176 0.0052389284763150589 -0.0033739236152017273 0.0021846820152642433 0.012070234588764866
leaf_weight=29 102 32 32 31 289 60 1522 30 178 29 44 326 20 815 162 167 385 570 116
leaf_count=29 102 32 32 31 289 60 1522 30 178 29 44 326 20 815 162 167 385 570 116
internal_value=0 -0.00108658 0.00436617 0.00797932 0.00103452 -0.00350191 -0.00140389 0.00338552 -0.00155159 -0.00118274 0.00656966 -0.00157287 0.0015198 0.00132801 0.0025516 0.000310297 -0.000375604 0.00379217 0.00708811
internal_weight=0 2273 125 93 2666 162 2148 61 2119 1941 93 1848 64 2504 1137 1367 1200 848 278
internal_count=4939 2273 125 93 2666 162 2148 61 2119 1941 93 1848 64 2504 1137 1367 1200 848 278
is_linear=0
shrinkage=0.05


Tree=28
num_leaves=20
num_cat=0
split_feature=5 22 2 22 5 22 12 21 2 22 2 22 6 5 15 5 0 13 1
split_gain=1.99273 1.4541 1.7846 1.50058 2.70386 1.67642 1.57797 1.52944 1.41975 1.82204 2.032 1.64629 1.60624 1.39293 1.4333 1.45365 1.32308 1.32046 1.2798
threshold=4.3450000000000006 0.0033585093811038251 0.00028967877222321292 0.00043084498470269411 4.5550000000000006 0.00012889090861289978 -5.0000000000000151 -0.0087593713257231292 0.00016424951725203566 4.8083571371204677e-05 0.00020412823942416334 -1.8122727108604849e-05 2.0000000000000244 4.1650000000000009 2.6750000000000003 3.1050000000000004 5.1548532182170153e-05 -5.4999999999999929 0.00010554640763376872
decision_type=2 2 2 2 2 2 2 2 2 2 2 2 2 2 2 2 2 2 2
left_child=8 3 -3 5 -5 7 -7 -2 11 10 -10 -1 -13 14 15 16 -14 -9 -8
right_child=1 2 -4 4 -6 6 18 17 9 -11 -12 12 13 -15 -16 -17 -18 -19 -20
leaf_value=-0.0029762467143915161 -0.0052928969807301968 0.015607622534864481 -0.0030204638093709948 0.011590238570263893 -0.0033851586710447554 0.018925896063446999 0.00027550881356000901 -0.0063916111897144995 0.021073954148838919 -0.003245452493429184 0.0034309925401912016 -0.0011336837262835033 0.020228349346490135 -0.0076626479349754476 0.01647950393909758 0.0010629010953657006 0.0038647886365652086 0.0014004660267741829 0.0085183639958333439
leaf_weight=892 96 36 20 33 348 20 100 56 24 50 51 972 21 27 22 184 30 1868 89
leaf_count=892 96 36 20 33 348 20 100 56 24 50 51 972 21 27 22 184 30 1868 89
internal_value=0 0.000982796 0.00895473 0.00081175 -0.00208808 0.00130741 0.00557035 0.000866348 -0.00103225 0.00414786 0.00907674 -0.0013337 -0.000167174 0.00314074 0.00427573 0.00313325 0.0106027 0.00117367 0.00415706
internal_weight=0 2666 56 2610 381 2229 209 2020 2273 125 75 2148 1256 284 257 235 51 1924 189
internal_count=4939 2666 56 2610 381 2229 209 2020 2273 125 75 2148 1256 284 257 235 51 1924 189
is_linear=0
shrinkage=0.05


Tree=29
num_leaves=20
num_cat=0
split_feature=5 14 6 12 21 2 8 5 1 14 1 2 3 20 22 16 7 7 0
split_gain=1.86112 2.4039 1.92433 2.39399 2.10544 2.06771 2.1093 1.73352 2.09453 1.95062 2.06099 2.06802 1.54763 1.46053 2.11709 1.45511 1.39351 1.35354 1.48322
threshold=6.5250000000000012 2.5350000000000006 9.0000000000000551 0.58333333333334692 0.0087793400632140157 8.8200375163159317e-05 1.1666666666667049 8.0250000000000004 0.00010226011064102579 1.2625000000000004 9.4428179692977604e-05 0.00027109543416519263 1.7250000000000003 -0.0015818063880324027 1.2081745087821895e-05 -3.8333333333333104 -0.0039273400618790024 0.025393691492250018 2.9939169179546588e-05
decision_type=2 2 2 2 2 2 2 2 2 2 2 2 2 2 2 2 2 2 2
left_child=17 2 3 5 -5 12 7 9 -9 16 -11 -12 -2 14 -10 -4 -7 -1 -19
right_child=1 -3 15 4 -6 6 -8 8 13 10 11 -13 -14 -15 -16 -17 -18 18 -20
leaf_value=-0.00075939109274022684 0.020385949414324117 -0.0071408353314019639 -0.0057516569779677831 -0.0027486431241339569 0.010564654128892082 0.026742128898268158 -0.0018545301529494199 -0.012622329629957678 0.0042549713049083952 0.017359471862966363 -0.0010433812188096795 0.013597330823540688 0.0031226158887147906 0.0010948433563476654 0.022985804351893339 0.002929956933786703 0.010383802950382234 -0.0032927718758583068 0.0042740286218331145
leaf_weight=3503 37 69 110 196 35 23 110 20 48 33 83 34 20 123 22 86 30 85 272
leaf_count=3503 37 69 110 196 35 23 110 20 48 33 83 34 20 123 22 86 30 85 272
internal_value=0 0.00188845 0.0025053 0.00357624 -0.000731477 0.00528308 0.00430285 0.00593101 0.00278003 0.00923721 0.00632381 0.00321118 0.0143286 0.00437612 0.0101418 -0.00194238 0.0174827 -0.000460491 0.00247241
internal_weight=0 1079 1010 814 231 583 526 416 213 203 150 117 57 193 70 196 53 3860 357
internal_count=4939 1079 1010 814 231 583 526 416 213 203 150 117 57 193 70 196 53 3860 357
is_linear=0
shrinkage=0.05


end of trees

feature_importances:
f_2=73
f_3=73
f_5=61
f_14=52
f_15=43
f_1=41
f_0=31
f_22=26
f_21=24
f_6=23
f_8=21
f_18=15
f_19=12
f_7=10
f_4=9
f_10=9
f_20=9
f_13=8
f_9=7
f_12=7
f_16=7
f_17=7
f_11=2

parameters:
[boosting: gbdt]
[objective: regression]
[metric: binary_logloss]
[tree_learner: serial]
[device_type: cpu]
[data: ]
[valid: ]
[num_iterations: 10]
[learning_rate: 0.05]
[num_leaves: 20]
[num_threads: 0]
[deterministic: 0]
[force_col_wise: 0]
[force_row_wise: 0]
[histogram_pool_size: -1]
[max_depth: -1]
[min_data_in_leaf: 20]
[min_sum_hessian_in_leaf: 0.001]
[bagging_fraction: 0.7]
[pos_bagging_fraction: 1]
[neg_bagging_fraction: 1]
[bagging_freq: 5]
[bagging_seed: 3]
[feature_fraction: 0.9]
[feature_fraction_bynode: 1]
[feature_fraction_seed: 2]
[extra_trees: 0]
[extra_seed: 6]
[early_stopping_round: 0]
[first_metric_only: 0]
[max_delta_step: 0]
[lambda_l1: 0]
[lambda_l2: 0]
[linear_lambda: 0]
[min_gain_to_split: 0]
[drop_rate: 0.1]
[max_drop: 50]
[skip_drop: 0.5]
[xgboost_dart_mode: 0]
[uniform_drop: 0]
[drop_seed: 4]
[top_rate: 0.2]
[other_rate: 0.1]
[min_data_per_group: 100]
[max_cat_threshold: 32]
[cat_l2: 10]
[cat_smooth: 10]
[max_cat_to_onehot: 4]
[top_k: 20]
[monotone_constraints: ]
[monotone_constraints_method: basic]
[monotone_penalty: 0]
[feature_contri: ]
[forcedsplits_filename: ]
[refit_decay_rate: 0.9]
[cegb_tradeoff: 1]
[cegb_penalty_split: 0]
[cegb_penalty_feature_lazy: ]
[cegb_penalty_feature_coupled: ]
[path_smooth: 0]
[interaction_constraints: ]
[verbosity: 0]
[saved_feature_importance_type: 0]
[linear_tree: 0]
[max_bin: 255]
[max_bin_by_feature: ]
[min_data_in_bin: 3]
[bin_construct_sample_cnt: 200000]
[data_random_seed: 1]
[is_enable_sparse: 1]
[enable_bundle: 1]
[use_missing: 1]
[zero_as_missing: 0]
[feature_pre_filter: 1]
[pre_partition: 0]
[two_round: 0]
[header: 0]
[label_column: ]
[weight_column: ]
[group_column: ]
[ignore_column: ]
[categorical_feature: ]
[forcedbins_filename: ]
[precise_float_parser: 0]
[objective_seed: 5]
[num_class: 1]
[is_unbalance: 0]
[scale_pos_weight: 1]
[sigmoid: 1]
[boost_from_average: 1]
[reg_sqrt: 0]
[alpha: 0.9]
[fair_c: 1]
[poisson_max_delta_step: 0.7]
[tweedie_variance_power: 1.5]
[lambdarank_truncation_level: 30]
[lambdarank_norm: 1]
[label_gain: ]
[eval_at: ]
[multi_error_top_k: 1]
[auc_mu_weights: ]
[num_machines: 1]
[local_listen_port: 12400]
[time_out: 120]
[machine_list_filename: ]
[machines: ]
[gpu_platform_id: -1]
[gpu_device_id: -1]
[gpu_use_dp: 0]
[num_gpu: 1]

end of parameters

pandas_categorical:[]
