tree
version=v3
num_class=1
num_tree_per_iteration=1
label_index=0
max_feature_idx=22
objective=regression
feature_names=f_0 f_1 f_2 f_3 f_4 f_5 f_6 f_7 f_8 f_9 f_10 f_11 f_12 f_13 f_14 f_15 f_16 f_17 f_18 f_19 f_20 f_21 f_22
feature_infos=[2.811842593898112e-07:0.0089292451603560918] [2.1333248529010825e-06:0.0055990001705921817] [4.7857545124566229e-06:0.003721014941950642] [0.53000000000000003:6.5599999999999996] [-33.000000000000007:48] [2.4100000000000001:21.82] [-101.00000000000016:144.99999999999994] [-3.0196613872200984:0.53086419753086433] [-81:74] [-46:33.999999999999986] [-51.000000000000021:33.999999999999986] [-33.000000000000007:29.000000000000004] [-41:96.000000000000014] [-36.000000000000007:32.999999999999986] [-0.83999999999999997:2.9100000000000001] [-1.3200000000000001:3.8500000000000001] [-52:73.999999999999972] [-28.000000000000004:24.000000000000004] [-0.29572649572649579:1.1559792027729636] [-0.02958455728073861:0.047292143401983289] [-0.054746473503621829:0.033993115318416534] [-0.078445945945946005:0.045346674363414774] [-0.019984292877423981:0.018327052533256172]
tree_sizes=1810 1873 1875 1862 1890 1867 1881 1884 1882 1881 1903 1899 1901 1881 1897 1894 1884 1877 1891 1894 1875 1893 1867 1892 1894 1891 1883 1906 1891 1899

Tree=0
num_leaves=20
num_cat=0
split_feature=3 15 2 15 15 2 3 3 3 2 1 15 1 2 3 14 2 15 14
split_gain=14.7401 7.46642 7.84046 7.31841 7.27021 7.28017 5.82916 5.64081 4.88138 6.23631 4.63915 6.67583 4.45078 4.37366 3.64353 3.20798 3.16673 2.86786 2.83743
threshold=1.3750000000000002 0.25500000000000006 7.7682058746477917e-05 0.065000000000000016 2.8650000000000007 0.00018179789135096901 1.7950000000000002 2.0150000000000001 3.0550000000000002 0.00069406867351463257 2.7794166052735447e-05 3.5450000000000004 0.00048762204348006986 0.00019120922719875522 0.56500000000000006 1.8050000000000004 0.00013937020689781807 1.4950000000000003 2.6550000000000007
decision_type=2 2 2 2 2 2 2 2 2 2 2 2 2 2 2 2 2 2 2
left_child=14 2 -2 -4 8 6 10 -7 -3 15 -6 18 -9 -5 -1 -10 -16 -18 -12
right_child=1 4 3 13 5 7 -8 12 9 -11 11 -13 -14 -15 16 -17 17 -19 -20
leaf_value=0.16469162179212876 0.18500412179212877 0.14994397345638347 0.15073328845879544 0.18592007006799083 0.14575779826271701 0.1838422628177698 0.1460540318640712 0.15207588105138803 0.18419593213695634 0.14666277563828262 0.16308689206239904 0.18681662179212877 0.17516956296859937 0.16067376464927163 0.14704408960328758 0.15948328845879545 0.15061478692974345 0.16567376464927164 0.14769467057261657
leaf_weight=32 32 1382 120 29 51 39 139 54 29 39 111 25 34 42 2330 24 327 35 41
leaf_count=32 32 1382 120 29 51 39 139 54 29 39 111 25 34 42 2330 24 327 35 41
internal_value=0.150333 0.153428 0.162099 0.158262 0.152446 0.157695 0.154125 0.168013 0.150686 0.161838 0.159045 0.162873 0.160998 0.170986 0.147919 0.173005 0.14772 0.152071 0.158935
internal_weight=0 2191 223 191 1968 494 367 127 1474 92 228 177 88 71 2724 53 2692 362 152
internal_count=4915 2191 223 191 1968 494 367 127 1474 92 228 177 88 71 2724 53 2692 362 152
is_linear=0
shrinkage=1


Tree=1
num_leaves=20
num_cat=0
split_feature=3 1 3 5 5 14 3 5 3 2 6 3 5 0 12 12 1 1 5
split_gain=13.3029 5.802 3.98358 5.91221 3.82433 3.54654 3.69481 4.59127 3.68933 4.77239 3.25496 3.22792 3.08682 3.71633 2.7426 3.50003 4.59626 2.5589 2.9338
threshold=1.3750000000000002 3.6745270436005066e-05 3.3350000000000004 16.685000000000006 4.4050000000000011 0.65500000000000014 1.0150000000000003 3.3350000000000004 0.57500000000000007 8.3325302442533141e-05 -8.2500000000000888 2.5250000000000004 5.0450000000000008 8.6290771453240145e-05 -1 0.99999999999998435 5.7985764413544e-05 0.0004192411074517845 6.9750000000000005
decision_type=2 2 2 2 2 2 2 2 2 2 2 2 2 2 2 2 2 2 2
left_child=5 -2 4 10 -3 6 8 -8 9 -1 -4 14 13 -9 -6 16 -16 18 -18
right_child=1 2 3 -5 11 -7 7 12 -10 -11 -12 -13 -14 -15 15 -17 17 -19 -20
leaf_value=0.026931669854599501 -0.0038655297871488729 0.015093801373785194 0.0087405265523837171 -0.0024209114844384403 0.00022921499829473241 -0.0046434275820703792 0.02435695193707943 -0.00064987895674392833 -0.0036551579398479343 -0.001066031853357951 0.027929283824621468 -0.0038876901346224326 -0.0051572880454805519 0.0078209134605195779 0.018528311897682236 0.0015099613616863887 0.0017074293386872099 -0.0048038990008381181 0.0095554518262965446
leaf_weight=23 274 66 39 46 448 1010 22 305 943 45 51 162 151 225 79 456 186 53 331
leaf_count=23 274 66 39 46 448 1010 22 305 943 45 51 162 151 225 79 456 186 53 331
internal_value=0 0.00294018 0.00391293 0.0121611 0.00328309 -0.00229318 -0.000908263 0.00187567 -0.00284407 0.00840378 0.0196142 0.00282857 0.0011494 0.00294621 0.00352917 0.00486707 0.00722583 0.00565935 0.00673199
internal_weight=0 2191 1917 136 1781 2724 1714 703 1011 68 90 1715 681 530 1553 1105 649 570 517
internal_count=4915 2191 1917 136 1781 2724 1714 703 1011 68 90 1715 681 530 1553 1105 649 570 517
is_linear=0
shrinkage=0.05


Tree=2
num_leaves=20
num_cat=0
split_feature=3 15 2 15 15 14 3 14 15 2 3 3 1 15 2 5 5 1 14
split_gain=12.0059 6.58815 6.93733 6.59704 6.38456 7.96888 4.6244 5.00113 4.51062 5.95957 5.14965 4.82885 3.95276 6.01711 3.86816 3.63689 3.48262 7.20866 3.20075
threshold=1.3750000000000002 0.25500000000000006 7.7682058746477917e-05 0.065000000000000016 1.9950000000000003 1.2950000000000002 3.0250000000000004 1.7250000000000003 2.8650000000000007 0.00018460155473028173 2.0150000000000001 1.7950000000000002 2.7794166052735447e-05 3.5450000000000004 0.00019120922719875522 4.4050000000000011 16.685000000000006 0.00059874566246757713 0.65500000000000014
decision_type=2 2 2 2 2 2 2 2 2 2 2 2 2 2 2 2 2 2 2
left_child=18 2 -2 -4 15 -6 8 -8 -7 11 -11 12 -10 -14 -5 -3 17 -9 -1
right_child=1 4 3 14 5 6 7 16 9 10 -12 -13 13 -15 -16 -17 -18 -19 -20
leaf_value=-0.0008628493377041233 0.032483607018366459 0.010959670922972939 0.0001807570829987526 0.03345398954276381 0.031141792237758637 -0.00075694852718108092 0.028178314971072333 0.0027515434543602169 -0.0041534369482713589 0.031545009406713335 0.0012911993671547283 -0.0039640035136387902 0.0079063274064346371 0.034376620084047314 0.0097114110986391711 -0.0023461601522661024 -0.0063345261125100985 0.033168944876108851 -0.0044112564306152931
leaf_weight=1714 32 55 120 29 27 529 35 64 51 39 22 130 152 25 42 775 36 28 1010
leaf_count=1714 32 55 120 29 27 529 35 64 51 39 22 130 152 25 42 775 36 28 1010
internal_value=0 0.00279317 0.0109382 0.00732846 0.00187024 0.00430239 0.00365013 0.0114296 0.00231252 0.00618781 0.0206338 0.00372635 0.00811119 0.0116451 0.0194091 -0.00146445 0.00684989 0.012009 -0.00217852
internal_weight=0 2191 223 191 1968 1138 1111 163 948 419 61 358 228 177 71 830 128 92 2724
internal_count=4915 2191 223 191 1968 1138 1111 163 948 419 61 358 228 177 71 830 128 92 2724
is_linear=0
shrinkage=0.05


Tree=3
num_leaves=20
num_cat=0
split_feature=3 15 2 15 15 14 3 14 15 2 3 3 3 3 1 15 5 15 3
split_gain=10.8353 5.94581 6.26094 5.95383 5.76207 7.19192 4.17352 4.5174 4.07083 5.37852 4.64756 4.35804 3.61514 6.04487 3.56737 5.43044 3.28229 3.22276 3.00735
threshold=1.3750000000000002 0.25500000000000006 7.7682058746477917e-05 0.065000000000000016 1.9950000000000003 1.2950000000000002 3.0250000000000004 1.7750000000000001 2.8650000000000007 0.00018460155473028173 2.0150000000000001 1.7950000000000002 1.4850000000000001 1.7250000000000003 2.7794166052735447e-05 3.5450000000000004 4.4050000000000011 3.4550000000000005 0.56500000000000006
decision_type=2 2 2 2 2 2 2 2 2 2 2 2 2 2 2 2 2 2 2
left_child=18 2 -2 -4 16 -6 8 -8 -7 11 -11 14 -5 -14 -10 -16 -3 -9 -1
right_child=1 4 3 12 5 6 7 17 9 10 -12 -13 13 -15 15 -17 -18 -19 -20
leaf_value=0.013168159453198314 0.030859426874667407 0.010411687195301056 0.00017171925554672877 0.035276608101346273 0.029584701911166862 -0.00071910122560868873 0.023554372437754458 0.0010597189433044858 -0.0039457654251771812 0.029967757753836807 0.0012266393412243238 -0.0037658031685994225 -0.0037054366849619772 0.032025749348104003 0.0075110111973787615 0.032657789021730423 -0.0022288520663015306 0.021680708664158981 -0.0022507275851861327
leaf_weight=32 32 55 120 22 27 529 49 90 51 39 22 130 29 20 152 25 775 24 2692
leaf_count=32 32 55 120 22 27 529 49 90 51 39 22 130 29 20 152 25 775 24 2692
internal_value=0 0.00265351 0.0103913 0.00696204 0.00177673 0.00408727 0.00346762 0.0108581 0.00219689 0.00587842 0.0196021 0.00354003 0.0184386 0.0108787 0.00770563 0.0110628 -0.00139123 0.00540098 -0.0020696
internal_weight=0 2191 223 191 1968 1138 1111 163 948 419 61 358 71 49 228 177 830 114 2724
internal_count=4915 2191 223 191 1968 1138 1111 163 948 419 61 358 71 49 228 177 830 114 2724
is_linear=0
shrinkage=0.05


Tree=4
num_leaves=20
num_cat=0
split_feature=3 14 14 15 3 15 22 3 15 14 15 15 2 14 1 20 1 3 14
split_gain=9.8333 7.37167 4.1008 7.35296 3.44981 3.27264 2.94449 3.52604 2.796 2.2399 2.07933 2.08987 7.12481 5.10463 2.54753 2.1176 2.49539 2.04989 1.86187
threshold=1.4750000000000003 -0.20499999999999999 0.32500000000000007 1.655 3.3350000000000004 0.065000000000000016 0.00016774128704588612 2.5250000000000004 3.3050000000000002 1.7450000000000003 3.6250000000000004 0.25500000000000006 7.7682058746477917e-05 0.35500000000000004 3.6745270436005066e-05 0.00035407652817065488 4.8563440346296843e-05 0.57500000000000007 0.16500000000000004
decision_type=2 2 2 2 2 2 2 2 2 2 2 2 2 2 2 2 2 2 2
left_child=1 5 3 18 6 -1 7 10 9 -6 11 12 -2 -14 -13 16 -16 -4 -3
right_child=4 2 17 -5 8 -7 -8 -9 -10 -11 -12 14 13 -15 15 -17 -18 -19 -20
leaf_value=0.0049466680968180306 0.030665461622899577 -0.0023512757511631763 0.0081294718223649098 0.023943113326095045 0.018022060226048194 0.028583442778499044 -0.0014160598078406001 -0.0048907517176917485 0.02400673734645049 0.0020439189175764719 0.016205802879163199 -0.0038126802210472835 -0.00014052557866130256 0.026703997453053793 0.018125216905027629 0.0013130552392630352 0.0050875532978706152 -0.0037584694402436752 0.001818439607897143
leaf_weight=32 31 566 37 32 31 27 415 117 30 75 35 121 113 21 40 420 445 1819 508
leaf_count=32 31 566 37 32 31 27 415 117 30 75 35 121 113 21 40 420 445 1819 508
internal_value=0 -0.00173674 -0.00208533 0.000324706 0.00285858 0.0157635 0.00226506 0.00340256 0.0105307 0.00671677 0.00419401 0.00384102 0.00906384 0.00406645 0.00300109 0.0039121 0.00616282 -0.00352148 -0.000379008
internal_weight=0 3021 2962 1106 1894 59 1758 1343 136 106 1226 1191 165 134 1026 905 485 1856 1074
internal_count=4915 3021 2962 1106 1894 59 1758 1343 136 106 1226 1191 165 134 1026 905 485 1856 1074
is_linear=0
shrinkage=0.05


Tree=5
num_leaves=20
num_cat=0
split_feature=5 14 3 14 3 3 3 5 1 3 14 1 5 14 14 0 3 1 2
split_gain=10.3527 5.57144 3.8391 4.7714 3.67561 6.24454 3.6486 5.05378 3.60432 3.55377 2.86274 2.82901 2.80194 2.61207 2.4995 2.82802 2.92468 2.62704 2.48675
threshold=6.4850000000000012 0.31500000000000006 1.7750000000000001 1.9350000000000003 1.3250000000000004 1.5150000000000003 3.3350000000000004 16.685000000000006 0.00014342512558861154 0.57500000000000007 1.0950000000000004 7.7030922265798696e-05 8.1950000000000021 0.57500000000000007 2.5450000000000004 4.0922235965873833e-05 1.4750000000000003 7.6162369214700405e-05 0.00031628170679248859
decision_type=2 2 2 2 2 2 2 2 2 2 2 2 2 2 2 2 2 2 2
left_child=1 4 3 10 9 8 -4 -8 -6 -1 13 -7 -12 -2 -3 -16 -17 -18 -10
right_child=2 14 6 -5 5 11 7 -9 18 -11 12 -13 -14 -15 15 16 17 -19 -20
leaf_value=0.019381908035796622 0.016920126446833213 -0.0031462916315439927 0.0011529189339919343 0.00076990813016891485 0.0031348645273182128 0.014811674343503041 0.018194369509627547 -0.0018780003516719894 0.024146978397454538 -0.00049308590964581764 0.022481283902501068 -0.0043569872692479925 0.0019092155992984771 -0.0055589944922498297 -0.0037412259523030168 -0.0066745045483112336 0.025623480837654186 0.0065219800367399498 0.0057761487662792207
leaf_weight=23 24 2276 718 100 54 23 79 52 70 1017 96 118 20 28 91 25 27 54 25
leaf_count=23 24 2276 718 100 54 23 79 52 70 1017 96 118 20 28 91 25 27 54 25
internal_value=0 -0.00127516 0.00419991 0.0094172 0.00133446 0.00631213 0.002553 0.0102267 0.0134495 -5.35428e-05 0.0145644 -0.00123018 0.0189344 0.00481598 -0.00267863 0.0027244 0.00827508 0.0128891 0.0193125
internal_weight=0 3803 1117 268 1330 290 849 131 149 1040 168 141 116 52 2473 197 106 81 95
internal_count=4920 3803 1117 268 1330 290 849 131 149 1040 168 141 116 52 2473 197 106 81 95
is_linear=0
shrinkage=0.05


Tree=6
num_leaves=20
num_cat=0
split_feature=5 2 3 3 14 3 5 5 3 14 3 15 3 15 15 14 4 15 2
split_gain=9.34332 5.26065 5.57916 3.46479 4.30619 3.31836 3.64978 2.90546 3.30357 3.21069 2.86868 2.97489 2.84665 2.76148 2.44712 2.3828 2.56022 2.28798 3.47874
threshold=6.4850000000000012 0.00013937020689781807 0.56500000000000006 1.7750000000000001 1.9350000000000003 3.0950000000000002 16.830000000000002 5.0650000000000004 0.81500000000000006 -0.40499999999999997 1.5150000000000003 0.72500000000000009 2.5250000000000004 1.9950000000000003 1.4150000000000003 -0.11499999999999998 1.0000000000000122 -0.21499999999999997 0.00018752433870193469
decision_type=2 2 2 2 2 2 2 2 2 2 2 2 2 2 2 2 2 2 2
left_child=1 2 -1 4 13 12 -7 8 -3 -9 11 17 -5 -2 -13 -4 -17 -10 -19
right_child=3 7 15 5 -6 6 -8 9 10 -11 -12 14 -14 -15 -16 16 -18 18 -20
leaf_value=0.019011534990802891 0.0093639053404331214 -0.0062099397734359458 0.0054465161791692179 0.0025184714919670509 0.00073141264915466304 0.013655866917810941 -0.0035861794437680931 0.016235845939566694 0.0043043845229678683 -0.0028932879689861747 -0.0043556520249694586 0.00096157683202853581 -0.005572860781793241 0.023024663478136063 0.012783334471962669 -0.0029004504665214909 0.0036996982607149309 0.029142615148289638 0.0090248808264732361
leaf_weight=31 113 54 96 558 100 114 42 24 36 255 48 130 135 55 66 2822 155 44 42
leaf_count=31 113 54 96 558 100 114 42 24 36 255 48 130 135 55 66 2822 155 44 42
internal_value=0 -0.0012114 -0.00209388 0.00398992 0.00894634 0.00242535 0.00901378 0.00270736 0.0053347 -0.00124777 0.00703801 0.00875781 0.000942238 0.0138362 0.00494237 -0.00230679 -0.00255681 0.0148875 0.0193177
internal_weight=0 3803 3104 1117 268 849 156 699 420 279 366 318 693 168 196 3073 2977 122 86
internal_count=4920 3803 3104 1117 268 849 156 699 420 279 366 318 693 168 196 3073 2977 122 86
is_linear=0
shrinkage=0.05


Tree=7
num_leaves=20
num_cat=0
split_feature=5 0 14 2 15 3 5 3 15 14 15 5 5 3 6 4 2 13 7
split_gain=8.43234 4.89944 4.56394 3.22187 3.50736 2.55103 4.23402 2.64834 2.52368 3.32815 6.64413 2.43086 3.09124 3.57549 2.37565 2.25997 1.96543 1.94592 1.94969
threshold=6.4850000000000012 7.7785813787073523e-05 -0.30499999999999994 9.0651917924436585e-05 1.4950000000000003 3.3350000000000004 16.685000000000006 2.5050000000000003 3.3850000000000002 0.68500000000000016 1.6450000000000002 5.0650000000000004 3.2850000000000006 0.89500000000000013 -7.999999999999873 -0.99999999999998412 0.00039476482329121225 -1.4166666666666436 0.042779427139414745
decision_type=2 2 2 2 2 2 2 2 2 2 2 2 2 2 2 2 2 2 2
left_child=1 2 -1 4 -2 7 14 17 9 10 11 12 -3 -14 -7 -6 -13 -5 -19
right_child=3 8 -4 5 15 6 -8 -9 -10 -11 -12 16 13 -15 -16 -17 -18 18 -20
leaf_value=0.015231745628019176 0.026501141796851979 -0.0019212735787883324 -0.0027003895097558149 -0.0026691802477432514 -0.0026641002641274378 0.0060938297305256134 -0.0017705807462334634 -0.0038744596866044133 0.014992483897191107 -0.0027509935264602124 0.01879375488807758 -0.0048587518827940424 0.025891064958912986 0.0046744821659506185 0.023756260377295474 0.012650970227661588 0.0085407776525244124 0.0051394468201185345 -0.0068809152063396247
leaf_weight=36 29 193 2469 118 39 32 52 165 33 405 60 189 21 365 47 63 32 536 36
leaf_count=36 29 193 2469 118 39 32 52 165 33 405 60 189 21 365 47 63 32 536 36
internal_value=0 -0.00115083 -0.00244268 0.00379042 0.0111576 0.00281162 0.00930898 0.00181612 0.00134231 0.000986218 0.00274618 0.00154262 0.00324541 0.00582875 0.0166019 0.00679521 -0.00291855 0.00317691 0.00438292
internal_weight=0 3803 2505 1117 131 986 131 855 1298 1265 860 800 579 386 79 102 221 690 572
internal_count=4920 3803 2505 1117 131 986 131 855 1298 1265 860 800 579 386 79 102 221 690 572
is_linear=0
shrinkage=0.05


Tree=8
num_leaves=20
num_cat=0
split_feature=5 3 3 14 15 5 2 2 15 14 5 14 5 3 15 15 3 5 3
split_gain=7.69619 5.4352 5.13663 5.23864 4.93072 4.01548 4.28789 3.25491 3.92582 5.58156 2.81257 2.55651 2.21503 4.16385 2.40353 2.5399 4.10937 6.86432 2.15546
threshold=6.9350000000000014 1.7750000000000001 2.4750000000000005 0.32500000000000007 1.6725000000000001 8.2850000000000019 0.00023094253407232539 0.00017009170847804675 2.9150000000000005 2.1550000000000007 6.3650000000000011 -0.67499999999999993 2.6250000000000004 0.87500000000000011 -0.12499999999999999 0.16500000000000004 1.0050000000000001 3.7550000000000003 3.0950000000000002
decision_type=2 2 2 2 2 2 2 2 2 2 2 2 2 2 2 2 2 2 2
left_child=2 5 3 4 10 6 -2 -3 18 -10 11 -1 13 -13 -14 16 -16 -18 -9
right_child=1 7 -4 -5 -6 -7 -8 8 9 -11 -12 12 14 -15 15 -17 17 -19 -20
leaf_value=0.018278134763240816 0.01717049954096218 -0.0040295427545295123 0.020358028635382653 -0.0024512099784224778 0.018037204184504444 -0.0043717369011470253 -0.0059743357741314437 -0.00022443417415377639 0.026027789525687697 0.0037039497843036405 0.018985159588711605 0.023246578898813045 -0.0048714301367690661 -0.0066240429878234863 -0.0058747618105904811 -0.00045135582272473932 0.034317050656924648 0.0054053824814692354 0.0084882812284761012
leaf_weight=20 154 171 28 2597 43 35 23 336 44 77 21 28 221 20 58 788 24 142 90
leaf_count=20 154 171 28 2597 43 35 23 336 44 77 21 28 221 20 58 788 24 142 90
internal_value=0 0.00406855 -0.000982283 -0.0011331 0.00137469 0.011103 0.014163 0.00199152 0.00387379 0.0118217 0.000832721 0.000539715 0.000262768 0.0108005 -0.000147459 0.000884159 0.00558231 0.00958538 0.00161628
internal_weight=0 930 3990 3962 1365 212 177 718 547 121 1322 1301 1281 48 1233 1012 224 166 426
internal_count=4920 930 3990 3962 1365 212 177 718 547 121 1322 1301 1281 48 1233 1012 224 166 426
is_linear=0
shrinkage=0.05


Tree=9
num_leaves=20
num_cat=0
split_feature=0 14 15 22 5 14 0 15 5 2 2 2 22 1 3 2 3 21 3
split_gain=6.95991 5.18878 3.37927 3.27454 3.22204 3.24291 2.70992 2.56032 2.23651 2.13611 2.02599 1.87041 1.75311 1.67579 1.52782 1.45327 1.36187 1.30638 1.09347
threshold=7.7785813787073523e-05 -0.11499999999999998 3.3850000000000002 0.0037621032367426426 6.6550000000000011 1.7650000000000003 0.0001906333786133364 1.9950000000000003 7.5850000000000009 0.0002019903544746951 9.6036458496262089e-05 0.00012787927812852091 -0.005684833062599536 7.8001164454979095e-05 0.88500000000000012 3.356364764619058e-05 0.57500000000000007 -0.015159523935897977 0.77500000000000013
decision_type=2 2 2 2 2 2 2 2 2 2 2 2 2 2 2 2 2 2 2
left_child=1 11 3 12 16 7 -5 8 -6 10 -4 14 -2 -10 -1 -16 -3 -14 -18
right_child=2 4 9 6 5 -7 -8 -9 13 -11 -12 -13 17 -15 15 -17 18 -19 -20
leaf_value=0.017617109790444375 0.015359571068124337 0.0070404041144582962 0.015618869736790659 0.027926173061132431 -0.0058792090759827546 -0.0022507542630239409 0.0045074457426865899 0.024093340881741965 0.023255165256559851 0.022931793718426317 -0.00050026351077990105 0.022028220606886823 0.013015325658995172 0.0032575818625363434 -0.0071342274833184026 0.0090164376546939227 -0.0051129179872335603 0.0010299134594385949 -0.0022761579110586734
leaf_weight=20 22 36 35 21 26 98 30 26 20 27 44 23 23 22 26 30 409 1977 2005
leaf_count=20 22 36 35 21 26 98 30 26 20 27 44 23 23 22 26 30 409 1977 2005
internal_value=0 -0.00170291 0.00208301 0.00163776 -0.00212402 0.00411335 0.0141505 0.0107483 0.00564575 0.0107906 0.00664112 0.0095353 0.00132216 0.0127802 0.00575454 0.00151791 -0.00261283 0.00116775 -0.00275679
internal_weight=0 2741 2179 2073 2642 192 51 94 68 106 79 99 2022 42 76 56 2450 2000 2414
internal_count=4920 2741 2179 2073 2642 192 51 94 68 106 79 99 2022 42 76 56 2450 2000 2414
is_linear=0
shrinkage=0.05


Tree=10
num_leaves=20
num_cat=0
split_feature=3 14 15 14 15 15 2 3 3 4 1 22 4 15 2 14 8 13 15
split_gain=5.99997 4.94066 3.00176 2.89172 3.36412 2.48857 3.47674 4.55805 4.36207 3.00987 2.92294 2.44158 2.48832 2.10307 6.12851 4.33598 2.24171 2.41397 1.98702
threshold=1.4750000000000003 -0.20499999999999999 0.065000000000000016 0.65500000000000014 1.6650000000000003 2.8650000000000007 0.00018179789135096901 2.0150000000000001 1.7950000000000002 -0.99999999999998412 0.00048762204348006986 -0.0040697456773429721 0.50000000000000611 0.25500000000000006 7.7682058746477917e-05 0.35500000000000004 3.0000000000000022 0.99999999999998956 3.4750000000000005
decision_type=2 2 2 2 2 2 2 2 2 2 2 2 2 2 2 2 2 2 2
left_child=1 2 -1 4 11 13 8 -8 9 -7 -9 -3 -13 14 -2 -16 -15 -18 -11
right_child=5 3 -4 -5 -6 6 7 10 -10 18 -12 12 -14 16 15 -17 17 -19 -20
leaf_value=0.0026168556418269874 0.026434754460088666 0.016621680613607168 0.025254300015944021 -0.0035598775528580227 0.012041232313187619 -0.00090421354146422563 0.026671233066381552 -0.0010941406780922856 -0.0041036180401448725 0.0083967520025643432 0.017620642658542185 -0.0019336112309247255 0.0027441171391142743 -0.00025715751258535783 -0.0013568189559560835 0.022619119049473245 0.0025952610408975967 0.018733284622430801 0.022728659248640461
leaf_weight=32 31 20 27 1177 53 74 39 54 139 110 34 1352 360 1112 132 22 84 32 31
leaf_count=32 31 20 27 1177 53 74 39 54 139 110 34 1352 360 1112 132 22 84 32 31
internal_value=0 -0.00135058 0.0129764 -0.00163596 -0.000367362 0.00223897 0.00534535 0.0124425 0.0027992 0.00726195 0.00613657 -0.000747071 -0.000949977 0.00118153 0.00615134 0.00206832 0.000432824 0.00704713 0.0115477
internal_weight=0 3021 59 2962 1785 1894 481 127 354 215 88 1732 1712 1413 185 154 1228 116 141
internal_count=4915 3021 59 2962 1785 1894 481 127 354 215 88 1732 1712 1413 185 154 1228 116 141
is_linear=0
shrinkage=0.05


Tree=11
num_leaves=20
num_cat=0
split_feature=3 14 15 14 15 15 3 3 14 5 15 3 3 2 15 5 1 22 15
split_gain=5.41497 4.45895 2.70909 2.60977 3.03612 2.34482 2.32883 10.9124 3.72354 5.95707 3.48714 5.87286 3.0347 4.10055 2.88823 2.00233 3.10331 1.89738 2.01605
threshold=1.4750000000000003 -0.20499999999999999 0.065000000000000016 0.65500000000000014 1.6650000000000003 3.6250000000000004 0.77500000000000013 0.87500000000000011 0.16500000000000004 3.2850000000000006 0.12500000000000003 1.1950000000000001 0.57500000000000007 8.3325302442533141e-05 1.4750000000000003 3.1050000000000004 5.1555367206332626e-05 0.0001904287576720565 1.9550000000000003
decision_type=2 2 2 2 2 2 2 2 2 2 2 2 2 2 2 2 2 2 2
left_child=1 2 -1 4 6 17 12 -8 -9 -10 11 -11 13 -3 -12 16 -5 -2 -19
right_child=5 3 -4 15 -6 -7 7 8 9 10 14 -13 -14 -15 -16 -17 -18 18 -20
leaf_value=0.0024611529316753149 0.0027191043054589476 0.023475678596159687 0.02375166912128528 -0.0022552734287672265 0.011324779259849271 0.013024048292811247 0.02532720714594637 -0.0039403728854472513 0.027852759840232989 0.025985835051323687 -0.00088117999821614261 -0.0010496820896863939 -0.0046831639094914246 -0.0022170590579509738 0.018256178805604577 -0.0038335901990573006 0.021346199757233262 -0.0041810764517506644 0.0025050181189807956
leaf_weight=32 1404 23 27 43 53 47 42 438 21 35 571 45 492 45 20 1114 20 232 211
leaf_count=32 1404 23 27 43 53 47 42 438 21 35 571 45 492 45 20 1114 20 232 211
internal_value=0 -0.00127022 0.0122043 -0.00153862 -0.000345504 0.00210576 -0.00070262 0.000552053 -0.000368794 0.00189183 0.00107934 0.0107784 -0.00332847 0.00647313 -0.000233554 -0.00334806 0.00523726 0.00182792 -0.000996503
internal_weight=0 3021 59 2962 1785 1894 1732 1172 1130 692 671 80 560 68 591 1177 63 1847 443
internal_count=4915 3021 59 2962 1785 1894 1732 1172 1130 692 671 80 560 68 591 1177 63 1847 443
is_linear=0
shrinkage=0.0495


Tree=12
num_leaves=20
num_cat=0
split_feature=3 14 15 14 15 22 4 15 2 3 3 4 1 15 2 14 3 2 15
split_gain=4.89216 4.02844 2.44753 2.3578 2.74298 2.18228 2.15304 2.12659 3.16239 4.12779 3.91901 2.73688 2.64063 1.88164 5.50959 3.90155 2.0831 4.79384 2.45857
threshold=1.4750000000000003 -0.20499999999999999 0.065000000000000016 0.65500000000000014 1.6650000000000003 -0.0040697456773429721 0.50000000000000611 2.8650000000000007 0.00018179789135096901 2.0150000000000001 1.7950000000000002 -0.99999999999998412 0.00048762204348006986 0.25500000000000006 7.7682058746477917e-05 0.35500000000000004 3.0350000000000006 0.00069406867351463257 2.4750000000000005
decision_type=2 2 2 2 2 2 2 2 2 2 2 2 2 2 2 2 2 2 2
left_child=1 2 -1 4 5 -3 -7 13 10 -10 11 -9 -11 14 -2 -16 -15 18 -18
right_child=7 3 -4 -5 -6 6 -8 8 9 12 -12 -13 -14 16 15 -17 17 -19 -20
leaf_value=0.002315932641187683 0.024480017494189162 0.015432645544487984 0.022350201732963322 -0.0031505123641328001 0.010656560876934595 -0.0017459365115636276 0.0025186686277706176 -0.0010702723662217928 0.024701009100767283 -0.0011874626743420959 -0.0039967232548324856 0.010567301434145328 0.016246623135767878 -0.00025843165944452155 -0.001347904912289232 0.020942668804787099 0.026783330613180462 -0.0056970290587339554 0.0062472284537021597
leaf_weight=32 31 20 27 1177 53 1352 360 74 39 54 139 141 34 1132 132 22 28 40 28
leaf_count=32 31 20 27 1177 53 1352 360 74 39 54 139 141 34 1132 132 22 28 40 28
internal_value=0 -0.00119527 0.0114842 -0.00144784 -0.000325118 -0.000661162 -0.000849174 0.00198151 0.00479594 0.0114299 0.00241595 0.00656181 0.00554843 0.00102344 0.00563079 0.00183646 0.00032934 0.00726015 0.0165153
internal_weight=0 3021 59 2962 1785 1732 1712 1894 481 127 354 215 88 1413 185 154 1228 96 56
internal_count=4915 3021 59 2962 1785 1732 1712 1894 481 127 354 215 88 1413 185 154 1228 96 56
is_linear=0
shrinkage=0.049005


Tree=13
num_leaves=20
num_cat=0
split_feature=3 14 15 5 2 3 3 15 3 2 0 2 15 0 5 12 4 5 6
split_gain=4.42443 3.64328 2.21353 2.1601 3.6998 2.40507 2.14314 2.10547 1.88452 3.56155 1.82992 2.46707 2.14787 4.02207 2.82697 1.81411 1.74847 3.00795 2.46609
threshold=1.4750000000000003 -0.20499999999999999 0.065000000000000016 5.0650000000000004 0.00013633704530260099 0.79500000000000015 0.9850000000000001 3.6250000000000004 0.57500000000000007 8.3325302442533141e-05 8.858444824987231e-05 0.00014836880292440539 1.5425000000000002 0.00025948607967255904 4.8550000000000013 1.0000000000000122 -0.99999999999998412 15.805000000000001 -12.999999999999943
decision_type=2 2 2 2 2 2 2 2 2 2 2 2 2 2 2 2 2 2 2
left_child=1 2 -1 4 8 -6 -7 16 9 -3 -8 -12 14 -14 -13 -9 17 -2 -18
right_child=7 3 -4 -5 5 6 10 15 -10 -11 11 12 13 -15 -16 -17 18 -19 -20
leaf_value=0.0021804158337081084 -0.0011383787465262809 0.021909317517919712 0.021042381023890527 -0.0053024325980960711 -0.005463286396673336 0.02045584932860434 -0.0039431970576217275 0.021336474468342213 -0.0018155429734211617 -0.001742750548000755 0.020331182381861285 -0.0031128512648665534 0.028916848619926189 -0.0014827234072839841 0.013874555330918248 0.0022692916546179385 0.015210607706980035 0.014848156226533857 0.0023177781335483594
leaf_weight=32 619 23 27 295 52 22 47 24 2291 43 27 90 21 20 31 23 36 29 1163
leaf_count=32 619 23 27 295 52 22 47 24 2291 43 27 90 21 20 31 23 36 29 1163
internal_value=0 -0.00112533 0.0108122 -0.00136312 -0.000927383 0.00405517 0.00597362 0.00186556 -0.0015827 0.00649964 0.00462358 0.00675395 0.00449107 0.0140878 0.00123929 0.0120057 0.00160752 -0.000422932 0.00270489
internal_weight=0 3021 59 2962 2667 310 258 1894 2357 66 236 189 162 41 121 47 1847 648 1199
internal_count=4915 3021 59 2962 2667 310 258 1894 2357 66 236 189 162 41 121 47 1847 648 1199
is_linear=0
shrinkage=0.048515


Tree=14
num_leaves=20
num_cat=0
split_feature=3 14 14 3 3 15 1 14 5 15 3 3 2 15 15 5 1 14 15
split_gain=4.00554 3.29835 2.0484 2.35507 9.36658 5.33805 3.35543 2.64829 5.61899 3.54962 5.33136 2.41578 3.3491 2.00396 1.90614 1.78905 2.7762 1.78032 1.71647
threshold=1.4750000000000003 -0.20499999999999999 0.65500000000000014 0.77500000000000013 0.87500000000000011 1.5425000000000002 0.00024356814081481757 0.16500000000000004 3.2850000000000006 0.12500000000000003 1.1950000000000001 0.57500000000000007 8.3325302442533141e-05 0.065000000000000016 3.6250000000000004 3.1050000000000004 5.1555367206332626e-05 0.55500000000000016 2.8250000000000006
decision_type=2 2 2 2 2 2 2 2 2 2 2 2 2 2 2 2 2 2 2
left_child=1 13 3 11 -5 7 -7 -6 -9 10 -10 12 -3 -1 -2 16 -4 -11 -17
right_child=14 2 15 4 5 6 -8 8 9 17 -12 -13 -14 -15 -16 18 -18 -19 -20
leaf_value=0.0020538865891111821 0.0015142402809525785 0.020637924704266685 -0.0018414506361384897 0.023233740638458993 -0.0034817313559656659 0.024828098714744562 0.00012006164046541494 0.025775607333670198 0.024072617860319293 -0.0018146604942061266 -0.00092130140952661782 -0.0039079437175334039 -0.0018919807772216008 0.019821295711386813 0.011309035640711302 -0.0042067658277309969 0.019818492312621984 0.0061673868775233478 0.00057042875179148724
leaf_weight=32 1847 23 43 42 436 32 21 21 35 500 45 511 45 27 47 899 20 74 215
leaf_count=32 1847 23 43 42 436 32 21 21 35 500 45 511 45 27 47 899 20 74 215
internal_value=0 -0.00106003 -0.00128401 -0.000258373 0.000950439 0.000146403 0.0150381 -0.000564003 0.00132063 0.000535381 0.0100135 -0.00277621 0.00572843 0.0101847 0.0017573 -0.00283947 0.00503472 -0.000785616 -0.00328478
internal_weight=0 3021 2962 1785 1206 1164 53 1111 675 654 80 579 68 59 1894 1177 63 574 1114
internal_count=4915 3021 2962 1785 1206 1164 53 1111 675 654 80 579 68 59 1894 1177 63 574 1114
is_linear=0
shrinkage=0.0480298


Tree=15
num_leaves=20
num_cat=0
split_feature=5 3 3 3 5 2 2 2 15 14 5 3 3 15 3 14 2 7 14
split_gain=4.74515 4.57598 4.19252 3.80777 3.42356 3.65941 3.16542 2.46453 2.84212 4.38537 1.86407 2.56001 2.35324 2.60709 2.32324 2.52511 2.69231 2.13347 1.70151
threshold=6.9350000000000014 1.7750000000000001 2.4750000000000005 0.56500000000000006 8.2850000000000019 0.00023094253407232539 0.00013083847145797933 0.00017009170847804675 2.9150000000000005 2.1550000000000007 5.0650000000000004 0.81500000000000006 1.5150000000000003 0.72500000000000009 2.0250000000000004 -0.40499999999999997 0.00040917202179151669 -0.0077023591752489731 0.26500000000000007
decision_type=2 2 2 2 2 2 2 2 2 2 2 2 2 2 2 2 2 2 2
left_child=2 4 3 -1 5 -2 18 -3 -9 -10 11 -8 13 17 15 -12 -17 -13 -5
right_child=1 7 -4 6 -6 -7 10 8 9 -11 14 12 -14 -15 -16 16 -18 -19 -20
leaf_value=0.015719959313277101 0.014489040179079621 -0.0037732373775844672 0.017584802400802891 0.00024953388447815432 -0.0044285898478250724 -0.005844542311060014 -0.0052938302254867771 0.00094017406373564187 0.021172963111263595 0.0023551014190212748 0.012761643722660766 0.020269564163437073 -0.0046238597841105041 0.0032492413924341901 0.01093557553270913 -0.0046713495049133342 0.010306629493955959 0.0073707846159051463 -0.0023437794457616991
leaf_weight=31 154 171 28 757 35 23 63 426 44 77 24 44 50 219 34 284 30 85 2341
leaf_count=31 154 171 28 757 35 23 63 426 44 77 24 44 50 219 34 284 30 85 2341
internal_value=0 0.00302165 -0.000749954 -0.000879528 0.00915984 0.0118468 -0.00101043 0.00120925 0.00276685 0.00919796 0.00159169 0.00361227 0.00502203 0.00640794 -0.000912299 -0.0021041 -0.00324033 0.0117704 -0.0017101
internal_weight=0 930 3990 3962 212 177 3931 718 547 121 833 461 398 348 372 338 314 129 3098
internal_count=4920 930 3990 3962 212 177 3931 718 547 121 833 461 398 348 372 338 314 129 3098
is_linear=0
shrinkage=0.0475495


Tree=16
num_leaves=20
num_cat=0
split_feature=5 3 3 3 5 2 2 2 15 14 5 3 3 15 3 14 2 15 14
split_gain=4.30462 4.15116 3.80329 3.45426 3.10572 3.31968 2.87155 2.23573 2.57827 3.97824 1.69101 2.32234 2.13477 2.36506 2.10756 2.29068 2.44236 1.77243 2.86745
threshold=6.9350000000000014 1.7750000000000001 2.4750000000000005 0.56500000000000006 8.2850000000000019 0.00023094253407232539 0.00013083847145797933 0.00017009170847804675 2.9150000000000005 2.1550000000000007 5.0650000000000004 0.81500000000000006 1.5150000000000003 0.72500000000000009 2.0250000000000004 -0.40499999999999997 0.00040917202179151669 -0.21499999999999997 0.15500000000000003
decision_type=2 2 2 2 2 2 2 2 2 2 2 2 2 2 2 2 2 2 2
left_child=2 4 3 -1 5 -2 -5 -3 -9 -10 11 -8 13 17 15 -12 -17 -13 -19
right_child=1 7 -4 6 -6 -7 10 8 9 -11 14 12 -14 -15 -16 16 -18 18 -20
leaf_value=0.014822758553903515 0.013662092523968564 -0.0035578835819009055 0.016581167160967785 -0.0016124980471151132 -0.0041758323812345855 -0.0055109708804975408 -0.0049916901336412405 0.00088651453700515478 0.019964537002753184 0.0022206862694711953 0.012033286155479658 0.0027163622925831495 -0.0043599575884619443 0.0030637941771564552 0.010311438490233202 -0.0044047368702235844 0.0097183889951107435 0.023322210504615432 0.0065130922046435563
leaf_weight=31 154 171 28 3098 35 23 63 426 44 77 24 39 50 219 34 284 30 44 46
leaf_count=31 154 171 28 3098 35 23 63 426 44 77 24 39 50 219 34 284 30 44 46
internal_value=0 0.00284919 -0.000707151 -0.00082933 0.00863706 0.0111707 -0.000952763 0.00114024 0.00260894 0.008673 0.00150085 0.0034061 0.0047354 0.00604221 -0.000860231 -0.00198401 -0.00305539 0.0110986 0.0147309
internal_weight=0 930 3990 3962 212 177 3931 718 547 121 833 461 398 348 372 338 314 129 90
internal_count=4920 930 3990 3962 212 177 3931 718 547 121 833 461 398 348 372 338 314 129 90
is_linear=0
shrinkage=0.047074


Tree=17
num_leaves=20
num_cat=0
split_feature=0 3 14 15 3 4 0 3 8 6 8 22 8 22 15 17 3 2 16
split_gain=3.95534 3.35057 3.06462 2.92016 1.91115 2.3602 2.01123 1.80961 1.8639 1.59 1.4102 1.28588 1.61664 1.3885 1.25837 1.40906 1.11371 2.32683 1.0915
threshold=0.00010548394251392615 0.56500000000000006 -0.11499999999999998 3.3850000000000002 1.4750000000000003 -1.0000000180025095e-35 4.0922235965873833e-05 1.7950000000000002 -2.0000000000000004 3.9999999999999818 2.0000000000000244 -0.0021971008552632561 -1.9999999999999993 0.0033651553888832679 2.9150000000000005 0.50000000000000611 1.7950000000000002 0.00018179789135096901 -3.4999999999999805
decision_type=2 2 2 2 2 2 2 2 2 2 2 2 2 2 2 2 2 2 2
left_child=1 -1 10 11 -4 -6 -7 9 -9 14 -3 12 -2 -13 15 -8 -5 -18 -11
right_child=3 2 4 16 5 6 7 8 -10 18 -12 13 -14 -15 -16 -17 17 -19 -20
leaf_value=0.01754636204496391 0.015359824864921073 0.0083592596362227611 -0.0021067114975227572 0.018257740603263538 -0.0024546844765417166 -0.0010815817278628671 0.014378175621027224 0.012649283297045425 -0.002570180015327001 0.0081227498397630424 -0.0046500995920413452 0.00077458690290115907 0.0023255309333830268 0.0085927959601214861 0.0199159549336889 0.00060029705286545644 -0.0048297741664721323 0.015423417114612915 -0.0037685815831643827
leaf_weight=21 31 102 2266 27 325 179 38 22 85 38 22 1512 62 51 31 28 22 28 30
leaf_count=21 31 102 2266 27 325 179 38 22 85 38 22 1512 62 51 31 28 22 28 30
internal_value=0 -0.00100733 -0.0011304 0.00175898 -0.00142314 0.000572969 0.00275476 0.00527941 0.000559055 0.00834049 0.00605115 0.00134646 0.0066703 0.00102969 0.0121709 0.00853302 0.0106306 0.00651201 0.00287657
internal_weight=0 3187 3166 1733 3042 776 451 272 107 165 124 1656 93 1563 97 66 77 50 68
internal_count=4920 3187 3166 1733 3042 776 451 272 107 165 124 1656 93 1563 97 66 77 50 68
is_linear=0
shrinkage=0.0466033


Tree=18
num_leaves=20
num_cat=0
split_feature=5 14 15 2 5 15 5 14 7 21 5 15 1 14 15 15 15 15 14
split_gain=3.6609 2.44928 3.06024 2.35169 2.12001 1.94751 1.8782 1.8011 1.55994 1.61031 1.5342 2.11882 1.6364 1.43316 1.41577 2.41001 2.76475 1.28269 2.31263
threshold=6.9350000000000014 0.32500000000000007 1.6725000000000001 9.0651917924436585e-05 7.2750000000000012 1.5650000000000002 6.3650000000000011 -0.67499999999999993 0.032059862948390923 -0.012624603498418872 2.6650000000000005 -0.21499999999999997 3.0346567570282995e-05 0.20500000000000004 3.1550000000000007 2.3150000000000008 1.9950000000000003 0.16500000000000004 0.065000000000000016
decision_type=2 2 2 2 2 2 2 2 2 2 2 2 2 2 2 2 2 2 2
left_child=1 2 6 5 14 -2 7 -1 9 -6 12 -12 -9 -14 15 16 -5 18 -13
right_child=3 -3 -4 4 8 -7 -8 10 -10 -11 11 17 13 -15 -16 -17 -18 -19 -20
leaf_value=0.014070133945980961 0.020282727674510299 -0.0014629917791560152 0.013059291283459252 0.0011966007625587997 0.013317158992568976 0.0049057800541373589 0.014240365946497247 0.017636475607979953 -0.0042545851866007001 0.0013709299280703273 -0.0052149742559446551 -0.0014745672626978446 -0.0059303507457543108 0.010956699343761308 0.015180200489108429 -0.0079047030936777573 0.023198941889517113 -0.00045716111375979204 0.0070157993896794524
leaf_weight=20 27 2625 43 31 25 50 21 21 104 612 159 124 23 20 37 24 20 782 152
leaf_count=20 27 2625 43 31 25 50 21 21 104 612 159 124 23 20 37 24 20 782 152
internal_value=0 -0.000638691 0.000946503 0.00257571 0.00187865 0.0102977 0.000552516 0.000331575 0.000984428 0.00183978 0.000117077 -0.000249076 0.00707972 0.00192409 0.00779489 0.00415147 0.00982497 0.000497217 0.00320129
internal_weight=0 3990 1365 930 853 77 1322 1301 741 637 1281 1217 64 43 112 75 51 1058 276
internal_count=4920 3990 1365 930 853 77 1322 1301 741 637 1281 1217 64 43 112 75 51 1058 276
is_linear=0
shrinkage=0.0461372


Tree=19
num_leaves=20
num_cat=0
split_feature=0 3 14 15 5 3 5 15 8 0 2 14 18 15 8 3 3 8 3
split_gain=3.44522 2.94997 2.66899 2.58187 1.88688 3.91326 2.70399 1.29429 1.26595 1.16649 1.57714 1.70132 1.59274 1.46135 2.10684 1.54759 3.16945 2.09158 1.77304
threshold=0.00010548394251392615 0.56500000000000006 -0.11499999999999998 3.3850000000000002 6.9350000000000014 1.8750000000000002 8.2850000000000019 1.5650000000000002 2.0000000000000244 0.00013536652054082975 0.00012145665686039268 0.10500000000000002 -0.012381944512692531 1.6450000000000002 3.4999999999999813 2.3350000000000004 2.0950000000000002 -5.0000000000000151 2.2550000000000003
decision_type=2 2 2 2 2 2 2 2 2 2 2 2 2 2 2 2 2 2 2
left_child=1 -1 8 9 -4 6 7 -6 -3 10 -2 -12 -13 -11 15 16 -15 -17 -18
right_child=3 2 4 -5 5 -7 -8 -9 -10 13 11 12 -14 14 -16 17 18 -19 -20
leaf_value=0.016142141416976855 0.00076423579728214226 0.0076781396005081871 -0.0016434665751766482 0.0097857117910157519 0.018870199418071682 -0.0039315632392253668 -0.0048967995784469079 0.0077824160142932995 -0.0044026129106041964 -0.00082900865771707839 0.015606984476021339 0.010237473836661888 -5.5030400826102337e-05 0.0012543699140433581 0.010852787629256979 0.0092823240226747924 0.021209686624638565 -0.0038107380468286349 0.0053529975151198894
leaf_weight=21 196 102 2790 77 30 111 29 82 22 698 36 55 73 287 54 30 28 168 31
leaf_count=21 196 102 2790 77 30 111 29 82 22 698 36 55 73 287 54 30 28 168 31
internal_value=0 -0.000920653 -0.00103383 0.00160974 -0.00130158 0.00248355 0.00753374 0.0107524 0.00553478 0.00122957 0.00352968 0.00683473 0.00436753 0.000590653 0.00224772 0.00139354 0.00323647 -0.00182694 0.0128782
internal_weight=0 3187 3166 1733 3042 252 141 112 124 1656 360 164 128 1296 598 544 346 198 59
internal_count=4920 3187 3166 1733 3042 252 141 112 124 1656 360 164 128 1296 598 544 346 198 59
is_linear=0
shrinkage=0.0456759


Tree=20
num_leaves=20
num_cat=0
split_feature=15 1 3 2 15 3 2 14 3 3 3 3 3 2 15 4 2 15 22
split_gain=2.67571 2.16205 2.82705 3.96621 2.09163 2.41062 4.65479 2.26922 2.1822 4.79023 3.48762 4.00223 3.04256 1.98803 4.02809 2.20738 1.9099 1.81207 1.61461
threshold=2.8250000000000006 0.00048762204348006986 2.0150000000000001 0.0001451014827213909 0.42500000000000004 3.0350000000000006 0.00069406867351463257 0.48500000000000004 0.88500000000000012 0.77500000000000013 1.0150000000000003 1.1050000000000002 0.87500000000000011 4.7479795296443295e-05 0.14500000000000005 2.4999999999999916 6.7802540221772737e-05 2.4750000000000005 -0.004808552797370024
decision_type=2 2 2 2 2 2 2 2 2 2 2 2 2 2 2 2 2 2 2
left_child=4 2 3 16 7 18 17 8 9 -1 -10 -12 -11 14 -13 -15 -2 -7 -6
right_child=1 -3 -4 -5 5 6 -8 -9 10 12 11 13 -14 15 -16 -17 -18 -19 -20
leaf_value=-0.0030101829097937734 0.0046295246964459741 0.014158441293984653 -0.0041618457693847824 0.014185301289905475 0.010477393210448068 0.025260111237210888 -0.0060698548890650277 0.015426591038703918 -0.0050002584167945707 0.025811746206722764 0.018500615873684487 0.016772604459580384 0.0040902173944881983 -0.0012130993677629638 -0.0050843106742416112 0.012651861855579961 -0.0019785489345895513 0.0069289966844595409 -0.0013746720761467412
leaf_weight=59 281 40 139 79 29 28 40 29 226 38 36 53 28 388 35 31 179 26 3151
leaf_count=59 281 40 139 79 29 28 40 29 226 38 36 53 28 388 35 31 179 26 3151
internal_value=0 0.00286242 0.00219599 0.00383558 -0.000440666 -0.00103332 0.0068579 0.00166157 0.00121505 0.00734217 0.000219098 0.00239143 0.0165966 0.00124758 0.00807951 -0.000187291 0.00205812 0.016434 -0.00126659
internal_weight=0 718 678 539 4197 3274 94 923 894 125 769 543 66 507 88 419 460 54 3180
internal_count=4915 718 678 539 4197 3274 94 923 894 125 769 543 66 507 88 419 460 54 3180
is_linear=0
shrinkage=0.05


Tree=21
num_leaves=20
num_cat=0
split_feature=3 14 5 2 3 3 22 14 22 3 4 4 2 8 5 8 0 9 14
split_gain=2.42594 2.23064 1.78994 2.36538 1.67323 1.65921 1.7982 2.01848 1.58353 1.65705 1.44045 1.4305 2.4575 3.71329 2.12519 2.94066 2.56098 2.39544 2.10427
threshold=1.4750000000000003 -0.20499999999999999 5.0650000000000004 0.00013633704530260099 1.3750000000000002 0.79500000000000015 0.00067752764069062288 0.15500000000000003 0.00044314913293719288 3.0550000000000002 0.50000000000000611 -0.99999999999998412 0.00016373770410651911 4.0000000000000027 8.2850000000000019 -1.9999999999999993 0.00013156527550029127 4.7499999999999885 1.8350000000000002
decision_type=2 2 2 2 2 2 2 2 2 2 2 2 2 2 2 2 2 2 2
left_child=1 4 3 10 -1 -5 7 -7 11 -10 -3 -2 13 14 15 16 -13 -17 -14
right_child=8 2 -4 5 -6 6 -8 -9 9 -11 -12 12 18 -15 -16 17 -18 -19 -20
leaf_value=-0.0017475048485009568 0.00011809841826044281 -0.00174832949622885 -0.0047272446738966445 -0.0046648153247168429 0.015517185793982613 0.017579082437814812 -0.0026260337631764086 0.0049010530114173894 -0.00306543241129488 0.0083259403912557504 0.0014464577513367491 0.021487923261399072 -0.0025009796081576496 0.02550077011639422 -0.0065461082849651575 0.0024422289415573081 0.0020037566096736833 0.013343932126359693 0.0047806961898818438
leaf_weight=23 580 1925 295 52 36 39 58 161 282 36 432 48 256 22 40 384 26 58 162
leaf_count=23 580 1925 295 52 36 39 58 161 282 36 432 48 256 22 40 384 26 58 162
internal_value=0 -0.000839789 -0.00103154 -0.000622756 0.00878688 0.00348314 0.00512536 0.00737327 0.00144269 -0.00177584 -0.00116278 0.00209212 0.00324164 0.00535373 0.00455654 0.00541721 0.0146421 0.00387277 0.000321105
internal_weight=0 3021 2962 2667 59 310 258 200 1894 318 2357 1576 996 578 556 516 74 442 418
internal_count=4915 3021 2962 2667 59 310 258 200 1894 318 2357 1576 996 578 556 516 74 442 418
is_linear=0
shrinkage=0.05


Tree=22
num_leaves=20
num_cat=0
split_feature=15 1 3 2 15 5 5 14 2 3 3 15 3 5 3 2 15 22 6
split_gain=2.33897 1.89856 2.57489 3.57543 1.86071 2.9053 3.88142 2.30193 2.40979 2.23324 4.53034 2.73171 2.19735 6.30267 2.1115 4.21607 1.62834 1.42528 1.39324
threshold=2.8250000000000006 0.00048762204348006986 2.0150000000000001 0.00017009170847804675 0.42500000000000004 6.285000000000001 8.0550000000000015 0.15500000000000003 7.7682058746477917e-05 0.88500000000000012 0.77500000000000013 0.28500000000000009 1.0150000000000003 3.7550000000000003 3.0350000000000006 0.00069406867351463257 2.4750000000000005 -0.004808552797370024 -5.9999999999999822
decision_type=2 2 2 2 2 2 2 2 2 2 2 2 2 2 2 2 2 2 2
left_child=4 2 3 18 5 9 7 8 -7 10 -1 -12 -11 -14 17 16 -16 -6 -2
right_child=1 -3 -4 -5 14 6 -8 -9 -10 12 11 -13 13 -15 15 -17 -18 -19 -20
leaf_value=-0.0029941126354970041 -0.0030816677615654714 0.013260223977267744 -0.0040172792917532894 0.015695542191917249 0.0098433017473796326 0.020112224792440736 -0.0060861687408760197 0.024946391000412405 -0.00084687257185578346 -0.0046919009277382783 0.0069441467033405056 0.027526198806507248 0.0214183916648229 -0.00039955342138625703 0.023893436949167932 -0.0058903624303638935 0.0065164573490619666 -0.0012922117562851653 0.0035940711034239885
leaf_weight=64 98 40 139 55 29 24 32 32 32 226 38 28 36 411 28 40 26 3151 386
leaf_count=64 98 40 139 55 29 24 32 32 32 226 38 28 36 411 28 40 26 3151 386
internal_value=0 0.00267489 0.00205038 0.00361514 -0.000413364 0.00156943 0.008826 0.0142486 0.0081356 0.000485011 0.00648452 0.0156759 -0.000673884 0.0013576 -0.00097235 0.00641308 0.0155267 -0.00119066 0.00224237
internal_weight=0 718 678 539 4197 923 120 88 56 803 130 66 673 447 3274 94 54 3180 484
internal_count=4915 718 678 539 4197 923 120 88 56 803 130 66 673 447 3274 94 54 3180 484
is_linear=0
shrinkage=0.05


Tree=23
num_leaves=20
num_cat=0
split_feature=15 2 14 1 3 2 15 7 8 15 14 1 1 3 2 14 15 2 1
split_gain=2.11092 1.81852 4.13201 1.71345 2.32384 3.22683 1.34595 1.97108 1.84496 1.48603 1.85168 2.77321 1.34327 1.23147 3.89395 2.40389 7.17901 2.19568 2.64173
threshold=2.8250000000000006 6.2715508454935394e-05 -0.17499999999999996 0.00048762204348006986 2.0150000000000001 0.00017009170847804675 3.1550000000000007 0.0057006049601493478 -0.99999999999999245 3.6250000000000004 1.9450000000000001 6.2258416882782309e-05 4.8118927575405085e-05 3.0550000000000002 0.00065272114878945785 1.2950000000000002 2.0050000000000003 0.00039476482329121225 0.0005691685285342925
decision_type=2 2 2 2 2 2 2 2 2 2 2 2 2 2 2 2 2 2 2
left_child=1 2 -1 4 5 6 7 -2 -9 10 11 -8 -11 15 -15 16 -3 -17 -19
right_child=3 13 -4 -5 -6 -7 9 8 -10 12 -12 -13 -14 14 -16 17 -18 18 -20
leaf_value=0.020471092579620227 0.00067926833642200691 0.00090503786303566857 -0.0018366527111908495 0.012597212977707387 -0.0038164153373498712 0.014910765330899845 0.020211697199071448 0.0022801253944635391 0.019769427395964923 0.00060535867053728841 -0.002733793269091673 -0.002125905454158783 0.017009156600882612 0.01689052547920834 -0.0039151276745226079 -0.0030529116405747258 0.026446875397648131 0.017056703567504883 -0.0045547371873488791
leaf_weight=21 71 1574 1803 40 139 55 24 25 38 26 243 33 24 44 46 624 28 31 26
leaf_count=21 71 1574 1803 40 139 55 24 25 38 26 243 33 24 44 46 624 28 31 26
internal_value=0 -0.000392696 -0.00157982 0.00254114 0.00194787 0.00343439 0.00213025 0.00639156 0.0128292 0.00049878 -0.000831286 0.0072794 0.00847918 0.000519784 0.00625652 0.000293631 0.00135146 -0.00219483 0.00719885
internal_weight=0 4197 1824 718 678 539 484 134 63 350 300 57 50 2373 90 2283 1602 681 57
internal_count=4915 4197 1824 718 678 539 484 134 63 350 300 57 50 2373 90 2283 1602 681 57
is_linear=0
shrinkage=0.05


Tree=24
num_leaves=20
num_cat=0
split_feature=3 15 15 2 15 2 15 14 10 2 4 14 2 15 1 20 2 3 4
split_gain=1.91534 1.67594 1.59041 2.615 2.45994 2.74391 1.98297 4.17205 1.53976 1.51528 2.23319 2.63731 2.26366 1.49263 1.28324 1.20199 1.41475 1.96111 1.18033
threshold=1.3350000000000002 3.6250000000000004 0.29500000000000004 7.7682058746477917e-05 0.065000000000000016 0.00015205818360894923 1.9950000000000003 1.2950000000000002 3.0000000000000142 0.00017009170847804675 -0.99999999999998412 1.5550000000000004 5.5951455578367064e-05 2.6125000000000003 4.8118927575405085e-05 0.0015554190521861468 3.9184267272848387e-05 1.6850000000000003 0.50000000000000611
decision_type=2 2 2 2 2 2 2 2 2 2 2 2 2 2 2 2 2 2 2
left_child=18 2 3 -2 -5 -6 -4 -8 -7 10 -9 12 -12 -13 -3 16 -15 -18 -1
right_child=1 14 6 4 5 8 7 9 -10 -11 11 13 -14 15 -16 -17 17 -19 -20
leaf_value=-0.0014282757061365072 0.017442128774436082 0.0016218565065752378 -0.0013935794232904019 -0.0018681833881940416 0.021132564408083757 -0.0012270417271388902 0.021206748402780959 -0.0044015600584274119 0.014728820980304765 0.0035461902810089807 0.02533618273213506 -0.0042777321370672588 0.0046464891865467418 -0.0049426227559645972 0.018179231986403466 -0.0025481255725026131 0.012912306274686543 0.0009900967426159802 0.0012224942268697482
leaf_weight=2083 34 22 869 134 30 54 27 215 21 447 20 121 39 30 25 80 70 68 526
leaf_count=2083 34 22 869 134 30 54 27 215 21 447 20 121 39 30 25 80 70 68 526
internal_value=0 0.00108397 0.000889545 0.00446783 0.00262211 0.00835259 0.000397666 0.00179121 0.0032406 0.00131028 -0.000244082 0.00184437 0.0116599 0.000274942 0.010429 0.00249621 0.00489827 0.00703759 -0.000893854
internal_weight=0 2306 2259 273 239 105 1986 1117 75 1090 643 428 59 369 47 248 168 138 2609
internal_count=4915 2306 2259 273 239 105 1986 1117 75 1090 643 428 59 369 47 248 168 138 2609
is_linear=0
shrinkage=0.05


Tree=25
num_leaves=20
num_cat=0
split_feature=1 5 3 3 3 5 22 0 8 7 5 3 5 2 3 11 2 4 18
split_gain=2.52953 2.0056 1.91566 2.8084 1.99412 2.18627 1.43031 1.43802 2.05351 1.17327 1.32735 3.22558 2.67962 2.57294 2.12641 1.58531 1.75576 1.395 1.43614
threshold=3.9770855073058183e-05 2.6250000000000004 0.56500000000000006 0.74500000000000011 0.83500000000000008 3.2850000000000006 0.0035778385161516772 0.0010988899644920446 -4.7499999999999867 0.047032439584246195 6.9350000000000014 1.7750000000000001 8.2850000000000019 0.00023094253407232539 2.4750000000000005 -10.00000000000003 0.00043198237241332281 -1.0000000000000118 -0.024045775964549095
decision_type=2 2 2 2 2 2 2 2 2 2 2 2 2 2 2 2 2 2 2
left_child=1 -1 -2 -4 5 -5 7 9 -9 10 14 12 13 17 15 -6 -17 -12 -19
right_child=2 -3 3 4 6 -7 -8 8 -10 -11 11 -13 -14 -15 -16 16 -18 18 -20
leaf_value=0.014005005899816753 0.013309130569299063 -0.0019337700010141267 -0.0039166987975758896 0.0026777051498784741 0.0094813601867783648 0.023196598869704068 0.0079683634479131016 0.021421349868178369 0.0021659004274341797 -0.0048643895114461582 0.00071214113384485253 0.00066757211214955284 -0.0051854965277016163 -0.0061726302653551104 0.014266604127792213 -0.00051397748477559032 0.012824263095855713 0.02468153330786475 0.011969393248620787
leaf_weight=20 30 1499 310 34 42 21 70 20 45 96 20 604 32 20 26 1882 25 29 95
leaf_count=20 30 1499 310 34 42 21 70 20 45 96 20 604 32 20 26 1882 25 29 95
internal_value=0 -0.00172391 0.000730179 0.000618233 0.0010775 0.0105122 0.000904881 0.000736473 0.00809065 0.000569973 0.000757973 0.00247616 0.00804955 0.010632 6.19999e-05 -0.000127492 -0.000339119 0.012966 0.0149424
internal_weight=0 1519 3401 3371 3061 55 3006 2936 65 2871 2775 800 196 164 1975 1949 1907 144 124
internal_count=4920 1519 3401 3371 3061 55 3006 2936 65 2871 2775 800 196 164 1975 1949 1907 144 124
is_linear=0
shrinkage=0.05


Tree=26
num_leaves=20
num_cat=0
split_feature=0 3 15 14 8 2 5 0 14 3 1 14 4 3 2 20 21 5 3
split_gain=2.3266 2.50978 2.04431 1.87483 1.59808 1.30008 1.40041 1.15088 1.40561 1.90226 1.73789 1.8944 1.08298 1.05692 1.73197 0.98742 1.17867 2.50255 1.41011
threshold=0.00010548394251392615 0.56500000000000006 3.3850000000000002 -0.11499999999999998 -9 0.00022520425748149455 2.8850000000000002 0.00013536652054082975 0.40500000000000008 2.3650000000000007 0.00018763319992218792 0.24250000000000002 -1.0000000180025095e-35 1.7950000000000002 0.00018179789135096901 0.0062764032296394054 -0.0024237546692757457 8.5950000000000006 2.2850000000000006
decision_type=2 2 2 2 2 2 2 2 2 2 2 2 2 2 2 2 2 2 2
left_child=1 -1 7 5 -5 6 -3 8 10 -10 11 12 -2 -4 -15 16 17 -9 -18
right_child=2 3 13 4 -6 -7 -8 15 9 -11 -12 -13 -14 14 -16 -17 18 -19 -20
leaf_value=0.016400404913084848 0.011069806614382701 0.014649484176188707 0.017383995652198791 0.012239259108901024 -0.0012856479132214919 0.016422751013721742 -8.9320684053811688e-05 -0.0047528179443991972 -0.00053875524588305537 0.013608809367374139 0.020830184008393968 0.016473568683224065 -0.0017898364225402475 -0.0053907690739089797 0.013356357520180091 0.0036430969456125641 0.0019689827875577306 0.006092785191581105 -0.0034295640515767975
leaf_weight=21 22 20 27 22 3020 21 83 274 198 27 21 28 64 22 28 197 608 66 151
leaf_count=21 22 20 27 22 3020 21 83 274 198 27 21 28 64 22 28 197 608 66 151
internal_value=0 -0.000827904 0.00144836 -0.000942179 -0.00118783 0.00508431 0.00277258 0.00107806 0.00357901 0.00115895 0.00761244 0.0051776 0.00149984 0.00941232 0.00510762 0.000383348 -0.000200974 -0.00264749 0.000894964
internal_weight=0 3187 1733 3166 3042 124 103 1656 360 225 135 114 86 77 50 1296 1099 340 759
internal_count=4920 3187 1733 3166 3042 124 103 1656 360 225 135 114 86 77 50 1296 1099 340 759
is_linear=0
shrinkage=0.05


Tree=27
num_leaves=20
num_cat=0
split_feature=1 5 3 3 3 5 14 9 15 12 1 3 1 20 20 8 5 3 21
split_gain=2.14747 1.70923 1.54661 2.50977 1.78555 1.93641 1.29435 1.11899 1.3808 1.32555 1.2141 1.75855 1.09466 0.984234 1.66734 1.39082 1.09869 1.56808 1.02452
threshold=3.9770855073058183e-05 2.6250000000000004 0.56500000000000006 0.74500000000000011 0.83500000000000008 3.2850000000000006 -0.67499999999999993 -1.0000000000000118 3.3950000000000005 9.9999999999999947 5.0401366048850608e-05 1.4750000000000003 6.9161052268933672e-05 -0.00082818313457089221 -0.00056080313676543081 -11.00000000000002 3.8050000000000002 1.0150000000000003 -0.0029827709607797566
decision_type=2 2 2 2 2 2 2 2 2 2 2 2 2 2 2 2 2 2 2
left_child=1 -1 -2 -4 5 -5 -6 8 10 -9 11 -8 -12 15 -15 -14 17 -17 -16
right_child=2 -3 3 4 6 -7 7 9 -10 -11 12 -13 13 14 18 16 -18 -19 -20
leaf_value=0.012932469695806505 0.011975839535395305 -0.0017816076111085738 -0.0037143395348421988 0.0025613102952347084 0.013520948626101018 0.021872132573099362 0.0018529098661195849 -0.00021188871881791524 0.0083233940827695634 0.010753795770662171 -0.003266523738927914 0.016002630519078059 0.011018507155988899 0.017221171462110111 -0.00093625081479549411 -0.0017616327576063301 -0.0012508527723138884 0.015803535111869375 0.0046500946282093496
leaf_weight=20 30 1499 310 34 20 21 62 1750 79 28 132 34 28 21 125 27 437 24 239
leaf_count=20 30 1499 310 34 20 21 62 1750 79 28 132 34 28 21 125 27 437 24 239
internal_value=0 -0.00158787 0.000673299 0.000572712 0.00100688 0.00993453 0.000843533 0.00075862 0.0019329 -3.92008e-05 0.00148573 0.00686427 0.000985887 0.00160888 0.00352204 0.000181427 -0.000440373 0.00650433 0.00273171
internal_weight=0 1519 3401 3371 3061 55 3006 2986 1208 1778 1129 96 1033 901 385 516 488 51 364
internal_count=4920 1519 3401 3371 3061 55 3006 2986 1208 1778 1129 96 1033 901 385 516 488 51 364
is_linear=0
shrinkage=0.05


Tree=28
num_leaves=20
num_cat=0
split_feature=0 14 22 0 15 2 5 18 5 14 15 5 1 2 2 21 21 16 7
split_gain=1.97843 2.15044 1.64672 2.15726 1.64411 1.48764 1.2499 1.02478 1.01302 1.66951 1.63971 1.30959 1.25392 0.958634 1.60364 0.873362 1.67386 1.06359 1.16203
threshold=7.7785813787073523e-05 -0.11499999999999998 0.0037621032367426426 0.0001906333786133364 3.3850000000000002 0.00012787927812852091 2.8850000000000002 0.2188821236353358 6.6550000000000011 1.7650000000000003 1.9950000000000003 7.5850000000000009 7.8001164454979095e-05 0.0002019903544746951 9.6036458496262089e-05 0.0016699494740891609 0.0020186914849523734 -5.9999999999999885 0.0022801668710094041
decision_type=2 2 2 2 2 2 2 2 2 2 2 2 2 2 2 2 2 2 2
left_child=1 5 4 -4 7 6 -1 -2 15 10 11 -10 -13 14 -6 -3 -17 18 -18
right_child=2 8 3 -5 13 -7 -8 -9 9 -11 -12 12 -14 -15 -16 16 17 -19 -20
leaf_value=0.013675022888928651 0.00041841259667010227 -0.0021582489218609758 0.022270710553441729 0.0013760343069831532 0.012165701336094313 0.017458797149036243 -0.00088647234120539263 0.0089304599497053352 -0.0058330589618820414 -0.0022575383815838369 0.017749043983908801 0.017506364285945892 0.00020810318264094269 0.01509161216241342 -0.0021751968359405346 0.0069042466286765901 0.010474957571160503 -0.0014899751871612901 -0.0015034744795411827
leaf_weight=20 1986 1588 21 30 35 23 56 36 26 98 26 20 22 27 44 76 41 705 40
leaf_count=20 1986 1588 21 30 35 23 56 36 26 98 26 20 22 27 44 76 41 705 40
internal_value=0 -0.000917542 0.00110096 0.00997972 0.000888171 0.00631728 0.0029455 0.000569962 -0.00118864 0.00230876 0.00706937 0.00298597 0.00844537 0.00695815 0.00417837 -0.00146272 -0.00018141 -0.000866537 0.00455968
internal_weight=0 2741 2179 51 2128 99 76 2022 2642 192 94 68 42 106 79 2450 862 786 81
internal_count=4920 2741 2179 51 2128 99 76 2022 2642 192 94 68 42 106 79 2450 862 786 81
is_linear=0
shrinkage=0.05


Tree=29
num_leaves=20
num_cat=0
split_feature=0 3 15 14 8 8 0 20 21 5 21 22 21 10 20 5 5 13 0
split_gain=1.81891 2.10262 1.61648 1.43693 1.35617 1.21508 1.04599 1.41822 1.43803 1.91434 1.37967 1.28509 1.13962 1.10817 1.22076 1.05822 2.10213 1.01525 0.995723
threshold=0.00010548394251392615 0.56500000000000006 3.3850000000000002 -0.11499999999999998 -9 2.0000000000000244 0.00012421719517521562 0.0062764032296394054 -0.0024672845769946878 8.5950000000000006 -0.0020647708986982756 -0.00033007920205013747 0.0020853724156805202 -4.2499999999999973 0.00093801302430285294 9.8250000000000011 9.1250000000000018 1.0000000180025095e-35 7.3074448434940249e-05
decision_type=2 2 2 2 2 2 2 2 2 2 2 2 2 2 2 2 2 2 2
left_child=1 -1 6 5 -5 18 11 8 9 -8 -10 17 13 -13 -15 16 -12 -2 -3
right_child=2 3 -4 4 -6 -7 7 -9 10 -11 15 12 -14 14 -16 -17 -18 -19 -20
leaf_value=0.015037698901834942 0.015439913200365529 0.009329306562431158 0.0083630854820276237 0.011318167417564175 -0.0011410858937298621 -0.0062173366207968102 -0.0046188952262840562 0.0041892947987631456 0.012250312732962463 0.0044716875741465231 0.00058736469403936954 -0.0050091718584299094 -0.0042659241154238033 0.012084739074970667 0.0010859267444026713 -0.0049476593921456155 0.014105073213577271 0.0026883332403721634 -0.0026817989112301308
leaf_weight=21 37 80 77 22 3020 22 296 213 26 72 696 25 54 52 49 79 30 27 22
leaf_count=21 37 80 77 22 3020 22 296 213 26 72 696 25 54 52 49 79 30 27 22
internal_value=0 -0.000731322 0.00128133 -0.000835918 -0.00105098 0.00444003 0.00095204 0.000429667 -0.000238224 -0.0028403 0.000914081 0.00397496 0.00181126 0.00441577 0.00674868 0.000547942 0.00114595 0.0100603 0.00673868
internal_weight=0 3187 1733 3166 3042 124 1656 1412 1199 368 831 244 180 126 101 805 726 64 102
internal_count=4920 3187 1733 3166 3042 124 1656 1412 1199 368 831 244 180 126 101 805 726 64 102
is_linear=0
shrinkage=0.05


end of trees

feature_importances:
f_3=125
f_15=97
f_14=72
f_2=69
f_5=64
f_1=33
f_0=20
f_4=15
f_8=15
f_22=15
f_21=9
f_20=7
f_7=6
f_6=5
f_12=4
f_13=3
f_18=3
f_9=2
f_10=2
f_16=2
f_11=1
f_17=1

parameters:
[boosting: gbdt]
[objective: regression]
[metric: binary_logloss]
[tree_learner: serial]
[device_type: cpu]
[data: ]
[valid: ]
[num_iterations: 10]
[learning_rate: 0.05]
[num_leaves: 20]
[num_threads: 0]
[deterministic: 0]
[force_col_wise: 0]
[force_row_wise: 0]
[histogram_pool_size: -1]
[max_depth: -1]
[min_data_in_leaf: 20]
[min_sum_hessian_in_leaf: 0.001]
[bagging_fraction: 0.7]
[pos_bagging_fraction: 1]
[neg_bagging_fraction: 1]
[bagging_freq: 5]
[bagging_seed: 3]
[feature_fraction: 0.9]
[feature_fraction_bynode: 1]
[feature_fraction_seed: 2]
[extra_trees: 0]
[extra_seed: 6]
[early_stopping_round: 0]
[first_metric_only: 0]
[max_delta_step: 0]
[lambda_l1: 0]
[lambda_l2: 0]
[linear_lambda: 0]
[min_gain_to_split: 0]
[drop_rate: 0.1]
[max_drop: 50]
[skip_drop: 0.5]
[xgboost_dart_mode: 0]
[uniform_drop: 0]
[drop_seed: 4]
[top_rate: 0.2]
[other_rate: 0.1]
[min_data_per_group: 100]
[max_cat_threshold: 32]
[cat_l2: 10]
[cat_smooth: 10]
[max_cat_to_onehot: 4]
[top_k: 20]
[monotone_constraints: ]
[monotone_constraints_method: basic]
[monotone_penalty: 0]
[feature_contri: ]
[forcedsplits_filename: ]
[refit_decay_rate: 0.9]
[cegb_tradeoff: 1]
[cegb_penalty_split: 0]
[cegb_penalty_feature_lazy: ]
[cegb_penalty_feature_coupled: ]
[path_smooth: 0]
[interaction_constraints: ]
[verbosity: 0]
[saved_feature_importance_type: 0]
[linear_tree: 0]
[max_bin: 255]
[max_bin_by_feature: ]
[min_data_in_bin: 3]
[bin_construct_sample_cnt: 200000]
[data_random_seed: 1]
[is_enable_sparse: 1]
[enable_bundle: 1]
[use_missing: 1]
[zero_as_missing: 0]
[feature_pre_filter: 1]
[pre_partition: 0]
[two_round: 0]
[header: 0]
[label_column: ]
[weight_column: ]
[group_column: ]
[ignore_column: ]
[categorical_feature: ]
[forcedbins_filename: ]
[precise_float_parser: 0]
[objective_seed: 5]
[num_class: 1]
[is_unbalance: 0]
[scale_pos_weight: 1]
[sigmoid: 1]
[boost_from_average: 1]
[reg_sqrt: 0]
[alpha: 0.9]
[fair_c: 1]
[poisson_max_delta_step: 0.7]
[tweedie_variance_power: 1.5]
[lambdarank_truncation_level: 30]
[lambdarank_norm: 1]
[label_gain: ]
[eval_at: ]
[multi_error_top_k: 1]
[auc_mu_weights: ]
[num_machines: 1]
[local_listen_port: 12400]
[time_out: 120]
[machine_list_filename: ]
[machines: ]
[gpu_platform_id: -1]
[gpu_device_id: -1]
[gpu_use_dp: 0]
[num_gpu: 1]

end of parameters

pandas_categorical:[]
