tree
version=v3
num_class=1
num_tree_per_iteration=1
label_index=0
max_feature_idx=22
objective=regression
feature_names=f_0 f_1 f_2 f_3 f_4 f_5 f_6 f_7 f_8 f_9 f_10 f_11 f_12 f_13 f_14 f_15 f_16 f_17 f_18 f_19 f_20 f_21 f_22
feature_infos=[3.5138360446667107e-07:0.0066553821535006137] [2.5600331918768856e-06:0.0039732576088439284] [9.2225614268401974e-06:0.0029579505118275174] [0.53000000000000003:6.5599999999999996] [-33.000000000000007:46] [2.4100000000000001:21.82] [-101.00000000000016:144.99999999999994] [-0.15710919088766695:0.17837578087457961] [-81:74] [-46:33.999999999999986] [-51.000000000000021:33.999999999999986] [-33.000000000000007:27.999999999999979] [-41:96.000000000000014] [-36.000000000000007:32.999999999999986] [-0.52000000000000002:2.9100000000000001] [-0.94999999999999996:3.8500000000000001] [-52:73.999999999999972] [-28.000000000000004:24.000000000000004] [-0.29572649572649579:0.64215246636771273] [-0.02958455728073861:0.047292143401983289] [-0.054746473503621829:0.033993115318416534] [-0.039377561323276189:0.045346674363414774] [-0.019984292877423981:0.018327052533256172]
tree_sizes=1798 1868 1897 1883 1878 1869 1869 1883 1860 1890

Tree=0
num_leaves=20
num_cat=0
split_feature=3 2 14 2 3 19 7 15 3 14 2 0 2 3 15 7 3 3 8
split_gain=13.1364 3.88659 3.7651 4.44585 3.48095 3.30307 2.96214 2.87936 3.7337 3.37923 2.4847 2.44555 2.34102 2.23188 2.04953 2.08192 2.01524 2.09186 2.01042
threshold=1.385 0.00079495537080474571 1.2850000000000004 0.00015136415005260825 0.56500000000000006 -0.002664749819608236 -0.0044348995618031508 2.8050000000000002 3.0250000000000004 1.7850000000000004 2.4297977801654459e-05 0.00027416650506405113 1.5478480788404975e-05 5.4050000000000011 0.69500000000000006 0.0013434945401823441 5.2150000000000007 6.0750000000000002 1.9999999999999936
decision_type=2 2 2 2 2 2 2 2 2 2 2 2 2 2 2 2 2 2 2
left_child=4 2 3 -2 -1 14 -5 8 10 -9 -4 18 -7 -10 -6 -16 -3 -18 -11
right_child=1 16 7 6 5 12 -8 9 13 11 -12 -13 -14 -15 15 -17 17 -19 -20
leaf_value=0.27795925297436508 0.27616739517619998 0.29187294345055559 0.27996818154579367 0.27386052109030712 0.25935129842891058 0.25202175297436508 0.26079846237607451 0.28889675297436512 0.28473008630769842 0.26755451378861445 0.26252312660073873 0.27720320458726833 0.26080851768024743 0.26444023123523469 0.26369183494157822 0.27300692246589053 0.26545925297436512 0.28548766206527421 0.25452175297436508
leaf_weight=32 218 21 21 69 88 80 117 20 33 393 728 62 1445 23 122 118 32 22 32
leaf_count=32 218 21 21 69 88 80 117 20 33 393 728 62 1445 23 122 118 32 22 32
internal_value=0.264628 0.267589 0.267102 0.271322 0.261609 0.261327 0.265644 0.265802 0.263943 0.268754 0.263012 0.267927 0.260348 0.276397 0.265878 0.268272 0.27873 0.273619 0.266573
internal_weight=0 1791 1716 404 1885 1853 186 1312 805 507 749 487 1525 56 328 240 75 54 425
internal_count=3676 1791 1716 404 1885 1853 186 1312 805 507 749 487 1525 56 328 240 75 54 425
is_linear=0
shrinkage=1


Tree=1
num_leaves=20
num_cat=0
split_feature=5 1 19 2 3 19 12 2 12 1 3 18 5 1 5 0 16 3 21
split_gain=12.8737 3.59331 3.18433 3.17044 2.88188 2.58714 2.38282 2.39029 2.7949 4.08375 2.95711 3.05249 2.47436 2.43877 2.22357 2.3979 2.10096 2.04827 2.12917
threshold=5.3450000000000006 2.1385813771021047e-05 -0.015224678364860243 1.627558896224e-05 0.56500000000000006 -0.0045599464112618384 -1 0.00079495537080474571 2.1666666666666616 7.6878958991197669e-05 1.925 -0.039785839557968709 6.3450000000000006 4.5459384900924521e-05 5.5250000000000012 0.00027416650506405113 -6.2499999999999991 3.0250000000000004 -0.0017671414324958443
decision_type=2 2 2 2 2 2 2 2 2 2 2 2 2 2 2 2 2 2 2
left_child=3 -2 -3 -1 -5 16 14 8 9 10 11 -8 13 -13 -4 -16 -6 18 -11
right_child=1 2 6 4 5 -7 7 -9 -10 17 -12 12 -14 -15 15 -17 -18 -19 -20
leaf_value=-0.011256894673786912 -0.01326075796969235 0.021017165596668538 0.01512469707623772 0.012664537923410536 0.017588823607989721 -0.0031221396659831331 -0.0026238572338353034 0.017046375290767565 -0.00079533408085505168 -0.0012418097200025107 -0.0022696346044540406 0.021682990988095605 0.023663618510038082 0.0032786921328968478 -0.0031712529031520196 0.0061633335365043895 0.0010018908480803172 0.016276439080635707 0.0049663225390824926
leaf_weight=102 32 26 23 32 21 1739 23 37 228 207 32 30 71 45 282 91 210 30 415
leaf_count=102 32 26 23 32 21 1739 23 37 228 207 32 30 71 45 282 91 210 30 415
internal_value=0 0.00332274 0.00366734 -0.00265807 -0.00221997 -0.00246175 0.00336939 0.00454992 0.0041222 0.00543662 0.0116675 0.0143065 0.0169736 0.0106404 3.64598e-05 -0.000893914 0.00250979 0.00351574 0.00290027
internal_weight=0 1572 1540 2104 2002 1970 1514 1118 1081 853 201 169 146 75 396 373 231 652 622
internal_count=3676 1572 1540 2104 2002 1970 1514 1118 1081 853 201 169 146 75 396 373 231 652 622
is_linear=0
shrinkage=0.05


Tree=2
num_leaves=20
num_cat=0
split_feature=5 1 2 2 3 1 5 3 5 2 21 3 15 14 1 1 12 0 1
split_gain=11.6185 3.24296 2.86133 2.71181 2.9791 3.42491 2.72303 2.6009 2.5464 3.0216 2.38076 2.21212 2.14288 2.04893 2.7277 2.52088 2.03029 2.00853 1.87349
threshold=5.3450000000000006 2.1385813771021047e-05 1.627558896224e-05 0.00079495537080474571 1.7850000000000004 6.7506145343790131e-05 6.3450000000000006 0.56500000000000006 6.9750000000000005 0.00025615468592144375 -0.001853548538254812 1.6650000000000003 -0.094999999999999987 2.3250000000000006 0.0002844075817097918 9.5811429149684303e-05 1.0000000180025095e-35 0.00029294299535326018 1.2261793181229876e-05
decision_type=2 2 2 2 2 2 2 2 2 2 2 2 2 2 2 2 2 2 2
left_child=2 -2 -1 4 5 6 -3 -4 13 -10 17 -8 -9 14 -7 -15 -17 -6 -14
right_child=1 3 7 -5 10 8 11 12 9 -11 -12 -13 18 15 -16 16 -18 -19 -20
leaf_value=-0.010694049503289019 -0.012597720348276199 0.0072239846914215426 0.012031310796737672 0.012757118960221608 -0.005212148846614929 -0.0043278480146793606 0.0085081972181797038 -0.008594348945189267 0.010201728052994205 -0.0091149120875026867 0.0029803106257416698 0.028976739536632191 0.0075456556444074598 -0.0051410024364789333 0.0099057578459018619 0.024476299285888674 0.0033876725605555946 0.0043200048406918847 -0.0021730360848021069
leaf_weight=102 32 113 32 75 210 188 22 128 169 23 521 33 51 24 41 25 21 75 1791
leaf_count=102 32 113 32 75 210 188 22 128 169 23 521 33 51 24 41 25 21 75 1791
internal_value=0 0.00315661 -0.00252516 0.00348397 0.00300923 0.00550279 0.011665 -0.00210897 0.00339433 0.00788776 0.00097046 0.0207893 -0.00233866 0.000508914 -0.00177947 0.00799521 0.0148489 -0.00270369 -0.00190395
internal_weight=0 1572 2104 1540 1465 659 168 2002 491 192 806 55 1970 299 229 70 46 285 1842
internal_count=3676 1572 2104 1540 1465 659 168 2002 491 192 806 55 1970 299 229 70 46 285 1842
is_linear=0
shrinkage=0.05


Tree=3
num_leaves=20
num_cat=0
split_feature=5 2 3 13 16 6 1 1 6 19 12 0 3 3 12 6 3 0 3
split_gain=10.683 3.05963 2.82195 2.33239 2.2263 2.15168 3.67134 2.07738 2.03296 1.86889 2.14212 2.80418 1.80311 1.86695 1.62839 1.55774 2.2372 1.51968 2.49564
threshold=4.535000000000001 0.00079495537080474571 0.56500000000000006 -1.0000000180025095e-35 -1.9999999999999976 7.0000000000000071 4.4945515754861363e-05 1.7293513941028839e-05 12.999999999999947 0.008342932271532601 2.5000000000000138 0.00017972022092365962 5.2150000000000007 6.0750000000000002 -4.0000000000000009 -18.999999999999858 4.5700000000000012 0.00028712304409886385 2.3250000000000006
decision_type=2 2 2 2 2 2 2 2 2 2 2 2 2 2 2 2 2 2 2
left_child=2 3 -1 8 9 7 -7 -4 17 10 11 -5 -3 -14 -10 -6 -17 -2 -19
right_child=1 12 5 4 15 6 -8 -9 14 -11 -12 -13 13 -15 -16 16 -18 18 -20
leaf_value=0.011429744958877565 -0.002913182942333625 0.024551157298542205 -0.0094626885756284376 0.0087265691951029286 -0.0082699170861488727 0.016292802803218365 -0.0041027250258546125 -0.0033800657643138516 0.0012148275463418528 0.014902591340395869 -0.005601792652969775 -0.00028032119153067472 -0.00042396527715027332 0.018497150797735562 0.016997664765669749 0.001572847629109557 0.018471265807747841 0.019335955878098807 -0.0040449042320251467
leaf_weight=32 449 21 158 266 39 36 57 1258 44 49 46 128 32 22 26 947 20 21 25
leaf_count=32 449 21 158 266 39 36 57 1258 44 49 46 128 32 22 26 947 20 21 25
internal_value=0 0.00219933 -0.00326333 0.00183817 0.00287245 -0.00357491 0.00379232 -0.00405878 -0.000898575 0.00563994 0.00460842 0.00580047 0.0121193 0.00728464 0.00707702 0.00152722 0.00192235 -0.00202644 0.00662897
internal_weight=0 2135 1541 2060 1495 1509 93 1416 565 489 440 394 75 54 70 1006 967 495 46
internal_count=3676 2135 1541 2060 1495 1509 93 1416 565 489 440 394 75 54 70 1006 967 495 46
is_linear=0
shrinkage=0.05


Tree=4
num_leaves=20
num_cat=0
split_feature=3 19 14 2 2 3 19 3 15 3 1 14 2 14 15 10 3 7 13
split_gain=9.26486 3.00706 2.5247 3.52332 2.7522 3.8982 2.4078 2.63936 2.29667 2.72339 2.65316 2.60293 2.63923 2.46521 2.50846 2.5602 2.73964 2.29301 1.77235
threshold=1.385 -0.015224678364860243 1.2850000000000004 0.00015136415005260825 0.0003959031665177832 2.2450000000000006 -0.002664749819608236 0.56500000000000006 2.8050000000000002 3.0250000000000004 7.624627168555669e-05 1.5950000000000004 7.0721690370348226e-05 1.9650000000000001 2.9450000000000007 -6.9999999999999938 1.5850000000000002 -0.0044348995618031508 5.749999999999984
decision_type=2 2 2 2 2 2 2 2 2 2 2 2 2 2 2 2 2 2 2
left_child=6 -2 3 -3 8 -6 -1 -8 9 10 11 12 -4 -10 -15 -16 -17 -5 -7
right_child=1 2 4 17 5 18 7 -9 13 -11 -12 -13 -14 14 15 16 -18 -19 -20
leaf_value=0.0013605341928579458 0.018746086795415198 0.010056097150124886 0.0024391936354858932 0.0079811624744359193 0.028141228333115578 0.0017228905285630273 0.010858257906511426 -0.0036512893623993044 0.010966257532922234 0.016361357484545029 -0.0047151550436611281 -0.0021053814006095034 0.018563773234685263 0.009219056080622845 0.011855501017054997 0.0069997633341699842 -0.0047361131607149753 -0.0035463030686822988 0.017021817746369735
leaf_weight=328 28 216 86 68 20 107 32 1525 82 21 383 196 36 83 37 64 223 118 23
leaf_count=328 28 216 86 68 20 107 32 1525 82 21 383 196 36 83 37 64 223 118 23
internal_value=0 0.00248908 0.00223088 0.00571237 0.00120255 0.00759117 -0.00253289 -0.00335308 0.000411227 -0.00138075 -0.00191226 0.00146356 0.00719727 0.00305706 0.00146355 -0.000523194 -0.00211905 0.000668039 0.00442962
internal_weight=0 1791 1763 402 1361 150 1885 1557 1211 722 701 318 122 489 407 324 287 186 130
internal_count=3676 1791 1763 402 1361 150 1885 1557 1211 722 701 318 122 489 407 324 287 186 130
is_linear=0
shrinkage=0.05


Tree=5
num_leaves=20
num_cat=0
split_feature=5 14 19 3 14 0 5 12 2 0 17 14 14 1 5 0 8 8 11
split_gain=8.64441 3.50166 2.74256 2.85046 2.47494 2.56698 4.34912 2.4678 2.40304 2.37561 2.08544 1.95197 4.00286 1.94097 2.27885 1.85913 1.82762 1.81405 2.87991
threshold=6.3650000000000011 -0.18499999999999997 -0.0055864668951659526 0.56500000000000006 2.5850000000000004 0.00016372167809122648 7.7950000000000008 -0.50000000000000588 0.00020584368094768589 0.00013632089715384418 -3.9999999999999862 1.135 1.3050000000000004 0.00016127300123694045 7.2950000000000008 0.00029294299535326018 -1.0000000000000118 0.50000000000004496 5.2500000000000222
decision_type=2 2 2 2 2 2 2 2 2 2 2 2 2 2 2 2 2 2 2
left_child=2 -2 10 -4 5 6 7 16 -5 -9 -1 -7 -13 -14 15 -15 -3 18 -12
right_child=1 4 3 8 -6 11 -8 9 -10 -11 17 12 13 14 -16 -17 -18 -19 -20
leaf_value=0.01289282288662223 0.022248345116774242 0.0081934132036708667 0.013063189181788216 -0.0030940096828723429 -0.0068407840171798339 -0.0076263972280318287 0.011747052948368659 0.003196304691153647 0.0039519368147011846 0.020445937501347586 0.0012104901499473131 0.020860717086880295 -0.0074935281585002764 0.0018497824668884278 0.00068686984384515488 0.020116951366265616 -0.0086527008617269825 -0.0054191775816051588 0.020771815052086657
leaf_weight=43 24 21 29 2216 61 57 202 151 128 23 130 27 58 26 314 30 69 76 22
leaf_count=43 24 21 29 2216 61 57 202 151 128 23 130 27 58 26 314 30 69 76 22
internal_value=0 0.0033666 -0.0019723 -0.0025165 0.00293044 0.0035399 0.00622495 0.00199971 -0.00270925 0.00547643 0.00279291 0.00109607 0.00218878 0.00101088 0.002344 0.0116358 -0.00472194 0.000888097 0.00404173
internal_weight=0 1063 2644 2373 1039 978 466 264 2344 174 271 512 455 428 370 56 90 228 152
internal_count=3707 1063 2644 2373 1039 978 466 264 2344 174 271 512 455 428 370 56 90 228 152
is_linear=0
shrinkage=0.05


Tree=6
num_leaves=20
num_cat=0
split_feature=5 12 0 13 3 0 5 12 15 2 19 0 19 7 15 3 5 5 15
split_gain=8.01389 4.00968 3.21184 3.05896 2.80938 2.3611 2.39676 2.27673 2.04264 2.2897 2.02364 1.95923 2.22062 2.16372 2.13973 1.91585 1.89259 2.16186 1.87668
threshold=4.6550000000000011 -1 5.344378791053253e-05 1.0000000000000122 0.56500000000000006 0.00017520244809811979 7.2550000000000008 -5.0000000000000151 3.0250000000000004 0.00014574380346415658 -0.0089128146296259519 5.1707414060151744e-05 -0.004177798567430834 -0.003721119629882141 1.7150000000000001 3.1250000000000004 4.9650000000000007 5.1450000000000005 3.0550000000000002
decision_type=2 2 2 2 2 2 2 2 2 2 2 2 2 2 2 2 2 2 2
left_child=4 2 -2 5 -1 6 16 -4 -7 -10 -6 -8 -13 14 -14 -5 -3 -18 -15
right_child=1 3 7 15 10 8 11 -9 9 -11 -12 12 13 18 -16 -17 17 -19 -20
leaf_value=0.01241002956341053 -0.0076555209637385368 0.0095957253738993501 0.0067759859018793741 -0.0021569780389995349 0.0078156638517975809 -0.00021969779881078806 0.020953591409567242 -0.0017859708662589112 -0.0023161521270161586 0.01906693945488622 -0.0035719446418482925 -0.0025915274748931063 0.015619127026626043 0.021225755481884399 -0.0049209927208721639 0.0081501589944729443 -0.0075996281935813582 0.0038513946978013906 0.005647761400403648
leaf_weight=29 171 122 107 339 40 335 37 283 21 31 1581 37 21 58 32 52 47 335 29
leaf_count=29 171 122 107 339 40 335 37 283 21 31 1581 37 21 58 32 52 47 335 29
internal_value=0 0.00166284 -0.00194206 0.00301467 -0.00301499 0.0043596 0.00605643 0.000563079 0.00121147 0.0104315 -0.00329094 0.0104897 0.00830239 0.0111815 0.00321755 -0.000786208 0.00417403 0.0024425 0.0160331
internal_weight=0 2057 561 1496 1650 1105 718 390 387 52 1621 214 177 140 53 391 504 382 87
internal_count=3707 2057 561 1496 1650 1105 718 390 387 52 1621 214 177 140 53 391 504 382 87
is_linear=0
shrinkage=0.05


Tree=7
num_leaves=20
num_cat=0
split_feature=5 12 0 13 3 0 5 12 20 3 2 19 19 7 8 3 5 5 0
split_gain=7.23253 3.61874 2.89868 2.76071 2.53546 2.13089 2.16307 2.05475 2.00762 2.35852 2.14593 1.82634 1.81814 1.77657 1.73643 1.72906 1.70806 1.95108 1.63292
threshold=4.6550000000000011 -1 5.344378791053253e-05 1.0000000000000122 0.56500000000000006 0.00017520244809811979 7.2550000000000008 -5.0000000000000151 -0.002958215255099927 1.5350000000000004 0.00026312080866362737 -0.0089128146296259519 0.008342932271532601 0.042016041070575445 0.999999999999999 3.1250000000000004 4.9650000000000007 5.1450000000000005 0.00025856034970510208
decision_type=2 2 2 2 2 2 2 2 2 2 2 2 2 2 2 2 2 2 2
left_child=4 2 -2 5 -1 6 16 14 9 -7 -11 -6 -8 -13 -4 -5 -3 -18 -10
right_child=1 3 7 15 11 8 12 -9 18 10 -12 13 -14 -15 -16 -17 17 -19 -20
leaf_value=0.011789529076937972 -0.0072727449499724213 0.0091159388667247342 0.0097701525670431926 -0.0020491291551815024 0.0074248804897069937 -0.0037624334161346024 0.0084450334040303311 -0.0016966723089925813 -0.0060102831189320464 0.019467972982220534 0.0029746879872522857 -0.00364553597821995 0.023936831525393897 0.0077461735904216763 -0.0057353849644246309 0.0077426509788403146 -0.0072196470137606272 0.0036588248944104612 0.0019297596612354606
leaf_weight=29 171 122 84 339 40 37 193 283 107 41 38 1546 21 35 23 52 47 335 164
leaf_count=29 171 122 84 339 40 37 193 283 107 41 38 1546 21 35 23 52 47 335 164
internal_value=0 0.00157969 -0.00184495 0.00286394 -0.00286424 0.00414162 0.00575361 0.000534925 0.00115089 0.0066553 0.0115345 -0.0031264 0.00996526 -0.00339335 0.00643719 -0.000746898 0.00396533 0.00232037 -0.00120524
internal_weight=0 2057 561 1496 1650 1105 718 390 387 116 79 1621 214 1581 107 391 504 382 271
internal_count=3707 2057 561 1496 1650 1105 718 390 387 116 79 1621 214 1581 107 391 504 382 271
is_linear=0
shrinkage=0.05


Tree=8
num_leaves=20
num_cat=0
split_feature=5 12 12 22 3 13 19 14 7 0 5 1 15 7 15 18 15 2 22
split_gain=6.5494 2.96296 2.52468 2.58149 2.32981 2.32347 1.68941 1.6632 1.60203 1.56169 2.42109 3.38489 2.15243 1.9626 2.3703 1.89551 1.72928 2.0539 1.68897
threshold=4.535000000000001 -1 -6.4999999999999938 -0.00014933000538597249 0.56500000000000006 1.0000000000000122 -0.0089128146296259519 1.3050000000000004 0.042016041070575445 0.00017520244809811979 6.3650000000000011 7.624627168555669e-05 1.675 -0.01072102536755448 3.3250000000000006 0.015335469520141866 3.0250000000000004 0.00014574380346415658 2.9298877859296194e-05
decision_type=2 2 2 2 2 2 2 2 2 2 2 2 2 2 2 2 2 2 2
left_child=4 2 3 -2 -1 9 -6 -4 -8 10 -3 12 -12 15 18 -13 -11 -18 -15
right_child=1 5 7 -5 6 -7 8 -9 -10 16 11 13 -14 14 -16 -17 17 -19 -20
leaf_value=0.011200051677638087 0.018728443075503625 0.0025621478519177953 0.0061915132734510631 0.00039027113406384578 0.0079159734003684101 -0.00063112402062336038 -0.0035963468852501152 -0.0038841353075807559 0.0077123494585976012 -0.00012115426580695545 0.027420805683059081 -0.00955401449590116 0.010834288934491716 0.0080621457650881852 -0.0043544738087803129 0.0080623165632669747 -0.0024040351311365765 0.017848096211110394 0.021710719274623053
leaf_weight=29 28 419 45 61 34 417 1468 456 32 340 31 37 53 119 32 26 21 31 28
leaf_count=29 28 419 45 61 34 417 1468 456 32 340 31 37 53 119 32 26 21 31 28
internal_value=0 0.00141603 -0.00160058 0.00615958 -0.00283986 0.00256133 -0.00310528 -0.00297914 -0.00335509 0.00373218 0.00507634 0.00830778 0.0169555 0.00530609 0.00797739 -0.00228378 0.00117759 0.00966935 0.0106619
internal_weight=0 2144 590 89 1563 1554 1534 501 1500 1137 745 326 84 242 179 63 392 52 147
internal_count=3707 2144 590 89 1563 1554 1534 501 1500 1137 745 326 84 242 179 63 392 52 147
is_linear=0
shrinkage=0.05


Tree=9
num_leaves=20
num_cat=0
split_feature=5 12 12 22 3 13 0 16 5 6 2 15 2 14 0 20 10 18 16
split_gain=5.91083 2.67407 2.27852 2.32979 2.10265 2.09693 1.57264 1.99218 1.81752 2.45547 2.29226 2.12312 1.5252 1.50104 1.49834 1.42454 2.13529 1.49027 1.4113
threshold=4.535000000000001 -1 -6.4999999999999938 -0.00014933000538597249 0.56500000000000006 1.0000000000000122 0.00011687405595036205 9.9999999999999947 3.0650000000000004 5.999999999999984 4.2421303549183374e-05 1.7250000000000003 0.00030214435714335646 1.3050000000000004 7.8730153396876785e-05 -0.0013965274163036388 -2.5000000000000129 -0.018972325356272021 12.999999999999996
decision_type=2 2 2 2 2 2 2 2 2 2 2 2 2 2 2 2 2 2 2
left_child=4 2 3 -2 -1 18 7 8 14 -10 11 -11 -7 -4 -6 -15 -17 -18 -3
right_child=1 5 13 -5 6 12 -8 -9 9 10 -12 -13 -14 15 -16 16 17 -19 -20
leaf_value=0.010640048775179633 0.017792020791343281 0.0038686481240120803 0.0058819376097785101 0.00037075747720530781 -0.00044482838377416374 -0.0019343393238362748 -0.0072730841105048726 0.01256572096185251 -0.004318593674879365 0.0019414161642392477 -0.0029774411904568577 0.024704131856560708 0.0062509502229445126 -0.0069669230297828722 0.010468225284583039 0.0042708373986757716 0.00068080115186817513 -0.0090806495641236728 -0.006059388997586998
leaf_weight=29 28 1100 45 61 249 349 185 22 952 21 49 20 68 192 36 104 68 92 37
leaf_count=29 28 1100 45 61 249 349 185 22 952 21 49 20 68 192 36 104 68 92 37
internal_value=0 0.00134523 -0.00152055 0.0058516 -0.00269786 0.00243327 -0.00295002 -0.00235716 -0.00260456 -0.00357231 0.00432175 0.0130452 -0.000599568 -0.00283018 0.000933663 -0.00368993 -0.00130666 -0.00493203 0.00354557
internal_weight=0 2144 590 89 1563 1554 1534 1349 1327 1042 90 41 417 501 285 456 264 160 1137
internal_count=3707 2144 590 89 1563 1554 1534 1349 1327 1042 90 41 417 501 285 456 264 160 1137
is_linear=0
shrinkage=0.05


end of trees

feature_importances:
f_3=30
f_5=22
f_2=19
f_0=17
f_12=14
f_1=13
f_14=12
f_15=12
f_19=12
f_7=7
f_13=6
f_6=4
f_8=4
f_16=4
f_18=3
f_22=3
f_10=2
f_20=2
f_21=2
f_11=1
f_17=1

parameters:
[boosting: gbdt]
[objective: regression]
[metric: binary_logloss]
[tree_learner: serial]
[device_type: cpu]
[data: ]
[valid: ]
[num_iterations: 10]
[learning_rate: 0.05]
[num_leaves: 20]
[num_threads: 0]
[deterministic: 0]
[force_col_wise: 0]
[force_row_wise: 0]
[histogram_pool_size: -1]
[max_depth: -1]
[min_data_in_leaf: 20]
[min_sum_hessian_in_leaf: 0.001]
[bagging_fraction: 0.7]
[pos_bagging_fraction: 1]
[neg_bagging_fraction: 1]
[bagging_freq: 5]
[bagging_seed: 3]
[feature_fraction: 0.9]
[feature_fraction_bynode: 1]
[feature_fraction_seed: 2]
[extra_trees: 0]
[extra_seed: 6]
[early_stopping_round: 0]
[first_metric_only: 0]
[max_delta_step: 0]
[lambda_l1: 0]
[lambda_l2: 0]
[linear_lambda: 0]
[min_gain_to_split: 0]
[drop_rate: 0.1]
[max_drop: 50]
[skip_drop: 0.5]
[xgboost_dart_mode: 0]
[uniform_drop: 0]
[drop_seed: 4]
[top_rate: 0.2]
[other_rate: 0.1]
[min_data_per_group: 100]
[max_cat_threshold: 32]
[cat_l2: 10]
[cat_smooth: 10]
[max_cat_to_onehot: 4]
[top_k: 20]
[monotone_constraints: ]
[monotone_constraints_method: basic]
[monotone_penalty: 0]
[feature_contri: ]
[forcedsplits_filename: ]
[refit_decay_rate: 0.9]
[cegb_tradeoff: 1]
[cegb_penalty_split: 0]
[cegb_penalty_feature_lazy: ]
[cegb_penalty_feature_coupled: ]
[path_smooth: 0]
[interaction_constraints: ]
[verbosity: 0]
[saved_feature_importance_type: 0]
[linear_tree: 0]
[max_bin: 255]
[max_bin_by_feature: ]
[min_data_in_bin: 3]
[bin_construct_sample_cnt: 200000]
[data_random_seed: 1]
[is_enable_sparse: 1]
[enable_bundle: 1]
[use_missing: 1]
[zero_as_missing: 0]
[feature_pre_filter: 1]
[pre_partition: 0]
[two_round: 0]
[header: 0]
[label_column: ]
[weight_column: ]
[group_column: ]
[ignore_column: ]
[categorical_feature: ]
[forcedbins_filename: ]
[precise_float_parser: 0]
[objective_seed: 5]
[num_class: 1]
[is_unbalance: 0]
[scale_pos_weight: 1]
[sigmoid: 1]
[boost_from_average: 1]
[reg_sqrt: 0]
[alpha: 0.9]
[fair_c: 1]
[poisson_max_delta_step: 0.7]
[tweedie_variance_power: 1.5]
[lambdarank_truncation_level: 30]
[lambdarank_norm: 1]
[label_gain: ]
[eval_at: ]
[multi_error_top_k: 1]
[auc_mu_weights: ]
[num_machines: 1]
[local_listen_port: 12400]
[time_out: 120]
[machine_list_filename: ]
[machines: ]
[gpu_platform_id: -1]
[gpu_device_id: -1]
[gpu_use_dp: 0]
[num_gpu: 1]

end of parameters

pandas_categorical:[]
