tree
version=v3
num_class=1
num_tree_per_iteration=1
label_index=0
max_feature_idx=22
objective=regression
feature_names=f_0 f_1 f_2 f_3 f_4 f_5 f_6 f_7 f_8 f_9 f_10 f_11 f_12 f_13 f_14 f_15 f_16 f_17 f_18 f_19 f_20 f_21 f_22
feature_infos=[2.811842593898112e-07:0.0089292451603560918] [2.1333248529010825e-06:0.0055990001705921817] [4.7857545124566229e-06:0.003721014941950642] [0.53000000000000003:6.5599999999999996] [-33.000000000000007:48] [2.4100000000000001:21.82] [-101.00000000000016:144.99999999999994] [-3.0196613872200984:0.53086419753086433] [-81:74] [-46:33.999999999999986] [-51.000000000000021:33.999999999999986] [-33.000000000000007:29.000000000000004] [-41:96.000000000000014] [-36.000000000000007:32.999999999999986] [-0.83999999999999997:2.9100000000000001] [-1.3200000000000001:3.8500000000000001] [-52:73.999999999999972] [-28.000000000000004:24.000000000000004] [-0.29572649572649579:1.1559792027729636] [-0.02958455728073861:0.047292143401983289] [-0.054746473503621829:0.033993115318416534] [-0.078445945945946005:0.045346674363414774] [-0.019984292877423981:0.018327052533256172]
tree_sizes=1820 1848 1830 1873 1866 1847 1893 1845 1872 1892 1897 1861 1921 1864 1884 1928 1875 1894 1914 1857 1889 1876 1889 1881 1876 1880 1893 1898 1887 1878

Tree=0
num_leaves=20
num_cat=0
split_feature=3 1 14 3 2 3 3 14 3 3 15 3 1 14 15 2 3 3 14
split_gain=8.9432 3.6963 2.68698 2.025 1.94892 1.69906 1.64091 2.20909 1.14887 2.20495 1.22399 2.01985 3.22983 0.974467 2.93481 1.43924 2.92626 1.43624 1.69949
threshold=3.3850000000000002 7.9925596914748361e-05 1.7750000000000001 5.5100000000000007 0.0005349959132697346 1.2850000000000004 5.6100000000000003 2.0350000000000006 2.2850000000000006 2.2150000000000003 2.8650000000000007 1.925 0.00019129264492752891 1.2950000000000002 1.9950000000000003 0.00013264321833433463 1.7450000000000003 1.5150000000000003 0.37500000000000006
decision_type=2 2 2 2 2 2 2 2 2 2 2 2 2 2 2 2 2 2 2
left_child=1 -1 3 -2 -4 -3 -6 -8 9 10 13 12 -12 14 15 16 -7 18 -17
right_child=2 5 4 -5 6 8 7 -9 -10 -11 11 -13 -14 -15 -16 17 -18 -19 -20
leaf_value=0.048682204480001136 0.085195362238715863 0.049549667007268018 0.047695362378414249 0.062695362322534892 0.075195362275968763 0.053447574746366119 0.047695362378414249 0.07019536229459522 0.049446335134537285 0.065877180492499882 0.054770834050169269 0.047695362378414249 0.071445362289938613 0.049682117337900428 0.071504886099240675 0.057695362341161349 0.071769436362805417 0.049042163720198373 0.047695362378414249
leaf_weight=2584 20 755 29 20 20 113 24 20 257 33 106 50 40 302 21 135 27 297 62
leaf_count=2584 20 755 29 20 20 113 24 20 257 33 106 50 40 302 21 135 27 297 62
internal_value=0.0502056 0.0499643 0.0631089 0.0739454 0.0584481 0.0514715 0.0633204 0.0579226 0.0524771 0.0531338 0.0527691 0.0563688 0.0593392 0.0520318 0.0531152 0.0525061 0.0569811 0.0512379 0.0545482
internal_weight=0 4782 133 40 93 2198 64 44 1443 1186 1153 196 146 957 655 634 140 494 197
internal_count=4915 4782 133 40 93 2198 64 44 1443 1186 1153 196 146 957 655 634 140 494 197
is_linear=0
shrinkage=1


Tree=1
num_leaves=20
num_cat=0
split_feature=3 5 14 1 2 3 5 3 11 5 3 5 3 3 2 3 3 0 17
split_gain=8.07124 3.94138 4.28716 3.33591 3.12422 1.53341 1.94819 1.73728 1.11247 0.82436 0.7523 2.37097 2.36319 2.46641 2.34145 3.37707 2.21616 1.2429 1.17708
threshold=3.3850000000000002 16.830000000000002 1.9350000000000003 7.9925596914748361e-05 0.00089651303903960275 1.2850000000000004 4.3650000000000011 1.3650000000000004 1.0000000000000455 5.2750000000000012 2.2850000000000006 6.9350000000000014 2.2150000000000003 1.905 0.00022520425748149455 1.7250000000000003 1.7550000000000001 0.00083847046510839821 0.50000000000000611
decision_type=2 2 2 2 2 2 2 2 2 2 2 2 2 2 2 2 2 2 2
left_child=3 2 -2 9 -4 -5 7 -7 -9 -1 11 17 13 14 15 -13 -17 -8 -18
right_child=1 -3 4 5 -6 6 10 8 -10 -11 -12 12 -14 -15 -16 16 18 -19 -20
leaf_value=-0.0018830800861848506 0.033203941355309179 -0.00041155384055205759 0.0022371068596839907 -0.00062317858098555876 0.026440231483429673 0.0014782666521412986 5.3887394685958311e-06 0.024355146204206077 0.0084543613039634435 0.00038279111851269093 -0.00072134409665133706 0.0028010837652761005 0.01978306372005206 -0.0013518161847627253 -0.00051375237832728185 0.028907070875167848 0.0053043205995817449 0.011366627179086208 0.017404413790526718
leaf_weight=2087 31 42 40 755 20 35 649 22 22 497 257 92 26 133 76 25 37 25 44
leaf_count=2087 31 42 40 755 20 35 649 22 22 497 257 92 26 133 76 25 37 25 44
internal_value=0 0.0122581 0.0181056 -0.000229289 0.0103048 0.00120258 0.00215785 0.00979175 0.0164048 -0.00144727 0.00171571 0.0022815 0.00516848 0.00423487 0.00694666 0.00981026 0.0158937 0.0004268 0.0118772
internal_weight=0 133 91 4782 60 2198 1443 79 44 2584 1364 1107 433 407 274 198 106 674 81
internal_count=4915 133 91 4782 60 2198 1443 79 44 2584 1364 1107 433 407 274 198 106 674 81
is_linear=0
shrinkage=0.05


Tree=2
num_leaves=20
num_cat=0
split_feature=3 5 14 1 1 3 5 3 17 15 14 1 3 3 3 3 14 21 10
split_gain=7.28429 3.60755 4.23058 3.01066 2.79529 1.3839 1.76657 1.50092 1.07549 0.882274 1.41305 1.9637 3.31146 2.75176 1.74214 1.61581 2.01484 1.91913 1.61122
threshold=3.3850000000000002 16.685000000000006 1.9350000000000003 7.9925596914748361e-05 0.00088222965584378379 1.2850000000000004 4.3850000000000007 1.3650000000000004 1.999999999999998 2.1650000000000005 2.0350000000000006 0.00019129264492752891 2.4950000000000006 2.2050000000000005 1.8750000000000002 1.635 2.2450000000000006 -0.0030501760235789317 0.50000000000005607
decision_type=2 2 2 2 2 2 2 2 2 2 2 2 2 2 2 2 2 2 2
left_child=3 2 -2 -1 -4 -5 7 -7 -9 -8 11 -11 13 -13 15 -12 -17 -18 -19
right_child=1 -3 4 5 -6 6 9 8 -10 10 14 12 -14 -15 -16 16 17 18 -20
leaf_value=-0.0013749046487612623 0.033638069978249925 0.00032037658940838737 0.0022437612597758952 -0.00059201971485914773 0.025234978562220935 0.0012911033350974323 0.0005957917382110314 0.02115274328472359 0.006184109096370992 0.0018974437074441659 -0.0010489609379034776 0.011136987521068047 -0.0024362495169043541 0.034050004910677674 -0.0019875619054326543 -0.0025926277041435244 0.0014404992370501809 0.027515527104529054 0.0095500008668750538
leaf_weight=2584 28 46 39 755 20 36 830 28 21 95 65 38 26 20 184 27 23 26 24
leaf_count=2584 28 46 39 755 20 36 830 28 21 95 65 38 26 20 184 27 23 26 24
internal_value=0 0.0116452 0.017633 -0.000217825 0.0100374 0.00114245 0.00204996 0.00904262 0.0147376 0.00161227 0.00321015 0.0068219 0.0123912 0.019038 0.00135771 0.00508819 0.00907734 0.0133936 0.0188921
internal_weight=0 133 87 4782 59 2198 1443 85 49 1358 528 179 84 58 349 165 100 73 50
internal_count=4915 133 87 4782 59 2198 1443 85 49 1358 528 179 84 58 349 165 100 73 50
is_linear=0
shrinkage=0.05


Tree=3
num_leaves=20
num_cat=0
split_feature=3 5 14 1 2 3 5 15 14 6 15 2 15 14 15 14 3 3 15
split_gain=6.57407 3.25581 3.8181 2.71712 2.5593 1.24981 1.55076 1.58235 2.01791 1.12152 0.832215 1.33268 0.795063 2.58492 0.953706 3.47366 0.939254 4.42551 2.03738
threshold=3.3850000000000002 16.685000000000006 1.9350000000000003 7.9925596914748361e-05 0.0005349959132697346 1.2750000000000001 4.3850000000000007 0.065000000000000016 0.32500000000000007 3.0000000000000031 0.40500000000000008 7.3105469268238904e-05 2.0050000000000003 1.3150000000000002 0.33500000000000008 0.24250000000000002 2.2850000000000006 2.2050000000000005 2.6125000000000003
decision_type=2 2 2 2 2 2 2 2 2 2 2 2 2 2 2 2 2 2 2
left_child=3 2 -2 -1 -4 10 7 -7 9 -9 11 -5 14 -14 15 -8 17 18 -15
right_child=1 -3 4 5 -6 6 12 8 -10 -11 -12 -13 13 16 -16 -17 -18 -19 -20
leaf_value=-0.0013061594491213238 0.031956166960299015 0.00030435789376497273 -0.0026088114827871323 0.012967891804873944 0.01846518306171193 -0.0028772994798297686 0.00020054064985168605 0.026100667161138166 0.00068407172709703456 0.010118854622400943 -0.0014684475563338092 0.00059079535557587351 0.020056808003712269 -0.002611731163427963 -0.00083216949149403385 0.01624780682983195 -0.00095467196788484544 0.024307518002266687 0.0047462645789439033
leaf_weight=2584 28 46 25 26 34 24 190 23 25 21 580 133 21 143 503 41 169 24 275
leaf_count=2584 28 46 25 26 34 24 190 23 25 21 580 133 21 143 503 41 169 24 275
internal_value=0 0.0110629 0.0167514 -0.000206934 0.00953552 0.00108533 0.00193387 0.00818127 0.0120277 0.018473 -0.00058993 0.00261472 0.00150854 0.00280851 0.000389212 0.00304876 0.00221569 0.00342789 0.00222906
internal_weight=0 133 87 4782 59 2198 1459 93 69 44 739 159 1366 632 734 231 611 442 418
internal_count=4915 133 87 4782 59 2198 1459 93 69 44 739 159 1366 632 734 231 611 442 418
is_linear=0
shrinkage=0.05


Tree=4
num_leaves=20
num_cat=0
split_feature=3 3 16 1 14 16 17 3 3 3 19 15 9 14 15 1 3 15 3
split_gain=5.94702 2.59495 2.05456 1.26416 1.19613 0.792172 0.773956 0.681671 2.06655 2.63639 1.30941 1.87978 0.820405 0.796644 2.04101 1.2113 2.47089 0.781597 0.745829
threshold=4.1000000000000005 1.3350000000000002 7.2500000000000133 3.7733710973342312e-05 1.7750000000000001 2.0000000000000013 -0.50000000000002254 1.8950000000000002 1.7250000000000003 1.7850000000000004 -0.0031017797098716322 2.7750000000000004 6.0000000000000036 2.0950000000000002 2.1650000000000005 0.00023830692300742999 2.2850000000000006 2.2950000000000004 1.6850000000000003
decision_type=2 2 2 2 2 2 2 2 2 2 2 2 2 2 2 2 2 2 2
left_child=1 -1 4 -3 -2 6 -6 8 18 10 -10 -12 -11 14 -9 17 -17 -16 -5
right_child=2 3 -4 7 5 -7 -8 13 9 12 11 -13 -14 -15 15 16 -18 -19 -20
leaf_value=-0.0012414437343518869 0.017366103331247964 -0.0017904954215074765 0.024009971007704734 0.0016315753182309764 0.0022084014862775803 -0.0036873867025687583 0.015404619826003911 -0.00074105461438496911 0.020376051403582097 0.00093406327401420906 0.0030220300344557596 0.017828916177591858 0.011646629264578224 -0.0024796447023115262 0.010692237546159463 0.02491561301538478 0.0024175911067196958 -0.00058302090083267176 -0.002604946173226633
leaf_weight=2609 24 324 25 818 25 21 20 309 31 168 58 34 20 188 22 23 26 51 119
leaf_count=2609 24 324 25 818 25 21 20 309 31 168 58 34 20 188 22 23 26 51 119
internal_value=0 -0.000176079 0.0113296 0.00109254 0.00780726 0.00433132 0.00807339 0.00159286 0.00226572 0.00579734 0.0114888 0.00849414 0.0020737 0.000236272 0.00142094 0.00689682 0.0129779 0.002815 0.00109353
internal_weight=0 4800 115 2191 90 66 45 1867 1248 311 123 92 188 619 431 122 49 73 937
internal_count=4915 4800 115 2191 90 66 45 1867 1248 311 123 92 188 619 431 122 49 73 937
is_linear=0
shrinkage=0.05


Tree=5
num_leaves=20
num_cat=0
split_feature=5 0 8 3 22 21 3 2 16 3 3 5 3 3 3 19 14 17 3
split_gain=3.85645 1.60723 1.42383 2.42776 1.15072 1.15809 1.36799 0.848945 0.833394 1.08554 1.23785 1.06579 1.17974 3.49814 0.724659 0.83844 0.727651 0.7231 0.655765
threshold=7.6050000000000013 0.0010988899644920446 3.999999999999996 3.1750000000000003 0.0033651553888832679 -0.0014295802689590074 1.2750000000000001 5.2170627775708042e-05 17.999999999999996 2.2850000000000006 2.1950000000000007 8.0250000000000004 1.675 1.8250000000000004 3.0950000000000002 0.0037807367945988939 1.8050000000000004 2.5000000000000013 1.5550000000000004
decision_type=2 2 2 2 2 2 2 2 2 2 2 2 2 2 2 2 2 2 2
left_child=1 4 8 -4 7 -6 -7 -1 9 10 11 12 -2 -14 -11 16 -16 -18 -13
right_child=2 -3 3 -5 5 6 -8 -9 -10 14 -12 18 13 -15 15 -17 17 -19 -20
leaf_value=-0.0017430662037195843 0.00054707397977190632 0.012776760248975319 0.0022653561644256116 0.024431386004601208 6.5063212958859731e-05 0.000271989069879055 0.017524953945367426 -0.00028965515197849765 0.012264384794980288 -0.002330833690978537 0.015210036747157575 0.0092793652862310418 0.026877630820187431 0.00086372468753584798 0.013369885561141102 -0.003562953747395012 -0.0011851334262911867 0.0097425522903601333 0.00069258401902457379
leaf_weight=1759 31 22 30 21 71 20 27 2343 22 149 24 25 24 28 22 36 41 24 201
leaf_count=1759 31 22 30 21 71 20 27 2343 22 149 24 25 24 28 22 36 41 24 201
internal_value=0 -0.000702592 0.00335853 0.0113925 -0.000772863 0.0040952 0.0101833 -0.0009129 0.00270505 0.00235744 0.00427159 0.00342201 0.00826755 0.0128701 1.39989e-05 0.00285449 0.00550998 0.0028497 0.00164245
internal_weight=0 4242 678 51 4220 118 47 4102 627 605 333 309 83 52 272 123 87 65 226
internal_count=4920 4242 678 51 4220 118 47 4102 627 605 333 309 83 52 272 123 87 65 226
is_linear=0
shrinkage=0.05


Tree=6
num_leaves=20
num_cat=0
split_feature=5 0 0 1 15 2 15 15 3 3 7 22 21 0 15 2 0 2 3
split_gain=3.48298 1.45183 1.21207 2.57628 1.16908 2.09672 5.32215 1.98609 1.34382 2.33212 1.65252 1.04125 1.04517 1.27162 0.896925 1.09688 0.833359 0.807582 0.509851
threshold=7.5850000000000009 0.0010988899644920446 0.001463739289640599 0.0027530797771282518 3.2450000000000006 0.00011023774731996452 1.5650000000000002 3.0450000000000004 3.0950000000000002 5.5100000000000007 -0.0057685511748630227 0.0033651553888832679 -0.0014295802689590074 7.8653689270777872e-05 2.8050000000000002 0.00020755779600017919 0.00018444028088361689 6.6035743950678717e-05 0.56500000000000006
decision_type=2 2 2 2 2 2 2 2 2 2 2 2 2 2 2 2 2 2 2
left_child=1 11 4 -4 5 6 -2 8 14 10 -10 17 -13 -14 -7 -16 -9 -1 -19
right_child=2 -3 3 -5 -6 7 -8 16 9 -11 -12 12 13 -15 15 -17 -18 18 -20
leaf_value=-0.0015619788830274308 0.030845099582296351 0.012137922551482917 0.023727146970729033 -0.0013474368397146464 -0.0021989307038131215 -0.00050979179180139463 -0.0028132721936951085 0.0060757728759199383 0.026057686414569615 -0.00082728054205125036 0.0064060470494239231 6.1809995644529107e-05 0.0016229436577608189 0.018075313751140368 0.015712965698912739 -0.00064833212998651325 0.020509747704491019 0.0064250113570998458 -0.00025319269223265131
leaf_weight=2087 23 22 21 20 105 329 24 20 20 44 23 71 24 23 20 21 20 29 1974
leaf_count=2087 23 22 21 20 105 329 24 20 20 44 23 71 24 23 20 21 20 29 1974
internal_value=0 -0.000673102 0.00315808 0.0114956 0.00263137 0.00356368 0.0136578 0.00260911 0.00167399 0.00726543 0.0155463 -0.00074008 0.00389044 0.0096741 0.000359251 0.00733279 0.0132928 -0.000873674 -0.000156504
internal_weight=0 4230 690 41 649 544 47 497 457 87 43 4208 118 47 370 41 40 4090 2003
internal_count=4920 4230 690 41 649 544 47 497 457 87 43 4208 118 47 370 41 40 4090 2003
is_linear=0
shrinkage=0.05


Tree=7
num_leaves=20
num_cat=0
split_feature=5 0 8 3 2 3 15 15 2 2 14 3 8 14 5 3 14 15 14
split_gain=3.14658 1.3092 1.25589 2.08468 0.886676 0.686593 1.21361 1.38508 3.75317 2.08925 1.39821 0.71671 1.40703 0.615667 0.615016 1.67688 0.521208 2.18955 1.85897
threshold=7.6050000000000013 0.0010988899644920446 3.999999999999996 3.1750000000000003 6.6035743950678717e-05 1.925 0.28500000000000009 2.8050000000000002 0.00012787927812852091 0.00010714886737553316 1.9550000000000003 3.0950000000000002 -5.0000000000000009 1.7250000000000003 9.1250000000000018 2.2850000000000006 0.39500000000000007 1.655 0.21500000000000002
decision_type=2 2 2 2 2 2 2 2 2 2 2 2 2 2 2 2 2 2 2
left_child=1 4 5 -4 -1 6 -2 9 -9 -8 -10 14 -13 -14 -7 -16 17 -6 -19
right_child=2 -3 3 -5 16 11 7 8 10 -11 -12 12 13 -15 15 -17 -18 18 -20
leaf_value=-0.0014138386698181599 0.014481085104246935 0.011531026153401895 0.0021214718061188858 0.022661655112391429 0.00035938464026847493 -0.002362828647846696 0.013669939355357832 -0.00321380683220923 0.0074266818538308152 -0.002926895939917476 0.024736113254246968 0.016267112717032434 0.0090043384116142988 -8.6430377430386021e-06 0.012206119869745548 -0.0022430770327908954 -0.00062569464430772077 0.00088958868189998306 0.020403918709892496
leaf_weight=2136 27 22 30 21 809 159 23 40 20 108 28 20 24 90 31 57 1226 23 26
leaf_count=2136 27 22 30 21 809 159 23 40 20 108 28 20 24 90 31 57 1226 23 26
internal_value=0 -0.000634529 0.00303383 0.0105792 -0.000697952 0.00242009 0.00447921 0.0032461 0.00809764 -1.29478e-05 0.0175239 0.00109059 0.00403484 0.00188883 -0.000506702 0.00284698 3.5798e-05 0.000981008 0.0112441
internal_weight=0 4242 678 51 4220 627 246 219 88 131 48 381 134 114 247 88 2084 858 49
internal_count=4920 4242 678 51 4220 627 246 219 88 131 48 381 134 114 247 88 2084 858 49
is_linear=0
shrinkage=0.05


Tree=8
num_leaves=20
num_cat=0
split_feature=5 0 8 3 22 21 3 16 3 3 5 15 14 15 2 7 2 2 15
split_gain=2.83979 1.18155 1.13344 1.88142 0.901731 0.932464 1.15281 0.67417 0.861123 1.11451 0.906186 1.42658 0.907455 0.679441 1.53551 1.50667 1.22157 0.638763 0.591487
threshold=7.6050000000000013 0.0010988899644920446 3.999999999999996 3.1750000000000003 0.0033651553888832679 -0.0014295802689590074 1.2750000000000001 17.999999999999996 2.2850000000000006 2.1950000000000007 8.0250000000000004 0.28500000000000009 1.925 2.8050000000000002 0.00014836880292440539 0.0024371774900179282 0.00011023774731996452 5.2170627775708042e-05 0.40500000000000008
decision_type=2 2 2 2 2 2 2 2 2 2 2 2 2 2 2 2 2 2 2
left_child=1 4 7 -4 17 -6 -7 8 9 10 11 -2 -13 16 -15 -16 -12 -1 -19
right_child=2 -3 3 -5 5 6 -8 -9 -10 -11 13 12 -14 14 15 -17 -18 18 -20
leaf_value=-0.0015071219940960511 0.018616456662615143 0.010954475199634378 0.002015398113677899 0.021528572110193118 2.9967769875492848e-05 1.0754857212305069e-05 0.015848782079087364 0.010896884988654744 -0.00010075093972880174 0.014070500293746591 0.010589472949504852 -0.00063606304604382747 0.012304067071527244 -0.002997240900165505 0.020707732155209498 0.0028507542141057826 -0.0027420017746139745 0.0013311066428977477 -0.00064647690512124336
leaf_weight=1759 21 22 30 21 71 20 27 22 272 24 20 42 20 36 21 27 122 474 1869
leaf_count=1759 21 22 30 21 71 20 27 22 272 24 20 42 20 36 21 27 122 474 1869
internal_value=0 -0.000602803 0.00288214 0.0100502 -0.000663054 0.00364627 0.0091092 0.00229909 0.00198644 0.0036913 0.00288514 0.00735316 0.00353817 0.00124424 0.00480872 0.0106632 -0.000864329 -0.000787018 -0.000246402
internal_weight=0 4242 678 51 4220 118 47 627 605 333 309 83 62 226 84 48 142 4102 2343
internal_count=4920 4242 678 51 4220 118 47 627 605 333 309 83 62 226 84 48 142 4102 2343
is_linear=0
shrinkage=0.05


Tree=9
num_leaves=20
num_cat=0
split_feature=5 0 0 1 15 2 15 15 3 3 7 22 21 0 0 15 2 2 3
split_gain=2.56489 1.06731 0.944545 2.31193 0.915883 1.70464 4.63444 1.55102 1.10269 2.05878 1.4539 0.815884 0.841549 1.06376 0.705923 0.639057 0.947881 0.601648 0.462373
threshold=7.5850000000000009 0.0010988899644920446 0.001463739289640599 0.0027530797771282518 3.2450000000000006 0.00011023774731996452 1.5650000000000002 3.0450000000000004 3.0950000000000002 5.5100000000000007 -0.0057685511748630227 0.0033651553888832679 -0.0014295802689590074 7.8653689270777872e-05 0.00018444028088361689 2.8050000000000002 0.00020755779600017919 6.6035743950678717e-05 0.56500000000000006
decision_type=2 2 2 2 2 2 2 2 2 2 2 2 2 2 2 2 2 2 2
left_child=1 11 4 -4 5 6 -2 8 15 10 -10 17 -13 -14 -9 -7 -17 -1 -19
right_child=2 -3 3 -5 -6 7 -8 14 9 -11 -12 12 13 -15 -16 16 -18 18 -20
leaf_value=-0.0013472955663223042 0.028210395364009818 0.010406751185655594 0.021657339448020573 -0.0020959986746311187 -0.0020301403335872153 -0.00054116774418343173 -0.0031981704989448192 0.0050086410716176036 0.024088279269635679 -0.001155319864946333 0.005655409306611704 2.8469374167247561e-05 0.0012899485882371664 0.016337688259132531 0.018293248508125543 0.01386894254013896 -0.0013405349637780871 0.0061334012076258663 -0.00022625992085931876
leaf_weight=2087 23 22 21 20 105 329 24 20 20 44 23 71 24 23 20 20 21 29 1974
leaf_count=2087 23 22 21 20 105 329 24 20 20 44 23 71 24 23 20 20 21 29 1974
internal_value=0 -0.000577513 0.00271019 0.0100703 0.00224522 0.00307042 0.012172 0.00220971 0.00138335 0.00644834 0.0142288 -0.00063494 0.00346396 0.00865374 0.0116509 0.000192388 0.00607872 -0.000753197 -0.000134183
internal_weight=0 4230 690 41 649 544 47 497 457 87 43 4208 118 47 40 370 41 4090 2003
internal_count=4920 4230 690 41 649 544 47 497 457 87 43 4208 118 47 40 370 41 4090 2003
is_linear=0
shrinkage=0.05


Tree=10
num_leaves=20
num_cat=0
split_feature=3 3 16 14 1 15 16 20 15 15 2 3 22 15 14 6 3 3 2
split_gain=3.70795 1.75794 1.61482 0.982069 0.823772 0.708082 0.65041 0.71272 0.599831 1.38375 1.9886 1.99412 0.821253 0.895596 2.94111 0.699319 0.667341 1.46693 1.22471
threshold=4.1000000000000005 1.3350000000000002 7.2500000000000133 1.7750000000000001 3.7733710973342312e-05 3.6250000000000004 2.0000000000000013 -0.0019704683670991869 1.0000000180025095e-35 0.29500000000000004 0.00024586357762412678 1.7350000000000001 -0.003768509068805936 2.0050000000000003 1.2950000000000002 2.7499999999999862 1.5750000000000004 1.6850000000000003 0.00013083847145797933
decision_type=2 2 2 2 2 2 2 2 2 2 2 2 2 2 2 2 2 2 2
left_child=1 -1 3 -2 -3 8 7 -5 -6 10 11 15 -11 -14 -15 -10 -16 -18 -19
right_child=2 4 -4 6 5 -7 -8 -9 9 12 -12 -13 13 14 16 -17 17 18 -20
leaf_value=-0.00097615587706765075 0.014524451162045203 -0.001382423256650383 0.020227567166090012 -0.00062271262563410267 -0.0018874012207338862 0.0088424366328024098 -0.0045523767936087789 0.011990343569777906 0.011198906221937749 0.01007463873177767 -0.0012209272240193525 0.024384150179949673 -0.00039548356553692834 0.019280021001274388 -0.0018573751643059717 -0.0006184104741329239 0.0071305110881274393 -0.0020428065219711441 0.0027621188306674797
leaf_weight=2609 24 324 25 21 143 31 21 24 31 25 49 22 693 24 124 21 121 204 379
leaf_count=2609 24 324 25 21 143 31 21 24 31 25 49 22 693 24 124 21 121 204 379
internal_value=0 -9.92852e-05 0.0089858 0.00586309 0.000944875 0.00134876 0.00271351 0.00610425 0.00122223 0.00148488 0.00659191 0.0117653 0.00108478 0.000939313 0.00202501 0.00642653 0.00152486 0.0021206 0.00108081
internal_weight=0 4800 115 90 2191 1867 66 45 1836 1693 123 74 1570 1545 852 52 828 704 583
internal_count=4915 4800 115 90 2191 1867 66 45 1836 1693 123 74 1570 1545 852 52 828 704 583
is_linear=0
shrinkage=0.05


Tree=11
num_leaves=20
num_cat=0
split_feature=3 5 14 5 3 5 14 11 15 14 5 5 14 2 5 5 18 3 3
split_gain=3.34642 3.02399 3.03023 1.6456 1.58654 1.03128 2.26462 1.23775 0.823506 2.16672 1.14273 2.75739 0.768238 0.694588 1.09639 2.62497 0.757153 0.902446 1.88665
threshold=4.1000000000000005 16.685000000000006 1.9450000000000001 15.805000000000001 1.3350000000000002 4.3450000000000006 0.32500000000000007 1.9999999999999909 2.0050000000000003 1.3150000000000002 5.2750000000000012 5.5750000000000011 2.6150000000000007 0.00013083847145797933 7.8450000000000006 9.6950000000000021 -0.051341313705621387 1.7250000000000003 1.8250000000000004
decision_type=2 2 2 2 2 2 2 2 2 2 2 2 2 2 2 2 2 2 2
left_child=4 2 -2 -4 -1 6 7 -6 -7 -10 -11 12 -12 -13 -15 16 -16 -18 -19
right_child=1 -3 3 -5 5 8 -8 -9 9 10 11 13 -14 14 15 -17 17 18 -20
leaf_value=-0.00091807459371686328 0.031241895706951617 -0.0013797307079252989 0.00052181314696956964 0.018852425997810705 0.021981856238582863 -0.000262371593389497 -0.0024346594977143563 0.0051443832663819198 0.017429394257387945 -0.0019504177000079985 0.017875279772666192 -0.0004619381902739406 0.0065638020661925641 -5.8852598979020847e-05 0.00032196830771863459 -0.0017663471736223176 0.0011201561300882273 0.02603335598744452 0.0091167532561479935
leaf_weight=2609 20 46 28 21 23 1096 38 20 21 203 31 297 28 199 21 89 21 20 84
leaf_count=2609 20 46 28 21 23 1096 38 20 21 203 31 297 28 199 21 89 21 20 84
internal_value=0 0.00845115 0.0150051 0.00837779 -9.33777e-05 0.000888655 0.00636979 0.0141505 0.000678242 0.00169492 0.00136217 0.00221338 0.0125071 0.00138255 0.0026448 0.00493427 0.0090189 0.01048 0.0123699
internal_weight=0 115 69 49 4800 2191 81 43 2110 1014 993 790 59 731 434 235 146 125 104
internal_count=4915 115 69 49 4800 2191 81 43 2110 1014 993 790 59 731 434 235 146 125 104
is_linear=0
shrinkage=0.0495


Tree=12
num_leaves=20
num_cat=0
split_feature=3 3 3 17 1 15 15 2 2 3 2 16 13 15 15 22 2 3 3
split_gain=3.02333 1.43336 1.37122 1.77428 0.696865 0.644478 0.55701 1.06884 1.46326 2.48077 1.01138 0.579085 0.555363 0.522158 1.27119 0.899013 0.509644 0.769941 0.980532
threshold=4.1000000000000005 1.3350000000000002 5.3650000000000011 2.5000000000000013 3.7733710973342312e-05 3.6250000000000004 0.40500000000000008 5.2170627775708042e-05 6.9478381946745906e-05 1.0550000000000004 0.00015718997507049314 -1.0000000180025095e-35 2.9999999999999862 1.0000000180025095e-35 0.12500000000000003 -0.0040697456773429721 7.3816756757962853e-05 2.2850000000000006 2.2050000000000005
decision_type=2 2 2 2 2 2 2 2 2 2 2 2 2 2 2 2 2 2 2
left_child=1 6 -2 12 -3 13 7 -1 9 -9 -10 -12 -4 -6 -15 -16 -17 18 -18
right_child=2 4 3 -5 5 -7 -8 8 10 -11 11 -13 -14 14 15 16 17 -19 -20
leaf_value=-0.001491320703968912 0.01542246574048956 -0.0012617212378419936 -0.0050027876142673192 0.01623680210582646 -0.001761590980529212 0.0082072279823998048 -0.0012463108186529298 0.017205933353718075 -0.0013346699389296976 -0.0022215436026267708 0.0013070152603283239 0.011553640324641018 0.0048868294474147256 0.011319915185434744 0.010982387912850828 -0.00078315998968713483 0.001725917265877329 -0.00081736983822804175 0.0091208192768432207
leaf_weight=309 39 324 30 21 143 31 2030 38 152 27 26 27 25 30 22 309 999 288 45
leaf_count=309 39 324 30 21 143 31 2030 38 152 27 26 27 25 30 22 309 999 288 45
internal_value=0 -8.7868e-05 0.00795249 0.00411921 0.00083622 0.0012003 -0.000863904 0.000476833 0.00272928 0.00913606 0.000697858 0.00652699 -0.000507507 0.00108199 0.00132217 0.00114182 0.00100989 0.00142585 0.00204466
internal_weight=0 4800 115 76 2191 1867 2609 579 270 65 205 53 55 1836 1693 1663 1641 1332 1044
internal_count=4915 4800 115 76 2191 1867 2609 579 270 65 205 53 55 1836 1693 1663 1641 1332 1044
is_linear=0
shrinkage=0.049005


Tree=13
num_leaves=20
num_cat=0
split_feature=3 5 14 2 3 5 14 9 15 19 5 3 3 14 5 15 6 5 5
split_gain=2.74192 2.08516 2.71435 1.76637 1.25279 0.928731 2.01019 0.677932 0.655463 0.886598 0.61336 2.01834 1.58042 3.10327 3.54983 1.50446 1.41342 0.651631 2.04924
threshold=3.3850000000000002 16.685000000000006 1.9350000000000003 0.0005349959132697346 1.3350000000000002 4.3450000000000006 0.32500000000000007 1.0000000000000122 3.6250000000000004 -0.00089534036432681308 6.9350000000000014 1.8950000000000002 1.7250000000000003 1.9650000000000001 7.8750000000000009 1.5650000000000002 2.7499999999999862 9.2950000000000017 9.6950000000000021
decision_type=2 2 2 2 2 2 2 2 2 2 2 2 2 2 2 2 2 2 2
left_child=4 2 -2 -4 -1 6 7 -6 10 -10 -7 12 15 14 16 -12 -14 -13 -19
right_child=1 -3 3 -5 5 8 -8 -9 9 -11 11 17 13 -15 -16 -17 -18 18 -20
leaf_value=-0.00081335232097047995 0.02382180126737601 -0.0013887180813215876 -0.00431038564115864 0.012677270132031007 0.018726091520943833 -0.00020539482310030533 -0.0022691778105529787 0.0065130486353396442 0.013958781380910204 -0.00015479809511359782 0.011209249760619724 -0.0016681698427949579 0.019097082893325075 0.023774177587398585 -0.0020545101679067868 -0.0011246955426312134 0.0050901609904873751 0.015126446282816283 -0.0013629961093271836
leaf_weight=2609 28 46 25 34 23 1283 38 20 20 22 28 337 39 24 79 138 30 24 68
leaf_count=2609 28 46 25 34 23 1283 38 20 20 22 28 337 39 24 79 138 30 24 68
internal_value=0 0.00696539 0.0113825 0.00547911 -9.67088e-05 0.000763725 0.00586089 0.0130456 0.000566368 0.00656595 0.00044345 0.00152881 0.00433259 0.00759166 0.00496746 0.000955729 0.0130071 -0.000680238 0.0029386
internal_weight=0 133 87 59 4782 2173 81 43 2092 42 2050 767 338 172 148 166 69 429 92
internal_count=4915 133 87 59 4782 2173 81 43 2092 42 2050 767 338 172 148 166 69 429 92
is_linear=0
shrinkage=0.048515


Tree=14
num_leaves=20
num_cat=0
split_feature=3 5 14 5 1 22 15 1 15 14 2 15 14 3 3 3 3 14 5
split_gain=2.50824 2.34882 2.53098 1.41531 1.2092 0.666103 0.578532 0.713437 0.570335 1.83636 1.48043 1.07999 1.60376 1.8288 0.708057 1.52252 2.72158 1.00815 0.850924
threshold=4.1000000000000005 16.685000000000006 1.9450000000000001 15.805000000000001 8.2670292446242413e-05 -0.004808552797370024 3.6250000000000004 4.9773592813509347e-05 0.40500000000000008 0.24250000000000002 7.0953160509776961e-05 1.4350000000000003 0.32500000000000007 1.405 1.5150000000000003 1.7750000000000001 1.7250000000000003 2.3850000000000002 8.3850000000000033
decision_type=2 2 2 2 2 2 2 2 2 2 2 2 2 2 2 2 2 2 2
left_child=4 2 -2 -4 6 -6 -1 -8 9 10 -7 -10 13 -13 -14 16 17 -16 -17
right_child=1 -3 3 -5 5 8 7 -9 11 -11 -12 12 14 -15 15 18 -18 -19 -20
leaf_value=-0.00086467879973392374 0.027101651862881972 -0.0013081311098995568 -0.00024280974533008037 0.016251953487641958 0.0082610829980589596 0.013806809231966708 -0.00049201019143464632 0.011385220719437419 -0.0012360444467879102 0.010997181032063317 0.00036915126173408559 0.020000836846824407 -0.0012472757348897911 0.00018521858382890879 0.00033595016317778038 -0.0013001731873109148 0.015201425022068248 0.0092504180110757617 0.0027641231573212054
leaf_weight=2594 20 46 28 21 27 20 28 20 663 49 348 22 271 21 140 326 47 37 187
leaf_count=2594 20 46 28 21 27 20 28 20 663 49 348 22 271 21 140 326 47 37 187
internal_value=0 0.00709871 0.0127033 0.00682637 -7.90287e-05 0.000764463 -0.000767997 0.00445684 0.00066948 0.0022625 0.00109946 0.000281913 0.00123948 0.0103234 0.000851973 0.00162388 0.00492752 0.00219943 0.000181354
internal_weight=0 115 69 49 4800 2158 2642 48 2131 417 368 1714 1051 43 1008 737 224 177 513
internal_count=4915 115 69 49 4800 2158 2642 48 2131 417 368 1714 1051 43 1008 737 224 177 513
is_linear=0
shrinkage=0.0480298


Tree=15
num_leaves=20
num_cat=0
split_feature=5 0 8 3 22 21 3 18 14 14 2 3 22 3 1 15 22 2 14
split_gain=1.4374 0.90724 0.839118 1.2326 0.667694 0.80079 0.955031 0.551418 0.813669 1.78552 1.76177 0.650792 0.503266 0.481188 0.354754 0.409747 0.430255 0.742844 1.12894
threshold=7.6050000000000013 0.0010988899644920446 3.999999999999996 3.1750000000000003 0.0033651553888832679 -0.0014295802689590074 1.2750000000000001 -0.028119983740271689 2.0350000000000006 1.9450000000000001 0.00010714886737553316 3.1750000000000003 -0.00016108601330816483 0.56500000000000006 8.442003772812658e-05 3.5025000000000004 -0.0011515182077057593 0.00019431273379102616 0.40500000000000008
decision_type=2 2 2 2 2 2 2 2 2 2 2 2 2 2 2 2 2 2 2
left_child=1 4 7 -4 13 -6 -7 -2 9 10 -9 -12 -10 -1 -15 16 17 18 -16
right_child=2 -3 3 -5 5 6 -8 8 12 -11 11 -13 -14 14 15 -17 -18 -19 -20
leaf_value=0.005307205784757513 -0.00072505662372297818 0.0091880791315525952 0.0015956183487223254 0.016615682592274476 -0.00015360978904622823 -2.7567779609464e-05 0.013681460869510446 0.013338539423217527 0.0065459486784984339 0.013213455413382133 -0.00043887087246471582 0.0063716977864899001 -0.0013441641188202463 -0.00098691299904800855 0.010806284750561777 0.0058463999118221182 -0.0004936936904683868 -0.0014094153563358179 0.0010020860008170208
leaf_weight=31 187 22 30 21 71 20 27 29 21 40 170 39 141 2524 40 26 1311 91 79
leaf_count=31 187 22 30 21 71 20 27 29 21 40 170 39 141 2524 40 26 1311 91 79
internal_value=0 -0.000442818 0.00191504 0.00778035 -0.000493026 0.00303341 0.00784783 0.00143795 0.00235723 0.00391814 0.00235591 0.000832001 -0.000321372 -0.000594469 -0.000639409 -7.24413e-05 -0.000173618 0.00182457 0.00429761
internal_weight=0 4242 678 51 4220 118 47 627 440 278 238 209 162 4102 4071 1547 1521 210 119
internal_count=4920 4242 678 51 4220 118 47 627 440 278 238 209 162 4102 4071 1547 1521 210 119
is_linear=0
shrinkage=0.0475495


Tree=16
num_leaves=20
num_cat=0
split_feature=5 0 8 3 22 15 5 3 3 3 5 15 14 18 20 3 19 6 21
split_gain=1.30395 0.823014 0.761216 1.11817 0.608531 0.90756 0.526448 0.973552 0.796786 1.13465 0.838232 0.992867 0.970311 0.499138 0.573514 0.434124 0.430463 0.427932 0.427109
threshold=7.6050000000000013 0.0010988899644920446 3.999999999999996 3.1750000000000003 0.0037621032367426426 1.6725000000000001 9.6950000000000021 3.0250000000000004 2.2850000000000006 2.1850000000000005 8.0250000000000004 0.28500000000000009 1.925 0.00881010198146648 -0.0027221095167194172 0.56500000000000006 0.0019054879278755934 0.99999999999988998 -0.0021513623565591606
decision_type=2 2 2 2 2 2 2 2 2 2 2 2 2 2 2 2 2 2 2
left_child=1 4 6 -4 15 17 7 8 9 10 11 -2 -13 -12 -15 -1 18 -6 -16
right_child=2 -3 3 -5 5 -7 -8 -9 -10 -11 13 12 -14 14 16 -17 -18 -19 -20
leaf_value=0.0050043023576867443 0.015029327343788264 0.0086636784165670024 0.0015045500395508751 0.015667359141857809 0.0053980633513883419 0.010809834569890318 -0.00076878519207383104 0.011885742376795107 -0.001894725699801546 0.013739461030204729 -0.0013904953410082787 -0.00087742321221181215 0.011720325371772722 0.0089716022252377316 -0.00073707079843218142 -0.00058735673361813838 -0.0036201116756845991 -0.0029352893214927233 0.0088750174102150033
leaf_weight=31 21 22 30 21 22 26 183 22 102 20 121 42 20 27 21 4105 28 36 20
leaf_count=31 21 22 30 21 22 26 183 22 102 20 121 42 20 27 21 4105 28 36 20
internal_value=0 -0.000417544 0.00180574 0.00733629 -0.000464887 0.0035017 0.00135588 0.00223159 0.00172829 0.00288313 0.00215938 0.00618278 0.00318637 0.00062047 0.00315512 -0.000545446 0.000879112 0.000225638 0.00395175
internal_weight=0 4242 678 51 4220 84 627 444 422 320 300 83 62 217 96 4136 69 58 41
internal_count=4920 4242 678 51 4220 84 627 444 422 320 300 83 62 217 96 4136 69 58 41
is_linear=0
shrinkage=0.047074


Tree=17
num_leaves=20
num_cat=0
split_feature=0 17 0 22 15 14 3 3 14 14 15 2 3 3 14 15 3 12 14
split_gain=1.20135 1.98117 0.804079 1.09429 2.18969 0.407586 0.998081 1.85576 0.430612 1.26019 1.71465 2.04919 2.29085 0.559504 1.20549 0.532715 1.69434 0.956183 0.495452
threshold=0.001463739289640599 2.0000000000000013 7.7785813787073523e-05 0.003136960419897528 1.6725000000000001 2.5650000000000004 1.7950000000000002 1.5250000000000001 2.0350000000000006 1.9150000000000003 2.3350000000000004 0.00012787927812852091 2.2950000000000004 3.0950000000000002 1.7750000000000001 0.40500000000000008 0.88500000000000012 -4.2499999999999973 0.21500000000000002
decision_type=2 2 2 2 2 2 2 2 2 2 2 2 2 2 2 2 2 2 2
left_child=2 -2 -1 5 -5 8 7 -7 9 13 -11 -12 -13 15 -15 16 -4 -18 -19
right_child=1 -3 3 4 -6 6 -8 -9 -10 10 11 12 -14 14 -16 -17 17 18 -20
leaf_value=-0.0007097111451085167 -0.0013301691815963102 0.016433322840650647 0.01141855224374024 0.00047553374124297091 0.018834740830338068 -0.0021376310046105243 -0.0026924512170257218 0.015381417399675865 -0.0013516841622749957 -0.0032797275857567444 -0.003143090243231774 0.021622619576869888 0.0029200154900310645 0.01109695961182844 -0.0037754894690017458 -0.00054229389314625661 0.010112532889008459 -0.00093842164123261794 0.0043534411701141766
leaf_weight=2741 30 25 34 43 21 24 35 29 334 36 22 33 25 29 20 1110 21 263 45
leaf_count=2741 30 25 34 43 21 24 35 29 334 36 22 33 25 29 20 1110 21 263 45
internal_value=0 0.00674415 -0.000182303 0.000498312 0.00649965 0.000311863 0.00341502 0.00744826 0.000173385 0.000484358 0.00516663 0.00896749 0.0135612 0.000127497 0.00502657 -3.54734e-05 0.00151431 0.000490769 -0.00016526
internal_weight=0 55 4865 2124 64 2060 88 53 1972 1638 116 80 58 1522 49 1473 363 329 308
internal_count=4920 55 4865 2124 64 2060 88 53 1972 1638 116 80 58 1522 49 1473 363 329 308
is_linear=0
shrinkage=0.0466033


Tree=18
num_leaves=20
num_cat=0
split_feature=5 0 8 2 22 21 0 5 15 2 15 0 5 1 21 2 4 8 1
split_gain=1.11019 0.715111 0.66896 0.944214 0.513023 0.711605 0.838841 0.489733 0.608956 0.9483 1.17062 1.28943 0.741764 0.774345 0.718901 0.363167 0.580352 0.576059 0.294954
threshold=7.6050000000000013 0.0010988899644920446 3.999999999999996 0.0005349959132697346 0.0033651553888832679 -0.0014295802689590074 7.8653689270777872e-05 9.6950000000000021 3.2450000000000006 8.9688517436215104e-05 2.8650000000000007 0.00021224775053836097 9.2000000000000011 0.00013031232481757764 -0.0013809314432498552 0.00045753307835964309 -1.0000000180025095e-35 -1.0000000000000002 0.00016150029545165722
decision_type=2 2 2 2 2 2 2 2 2 2 2 2 2 2 2 2 2 2 2
left_child=1 4 7 -4 18 -6 -7 8 9 -2 12 -12 13 14 -11 -9 17 -17 -1
right_child=2 -3 3 -5 5 6 -8 15 -10 10 11 -13 -14 -15 -16 16 -18 -19 -20
leaf_value=-0.00067208778913788029 0.012097483565187995 0.0079204933492464102 0.0016736144941164011 0.014531689157449297 -0.00033508393696887956 0.00094967885479953131 0.013279897116477972 -0.0030936248618137325 -0.0018028702487442787 0.011166490864045937 0.0018378132866063717 0.014594056778679733 0.0074051859812388765 -0.0012533381624753109 6.643030677649765e-05 0.010913843995266584 -0.0017509702751086452 -0.0001596551257542136 0.00041370887610416138
leaf_weight=3473 22 22 31 20 71 24 23 81 73 23 37 31 33 198 27 20 62 20 629
leaf_count=3473 22 22 31 20 71 24 23 81 73 23 37 31 33 198 27 20 62 20 629
internal_value=0 -0.00037606 0.00163457 0.006716 -0.000419313 0.00257999 0.00698362 0.00122125 0.00204906 0.00280699 0.00222134 0.00765316 0.000906879 4.21853e-05 0.00517246 -0.000787213 0.00104435 0.00537709 -0.000505592
internal_weight=0 4242 678 51 4220 118 47 627 444 371 349 68 281 248 50 183 102 40 4102
internal_count=4920 4242 678 51 4220 118 47 627 444 371 349 68 281 248 50 183 102 40 4102
is_linear=0
shrinkage=0.0461372


Tree=19
num_leaves=20
num_cat=0
split_feature=0 17 5 3 15 15 5 14 3 3 15 5 14 15 0 3 4 12 5
split_gain=1.01284 1.79067 0.732738 1.13546 1.23301 1.30462 0.784199 0.636356 1.7128 0.692094 1.59982 0.687725 0.547421 1.28404 1.41691 0.547416 0.537813 0.804331 0.53561
threshold=0.001463739289640599 2.0000000000000013 6.9350000000000014 1.905 0.25500000000000006 1.0000000180025095e-35 7.0550000000000006 1.925 1.7350000000000001 1.5550000000000004 1.6050000000000002 7.995000000000001 0.34500000000000003 1.655 0.00023400338455110018 2.4750000000000005 1.9999999999999964 -1.0000000180025095e-35 8.2250000000000032
decision_type=2 2 2 2 2 2 2 2 2 2 2 2 2 2 2 2 2 2 2
left_child=2 -2 12 4 5 -4 -6 9 11 10 -8 -9 13 16 -15 -14 -1 -18 -5
right_child=1 -3 3 18 6 -7 7 8 -10 -11 -12 -13 15 14 -16 -17 17 -19 -20
leaf_value=-0.00023181174395079968 -0.0014534257395272534 0.015098385830871738 0.0023466980252700238 -0.0018464864259144834 0.010822469200415519 0.018844596890197067 0.014448195721426891 0.0069117411426217364 0.013336319945874711 -0.0015928485942364365 -0.0032153550522692059 -0.0027272256762355951 -0.00089120082623454864 0.014562616627477118 -0.0012567000821637072 0.0055302645466182828 0.0083704444034041654 0.00020576647843502008 0.0010532571668207921
leaf_weight=1241 30 25 20 249 20 20 20 23 31 146 23 47 2554 27 21 28 39 71 285
leaf_count=1241 30 25 20 249 20 20 20 23 31 146 23 47 2554 27 21 28 39 71 285
internal_value=0 0.00607012 -0.000163156 0.00102641 0.00304842 0.0105956 0.00207458 0.00147128 0.00439818 -9.28315e-05 0.00500025 0.000439863 -0.000427305 0.000300342 0.00764167 -0.000821564 3.95103e-05 0.00310052 -0.00029887
internal_weight=0 55 4865 884 350 40 310 290 101 189 43 70 3981 1399 48 2582 1351 110 534
internal_count=4920 55 4865 884 350 40 310 290 101 189 43 70 3981 1399 48 2582 1351 110 534
is_linear=0
shrinkage=0.0456759


Tree=20
num_leaves=20
num_cat=0
split_feature=3 3 12 3 8 15 15 22 15 14 3 14 15 14 14 3 3 3 3
split_gain=1.70779 1.12234 1.16977 0.862865 0.677768 0.460326 1.45387 0.788145 0.498772 2.23495 0.69003 0.434347 1.05851 0.427739 1.22216 0.47583 0.423195 0.720113 0.941109
threshold=4.1000000000000005 5.3650000000000011 -1 1.3350000000000002 -0.99999999999999967 0.065000000000000016 0.16500000000000004 -0.0040697456773429721 2.0050000000000003 1.2950000000000002 1.3550000000000002 0.22500000000000003 0.94500000000000006 0.32500000000000007 0.21500000000000002 1.5150000000000003 1.5050000000000001 1.7750000000000001 1.7250000000000003
decision_type=2 2 2 2 2 2 2 2 2 2 2 2 2 2 2 2 2 2 2
left_child=3 -2 -3 11 -4 -5 -7 -8 10 -10 -9 12 -1 14 15 -12 -11 18 -18
right_child=1 2 4 5 -6 6 7 8 9 16 13 -13 -14 -15 -16 -17 17 -19 -20
leaf_value=-5.7582446497003987e-05 0.013027976816281296 -0.0043002480860142153 0.014837056240066888 -0.0018578714279720754 0.0021193481643091549 0.010591932062647845 0.010130214352499355 0.0072404253234465924 0.016452564469849072 -0.0015801506260793435 0.0037621501788851763 -0.0010675301451000131 0.008840398623475007 -0.00095347247515169405 0.010150650627911092 -0.0028849673196673395 0.0020061963542234939 0.00019034249171111031 0.0089473199163531449
leaf_weight=742 39 34 20 163 22 38 22 30 24 136 42 1832 35 756 35 75 309 503 58
leaf_count=742 39 34 20 163 22 38 22 30 24 136 42 1832 35 756 35 75 309 503 58
internal_value=0 0.0061326 0.00259419 -3.30504e-05 0.0081754 0.000698487 0.000903954 0.000718957 0.00061375 0.00137336 -0.000220364 -0.000647385 0.000343228 -0.000466866 0.00195336 -0.000498823 0.00101362 0.00141908 0.00310316
internal_weight=0 115 76 4800 42 2191 2028 1990 1968 1030 938 2609 777 908 152 117 1006 870 367
internal_count=4915 115 76 4800 42 2191 2028 1990 1968 1030 938 2609 777 908 152 117 1006 870 367
is_linear=0
shrinkage=0.05


Tree=21
num_leaves=20
num_cat=0
split_feature=3 5 14 5 3 5 1 17 5 5 13 16 17 2 5 3 3 14 5
split_gain=1.54128 1.81891 2.14636 1.20793 0.778736 0.744811 1.52783 1.72106 0.550758 0.833014 1.20964 0.718259 0.654108 0.42768 0.731255 1.51996 2.04689 2.27575 1.65197
threshold=4.1000000000000005 16.685000000000006 1.9450000000000001 15.805000000000001 1.3350000000000002 4.3850000000000007 8.5650613048432475e-05 2.0000000000000013 5.2750000000000012 5.6850000000000014 3.0000000000000142 4.2499999999999991 -3.0000000000000133 0.0002136899898411903 6.9350000000000014 1.8950000000000002 1.7250000000000003 1.9650000000000001 7.6950000000000012
decision_type=2 2 2 2 2 2 2 2 2 2 2 2 2 2 2 2 2 2 2
left_child=4 2 -2 -4 -1 6 -6 -8 -7 10 11 12 -10 14 -11 16 -16 18 -18
right_child=1 -3 3 -5 5 8 7 -9 9 13 -12 -13 -14 -15 15 -17 17 -19 -20
leaf_value=-0.0006150157305802158 0.024763480685651304 -0.0018754825846332571 -0.0014723539618509158 0.014391213016850608 -0.0018513697261611621 -0.00095385421959091302 0.017690829616604429 -0.000897200619801879 0.0076856902950713712 -0.00026103614011638553 0.014998805362053894 0.0099301005214718838 -0.00046157489608352381 -0.00077358678049364534 0.0012091802638666384 -0.00076836328714703899 0.012467096176631047 0.025518193021416665 -0.0014124941805170642
leaf_weight=2609 20 46 28 21 45 516 33 20 31 476 22 28 120 451 145 195 53 20 36
leaf_count=2609 20 46 28 21 45 516 33 20 31 476 22 28 120 451 145 195 53 20 36
internal_value=0 0.00582597 0.0109603 0.00532632 -3.13978e-05 0.000663563 0.0049239 0.0106765 0.000464083 0.000928037 0.00393475 0.00257492 0.00121104 0.00048883 0.00110434 0.00255183 0.00510079 0.0102777 0.00685288
internal_weight=0 115 69 49 4800 2191 98 53 2093 1577 201 179 151 1376 925 449 254 109 89
internal_count=4915 115 69 49 4800 2191 98 53 2093 1577 201 179 151 1376 925 449 254 109 89
is_linear=0
shrinkage=0.05


Tree=22
num_leaves=20
num_cat=0
split_feature=3 5 3 5 5 1 15 1 22 0 15 3 1 1 15 15 15 11 21
split_gain=1.40383 1.77411 0.941496 1.63294 1.12881 0.698123 0.49496 0.623532 0.468425 0.452336 1.20073 1.45451 1.09794 2.08357 0.460964 0.859093 1.1785 0.550374 0.677557
threshold=3.0950000000000002 9.9450000000000021 4.5700000000000012 16.685000000000006 15.805000000000001 8.2670292446242413e-05 3.6250000000000004 4.9773592813509347e-05 -0.0015675967304742964 0.00022038620866610692 2.8650000000000007 1.925 0.00031305571796313986 0.00040598016524474103 0.40500000000000008 1.0000000180025095e-35 0.12500000000000003 -1.2500000000000175 -0.0009289030458509705
decision_type=2 2 2 2 2 2 2 2 2 2 2 2 2 2 2 2 2 2 2
left_child=5 -2 -3 4 -4 6 -1 -8 -7 12 -11 -12 14 -14 15 -10 -17 18 -18
right_child=1 2 3 -5 -6 8 7 -9 9 10 11 -13 13 -15 -16 16 17 -19 -20
leaf_value=-0.00069108724280203407 0.017216555277506509 -0.003978385115042329 0.0017204010300338269 -0.0017817085224163275 0.016774210830529532 0.0031965429254698975 -0.00038330165802368096 0.011175852520391346 -0.0008448600849638192 -0.0014230282962093607 0.014021778652637169 -0.0022645970663199059 0.018263877708464861 -0.003099667680050646 0.00019359242336341103 0.014538222682420854 0.014115640409290793 0.00021714531409908349 0.0015322370130730711
leaf_weight=2593 24 40 20 46 33 163 28 20 104 554 29 26 25 21 1048 27 20 71 23
leaf_count=2593 24 40 20 46 33 163 28 20 104 554 29 26 25 21 1048 27 20 71 23
internal_value=0 0.00466295 0.00249542 0.00511109 0.0110935 -5.61336e-05 -0.000597957 0.00443301 0.000621723 0.000406274 -0.00072349 0.00632276 0.00092011 0.00851095 0.000650056 0.0026026 0.00514542 0.0029208 0.00738498
internal_weight=0 163 139 99 53 4752 2641 48 2111 1948 609 55 1339 46 1293 245 141 114 43
internal_count=4915 163 139 99 53 4752 2641 48 2111 1948 609 55 1339 46 1293 245 141 114 43
is_linear=0
shrinkage=0.05


Tree=23
num_leaves=20
num_cat=0
split_feature=3 5 3 5 15 1 15 1 3 3 5 3 17 15 14 1 3 0 3
split_gain=1.26696 1.60114 0.8497 1.4766 0.896425 0.630056 0.446702 0.562738 0.44204 1.07983 0.525472 1.4371 0.781223 0.470216 0.848679 1.49138 2.2022 1.94882 0.764633
threshold=3.0950000000000002 9.9450000000000021 4.5700000000000012 16.830000000000002 2.6950000000000007 8.2670292446242413e-05 3.6250000000000004 4.9773592813509347e-05 0.81500000000000006 0.89500000000000013 4.3850000000000007 1.3650000000000004 -0.99999999999999878 2.1750000000000003 2.0350000000000006 0.00019129264492752891 2.4950000000000006 0.00032234490137473257 1.8550000000000002
decision_type=2 2 2 2 2 2 2 2 2 2 2 2 2 2 2 2 2 2 2
left_child=5 -2 -3 4 -4 6 -1 -8 -7 -10 11 -11 -13 -12 15 -15 17 -17 -16
right_child=1 2 3 -5 -6 8 7 -9 9 10 13 12 -14 14 18 16 -18 -19 -20
leaf_value=-0.00065653288055956942 0.01635572804758946 -0.0037794658984057609 0.018625786118209361 -0.0022581817072239662 0.0054871996310917109 -0.0017099752532024133 -0.00036413652290190969 0.010617060232907535 0.012375593595206739 0.0011300650098124072 -0.00031776263555347803 0.018016648571938278 0.0051714323589514043 0.00015268479233857284 0.002177060766199839 0.02212641313672066 -0.0026475625363393471 0.0025610312633216384 -0.0023755346458338338
leaf_weight=2593 24 40 20 42 37 190 28 20 20 279 1022 20 29 97 206 35 26 20 167
leaf_count=2593 24 40 20 42 37 190 28 20 20 279 1022 20 29 97 206 35 26 20 167
internal_value=0 0.0044298 0.00237065 0.00485554 0.0100972 -5.33269e-05 -0.000568059 0.00421136 0.000590637 0.000818183 0.00069659 0.00251705 0.0104144 0.00031699 0.00149434 0.00433494 0.00934331 0.0150117 0.000138767
internal_weight=0 163 139 99 57 4752 2641 48 2111 1921 1901 328 49 1573 551 178 81 55 373
internal_count=4915 163 139 99 57 4752 2641 48 2111 1921 1901 328 49 1573 551 178 81 55 373
is_linear=0
shrinkage=0.05


Tree=24
num_leaves=20
num_cat=0
split_feature=8 3 15 14 3 2 21 19 20 14 15 0 1 15 14 3 14 14 3
split_gain=1.18089 0.962984 0.776196 1.39574 1.04931 0.825016 0.729188 0.607091 0.586386 0.568803 1.53075 1.53376 0.537527 0.985119 2.71643 0.531294 1.72221 1.34487 1.36701
threshold=-14.500000000000023 1.635 2.0050000000000003 1.3650000000000004 1.6850000000000003 0.00013083847145797933 0.0038329239430489053 -0.00034003632854651128 0.013975997145200371 0.35500000000000004 1.655 0.00023400338455110018 0.00016684039474679016 1.3250000000000004 0.29500000000000004 1.8950000000000002 1.8750000000000002 2.0950000000000002 2.2850000000000006
decision_type=2 2 2 2 2 2 2 2 2 2 2 2 2 2 2 2 2 2 2
left_child=-1 9 12 -4 6 -6 7 -5 15 10 -2 -12 13 14 -3 16 -7 18 -17
right_child=1 2 3 4 5 8 -8 -9 -10 -11 11 -13 -14 -15 -16 17 -18 -19 -20
leaf_value=0.0084386595081360569 9.9942993518768584e-05 -0.00090199993821243711 0.014534477119080045 0.0088427706062793737 -0.0012757347230898575 -0.0031172153939093864 0.015411009741947056 -0.0010348871982257281 0.010505285841368494 -0.00089720563878731481 0.019818122871220114 0.00088582556370807731 -0.0021416054934646953 -0.0014375898872151392 0.01558258048209705 0.012408853553839631 0.0096229322280527822 -0.0024799017854515585 0.0017383747142534587
leaf_weight=42 1275 73 22 35 235 42 20 28 21 2231 20 23 233 154 38 37 72 155 159
leaf_count=42 1275 73 22 35 235 42 20 28 21 2231 20 23 233 154 38 37 72 155 159
internal_value=0 1.86316e-05 0.00116941 0.00210942 0.00176944 0.00115657 0.00709326 0.0044527 0.00233268 -0.00041068 0.000412871 0.00969155 -0.000389741 0.00115058 0.00474137 0.0019636 0.00492919 0.00100041 0.0037527
internal_weight=0 4873 1324 826 804 721 83 63 486 3549 1318 43 498 265 111 465 114 351 196
internal_count=4915 4873 1324 826 804 721 83 63 486 3549 1318 43 498 265 111 465 114 351 196
is_linear=0
shrinkage=0.05


Tree=25
num_leaves=20
num_cat=0
split_feature=0 17 22 21 5 3 14 1 1 6 22 19 2 3 3 5 3 0 0
split_gain=0.714256 1.53453 0.482666 0.868653 0.433159 0.945093 0.655081 1.42255 1.36476 1.10587 1.01877 0.952291 0.527727 0.415472 0.420139 0.396164 0.59741 1.05041 1.37149
threshold=0.001463739289640599 2.0000000000000013 0.0037621032367426426 -0.0014295802689590074 6.9350000000000014 1.905 1.2550000000000001 0.00017515493369612829 0.00016150029545165722 5.0000000000000497 -1.0000000180025095e-35 0.0031793563923404604 0.00019780053152361471 0.56500000000000006 2.4750000000000005 5.6850000000000014 1.635 0.00015117927769747142 4.212737531209752e-05
decision_type=2 2 2 2 2 2 2 2 2 2 2 2 2 2 2 2 2 2 2
left_child=2 -2 4 -4 13 6 7 9 -8 10 -6 12 -10 -1 15 16 -15 18 -18
right_child=1 -3 3 -5 5 -7 8 -9 11 -11 -12 -13 -14 14 -16 -17 17 -19 -20
leaf_value=0.005286788495798265 -0.0020796395496775707 0.014693260535597802 -0.00073701321333646775 0.0094490462293227509 0.018852168622036133 -0.0005757026194027604 -0.0019609320265076618 -0.0020364101499665615 0.0071584141254425054 -0.00055069096548401798 0.0067086859248005424 0.013732583042500274 -0.0033360716360418697 -0.00046235345864688499 0.0056905407182596349 -0.0017592582503387266 -0.00038927215306709212 -0.0031410081029841393 0.016037919751747891
leaf_weight=31 30 25 50 36 31 532 136 43 25 23 39 28 23 3166 27 591 24 33 27
leaf_count=31 30 25 50 36 31 532 136 43 25 23 39 28 23 3166 27 591 24 33 27
internal_value=0 0.00554441 -0.000185621 0.00352692 -0.00025243 0.000749553 0.00277552 0.005484 0.001038 0.00896118 0.0120865 0.00640451 0.00212981 -0.000478576 -0.000524783 -0.000568473 -0.000351933 0.00380986 0.00830748
internal_weight=0 55 4865 86 4779 880 348 136 212 93 70 76 48 3899 3868 3841 3250 84 51
internal_count=4920 55 4865 86 4779 880 348 136 212 93 70 76 48 3899 3868 3841 3250 84 51
is_linear=0
shrinkage=0.05


Tree=26
num_leaves=20
num_cat=0
split_feature=8 5 8 2 1 15 2 15 2 15 0 6 12 15 3 22 21 3 18
split_gain=0.663144 0.495834 0.545198 0.681633 0.511103 0.673529 0.749768 0.585615 0.581998 0.543883 0.902138 0.460637 0.812541 0.403057 0.362741 0.352135 0.587439 0.702552 0.340117
threshold=-15.000000000000023 7.6050000000000013 3.999999999999996 0.0005349959132697346 0.00039019123253236908 3.2450000000000006 8.9688517436215104e-05 2.9150000000000005 0.00039476482329121225 3.0450000000000004 0.00021224775053836097 7.0000000000000071 -1 0.28500000000000009 0.56500000000000006 0.0033651553888832679 -0.0014295802689590074 1.2750000000000001 0.0032362544282485976
decision_type=2 2 2 2 2 2 2 2 2 2 2 2 2 2 2 2 2 2 2
left_child=-1 14 4 -4 5 6 -3 -6 9 11 -11 12 -8 -14 -2 -16 -17 -18 -15
right_child=1 2 3 -5 7 -7 8 -9 -10 10 -12 -13 13 18 15 16 17 -19 -20
leaf_value=0.0064640945019690619 0.0050224492025952193 0.011444980689239773 0.0014291154641297556 0.013268651412799953 -0.0032022158317267894 -0.0021528477535931148 0.0092098878789693122 0.0056442190596664495 0.0094319776554281521 0.00047054985272032882 0.014374334122985603 -0.003376406626775861 0.0054167052177945159 -0.0026217938130421027 -0.00048420513238647128 -0.00058383322779981186 -0.00048025885596871378 0.011883804602203547 0.0023104191375231103
leaf_weight=38 31 22 31 20 125 99 30 22 24 28 20 60 32 93 4071 71 20 27 56
leaf_count=38 31 22 31 20 125 99 30 22 24 28 20 60 32 93 4071 71 20 27 56
internal_value=0 -0.000166701 0.00110553 0.00607207 0.000690976 0.00150494 0.00249705 -0.00187826 0.00192313 0.0013582 0.00626379 0.000489312 0.00158857 0.000325366 -0.000366279 -0.000406157 0.00228649 0.0066225 -0.000768076
internal_weight=0 4882 662 51 611 464 365 147 343 319 48 271 211 181 4220 4189 118 47 149
internal_count=4920 4882 662 51 611 464 365 147 343 319 48 271 211 181 4220 4189 118 47 149
is_linear=0
shrinkage=0.05


Tree=27
num_leaves=20
num_cat=0
split_feature=0 17 4 2 15 3 3 0 3 12 15 5 5 3 1 3 3 5 14
split_gain=0.611396 1.36727 0.396637 0.337827 0.507939 1.00544 4.43828 0.741389 0.889452 0.732453 0.504501 0.475497 2.16632 0.327549 0.301564 0.596233 0.294582 0.851649 1.29438
threshold=0.001463739289640599 2.0000000000000013 9.9999999999999769 5.2170627775708042e-05 0.40500000000000008 0.8650000000000001 0.77500000000000013 3.9878213600207034e-05 1.0750000000000004 -4.2499999999999973 0.14500000000000005 7.3650000000000011 7.7950000000000008 0.56500000000000006 0.00032148717581161789 1.4750000000000003 1.2650000000000003 4.3850000000000007 0.40500000000000008
decision_type=2 2 2 2 2 2 2 2 2 2 2 2 2 2 2 2 2 2 2
left_child=2 -2 3 -1 5 6 -5 8 -7 -9 -10 14 -13 -6 -11 -16 -15 18 -18
right_child=1 -3 -4 4 13 7 -8 9 10 11 -12 12 -14 16 15 -17 17 -19 -20
leaf_value=-0.00074074559250305477 -0.0020641309209167959 0.013768299862742426 0.0066877636526312158 -0.0024828155097123741 0.005007973654816548 0.014114862671565443 0.026751914154738189 0.007802458855855678 -0.0019708094128873198 -0.0019297304862923277 0.0081522726919502023 0.015675728719519534 -0.0034961774672676881 -0.001012186764874736 0.0073375701352402017 -0.0034936010837554933 0.010979896961626682 -0.00012686366183065642 -0.0012916468527345432
leaf_weight=1804 30 25 21 37 30 21 20 28 32 289 20 23 41 833 27 24 44 1529 42
leaf_count=1804 30 25 21 37 30 21 20 28 32 289 20 23 41 833 27 24 44 1529 42
internal_value=0 0.00513243 -0.000168977 -0.000198703 0.000122957 0.00148009 0.00777498 0.000769574 0.00543002 -1.79556e-05 0.00192268 -0.000559965 0.00339373 -0.000184835 -0.00130419 0.00224055 -0.000248472 0.000145444 0.00498682
internal_weight=0 55 4865 4844 3040 562 57 505 73 432 52 404 64 2478 340 51 2448 1615 86
internal_count=4920 55 4865 4844 3040 562 57 505 73 432 52 404 64 2478 340 51 2448 1615 86
is_linear=0
shrinkage=0.05


Tree=28
num_leaves=20
num_cat=0
split_feature=8 5 8 19 1 15 2 15 15 2 15 12 16 0 2 16 6 14 15
split_gain=0.579725 0.42692 0.483862 0.625363 0.474998 0.604135 0.664128 2.81895 0.681838 0.711752 0.509987 0.459107 0.508725 0.374698 0.336386 0.408208 0.678776 0.301991 0.943409
threshold=-15.000000000000023 7.6050000000000013 3.999999999999996 -0.003433593783802646 0.00039019123253236908 3.2450000000000006 0.00011023774731996452 1.5650000000000002 3.0450000000000004 0.00039476482329121225 2.9150000000000005 -1 -2.9999999999999853 0.00018444028088361689 0.00023822684534959994 1.0000000000000122 1.0000000000001121 0.39500000000000007 1.8950000000000002
decision_type=2 2 2 2 2 2 2 2 2 2 2 2 2 2 2 2 2 2 2
left_child=-1 17 4 -4 5 6 7 -3 9 11 -6 12 -8 -10 -13 16 -16 18 -2
right_child=1 2 3 -5 10 -7 8 -9 13 -11 -12 14 -14 -15 15 -17 -18 -19 -20
leaf_value=0.0060476215164128105 8.8082463986685744e-05 0.021862580887973312 0.012324853108397552 0.0010748980691035589 -0.0030744771279394628 -0.0020416838234535071 -0.0018106362130492926 -0.0040739649483426052 0.0028642403706908228 0.0089667219823847226 0.0051809955472973263 -0.0025734063118864271 0.0085549903969312537 0.012542800903320312 0.011514888731762768 -0.0027378810453228654 -0.00084328641742467897 -0.00065010653882454045 0.011020988672971726
leaf_weight=38 1472 20 21 30 125 99 20 22 20 24 22 133 29 20 20 32 25 2728 20
leaf_count=38 1472 20 21 30 125 99 20 22 20 24 22 133 29 20 20 32 25 2728 20
internal_value=0 -0.000152112 0.0010284 0.00570723 0.000637863 0.00142255 0.00236216 0.00827677 0.00159308 0.000729412 -0.00183896 -3.38904e-05 0.00432412 0.00770352 -0.00105076 0.00157927 0.00464924 -0.000337302 0.000234636
internal_weight=0 4882 662 51 611 464 365 42 323 283 147 259 49 40 210 77 45 4220 1492
internal_count=4920 4882 662 51 611 464 365 42 323 283 147 259 49 40 210 77 45 4220 1492
is_linear=0
shrinkage=0.05


Tree=29
num_leaves=20
num_cat=0
split_feature=0 22 22 15 6 5 3 15 2 2 15 14 5 6 4 15 6 2 22
split_gain=0.534116 0.936209 0.372339 0.732552 0.386541 0.310781 0.764872 0.886601 3.53938 1.08664 1.48043 2.18461 0.834448 0.599972 0.383671 0.975194 0.444732 0.540787 0.327744
threshold=0.001463739289640599 -7.7353967583126946e-05 0.0037621032367426426 1.6725000000000001 0.99999999999988998 6.9350000000000014 1.905 1.4950000000000003 0.00011023774731996452 0.00012787927812852091 2.8450000000000002 1.925 7.6950000000000012 -1.0000000180025095e-35 1.9999999999999964 -0.014999999999999998 2.0000000000000244 0.00013083847145797933 0.0017435817756186192
decision_type=2 2 2 2 2 2 2 2 2 2 2 2 2 2 2 2 2 2 2
left_child=2 -2 5 4 -4 14 7 8 -7 -9 12 -12 -11 -10 -1 -16 17 -17 -18
right_child=1 -3 3 -5 -6 6 -8 9 13 10 11 -13 -14 -15 15 16 18 -19 -20
leaf_value=-0.00053966086134622413 0.01194668172299862 -0.0011544022491822641 0.0051215105944059118 0.0097479736365910091 -0.0032908721697620224 0.02414237992330031 -0.00055658879008886402 -0.0024386536229091386 0.006808881982314316 0.008795877257362009 0.0013498102917390712 0.020209478726610542 -0.0028032449735463528 -0.0038509078775391435 0.012039799033664167 0.010665565720674668 -0.0011421550826802439 -0.00018731220237289866 0.0053208518307656053
leaf_weight=3630 25 30 22 28 36 22 532 120 22 20 34 28 69 33 20 22 181 24 22
leaf_count=3630 25 30 22 28 36 22 532 120 22 20 34 28 69 33 20 22 181 24 22
internal_value=0 0.00480064 -0.000154408 0.00310634 -9.99684e-05 -0.000213087 0.000635633 0.00245822 0.00719283 0.00111297 0.00393545 0.00986708 -0.000196701 0.000413008 -0.000404642 0.00141737 0.000564159 0.00500319 -0.000441731
internal_weight=0 55 4865 86 58 4779 880 348 77 271 151 62 89 55 3899 269 249 46 203
internal_count=4920 55 4865 86 58 4779 880 348 77 271 151 62 89 55 3899 269 249 46 203
is_linear=0
shrinkage=0.05


end of trees

feature_importances:
f_3=138
f_15=81
f_5=65
f_14=60
f_2=47
f_0=32
f_1=32
f_22=21
f_8=14
f_21=13
f_17=12
f_6=10
f_16=10
f_19=7
f_12=6
f_4=4
f_18=4
f_7=3
f_11=3
f_20=3
f_9=2
f_13=2
f_10=1

parameters:
[boosting: gbdt]
[objective: regression]
[metric: binary_logloss]
[tree_learner: serial]
[device_type: cpu]
[data: ]
[valid: ]
[num_iterations: 10]
[learning_rate: 0.05]
[num_leaves: 20]
[num_threads: 0]
[deterministic: 0]
[force_col_wise: 0]
[force_row_wise: 0]
[histogram_pool_size: -1]
[max_depth: -1]
[min_data_in_leaf: 20]
[min_sum_hessian_in_leaf: 0.001]
[bagging_fraction: 0.7]
[pos_bagging_fraction: 1]
[neg_bagging_fraction: 1]
[bagging_freq: 5]
[bagging_seed: 3]
[feature_fraction: 0.9]
[feature_fraction_bynode: 1]
[feature_fraction_seed: 2]
[extra_trees: 0]
[extra_seed: 6]
[early_stopping_round: 0]
[first_metric_only: 0]
[max_delta_step: 0]
[lambda_l1: 0]
[lambda_l2: 0]
[linear_lambda: 0]
[min_gain_to_split: 0]
[drop_rate: 0.1]
[max_drop: 50]
[skip_drop: 0.5]
[xgboost_dart_mode: 0]
[uniform_drop: 0]
[drop_seed: 4]
[top_rate: 0.2]
[other_rate: 0.1]
[min_data_per_group: 100]
[max_cat_threshold: 32]
[cat_l2: 10]
[cat_smooth: 10]
[max_cat_to_onehot: 4]
[top_k: 20]
[monotone_constraints: ]
[monotone_constraints_method: basic]
[monotone_penalty: 0]
[feature_contri: ]
[forcedsplits_filename: ]
[refit_decay_rate: 0.9]
[cegb_tradeoff: 1]
[cegb_penalty_split: 0]
[cegb_penalty_feature_lazy: ]
[cegb_penalty_feature_coupled: ]
[path_smooth: 0]
[interaction_constraints: ]
[verbosity: 0]
[saved_feature_importance_type: 0]
[linear_tree: 0]
[max_bin: 255]
[max_bin_by_feature: ]
[min_data_in_bin: 3]
[bin_construct_sample_cnt: 200000]
[data_random_seed: 1]
[is_enable_sparse: 1]
[enable_bundle: 1]
[use_missing: 1]
[zero_as_missing: 0]
[feature_pre_filter: 1]
[pre_partition: 0]
[two_round: 0]
[header: 0]
[label_column: ]
[weight_column: ]
[group_column: ]
[ignore_column: ]
[categorical_feature: ]
[forcedbins_filename: ]
[precise_float_parser: 0]
[objective_seed: 5]
[num_class: 1]
[is_unbalance: 0]
[scale_pos_weight: 1]
[sigmoid: 1]
[boost_from_average: 1]
[reg_sqrt: 0]
[alpha: 0.9]
[fair_c: 1]
[poisson_max_delta_step: 0.7]
[tweedie_variance_power: 1.5]
[lambdarank_truncation_level: 30]
[lambdarank_norm: 1]
[label_gain: ]
[eval_at: ]
[multi_error_top_k: 1]
[auc_mu_weights: ]
[num_machines: 1]
[local_listen_port: 12400]
[time_out: 120]
[machine_list_filename: ]
[machines: ]
[gpu_platform_id: -1]
[gpu_device_id: -1]
[gpu_use_dp: 0]
[num_gpu: 1]

end of parameters

pandas_categorical:[]
