tree
version=v3
num_class=1
num_tree_per_iteration=1
label_index=0
max_feature_idx=22
objective=regression
feature_names=f_0 f_1 f_2 f_3 f_4 f_5 f_6 f_7 f_8 f_9 f_10 f_11 f_12 f_13 f_14 f_15 f_16 f_17 f_18 f_19 f_20 f_21 f_22
feature_infos=[3.5138360446667107e-07:0.0066553821535006137] [2.5600331918768856e-06:0.0039732576088439284] [9.2225614268401974e-06:0.0029579505118275174] [0.53000000000000003:6.5599999999999996] [-33.000000000000007:46] [2.4100000000000001:21.82] [-101.00000000000016:144.99999999999994] [-0.15710919088766695:0.17837578087457961] [-81:74] [-46:33.999999999999986] [-51.000000000000021:33.999999999999986] [-33.000000000000007:27.999999999999979] [-41:96.000000000000014] [-36.000000000000007:32.999999999999986] [-0.52000000000000002:2.9100000000000001] [-0.94999999999999996:3.8500000000000001] [-52:73.999999999999972] [-28.000000000000004:24.000000000000004] [-0.29572649572649579:0.64215246636771273] [-0.02958455728073861:0.047292143401983289] [-0.054746473503621829:0.033993115318416534] [-0.039377561323276189:0.045346674363414774] [-0.019984292877423981:0.018327052533256172]
tree_sizes=1818 1882 1896 1908 1890 1884 1908 1913 1895 1877 1914 1902 1886 1882 1921 1908 1899 1922 1916 1933

Tree=0
num_leaves=20
num_cat=0
split_feature=3 1 14 1 10 0 3 2 15 2 20 14 1 3 2 3 21 1 20
split_gain=15.3029 6.78318 4.35507 3.49722 3.13568 2.42858 2.16371 3.30629 3.97752 3.06318 3.4884 3.35603 2.68157 2.52876 2.93301 2.46903 2.36885 2.29885 2.82094
threshold=1.4950000000000003 3.5848820148827845e-05 2.6950000000000007 1.5890422471908431e-05 9.9999999999999876 2.1406040044605986e-05 1.8050000000000004 0.00020467053333761656 2.8750000000000004 8.1277943992210926e-05 -0.0021361036591087674 1.1850000000000003 0.00041659036141107858 3.1250000000000004 0.00016067123683951914 2.0350000000000006 0.00014784902424613835 0.00025990434788019686 0.0002161037671398747
decision_type=2 2 2 2 2 2 2 2 2 2 2 2 2 2 2 2 2 2 2
left_child=2 -2 3 -1 5 -3 9 13 12 11 -11 -7 17 14 -8 -10 -13 18 -9
right_child=1 4 -4 -5 -6 6 7 8 15 10 -12 16 -14 -15 -16 -17 -18 -19 -20
leaf_value=0.25384197328680819 0.25769798458532367 0.26017643293504927 0.28413476698239659 0.26181532902094828 0.26027511714851659 0.2939048822160974 0.26665509166471368 0.25896469820505919 0.29246810056408257 0.2769919096266657 0.26680933827106518 0.2819489745675281 0.26274833566656519 0.28175381453048626 0.2559738466029059 0.27499498176377318 0.26801454792274165 0.27838764037433722 0.27711722291360835
leaf_weight=148 145 64 21 1943 95 29 246 49 30 126 253 61 113 21 87 62 61 87 38
leaf_count=148 145 64 21 1943 95 29 246 49 30 126 253 61 113 21 87 62 61 87 38
internal_value=0.264002 0.268 0.261479 0.261251 0.26905 0.269679 0.27016 0.2684 0.271646 0.272594 0.270195 0.278616 0.268746 0.264926 0.263864 0.280693 0.274982 0.272641 0.266893
internal_weight=0 1567 2112 2091 1422 1327 1263 733 379 530 379 151 287 354 333 92 122 174 87
internal_count=3679 1567 2112 2091 1422 1327 1263 733 379 530 379 151 287 354 333 92 122 174 87
is_linear=0
shrinkage=1


Tree=1
num_leaves=20
num_cat=0
split_feature=5 5 1 2 5 2 6 8 5 10 14 2 16 0 5 21 17 8 21
split_gain=16.6417 4.29031 3.91483 2.95438 2.87505 3.21083 2.57221 2.3822 2.44979 4.20937 3.77578 2.8731 2.28935 2.57093 2.24514 2.21327 2.07088 1.92747 3.40732
threshold=4.6650000000000009 2.5750000000000006 2.9180694901725197e-05 2.962741176234285e-05 5.1150000000000011 3.9471772375300702e-05 9.0000000000000089 -1.0000000000000002 6.6850000000000014 9.9999999999999876 2.5350000000000006 7.9109284232523684e-05 4.9999999999999973 0.00021849151284170226 3.7850000000000006 -0.00068325909125888085 3.5000000000000036 -1.9999999999999682 -0.0033001196079873725
decision_type=2 2 2 2 2 2 2 2 2 2 2 2 2 2 2 2 2 2 2
left_child=1 -1 4 14 5 -2 -5 15 -9 10 11 -10 16 -14 -3 17 -13 -4 -19
right_child=2 3 7 6 -6 -7 -8 8 9 -11 -12 12 13 -15 -16 -17 -18 18 -20
leaf_value=0.010909233748912811 0.018705649673938753 -0.0091219967816557213 0.0070781019130131094 -0.0032350573457155516 -0.010546490585102757 -0.0083079538562081078 0.0075622594562070131 0.00081059214601666714 0.024895503469135452 -0.0082967751431015299 -0.0091346248156494569 0.0044639274003651164 0.029643367095427083 0.0072942147331853079 0.001831461020089962 0.0038641595633368479 0.017348143370712506 0.0090221720291119006 0.03098847231379262
leaf_weight=50 22 350 164 1126 85 22 58 763 23 53 36 377 22 31 54 331 34 51 27
leaf_count=50 22 350 164 1126 85 22 58 763 23 53 36 377 22 31 54 331 34 51 27
internal_value=0 -0.00351184 0.00325452 -0.00396591 -0.00517599 0.00519885 -0.00270613 0.00382332 0.00266879 0.00513027 0.00649094 0.00764601 0.00679097 0.0165712 -0.00765792 0.00652123 0.00552977 0.0101555 0.0166259
internal_weight=0 1638 2041 1588 129 44 1184 1912 1339 576 523 487 464 53 404 573 411 242 78
internal_count=3679 1638 2041 1588 129 44 1184 1912 1339 576 523 487 464 53 404 573 411 242 78
is_linear=0
shrinkage=0.05


Tree=2
num_leaves=20
num_cat=0
split_feature=5 5 1 2 5 2 6 13 0 15 2 8 2 18 20 5 20 18 17
split_gain=15.0191 3.87201 3.53313 2.66633 2.59474 2.89778 2.32142 2.21592 2.51783 2.48011 5.5 2.68198 2.58205 2.42016 2.13472 2.02624 1.97813 2.51855 1.8891
threshold=4.6650000000000009 2.5750000000000006 2.9180694901725197e-05 2.962741176234285e-05 5.1150000000000011 3.9471772375300702e-05 9.0000000000000089 1.0000000180025095e-35 0.0007214066849551274 2.8750000000000004 0.00020467053333761656 -0.50000000000005584 6.4946454819145695e-05 0.085970422819072648 -0.0046916362435856498 3.7850000000000006 -0.00095319264272902815 0.01939047377887693 -0.99999999999998412
decision_type=2 2 2 2 2 2 2 2 2 2 2 2 2 2 2 2 2 2 2
left_child=1 -1 4 15 5 -2 -5 9 -9 11 -11 12 -4 -13 -14 -3 17 -16 -12
right_child=2 3 7 6 -6 -7 -8 8 -10 10 18 13 14 -15 16 -17 -18 -19 -20
leaf_value=0.010363771557807924 0.017770367928526619 -0.0086658967137336739 0.019077593088150026 -0.0030733040644792217 -0.010019165312542636 -0.0078925559805198154 0.007184146344661713 -0.0002434541857659036 0.013670156300067902 0.0049205053019626393 0.010717206714408739 0.0025036081386069524 -0.0013340015709400179 -0.0081726421056122611 0.01917024983558804 0.0017398882795263222 0.0045453515441263494 0.0030511110638960816 0.027405577343563706
leaf_weight=50 22 350 38 1126 85 22 58 458 35 232 28 626 90 58 64 54 201 39 43
leaf_count=50 22 350 38 1126 85 22 58 458 35 232 28 626 90 58 64 54 201 39 43
internal_value=0 -0.00333625 0.0030918 -0.00376761 -0.00491719 0.00493891 -0.00257083 0.00363215 0.000744327 0.00463546 0.00864712 0.00354627 0.00663054 0.00159831 0.00543006 -0.00727502 0.00743258 0.0130669 0.0208242
internal_weight=0 1638 2041 1588 129 44 1184 1912 493 1419 303 1116 432 684 394 404 304 103 71
internal_count=3679 1638 2041 1588 129 44 1184 1912 493 1419 303 1116 432 684 394 404 304 103 71
is_linear=0
shrinkage=0.05


Tree=3
num_leaves=20
num_cat=0
split_feature=5 5 1 2 5 2 6 13 0 15 2 1 15 2 5 0 0 14 2
split_gain=13.5548 3.49449 3.18865 2.40636 2.34175 2.61524 2.09508 1.99986 2.27234 2.23829 4.96375 2.43283 2.91316 3.6934 2.30553 2.13397 3.33995 3.53014 2.05633
threshold=4.6650000000000009 2.5750000000000006 2.9180694901725197e-05 2.962741176234285e-05 5.1150000000000011 3.9471772375300702e-05 9.0000000000000089 1.0000000180025095e-35 0.0007214066849551274 2.8750000000000004 0.00020467053333761656 0.00044428057153355255 0.31500000000000006 8.4172270788191816e-05 9.4850000000000012 0.00013632089715384418 0.00010355877535675684 1.7250000000000003 0.00019292242589676791
decision_type=2 2 2 2 2 2 2 2 2 2 2 2 2 2 2 2 2 2 2
left_child=1 -1 4 -3 5 -2 -5 9 -9 11 -11 12 13 -4 15 16 17 -14 -15
right_child=2 3 7 6 -6 -7 -8 8 -10 10 -12 -13 14 18 -16 -17 -18 -19 -20
leaf_value=0.0098455836772918717 0.016881848871707916 -0.0069112733393760012 0.023975060052341887 -0.0029196390944994577 -0.0095182069171877472 -0.0074979281560941177 0.0068249389529228214 -0.00023128143694723538 0.012986648295606888 0.0046744800140631612 0.019783035487356323 -0.0041975494205337208 0.004640103630967193 0.00093329226554826259 0.012275705170833458 -0.0012090513908785154 0.012366841414145062 -0.0073032744415104395 0.012034818585272189
leaf_weight=50 22 404 36 1126 85 22 58 458 35 232 71 97 273 86 59 306 98 80 81
leaf_count=50 22 404 36 1126 85 22 58 458 35 232 71 97 273 86 59 306 98 80 81
internal_value=0 -0.00316944 0.00293721 -0.00357923 -0.00467133 0.00469196 -0.00244229 0.00345054 0.000707111 0.00440369 0.00821477 0.00336896 0.00408922 0.00944919 0.0027558 0.00201383 0.00420053 0.00193339 0.00631786
internal_weight=0 1638 2041 1588 129 44 1184 1912 493 1419 303 1116 1019 203 816 757 451 353 167
internal_count=3679 1638 2041 1588 129 44 1184 1912 493 1419 303 1116 1019 203 816 757 451 353 167
is_linear=0
shrinkage=0.05


Tree=4
num_leaves=20
num_cat=0
split_feature=3 1 14 1 3 2 15 1 21 10 3 2 0 10 3 1 2 21 3
split_gain=10.5861 4.85793 3.65155 2.58097 2.45841 3.46537 2.84451 2.73756 2.37575 4.18037 2.36501 2.16185 2.56914 2.51173 2.11206 2.20954 1.93328 1.9117 1.88999
threshold=1.4950000000000003 3.5848820148827845e-05 2.6950000000000007 1.5890422471908431e-05 1.8050000000000004 0.00020467053333761656 2.8750000000000004 0.00044428057153355255 -0.0013572927857946058 -5.000000000000048 2.0350000000000006 7.9109284232523684e-05 9.1828311390752677e-05 -1.0000000000000451 3.1250000000000004 0.00018005930357221881 0.00072509667545322032 -0.005259208405762216 1.9950000000000003
decision_type=2 2 2 2 2 2 2 2 2 2 2 2 2 2 2 2 2 2 2
left_child=2 -2 3 -1 8 14 7 18 11 -10 -8 17 -13 -14 15 -6 -12 -3 -7
right_child=1 4 -4 -5 5 6 10 -9 9 -11 16 12 13 -15 -16 -17 -18 -19 -20
leaf_value=-0.0086760538554674881 -0.0053970138523085362 0.0071038466691970828 0.018642925861335934 -0.0018263626193730292 5.7733339535725583e-05 -0.0018781802306572599 0.024623699833949408 -0.002826479586780581 0.016072724197731644 0.0017263594240245251 0.0016756656701150147 -0.00096961629801783065 0.00293150662698529 0.018500193220282356 0.013829368093739386 -0.0097267181520730682 0.018339503769363677 0.02449107624070589 0.0094848728605679104
leaf_weight=148 145 25 21 1943 308 48 30 117 61 303 46 58 44 63 23 71 28 43 154
leaf_count=148 145 25 21 1943 308 48 30 117 61 303 46 58 44 63 23 71 28 43 154
internal_value=0 0.00332119 -0.00210283 -0.00231118 0.00421018 0.00244167 0.00560075 0.00325962 0.0066541 0.00413056 0.0127817 0.0105965 0.00750461 0.0120981 -0.000882437 -0.00177524 0.0079809 0.0180987 0.00678474
internal_weight=0 1567 2112 2091 1422 825 423 319 597 364 104 233 165 107 402 379 74 68 202
internal_count=3679 1567 2112 2091 1422 825 423 319 597 364 104 233 165 107 402 379 74 68 202
is_linear=0
shrinkage=0.05


Tree=5
num_leaves=20
num_cat=0
split_feature=5 2 3 6 18 0 2 1 16 5 8 14 1 5 5 8 2 14 14
split_gain=13.8228 3.2647 2.91062 3.05114 2.14092 2.07909 2.1793 2.78429 2.24947 1.81521 1.7599 2.39395 2.07965 2.23674 2.04369 1.98874 1.88143 2.21866 1.91202
threshold=4.4850000000000012 3.8292919040235975e-05 0.56500000000000006 2.0000000000000244 0.085970422819072648 4.9933243268714761e-05 6.1265107268246698e-05 3.6186788857706319e-05 -3.1666666666666798 3.7850000000000006 -1.0000000180025095e-35 2.0450000000000004 0.00012382522305140774 6.1150000000000011 8.0250000000000004 1.0000000000000007 0.00019575577271879359 2.0250000000000004 2.2950000000000004
decision_type=2 2 2 2 2 2 2 2 2 2 2 2 2 2 2 2 2 2 2
left_child=2 -2 -1 -4 10 6 7 8 -5 -9 11 12 13 -3 -15 16 -12 -18 -19
right_child=1 4 3 5 -6 -7 -8 9 -10 -11 15 -13 -14 14 -16 -17 17 18 -20
leaf_value=0.01228057449233943 -0.0039929167526524248 0.0065447341613095221 -0.0048588248174278453 0.010870710251534858 -0.0016931276046792875 -0.0035339865558499462 -0.0067736493367137329 0.028091373362324458 -0.0054072880440137611 0.0072785144299268717 -0.00073246506208948087 0.0010643634646334112 0.0051199185458437498 0.021837569838937591 0.0051191854476928715 0.0050738088194804375 0.0014729044942752177 0.023522596118541864 0.0046927283917154589
leaf_weight=29 164 99 1193 41 191 149 33 22 44 20 482 187 302 68 25 491 115 26 28
leaf_count=29 164 99 1193 41 191 149 33 22 44 20 482 187 302 68 25 491 115 26 28
internal_value=0 0.00279084 -0.003409 -0.00371193 0.00334324 0.000716066 0.00467393 0.0076485 0.00244445 0.0181805 0.00387091 0.00588269 0.00770664 0.0117753 0.0173434 0.00267124 0.00085917 0.00539863 0.013759
internal_weight=0 2178 1531 1502 2014 309 160 127 85 42 1823 681 494 192 93 1142 651 169 54
internal_count=3709 2178 1531 1502 2014 309 160 127 85 42 1823 681 494 192 93 1142 651 169 54
is_linear=0
shrinkage=0.05


Tree=6
num_leaves=20
num_cat=0
split_feature=5 1 5 3 6 20 14 8 2 21 22 0 9 15 14 8 22 19 14
split_gain=12.4751 2.99777 2.67922 2.62683 2.75365 2.36954 2.30397 2.09604 2.17325 2.06732 1.92382 2.05112 1.87184 1.82532 2.06422 1.64582 1.63195 1.54691 2.21413
threshold=4.4850000000000012 2.9180694901725197e-05 4.8750000000000009 0.56500000000000006 2.0000000000000244 -0.0085432896767010363 2.3150000000000004 -1.0000000180025095e-35 3.0285766727076966e-05 0.0023935437021324062 -1.0000000180025095e-35 5.0636513768831082e-05 -3.1666666666666727 0.095000000000000015 0.085000000000000006 -1.0000000000000118 2.4164074063692812e-05 -1.0000000180025095e-35 2.5350000000000006
decision_type=2 2 2 2 2 2 2 2 2 2 2 2 2 2 2 2 2 2 2
left_child=3 2 6 -1 13 9 -2 17 -9 -3 -6 12 16 -5 -15 -11 -12 -7 -19
right_child=1 5 -4 4 10 7 -8 8 -10 15 11 -13 -14 14 -16 -17 -18 18 -20
leaf_value=0.011666546042623191 -0.0034629891258339549 -0.0067041503679421219 -0.010092660926637196 -0.0095148499873353234 -0.003798736940931391 0.0085576675464644255 0.016142715124980264 -0.011107225870263988 0.0027551560200328104 0.015534489195455204 0.027214829978488744 -0.00091096292580327689 0.002276961226016283 0.0030673319207770483 -0.0045616667361571888 -0.0004893365552869894 0.0072580248862504958 0.0048281612389447686 -0.010030587183104622
leaf_weight=29 43 108 84 164 135 304 23 29 1128 22 21 93 40 98 931 59 20 351 27
leaf_count=29 43 108 84 164 135 304 23 29 1128 22 21 93 40 98 931 59 20 351 27
internal_value=0 0.0026513 -0.0041694 -0.00323855 -0.00352633 0.00315579 0.0033693 0.0037037 0.0024077 -0.00217545 0.000680263 0.00415535 0.00997223 -0.00461588 -0.0038351 0.00386281 0.0174798 0.00590233 0.00376682
internal_weight=0 2178 150 1531 1502 2028 66 1839 1157 189 309 174 81 1193 1029 81 41 682 378
internal_count=3709 2178 150 1531 1502 2028 66 1839 1157 189 309 174 81 1193 1029 81 41 682 378
is_linear=0
shrinkage=0.05


Tree=7
num_leaves=20
num_cat=0
split_feature=5 1 5 3 6 0 20 8 2 21 0 13 15 14 8 18 15 2 2
split_gain=11.2588 2.70549 2.418 2.37072 2.48517 2.17664 2.13851 1.89167 1.96136 1.86576 1.75405 2.03985 1.64735 1.86296 1.5031 1.87531 1.81286 2.7595 3.62479
threshold=4.4850000000000012 2.9180694901725197e-05 4.8750000000000009 0.56500000000000006 2.0000000000000244 1.2490403289689989e-05 -0.0085432896767010363 -1.0000000180025095e-35 3.0285766727076966e-05 0.0023935437021324062 4.9933243268714761e-05 -3.0000000000000133 0.095000000000000015 0.085000000000000006 1.0000000000000007 0.079767564161433394 1.9950000000000003 0.00024943042255963006 0.00030214435714335646
decision_type=2 2 2 2 2 2 2 2 2 2 2 2 2 2 2 2 2 2 2
left_child=3 2 5 -1 12 -2 9 -8 -9 -3 11 -6 -5 -14 16 -16 -10 -18 -19
right_child=1 6 -4 4 10 -7 7 8 14 -11 -12 -13 13 -15 15 -17 17 18 -20
leaf_value=0.011083218506697952 -0.0084273968040943139 -0.0063689428140167844 -0.0095880278607919107 -0.0090391075920041013 0.017098258063197137 0.010291223155289162 0.0056072143209644782 -0.01055186437121753 -0.0024348383965874525 0.0036696730020605488 -0.0032574720980737036 0.0017947753140730644 0.0029139644105215462 -0.0043335835680477601 0.0055065607536683046 -0.0080585417372209048 0.00087489637073326701 0.028958306851841156 0.0052732980251312261
leaf_weight=29 25 108 84 164 26 41 682 29 237 81 149 134 98 931 452 27 321 21 70
leaf_count=29 25 108 84 164 26 41 682 29 237 81 149 134 98 931 452 27 321 21 70
internal_value=0 0.00251873 -0.00396093 -0.00307662 -0.00335001 0.00320084 0.002998 0.00351851 0.00228731 -0.00206668 0.00064625 0.00428159 -0.00438509 -0.00364334 0.0026174 0.00474193 0.00104937 0.00305363 0.0107391
internal_weight=0 2178 150 1531 1502 66 2028 1839 1157 189 309 160 1193 1029 1128 479 649 412 91
internal_count=3709 2178 150 1531 1502 66 2028 1839 1157 189 309 160 1193 1029 1128 479 649 412 91
is_linear=0
shrinkage=0.05


Tree=8
num_leaves=20
num_cat=0
split_feature=5 3 2 6 3 3 3 5 19 14 2 14 22 3 2 3 5 8 20
split_gain=10.1855 2.22667 2.80265 2.21646 2.08707 3.71196 3.52898 3.47784 3.41894 2.70274 2.74508 2.53983 2.0834 2.04893 3.87482 3.61153 3.10294 2.02166 1.78099
threshold=4.3550000000000013 0.57500000000000007 8.4172270788191816e-05 2.0000000000000244 3.3150000000000004 2.5250000000000004 5.9650000000000007 6.8150000000000004 -0.0064185968560092612 2.5850000000000004 7.9109284232523684e-05 1.4825000000000002 1.2079410042109552e-05 1.9950000000000003 5.0440644423626269e-05 1.7950000000000002 6.0550000000000006 -1.0000000180025095e-35 -0.0085432896767010363
decision_type=2 2 2 2 2 2 2 2 2 2 2 2 2 2 2 2 2 2 2
left_child=1 2 -1 -3 5 7 -6 13 -9 10 -10 -7 -12 15 -15 18 -16 -18 -2
right_child=4 3 -4 -5 6 11 -8 8 9 -11 12 -13 -14 14 16 -17 17 -19 -20
leaf_value=0.017926764621266297 -0.0050051550343632699 -0.0044495470206489789 -0.0024953015680824007 0.00054297090814001733 0.013051340277447846 0.0052751100808382037 -0.0065240893512964254 -0.0048070394354207176 0.02345557287335396 -0.010677469202450343 0.0041937973155500062 -0.009385402757773359 0.010726701882966046 -0.009356514364480973 0.028870088607072832 -0.0080648348932819709 0.018575312445561092 0.00021927844732999802 0.0019919549126133501
leaf_weight=28 100 1126 42 277 99 40 30 70 26 21 306 113 203 26 22 112 24 40 1004
leaf_count=28 100 1126 42 277 99 40 30 70 26 21 306 113 203 26 22 112 24 40 1004
internal_value=0 -0.00302963 0.00567352 -0.00346385 0.00232529 0.00194732 0.00849891 0.00253457 0.00560695 0.00691806 0.00760872 -0.00555259 0.00679926 0.00108629 0.0075576 0.000490251 0.0126712 0.00710279 0.00135816
internal_weight=0 1473 70 1403 2236 2107 129 1954 626 556 535 153 509 1328 112 1216 86 64 1104
internal_count=3709 1473 70 1403 2236 2107 129 1954 626 556 535 153 509 1328 112 1216 86 64 1104
is_linear=0
shrinkage=0.05


Tree=9
num_leaves=20
num_cat=0
split_feature=5 3 2 6 3 3 3 5 14 6 5 4 8 21 3 2 3 5 11
split_gain=9.19245 2.00957 2.52939 2.00035 1.88358 3.35004 3.20627 3.13875 2.4972 2.52579 2.39006 2.32116 2.16196 2.06646 1.84916 3.49702 3.25941 2.8004 2.34406
threshold=4.3550000000000013 0.57500000000000007 8.4172270788191816e-05 2.0000000000000244 3.3150000000000004 2.5250000000000004 5.9200000000000008 6.8150000000000004 2.5850000000000004 8.2500000000000036 7.7650000000000006 0.50000000000000611 1.5000000000000071 -0.0033869491092748945 1.9950000000000003 5.0440644423626269e-05 1.7950000000000002 6.0550000000000006 5.2500000000000222
decision_type=2 2 2 2 2 2 2 2 2 2 2 2 2 2 2 2 2 2 2
left_child=1 2 -1 -3 5 7 -6 14 9 12 11 -7 -9 -11 16 -16 18 -17 -2
right_child=4 3 -4 -5 6 10 -8 8 -10 13 -12 -13 -14 -15 15 17 -18 -19 -20
leaf_value=0.017030426380889759 0.00048944927865478597 -0.0042270696673998827 -0.0023705364870173591 0.00051582242607640016 0.01288396920612518 -0.0054730265304960054 -0.0048443171807697845 0.0091463478068814028 -0.010489585964630049 -0.014287894154372422 -0.009629028999400371 0.016354236290568397 0.00097675972855558587 0.0026271171956544835 -0.0088886885688855104 0.027426583929495381 -0.0076615930268807073 0.0067476514959707856 0.007918733527429965
leaf_weight=28 985 1126 42 277 94 29 35 393 24 23 103 21 102 84 26 22 112 64 119
leaf_count=28 985 1126 42 277 94 29 35 393 24 23 103 21 102 84 26 22 112 64 119
internal_value=0 -0.00287815 0.00538985 -0.00329066 0.00220903 0.00184995 0.00807397 0.00240784 0.0053266 0.00595714 -0.00527496 0.00369442 0.00746292 -0.00100882 0.00103198 0.00717972 0.000465739 0.0120376 0.00129025
internal_weight=0 1473 70 1403 2236 2107 129 1954 626 602 153 50 495 107 1328 112 1216 86 1104
internal_count=3709 1473 70 1403 2236 2107 129 1954 626 602 153 50 495 107 1328 112 1216 86 1104
is_linear=0
shrinkage=0.05


Tree=10
num_leaves=20
num_cat=0
split_feature=3 1 14 10 1 0 19 2 14 1 10 22 9 22 22 10 11 20 22
split_gain=6.06416 3.1639 2.9251 2.38616 1.93356 1.87609 1.67966 2.3495 1.88005 1.79362 1.57165 1.84873 2.21699 1.97969 1.7635 1.50511 2.54826 1.47135 1.44647
threshold=1.4950000000000003 3.5848820148827845e-05 2.6950000000000007 9.9999999999999876 1.5890422471908431e-05 2.1406040044605986e-05 1.0000000180025095e-35 6.4260873186388698e-05 1.4750000000000003 5.2609242738473945e-05 7.9999999999999414 -4.8314722115638802e-05 3.9999999999999987 -0.00054093055856785355 -2.4162030577867807e-05 5.7500000000000115 4.7499999999999885 -0.000372013357928691 -1.0000000180025095e-35
decision_type=2 2 2 2 2 2 2 2 2 2 2 2 2 2 2 2 2 2 2
left_child=2 -2 4 5 -1 -3 7 8 -7 -10 11 12 13 17 -13 18 -17 -9 -6
right_child=1 3 -4 -5 15 6 -8 10 9 -11 -12 14 -14 -15 -16 16 -18 -19 -20
leaf_value=-0.0073010666497253093 -0.0045360687426451987 -0.0045865033287554981 0.016962281295231411 -0.0044378198761689039 -0.0036428648312857928 0.026281515217345692 0.0022867906413787656 0.013183254165493924 0.018560795796414217 -0.00076974729696909589 0.016915440186858179 -0.0074923616275191316 -0.0047182743365948021 0.015736545890234831 0.0035865951879796663 0.01389574281871319 1.0630609957795394e-05 -0.0035076789077251192 -0.00068324397777785742
leaf_weight=148 145 64 21 95 694 23 605 23 24 24 26 40 26 89 352 40 190 31 1019
leaf_count=148 145 64 21 95 694 23 605 23 24 24 26 40 26 89 352 40 190 31 1019
internal_value=0 0.00249971 -0.00160553 0.00321715 -0.001792 0.00376517 0.00418837 0.00593678 0.0145276 0.00889552 0.00489769 0.00434072 0.00871216 0.0111541 0.00245609 -0.00137237 0.00242543 0.00360142 -0.0018823
internal_weight=0 1567 2112 1422 2091 1327 1263 658 71 48 587 561 169 143 392 1943 230 54 1713
internal_count=3679 1567 2112 1422 2091 1327 1263 658 71 48 587 561 169 143 392 1943 230 54 1713
is_linear=0
shrinkage=0.05


Tree=11
num_leaves=20
num_cat=0
split_feature=5 5 15 2 22 20 1 18 7 5 0 6 18 8 15 21 11 7 20
split_gain=6.19696 2.82863 2.08265 4.42263 2.59248 1.82948 2.38377 2.19816 2.60973 1.85102 1.74765 1.73025 1.63608 3.4591 2.53759 2.49818 2.26245 2.17711 1.81315
threshold=4.6650000000000009 2.5750000000000006 0.31500000000000006 8.4172270788191816e-05 -4.8322893576535624e-05 0.0042172835112064275 3.9322949550839061e-05 -0.017098736586422632 0.019401425141466259 4.9350000000000014 0.00078494393648379315 12.999999999999947 0.0200964191372528 -0.99999999999999967 2.8950000000000005 0.002743903876128662 0.50000000000003386 -0.005909608417132394 -0.0014919498878519508
decision_type=2 2 2 2 2 2 2 2 2 2 2 2 2 2 2 2 2 2 2
left_child=1 -1 3 -2 -5 6 9 -8 12 -4 -7 -3 13 -9 16 -15 -14 -16 -19
right_child=2 11 5 4 -6 10 7 8 -10 -11 -12 -13 14 15 17 -17 -18 18 -20
leaf_value=0.0094592560458183293 0.021367499685287478 -0.002700640151429626 0.0038615972505588281 0.018781679356875629 0.0010291074931255879 -0.002309451950099612 0.00035769758985621306 0.016201546248010141 -0.0025439892726663118 -0.0071640354997167983 0.012357621967792512 0.010691846055909992 -0.001472013213836095 0.0012606341808819943 0.004387495976103389 0.013978801431707466 0.0099224073241154353 0.028508762821555136 0.0081741788685321809
leaf_weight=50 40 1564 57 23 163 382 482 97 107 108 21 24 204 139 69 52 54 22 21
leaf_count=50 40 1564 57 23 163 382 482 97 107 108 21 24 204 139 69 52 54 22 21
internal_value=0 -0.00213323 0.00195449 0.0064355 0.00322432 0.00139652 0.00223611 0.00297593 0.00462559 -0.00335518 -0.00154516 -0.00249823 0.00579146 0.00858915 0.0036138 0.00472317 0.000912866 0.00983561 0.0185779
internal_weight=0 1638 2041 226 186 1815 1412 1247 765 165 403 1588 658 288 370 191 258 112 43
internal_count=3679 1638 2041 226 186 1815 1412 1247 765 165 403 1588 658 288 370 191 258 112 43
is_linear=0
shrinkage=0.0495


Tree=12
num_leaves=20
num_cat=0
split_feature=3 14 2 14 2 3 21 14 15 3 0 10 2 3 3 15 1 3 2
split_gain=5.03517 2.7194 3.5334 3.36171 3.13056 2.78499 2.76182 2.62324 2.48166 3.32765 2.48571 2.46974 2.42634 2.34423 2.49037 2.05524 1.83342 2.27037 2.39869
threshold=1.4950000000000003 1.2350000000000001 0.00015295098111545836 -0.22499999999999998 0.00019575577271879359 2.3750000000000004 0.0045890209604599894 2.6950000000000007 2.9150000000000005 2.1650000000000005 0.00030252043684033005 7.4999999999999742 8.492521564696348e-05 4.4350000000000014 5.5500000000000007 0.31500000000000006 3.5848820148827845e-05 1.6650000000000003 8.9809896665054984e-05
decision_type=2 2 2 2 2 2 2 2 2 2 2 2 2 2 2 2 2 2 2
left_child=7 2 3 12 6 8 16 -1 9 -6 -11 15 -2 -7 -15 -4 -3 18 -18
right_child=1 4 11 -5 5 13 -8 -9 -10 10 -12 -13 -14 14 -16 -17 17 -19 -20
leaf_value=-0.0016081058160428336 0.012268705418296158 -0.0050727446784844272 0.0045804839540898798 0.016332859718799591 -0.00074784807465970513 -0.0034791149373299309 -0.0069643347567915912 0.015798727584459951 0.018533601675185623 0.024453140787139536 0.0045041850637346503 0.016594046658687293 -0.010262179797571153 0.017108700062973159 0.0010603630427595066 -0.0071387060038194715 0.010518252184452039 -0.00014491410292847 -0.0022335533554063121
leaf_weight=2091 22 111 75 108 81 126 135 21 49 30 30 22 24 35 69 69 116 414 51
leaf_count=2091 22 111 75 108 81 126 135 21 49 30 30 22 24 35 69 69 116 414 51
internal_value=0 0.0022313 0.00626126 0.0116076 0.00119715 0.0046426 -0.000552658 -0.00143503 0.00903311 0.00573152 0.0144787 0.00130141 0.000513461 0.00101566 0.00646125 -0.00103496 0.000698175 0.00180071 0.00662399
internal_weight=0 1567 320 154 1247 420 827 2112 190 141 60 166 46 230 104 144 692 581 167
internal_count=3679 1567 320 154 1247 420 827 2112 190 141 60 166 46 230 104 144 692 581 167
is_linear=0
shrinkage=0.049005


Tree=13
num_leaves=20
num_cat=0
split_feature=5 5 13 8 4 21 8 8 5 5 9 22 5 6 19 14 0 1 6
split_gain=5.20954 2.55999 1.88042 2.04683 1.8042 1.85288 1.67445 1.657 1.89404 1.65719 2.28307 2.18087 1.94936 2.36179 2.05655 1.98578 1.86724 3.35425 1.84575
threshold=4.6650000000000009 2.5750000000000006 1.0000000000000122 3.9999999999999871 1.9999999999999853 0.0019475761371747782 -3.0000000000000004 -0.50000000000005584 4.7350000000000012 6.7250000000000005 10.250000000000027 -2.4162614395806244e-05 4.9650000000000007 -3.9999999999999365 -0.00114204142227442 2.5650000000000004 5.1707414060151744e-05 0.00012947058760590381 12.000000000000057
decision_type=2 2 2 2 2 2 2 2 2 2 2 2 2 2 2 2 2 2 2
left_child=1 -1 7 6 -3 -6 -4 8 -2 11 18 -9 14 16 -13 -15 -14 -18 -11
right_child=2 4 3 -5 5 -7 -8 9 -10 10 -12 12 13 15 -16 -17 17 -19 -20
leaf_value=0.0088901185834057324 0.01922309766402729 -0.002591397328079989 0.0090868559469643242 0.011851468811041117 0.00011229234021805052 0.017986232500066236 -0.0028233907926555426 -0.0046605255497186937 0.0040367169709677117 0.0058228897664624781 -0.0097138734031184722 8.5483661797253983e-05 -0.0040562520068516137 -0.0045472142090276337 0.01410542035986337 0.0086625286068450057 0.026608160365089027 0.0021521183223322036 -0.0047282955505063761
leaf_weight=50 20 1525 30 27 43 20 376 187 577 345 28 46 25 197 53 31 22 33 44
leaf_count=50 20 1525 30 27 43 20 376 187 577 345 28 46 25 197 53 31 22 33 44
internal_value=0 -0.00191869 0.00175465 -0.00108314 -0.00225902 0.00578656 -0.00194332 0.00251881 0.00454547 0.00132205 0.00366634 -0.000323684 0.00166892 -0.000234642 0.00759111 -0.00275115 0.00693741 0.0119345 0.00462944
internal_weight=0 1638 2041 433 1588 63 406 1608 597 1011 417 594 407 308 99 228 80 55 389
internal_count=3679 1638 2041 433 1588 63 406 1608 597 1011 417 594 407 308 99 228 80 55 389
is_linear=0
shrinkage=0.048515


Tree=14
num_leaves=20
num_cat=0
split_feature=5 5 15 2 22 4 21 20 1 18 7 3 0 20 20 22 2 5 18
split_gain=4.71632 2.31762 1.75405 3.73029 2.27176 1.63339 1.67746 1.60379 1.94357 1.95043 2.29205 1.67602 1.51733 1.51494 1.97422 1.65297 1.92093 1.42892 1.36208
threshold=4.6650000000000009 2.5750000000000006 0.31500000000000006 8.4172270788191816e-05 -4.8322893576535624e-05 1.9999999999999853 0.0019475761371747782 0.0042172835112064275 3.9322949550839061e-05 -0.017098736586422632 0.019401425141466259 1.4450000000000001 0.00078494393648379315 -0.004437929504964965 -0.0017059893832460091 1.2081453157675172e-05 0.0001684772510104819 7.6050000000000013 0.040292133234430601
decision_type=2 2 2 2 2 2 2 2 2 2 2 2 2 2 2 2 2 2 2
left_child=1 -1 3 -2 -5 -3 -7 8 11 -10 13 -4 -9 17 15 16 -15 -11 -16
right_child=2 5 7 4 -6 6 -8 12 9 10 -12 -13 -14 14 18 -17 -18 -19 -20
leaf_value=0.0083742266603313749 0.018949228833126084 -0.0024410189950218202 0.0084751918910545201 0.016912218518993084 0.00078756640393059098 0.00010577596970462729 0.016942494930971618 -0.0022074778228708312 0.0001738739727484539 -0.0011583863535549372 -0.0024447988833541951 -0.0050255848333972493 0.011053103090344145 0.013146476283514131 0.0068887668622808589 0.017694899100375836 -0.0035423178945142514 0.0068997146777233327 0.0001217196317678889
leaf_weight=50 40 1525 25 23 163 43 20 382 482 136 107 140 21 41 214 59 26 81 101
leaf_count=50 40 1525 25 23 163 43 20 382 482 136 107 140 21 41 214 59 26 81 101
internal_value=0 -0.00180735 0.00165283 0.00564302 0.00278147 -0.00212793 0.00545077 0.00115598 0.00191873 0.00256692 0.00407469 -0.00298001 -0.00151648 0.00513485 0.00675146 0.0118326 0.00667023 0.00184948 0.00471902
internal_weight=0 1638 2041 226 186 1588 63 1815 1412 1247 765 165 403 658 441 126 67 217 315
internal_count=3679 1638 2041 226 186 1588 63 1815 1412 1247 765 165 403 658 441 126 67 217 315
is_linear=0
shrinkage=0.0480298


Tree=15
num_leaves=20
num_cat=0
split_feature=5 3 3 14 17 20 21 2 2 2 14 2 5 2 5 14 3 6 5
split_gain=5.70244 1.79791 2.90113 2.66909 1.79942 1.73816 1.75862 1.68046 2.29996 5.04681 1.66438 3.22784 2.9677 2.2351 3.63008 2.01717 2.04385 1.87201 1.69813
threshold=4.3550000000000013 0.87500000000000011 0.77500000000000013 0.18250000000000002 -1.9999999999999849 -0.0085432896767010363 0.0027812093264274478 1.7805028538604964e-05 9.41702963937674e-05 6.7754885984359759e-05 1.2350000000000001 0.00013757826133235174 6.6550000000000011 0.00022932187716886209 7.0150000000000006 -0.39499999999999996 1.9950000000000003 0.99999999999988998 4.9650000000000007
decision_type=2 2 2 2 2 2 2 2 2 2 2 2 2 2 2 2 2 2 2
left_child=1 2 7 -4 -3 6 -2 -1 9 -9 11 12 -7 -12 -15 -13 18 -14 -17
right_child=5 4 3 -5 -6 10 -8 8 -10 -11 13 15 17 14 -16 16 -18 -19 -20
leaf_value=-0.0083740925893103918 -0.0062112173893720327 9.8110643406178603e-05 0.015122413994461428 0.00051443027579056559 -0.0052448568325211111 0.0051683815199504704 0.0029247482139494675 -0.0020446350646420898 -0.0060294965225705993 0.010358858261031804 0.00029606240680176338 0.015133068681482913 0.0091436737396865687 0.020832958303179105 0.0031803943721521359 0.0056314995151313923 0.012437360818246139 0.025159802470747117 -0.0031939342018581251
leaf_weight=77 120 194 47 71 537 160 79 305 144 98 1176 22 33 29 287 65 28 33 204
leaf_count=77 120 194 47 71 537 160 79 305 144 98 1176 22 33 29 287 65 28 33 204
internal_value=0 -0.00215321 -0.00050434 0.00633286 -0.00382689 0.00165717 -0.00258438 -0.00179727 -0.000871468 0.000971599 0.00207153 0.00432039 0.00866795 0.00125007 0.00480041 0.00124031 0.000211215 0.0171517 -0.00106139
internal_weight=0 1473 742 118 731 2236 199 624 547 403 2037 545 226 1492 316 319 297 66 269
internal_count=3709 1473 742 118 731 2236 199 624 547 403 2037 545 226 1492 316 319 297 66 269
is_linear=0
shrinkage=0.0475495


Tree=16
num_leaves=20
num_cat=0
split_feature=5 3 3 14 6 20 21 21 21 14 2 5 9 14 17 15 0 6 3
split_gain=5.17304 1.631 2.63179 2.42129 1.65258 1.57679 1.64961 1.53756 1.77204 1.54311 2.78018 2.7601 2.1749 2.46955 2.10196 2.08991 1.91215 1.79682 1.716
threshold=4.3550000000000013 0.87500000000000011 0.77500000000000013 0.18250000000000002 2.0000000000000244 -0.0085432896767010363 0.0088730460427195474 -0.0086613280291968891 -0.0078288963177536291 1.2350000000000001 0.00013757826133235174 6.6550000000000011 -2.9999999999999853 -0.034999999999999996 2.0000000000000013 1.9950000000000003 0.00021849151284170226 -3.9999999999999365 1.5550000000000004
decision_type=2 2 2 2 2 2 2 2 2 2 2 2 2 2 2 2 2 2 2
left_child=1 2 -1 -4 -3 6 -2 -7 -9 10 11 -10 14 16 -12 -11 -14 -15 -13
right_child=5 4 3 -5 -6 7 -8 8 9 15 12 18 13 17 -16 -17 -18 -19 -20
leaf_value=-0.0016946950196259662 -0.0043478220456264066 -0.0049679305346281774 0.014259317212236437 0.00048506981700415674 7.6559753175470312e-05 -0.0034859932722832278 0.0071757611982128221 0.014972187548905516 0.0049267001895675309 -0.0021355179798258784 -0.0099319235595198719 0.0088386530445362602 0.01832042896586818 -0.0052542217531248497 0.0063549357897323194 0.0022595225286636119 0.0017530373742084336 0.0052093031673578639 0.024254940928700699
leaf_weight=624 166 534 47 71 197 109 33 24 155 308 59 32 38 66 25 1082 26 81 32
leaf_count=624 166 534 47 71 197 109 33 24 155 308 59 32 38 66 25 1082 26 81 32
internal_value=0 -0.00203032 -0.000475555 0.00597142 -0.00360847 0.00156258 -0.00243688 0.0019533 0.00226081 0.00210059 0.00430438 0.00832253 0.00132142 0.00387171 -0.00508464 0.00128566 0.0115899 0.000511394 0.0165468
internal_weight=0 1473 742 118 731 2236 199 2037 1928 1904 514 219 295 211 84 1390 64 147 64
internal_count=3709 1473 742 118 731 2236 199 2037 1928 1904 514 219 295 211 84 1390 64 147 64
is_linear=0
shrinkage=0.047074


Tree=17
num_leaves=20
num_cat=0
split_feature=3 2 0 0 15 9 0 19 3 14 22 22 3 15 3 4 3 15 3
split_gain=4.07915 2.30059 1.70024 2.8331 1.95737 1.78352 1.65309 2.24514 1.62477 3.18375 2.72316 2.35092 2.26879 3.44842 2.60992 3.76397 3.00408 3.54998 3.38749
threshold=1.4750000000000003 3.8292919040235975e-05 0.00011333129349187629 0.00013272353290977673 0.095000000000000015 -1.0000000180025095e-35 4.9305231052359967e-05 0.0022740932917378891 1.8050000000000004 2.6150000000000007 -0.00061041982656812033 0.0004390421936012468 1.9950000000000003 2.4150000000000005 2.2750000000000004 1.0000000000000122 3.3150000000000004 2.3625000000000003 5.9200000000000008
decision_type=2 2 2 2 2 2 2 2 2 2 2 2 2 2 2 2 2 2 2
left_child=2 -2 4 -4 -1 -5 7 -6 10 12 -3 -12 13 -10 15 -14 17 -16 -18
right_child=1 8 3 5 6 -7 -8 -9 9 -11 11 -13 14 -15 16 -17 18 -19 -20
leaf_value=-0.0063723814892627092 -0.0042747554633058805 -0.0035902628662124077 0.0088392123261450718 -0.0042682581561097714 -0.0012269295250516093 0.0026602893829038095 -0.0034174382529083033 0.0047541620326757572 -0.0073325627450598835 -0.010295304114455497 0.0063692862987793381 -0.0022257390598105888 0.01237240433662592 0.0040823800264232707 0.0026471182206202091 -0.0031149580180299431 0.012144923648846248 -0.0083290783708205862 -0.0049959324525706787
leaf_weight=190 123 88 88 152 762 172 531 166 127 51 508 80 124 105 169 47 88 103 35
leaf_count=190 123 88 88 152 762 172 531 166 127 51 508 80 124 105 169 47 88 103 35
internal_value=0 0.00185637 -0.001254 0.0014239 -0.00192307 -0.00059014 -0.00134365 -0.000157036 0.00235088 0.000993513 0.00405561 0.0051999 0.00171498 -0.00216632 0.0033059 0.00811564 0.00122371 -0.00150931 0.00726744
internal_weight=0 1648 2061 412 1649 324 1459 928 1525 849 676 588 798 232 566 171 395 272 123
internal_count=3709 1648 2061 412 1649 324 1459 928 1525 849 676 588 798 232 566 171 395 272 123
is_linear=0
shrinkage=0.0466033


Tree=18
num_leaves=20
num_cat=0
split_feature=5 16 16 18 22 6 0 14 15 14 0 4 22 18 14 6 0 5 0
split_gain=4.34065 1.43752 1.55538 1.39958 1.27923 1.27903 1.67778 1.28655 1.28133 2.17261 1.45774 1.43913 1.13169 1.38609 1.51655 1.38227 2.19156 1.46487 2.33835
threshold=4.3550000000000013 4.9999999999999885 11.999999999999996 0.043227911382413338 0.0028280463254199977 6.9999999999999627 4.9933243268714761e-05 0.33500000000000008 0.095000000000000015 0.085000000000000006 0.00010476812918645434 1.0000000180025095e-35 0.0004390421936012468 -0.0026794726132591813 1.4150000000000003 -4.0000000000000471 0.00019587039556062823 15.805000000000001 0.00022554825036192203
decision_type=2 2 2 2 2 2 2 2 2 2 2 2 2 2 2 2 2 2 2
left_child=5 4 -3 -4 12 8 -7 -8 -1 10 11 -10 15 14 -14 16 -2 18 -17
right_child=1 2 3 -5 -6 6 7 -9 9 -11 -12 -13 13 -15 -16 17 -18 -19 -20
leaf_value=-0.0056932834314829981 -0.0042259798457644823 0.0051709363017480693 0.0014432814670498199 -0.011889435309449943 0.011619209827082005 0.0093172966789140926 0.0055973073231957637 -0.0086311974194325566 -0.0021213900378698231 -0.0022932142152519894 0.013487820595758201 0.010876743300329141 0.012018267596565418 -0.0063932201240108266 -0.001969159158853785 0.0025149154794545073 0.0044885228846725201 0.012177842856995405 -0.002479880062266281
leaf_weight=192 215 353 83 21 23 49 24 31 66 1058 28 25 22 101 66 988 86 28 250
leaf_count=192 215 353 83 21 23 49 24 31 66 1058 28 25 22 101 66 988 86 28 250
internal_value=0 0.00140187 0.00370997 -0.0012489 0.000808959 -0.00182379 0.00310881 -0.0024224 -0.00219851 -0.00162842 0.00428207 0.00144953 0.000667366 -0.00270517 0.0015277 0.00107414 -0.00173612 0.0017423 0.00150627
internal_weight=0 2236 457 104 1779 1473 104 55 1369 1177 119 91 1756 189 88 1567 301 1266 1238
internal_count=3709 2236 457 104 1779 1473 104 55 1369 1177 119 91 1756 189 88 1567 301 1266 1238
is_linear=0
shrinkage=0.0461372


Tree=19
num_leaves=20
num_cat=0
split_feature=5 3 2 6 0 13 20 21 8 21 21 0 20 3 5 22 19 8 3
split_gain=3.94935 1.47871 2.15645 1.41978 1.63305 1.73248 1.40955 1.49256 1.39515 1.37655 1.59575 1.36727 1.41418 2.27495 3.29313 1.84247 1.82004 1.64122 1.64092
threshold=4.3550000000000013 0.57500000000000007 8.4172270788191816e-05 2.0000000000000244 4.9933243268714761e-05 -2.9999999999999911 -0.0085432896767010363 0.0023935437021324062 -1.0000000000000118 -0.0086613280291968891 -0.0078288963177536291 1.1660825282449887e-05 -0.0020005965255974196 1.8050000000000004 7.7650000000000006 -0.00081214228462261884 -0.0044010899778512127 -1.0000000180025095e-35 4.1950000000000012
decision_type=2 2 2 2 2 2 2 2 2 2 2 2 2 2 2 2 2 2 2
left_child=1 2 -1 -3 5 -5 7 -2 -9 -8 -11 -12 13 14 16 -14 -13 -18 -17
right_child=6 3 -4 4 -6 -7 9 8 -10 10 11 12 15 -15 -16 18 17 -19 -20
leaf_value=0.014575409254654746 -0.0057962164661511878 -0.0027661848377767222 -0.0017890548264081661 0.015407668066785202 -0.0028453291675018854 0.0019917290648113592 -0.0033114954403463907 0.012111716390851757 -0.001221829742112351 0.013668828365870526 -0.0037766180125643604 0.013628054398909345 -0.0039107827655094204 0.00028765520882890474 0.018713215970458202 0.0014787289871420932 0.0077703064655973908 0.00015199547238753849 0.0099379337841516459
leaf_weight=28 113 1126 42 24 130 123 109 22 64 24 87 41 129 204 40 1108 99 146 50
leaf_count=28 113 1126 42 24 130 123 109 22 64 24 87 41 129 204 40 1108 99 146 50
internal_value=0 -0.00172225 0.00475673 -0.00204551 0.000884021 0.00418209 0.00132382 -0.00234529 0.00218908 0.00168227 0.00196459 0.00181706 0.00208489 0.00407059 0.00643782 0.00126716 0.00472099 0.00323042 0.00184398
internal_weight=0 1473 70 1403 277 147 2236 199 86 2037 1928 1904 1817 530 326 1287 286 245 1158
internal_count=3709 1473 70 1403 277 147 2236 199 86 2037 1928 1904 1817 530 326 1287 286 245 1158
is_linear=0
shrinkage=0.0456759


end of trees

feature_importances:
f_5=49
f_3=47
f_2=46
f_14=31
f_0=26
f_1=23
f_21=19
f_6=18
f_15=18
f_8=17
f_20=17
f_22=16
f_18=10
f_10=8
f_19=6
f_4=5
f_9=5
f_13=5
f_16=4
f_17=4
f_7=3
f_11=3

parameters:
[boosting: gbdt]
[objective: regression]
[metric: binary_logloss]
[tree_learner: serial]
[device_type: cpu]
[data: ]
[valid: ]
[num_iterations: 10]
[learning_rate: 0.0456759]
[num_leaves: 20]
[num_threads: 0]
[deterministic: 0]
[force_col_wise: 0]
[force_row_wise: 0]
[histogram_pool_size: -1]
[max_depth: -1]
[min_data_in_leaf: 20]
[min_sum_hessian_in_leaf: 0.001]
[bagging_fraction: 0.7]
[pos_bagging_fraction: 1]
[neg_bagging_fraction: 1]
[bagging_freq: 5]
[bagging_seed: 3]
[feature_fraction: 0.9]
[feature_fraction_bynode: 1]
[feature_fraction_seed: 2]
[extra_trees: 0]
[extra_seed: 6]
[early_stopping_round: 0]
[first_metric_only: 0]
[max_delta_step: 0]
[lambda_l1: 0]
[lambda_l2: 0]
[linear_lambda: 0]
[min_gain_to_split: 0]
[drop_rate: 0.1]
[max_drop: 50]
[skip_drop: 0.5]
[xgboost_dart_mode: 0]
[uniform_drop: 0]
[drop_seed: 4]
[top_rate: 0.2]
[other_rate: 0.1]
[min_data_per_group: 100]
[max_cat_threshold: 32]
[cat_l2: 10]
[cat_smooth: 10]
[max_cat_to_onehot: 4]
[top_k: 20]
[monotone_constraints: ]
[monotone_constraints_method: basic]
[monotone_penalty: 0]
[feature_contri: ]
[forcedsplits_filename: ]
[refit_decay_rate: 0.9]
[cegb_tradeoff: 1]
[cegb_penalty_split: 0]
[cegb_penalty_feature_lazy: ]
[cegb_penalty_feature_coupled: ]
[path_smooth: 0]
[interaction_constraints: ]
[verbosity: 0]
[saved_feature_importance_type: 0]
[linear_tree: 0]
[max_bin: 255]
[max_bin_by_feature: ]
[min_data_in_bin: 3]
[bin_construct_sample_cnt: 200000]
[data_random_seed: 1]
[is_enable_sparse: 1]
[enable_bundle: 1]
[use_missing: 1]
[zero_as_missing: 0]
[feature_pre_filter: 1]
[pre_partition: 0]
[two_round: 0]
[header: 0]
[label_column: ]
[weight_column: ]
[group_column: ]
[ignore_column: ]
[categorical_feature: ]
[forcedbins_filename: ]
[precise_float_parser: 0]
[objective_seed: 5]
[num_class: 1]
[is_unbalance: 0]
[scale_pos_weight: 1]
[sigmoid: 1]
[boost_from_average: 1]
[reg_sqrt: 0]
[alpha: 0.9]
[fair_c: 1]
[poisson_max_delta_step: 0.7]
[tweedie_variance_power: 1.5]
[lambdarank_truncation_level: 30]
[lambdarank_norm: 1]
[label_gain: ]
[eval_at: ]
[multi_error_top_k: 1]
[auc_mu_weights: ]
[num_machines: 1]
[local_listen_port: 12400]
[time_out: 120]
[machine_list_filename: ]
[machines: ]
[gpu_platform_id: -1]
[gpu_device_id: -1]
[gpu_use_dp: 0]
[num_gpu: 1]

end of parameters

pandas_categorical:[]
